digraph Tree {
node [shape=box] ;
0 [label="Drama <= 0.5\ngini = 0.491\nsamples = 4587\nvalue = [1985, 2602]"] ;
1 [label="annee <= 1984.5\ngini = 0.489\nsamples = 2318\nvalue = [1330, 988]"] ;
0 -> 1 [labeldistance=2.5, labelangle=45, headlabel="True"] ;
2 [label="annee <= 1976.5\ngini = 0.328\nsamples = 319\nvalue = [66, 253]"] ;
1 -> 2 ;
3 [label="budget <= 95000.0\ngini = 0.169\nsamples = 183\nvalue = [17, 166]"] ;
2 -> 3 ;
4 [label="annee <= 1958.5\ngini = 0.497\nsamples = 13\nvalue = [6, 7]"] ;
3 -> 4 ;
5 [label="gini = 0.0\nsamples = 5\nvalue = [0, 5]"] ;
4 -> 5 ;
6 [label="Thriller <= 0.5\ngini = 0.375\nsamples = 8\nvalue = [6, 2]"] ;
4 -> 6 ;
7 [label="budget <= 71766.0\ngini = 0.245\nsamples = 7\nvalue = [6, 1]"] ;
6 -> 7 ;
8 [label="gini = 0.0\nsamples = 5\nvalue = [5, 0]"] ;
7 -> 8 ;
9 [label="annee <= 1973.0\ngini = 0.5\nsamples = 2\nvalue = [1, 1]"] ;
7 -> 9 ;
10 [label="gini = 0.0\nsamples = 1\nvalue = [1, 0]"] ;
9 -> 10 ;
11 [label="gini = 0.0\nsamples = 1\nvalue = [0, 1]"] ;
9 -> 11 ;
12 [label="gini = 0.0\nsamples = 1\nvalue = [0, 1]"] ;
6 -> 12 ;
13 [label="Sci-Fi <= 0.5\ngini = 0.121\nsamples = 170\nvalue = [11, 159]"] ;
3 -> 13 ;
14 [label="budget <= 22000000.0\ngini = 0.054\nsamples = 145\nvalue = [4, 141]"] ;
13 -> 14 ;
15 [label="budget <= 11000000.0\ngini = 0.041\nsamples = 144\nvalue = [3, 141]"] ;
14 -> 15 ;
16 [label="annee <= 1965.5\ngini = 0.029\nsamples = 137\nvalue = [2, 135]"] ;
15 -> 16 ;
17 [label="gini = 0.0\nsamples = 77\nvalue = [0, 77]"] ;
16 -> 17 ;
18 [label="Family <= 0.5\ngini = 0.064\nsamples = 60\nvalue = [2, 58]"] ;
16 -> 18 ;
19 [label="Duree <= 124.0\ngini = 0.035\nsamples = 56\nvalue = [1, 55]"] ;
18 -> 19 ;
20 [label="gini = 0.0\nsamples = 45\nvalue = [0, 45]"] ;
19 -> 20 ;
21 [label="Duree <= 127.0\ngini = 0.165\nsamples = 11\nvalue = [1, 10]"] ;
19 -> 21 ;
22 [label="Thriller <= 0.5\ngini = 0.5\nsamples = 2\nvalue = [1, 1]"] ;
21 -> 22 ;
23 [label="gini = 0.0\nsamples = 1\nvalue = [0, 1]"] ;
22 -> 23 ;
24 [label="gini = 0.0\nsamples = 1\nvalue = [1, 0]"] ;
22 -> 24 ;
25 [label="gini = 0.0\nsamples = 9\nvalue = [0, 9]"] ;
21 -> 25 ;
26 [label="annee <= 1967.0\ngini = 0.375\nsamples = 4\nvalue = [1, 3]"] ;
18 -> 26 ;
27 [label="gini = 0.0\nsamples = 1\nvalue = [1, 0]"] ;
26 -> 27 ;
28 [label="gini = 0.0\nsamples = 3\nvalue = [0, 3]"] ;
26 -> 28 ;
29 [label="budget <= 12500000.0\ngini = 0.245\nsamples = 7\nvalue = [1, 6]"] ;
15 -> 29 ;
30 [label="Western <= 0.5\ngini = 0.5\nsamples = 2\nvalue = [1, 1]"] ;
29 -> 30 ;
31 [label="gini = 0.0\nsamples = 1\nvalue = [1, 0]"] ;
30 -> 31 ;
32 [label="gini = 0.0\nsamples = 1\nvalue = [0, 1]"] ;
30 -> 32 ;
33 [label="gini = 0.0\nsamples = 5\nvalue = [0, 5]"] ;
29 -> 33 ;
34 [label="gini = 0.0\nsamples = 1\nvalue = [1, 0]"] ;
14 -> 34 ;
35 [label="Action <= 0.5\ngini = 0.403\nsamples = 25\nvalue = [7, 18]"] ;
13 -> 35 ;
36 [label="budget <= 265500.0\ngini = 0.208\nsamples = 17\nvalue = [2, 15]"] ;
35 -> 36 ;
37 [label="budget <= 191600.0\ngini = 0.5\nsamples = 2\nvalue = [1, 1]"] ;
36 -> 37 ;
38 [label="gini = 0.0\nsamples = 1\nvalue = [0, 1]"] ;
37 -> 38 ;
39 [label="gini = 0.0\nsamples = 1\nvalue = [1, 0]"] ;
37 -> 39 ;
40 [label="Comedy <= 0.5\ngini = 0.124\nsamples = 15\nvalue = [1, 14]"] ;
36 -> 40 ;
41 [label="gini = 0.0\nsamples = 12\nvalue = [0, 12]"] ;
40 -> 41 ;
42 [label="Adventure <= 0.5\ngini = 0.444\nsamples = 3\nvalue = [1, 2]"] ;
40 -> 42 ;
43 [label="gini = 0.0\nsamples = 2\nvalue = [0, 2]"] ;
42 -> 43 ;
44 [label="gini = 0.0\nsamples = 1\nvalue = [1, 0]"] ;
42 -> 44 ;
45 [label="annee <= 1963.0\ngini = 0.469\nsamples = 8\nvalue = [5, 3]"] ;
35 -> 45 ;
46 [label="gini = 0.0\nsamples = 2\nvalue = [0, 2]"] ;
45 -> 46 ;
47 [label="Romance <= 0.5\ngini = 0.278\nsamples = 6\nvalue = [5, 1]"] ;
45 -> 47 ;
48 [label="gini = 0.0\nsamples = 5\nvalue = [5, 0]"] ;
47 -> 48 ;
49 [label="gini = 0.0\nsamples = 1\nvalue = [0, 1]"] ;
47 -> 49 ;
50 [label="budget <= 33250000.0\ngini = 0.461\nsamples = 136\nvalue = [49, 87]"] ;
2 -> 50 ;
51 [label="Horror <= 0.5\ngini = 0.443\nsamples = 127\nvalue = [42, 85]"] ;
50 -> 51 ;
52 [label="Sci-Fi <= 0.5\ngini = 0.362\nsamples = 80\nvalue = [19, 61]"] ;
51 -> 52 ;
53 [label="Fantasy <= 0.5\ngini = 0.419\nsamples = 57\nvalue = [17, 40]"] ;
52 -> 53 ;
54 [label="budget <= 1390000.0\ngini = 0.351\nsamples = 44\nvalue = [10, 34]"] ;
53 -> 54 ;
55 [label="gini = 0.0\nsamples = 2\nvalue = [2, 0]"] ;
54 -> 55 ;
56 [label="Action <= 0.5\ngini = 0.308\nsamples = 42\nvalue = [8, 34]"] ;
54 -> 56 ;
57 [label="War <= 0.5\ngini = 0.191\nsamples = 28\nvalue = [3, 25]"] ;
56 -> 57 ;
58 [label="budget <= 13500000.0\ngini = 0.142\nsamples = 26\nvalue = [2, 24]"] ;
57 -> 58 ;
59 [label="budget <= 4250000.0\ngini = 0.083\nsamples = 23\nvalue = [1, 22]"] ;
58 -> 59 ;
60 [label="budget <= 3750000.0\ngini = 0.18\nsamples = 10\nvalue = [1, 9]"] ;
59 -> 60 ;
61 [label="gini = 0.0\nsamples = 5\nvalue = [0, 5]"] ;
60 -> 61 ;
62 [label="annee <= 1980.0\ngini = 0.32\nsamples = 5\nvalue = [1, 4]"] ;
60 -> 62 ;
63 [label="gini = 0.0\nsamples = 2\nvalue = [0, 2]"] ;
62 -> 63 ;
64 [label="gini = 0.444\nsamples = 3\nvalue = [1, 2]"] ;
62 -> 64 ;
65 [label="gini = 0.0\nsamples = 13\nvalue = [0, 13]"] ;
59 -> 65 ;
66 [label="Duree <= 91.5\ngini = 0.444\nsamples = 3\nvalue = [1, 2]"] ;
58 -> 66 ;
67 [label="gini = 0.0\nsamples = 1\nvalue = [1, 0]"] ;
66 -> 67 ;
68 [label="gini = 0.0\nsamples = 2\nvalue = [0, 2]"] ;
66 -> 68 ;
69 [label="Duree <= 113.0\ngini = 0.5\nsamples = 2\nvalue = [1, 1]"] ;
57 -> 69 ;
70 [label="gini = 0.0\nsamples = 1\nvalue = [1, 0]"] ;
69 -> 70 ;
71 [label="gini = 0.0\nsamples = 1\nvalue = [0, 1]"] ;
69 -> 71 ;
72 [label="budget <= 9500000.0\ngini = 0.459\nsamples = 14\nvalue = [5, 9]"] ;
56 -> 72 ;
73 [label="Duree <= 122.0\ngini = 0.32\nsamples = 5\nvalue = [4, 1]"] ;
72 -> 73 ;
74 [label="gini = 0.0\nsamples = 4\nvalue = [4, 0]"] ;
73 -> 74 ;
75 [label="gini = 0.0\nsamples = 1\nvalue = [0, 1]"] ;
73 -> 75 ;
76 [label="Duree <= 100.0\ngini = 0.198\nsamples = 9\nvalue = [1, 8]"] ;
72 -> 76 ;
77 [label="Duree <= 94.0\ngini = 0.5\nsamples = 2\nvalue = [1, 1]"] ;
76 -> 77 ;
78 [label="gini = 0.0\nsamples = 1\nvalue = [0, 1]"] ;
77 -> 78 ;
79 [label="gini = 0.0\nsamples = 1\nvalue = [1, 0]"] ;
77 -> 79 ;
80 [label="gini = 0.0\nsamples = 7\nvalue = [0, 7]"] ;
76 -> 80 ;
81 [label="Musical <= 0.5\ngini = 0.497\nsamples = 13\nvalue = [7, 6]"] ;
53 -> 81 ;
82 [label="annee <= 1982.5\ngini = 0.48\nsamples = 10\nvalue = [4, 6]"] ;
81 -> 82 ;
83 [label="Duree <= 130.5\ngini = 0.278\nsamples = 6\nvalue = [1, 5]"] ;
82 -> 83 ;
84 [label="gini = 0.0\nsamples = 5\nvalue = [0, 5]"] ;
83 -> 84 ;
85 [label="gini = 0.0\nsamples = 1\nvalue = [1, 0]"] ;
83 -> 85 ;
86 [label="budget <= 29500000.0\ngini = 0.375\nsamples = 4\nvalue = [3, 1]"] ;
82 -> 86 ;
87 [label="gini = 0.0\nsamples = 3\nvalue = [3, 0]"] ;
86 -> 87 ;
88 [label="gini = 0.0\nsamples = 1\nvalue = [0, 1]"] ;
86 -> 88 ;
89 [label="gini = 0.0\nsamples = 3\nvalue = [3, 0]"] ;
81 -> 89 ;
90 [label="budget <= 19000000.0\ngini = 0.159\nsamples = 23\nvalue = [2, 21]"] ;
52 -> 90 ;
91 [label="gini = 0.0\nsamples = 17\nvalue = [0, 17]"] ;
90 -> 91 ;
92 [label="budget <= 24500000.0\ngini = 0.444\nsamples = 6\nvalue = [2, 4]"] ;
90 -> 92 ;
93 [label="gini = 0.0\nsamples = 2\nvalue = [2, 0]"] ;
92 -> 93 ;
94 [label="gini = 0.0\nsamples = 4\nvalue = [0, 4]"] ;
92 -> 94 ;
95 [label="Thriller <= 0.5\ngini = 0.5\nsamples = 47\nvalue = [23, 24]"] ;
51 -> 95 ;
96 [label="Duree <= 108.0\ngini = 0.482\nsamples = 37\nvalue = [15, 22]"] ;
95 -> 96 ;
97 [label="budget <= 900000.0\ngini = 0.5\nsamples = 30\nvalue = [15, 15]"] ;
96 -> 97 ;
98 [label="budget <= 437500.0\ngini = 0.444\nsamples = 15\nvalue = [10, 5]"] ;
97 -> 98 ;
99 [label="Duree <= 87.0\ngini = 0.494\nsamples = 9\nvalue = [4, 5]"] ;
98 -> 99 ;
100 [label="Duree <= 83.0\ngini = 0.32\nsamples = 5\nvalue = [4, 1]"] ;
99 -> 100 ;
101 [label="gini = 0.0\nsamples = 1\nvalue = [0, 1]"] ;
100 -> 101 ;
102 [label="gini = 0.0\nsamples = 4\nvalue = [4, 0]"] ;
100 -> 102 ;
103 [label="gini = 0.0\nsamples = 4\nvalue = [0, 4]"] ;
99 -> 103 ;
104 [label="gini = 0.0\nsamples = 6\nvalue = [6, 0]"] ;
98 -> 104 ;
105 [label="budget <= 2250000.0\ngini = 0.444\nsamples = 15\nvalue = [5, 10]"] ;
97 -> 105 ;
106 [label="gini = 0.0\nsamples = 5\nvalue = [0, 5]"] ;
105 -> 106 ;
107 [label="budget <= 2890000.0\ngini = 0.5\nsamples = 10\nvalue = [5, 5]"] ;
105 -> 107 ;
108 [label="gini = 0.0\nsamples = 2\nvalue = [2, 0]"] ;
107 -> 108 ;
109 [label="budget <= 6440000.0\ngini = 0.469\nsamples = 8\nvalue = [3, 5]"] ;
107 -> 109 ;
110 [label="gini = 0.0\nsamples = 3\nvalue = [0, 3]"] ;
109 -> 110 ;
111 [label="Comedy <= 0.5\ngini = 0.48\nsamples = 5\nvalue = [3, 2]"] ;
109 -> 111 ;
112 [label="gini = 0.0\nsamples = 3\nvalue = [3, 0]"] ;
111 -> 112 ;
113 [label="gini = 0.0\nsamples = 2\nvalue = [0, 2]"] ;
111 -> 113 ;
114 [label="gini = 0.0\nsamples = 7\nvalue = [0, 7]"] ;
96 -> 114 ;
115 [label="budget <= 775000.0\ngini = 0.32\nsamples = 10\nvalue = [8, 2]"] ;
95 -> 115 ;
116 [label="gini = 0.0\nsamples = 1\nvalue = [0, 1]"] ;
115 -> 116 ;
117 [label="Sci-Fi <= 0.5\ngini = 0.198\nsamples = 9\nvalue = [8, 1]"] ;
115 -> 117 ;
118 [label="gini = 0.0\nsamples = 7\nvalue = [7, 0]"] ;
117 -> 118 ;
119 [label="Duree <= 102.0\ngini = 0.5\nsamples = 2\nvalue = [1, 1]"] ;
117 -> 119 ;
120 [label="gini = 0.0\nsamples = 1\nvalue = [1, 0]"] ;
119 -> 120 ;
121 [label="gini = 0.0\nsamples = 1\nvalue = [0, 1]"] ;
119 -> 121 ;
122 [label="budget <= 39500000.0\ngini = 0.346\nsamples = 9\nvalue = [7, 2]"] ;
50 -> 122 ;
123 [label="gini = 0.0\nsamples = 7\nvalue = [7, 0]"] ;
122 -> 123 ;
124 [label="gini = 0.0\nsamples = 2\nvalue = [0, 2]"] ;
122 -> 124 ;
125 [label="Duree <= 110.5\ngini = 0.465\nsamples = 1999\nvalue = [1264, 735]"] ;
1 -> 125 ;
126 [label="Animation <= 0.5\ngini = 0.418\nsamples = 1487\nvalue = [1045, 442]"] ;
125 -> 126 ;
127 [label="budget <= 6160000.0\ngini = 0.384\nsamples = 1335\nvalue = [989, 346]"] ;
126 -> 127 ;
128 [label="Horror <= 0.5\ngini = 0.494\nsamples = 222\nvalue = [123, 99]"] ;
127 -> 128 ;
129 [label="annee <= 2003.5\ngini = 0.478\nsamples = 104\nvalue = [41, 63]"] ;
128 -> 129 ;
130 [label="Sport <= 0.5\ngini = 0.343\nsamples = 41\nvalue = [9, 32]"] ;
129 -> 130 ;
131 [label="Duree <= 86.5\ngini = 0.32\nsamples = 40\nvalue = [8, 32]"] ;
130 -> 131 ;
132 [label="Action <= 0.5\ngini = 0.48\nsamples = 5\nvalue = [2, 3]"] ;
131 -> 132 ;
133 [label="gini = 0.0\nsamples = 3\nvalue = [0, 3]"] ;
132 -> 133 ;
134 [label="gini = 0.0\nsamples = 2\nvalue = [2, 0]"] ;
132 -> 134 ;
135 [label="Comedy <= 0.5\ngini = 0.284\nsamples = 35\nvalue = [6, 29]"] ;
131 -> 135 ;
136 [label="gini = 0.0\nsamples = 7\nvalue = [0, 7]"] ;
135 -> 136 ;
137 [label="budget <= 3433000.0\ngini = 0.337\nsamples = 28\nvalue = [6, 22]"] ;
135 -> 137 ;
138 [label="budget <= 450000.0\ngini = 0.231\nsamples = 15\nvalue = [2, 13]"] ;
137 -> 138 ;
139 [label="couleur <= 1.5\ngini = 0.5\nsamples = 2\nvalue = [1, 1]"] ;
138 -> 139 ;
140 [label="gini = 0.0\nsamples = 1\nvalue = [0, 1]"] ;
139 -> 140 ;
141 [label="gini = 0.0\nsamples = 1\nvalue = [1, 0]"] ;
139 -> 141 ;
142 [label="budget <= 1100000.0\ngini = 0.142\nsamples = 13\nvalue = [1, 12]"] ;
138 -> 142 ;
143 [label="annee <= 1995.5\ngini = 0.32\nsamples = 5\nvalue = [1, 4]"] ;
142 -> 143 ;
144 [label="gini = 0.0\nsamples = 3\nvalue = [0, 3]"] ;
143 -> 144 ;
145 [label="gini = 0.5\nsamples = 2\nvalue = [1, 1]"] ;
143 -> 145 ;
146 [label="gini = 0.0\nsamples = 8\nvalue = [0, 8]"] ;
142 -> 146 ;
147 [label="Thriller <= 0.5\ngini = 0.426\nsamples = 13\nvalue = [4, 9]"] ;
137 -> 147 ;
148 [label="Romance <= 0.5\ngini = 0.375\nsamples = 12\nvalue = [3, 9]"] ;
147 -> 148 ;
149 [label="Duree <= 104.0\ngini = 0.219\nsamples = 8\nvalue = [1, 7]"] ;
148 -> 149 ;
150 [label="gini = 0.0\nsamples = 6\nvalue = [0, 6]"] ;
149 -> 150 ;
151 [label="gini = 0.5\nsamples = 2\nvalue = [1, 1]"] ;
149 -> 151 ;
152 [label="Duree <= 94.5\ngini = 0.5\nsamples = 4\nvalue = [2, 2]"] ;
148 -> 152 ;
153 [label="gini = 0.0\nsamples = 2\nvalue = [2, 0]"] ;
152 -> 153 ;
154 [label="gini = 0.0\nsamples = 2\nvalue = [0, 2]"] ;
152 -> 154 ;
155 [label="gini = 0.0\nsamples = 1\nvalue = [1, 0]"] ;
147 -> 155 ;
156 [label="gini = 0.0\nsamples = 1\nvalue = [1, 0]"] ;
130 -> 156 ;
157 [label="budget <= 2950000.0\ngini = 0.5\nsamples = 63\nvalue = [32, 31]"] ;
129 -> 157 ;
158 [label="Crime <= 0.5\ngini = 0.436\nsamples = 28\nvalue = [9, 19]"] ;
157 -> 158 ;
159 [label="Comedy <= 0.5\ngini = 0.476\nsamples = 23\nvalue = [9, 14]"] ;
158 -> 159 ;
160 [label="annee <= 2005.0\ngini = 0.219\nsamples = 8\nvalue = [1, 7]"] ;
159 -> 160 ;
161 [label="gini = 0.0\nsamples = 1\nvalue = [1, 0]"] ;
160 -> 161 ;
162 [label="gini = 0.0\nsamples = 7\nvalue = [0, 7]"] ;
160 -> 162 ;
163 [label="budget <= 2250000.0\ngini = 0.498\nsamples = 15\nvalue = [8, 7]"] ;
159 -> 163 ;
164 [label="budget <= 450000.0\ngini = 0.444\nsamples = 12\nvalue = [8, 4]"] ;
163 -> 164 ;
165 [label="gini = 0.0\nsamples = 1\nvalue = [0, 1]"] ;
164 -> 165 ;
166 [label="Duree <= 57.5\ngini = 0.397\nsamples = 11\nvalue = [8, 3]"] ;
164 -> 166 ;
167 [label="gini = 0.0\nsamples = 1\nvalue = [0, 1]"] ;
166 -> 167 ;
168 [label="Duree <= 105.0\ngini = 0.32\nsamples = 10\nvalue = [8, 2]"] ;
166 -> 168 ;
169 [label="gini = 0.198\nsamples = 9\nvalue = [8, 1]"] ;
168 -> 169 ;
170 [label="gini = 0.0\nsamples = 1\nvalue = [0, 1]"] ;
168 -> 170 ;
171 [label="gini = 0.0\nsamples = 3\nvalue = [0, 3]"] ;
163 -> 171 ;
172 [label="gini = 0.0\nsamples = 5\nvalue = [0, 5]"] ;
158 -> 172 ;
173 [label="Duree <= 93.5\ngini = 0.451\nsamples = 35\nvalue = [23, 12]"] ;
157 -> 173 ;
174 [label="Sci-Fi <= 0.5\ngini = 0.124\nsamples = 15\nvalue = [14, 1]"] ;
173 -> 174 ;
175 [label="gini = 0.0\nsamples = 13\nvalue = [13, 0]"] ;
174 -> 175 ;
176 [label="budget <= 4750000.0\ngini = 0.5\nsamples = 2\nvalue = [1, 1]"] ;
174 -> 176 ;
177 [label="gini = 0.0\nsamples = 1\nvalue = [1, 0]"] ;
176 -> 177 ;
178 [label="gini = 0.0\nsamples = 1\nvalue = [0, 1]"] ;
176 -> 178 ;
179 [label="Action <= 0.5\ngini = 0.495\nsamples = 20\nvalue = [9, 11]"] ;
173 -> 179 ;
180 [label="Sci-Fi <= 0.5\ngini = 0.391\nsamples = 15\nvalue = [4, 11]"] ;
179 -> 180 ;
181 [label="annee <= 2009.5\ngini = 0.26\nsamples = 13\nvalue = [2, 11]"] ;
180 -> 181 ;
182 [label="annee <= 2006.5\ngini = 0.48\nsamples = 5\nvalue = [2, 3]"] ;
181 -> 182 ;
183 [label="gini = 0.0\nsamples = 3\nvalue = [0, 3]"] ;
182 -> 183 ;
184 [label="gini = 0.0\nsamples = 2\nvalue = [2, 0]"] ;
182 -> 184 ;
185 [label="gini = 0.0\nsamples = 8\nvalue = [0, 8]"] ;
181 -> 185 ;
186 [label="gini = 0.0\nsamples = 2\nvalue = [2, 0]"] ;
180 -> 186 ;
187 [label="gini = 0.0\nsamples = 5\nvalue = [5, 0]"] ;
179 -> 187 ;
188 [label="annee <= 2008.5\ngini = 0.424\nsamples = 118\nvalue = [82, 36]"] ;
128 -> 188 ;
189 [label="Thriller <= 0.5\ngini = 0.486\nsamples = 72\nvalue = [42, 30]"] ;
188 -> 189 ;
190 [label="Duree <= 101.5\ngini = 0.5\nsamples = 49\nvalue = [24, 25]"] ;
189 -> 190 ;
191 [label="annee <= 1987.5\ngini = 0.485\nsamples = 41\nvalue = [24, 17]"] ;
190 -> 191 ;
192 [label="Duree <= 88.5\ngini = 0.444\nsamples = 12\nvalue = [4, 8]"] ;
191 -> 192 ;
193 [label="Duree <= 86.5\ngini = 0.219\nsamples = 8\nvalue = [1, 7]"] ;
192 -> 193 ;
194 [label="gini = 0.0\nsamples = 5\nvalue = [0, 5]"] ;
193 -> 194 ;
195 [label="budget <= 2000000.0\ngini = 0.444\nsamples = 3\nvalue = [1, 2]"] ;
193 -> 195 ;
196 [label="gini = 0.0\nsamples = 1\nvalue = [0, 1]"] ;
195 -> 196 ;
197 [label="budget <= 2850000.0\ngini = 0.5\nsamples = 2\nvalue = [1, 1]"] ;
195 -> 197 ;
198 [label="gini = 0.0\nsamples = 1\nvalue = [1, 0]"] ;
197 -> 198 ;
199 [label="gini = 0.0\nsamples = 1\nvalue = [0, 1]"] ;
197 -> 199 ;
200 [label="Sci-Fi <= 0.5\ngini = 0.375\nsamples = 4\nvalue = [3, 1]"] ;
192 -> 200 ;
201 [label="gini = 0.0\nsamples = 3\nvalue = [3, 0]"] ;
200 -> 201 ;
202 [label="gini = 0.0\nsamples = 1\nvalue = [0, 1]"] ;
200 -> 202 ;
203 [label="budget <= 5177500.0\ngini = 0.428\nsamples = 29\nvalue = [20, 9]"] ;
191 -> 203 ;
204 [label="budget <= 1100000.0\ngini = 0.384\nsamples = 27\nvalue = [20, 7]"] ;
203 -> 204 ;
205 [label="gini = 0.0\nsamples = 7\nvalue = [7, 0]"] ;
204 -> 205 ;
206 [label="Duree <= 88.5\ngini = 0.455\nsamples = 20\nvalue = [13, 7]"] ;
204 -> 206 ;
207 [label="gini = 0.0\nsamples = 4\nvalue = [4, 0]"] ;
206 -> 207 ;
208 [label="budget <= 4400000.0\ngini = 0.492\nsamples = 16\nvalue = [9, 7]"] ;
206 -> 208 ;
209 [label="gini = 0.486\nsamples = 12\nvalue = [5, 7]"] ;
208 -> 209 ;
210 [label="gini = 0.0\nsamples = 4\nvalue = [4, 0]"] ;
208 -> 210 ;
211 [label="gini = 0.0\nsamples = 2\nvalue = [0, 2]"] ;
203 -> 211 ;
212 [label="gini = 0.0\nsamples = 8\nvalue = [0, 8]"] ;
190 -> 212 ;
213 [label="annee <= 2006.5\ngini = 0.34\nsamples = 23\nvalue = [18, 5]"] ;
189 -> 213 ;
214 [label="Crime <= 0.5\ngini = 0.198\nsamples = 18\nvalue = [16, 2]"] ;
213 -> 214 ;
215 [label="Duree <= 86.5\ngini = 0.111\nsamples = 17\nvalue = [16, 1]"] ;
214 -> 215 ;
216 [label="budget <= 3850000.0\ngini = 0.32\nsamples = 5\nvalue = [4, 1]"] ;
215 -> 216 ;
217 [label="gini = 0.0\nsamples = 4\nvalue = [4, 0]"] ;
216 -> 217 ;
218 [label="gini = 0.0\nsamples = 1\nvalue = [0, 1]"] ;
216 -> 218 ;
219 [label="gini = 0.0\nsamples = 12\nvalue = [12, 0]"] ;
215 -> 219 ;
220 [label="gini = 0.0\nsamples = 1\nvalue = [0, 1]"] ;
214 -> 220 ;
221 [label="Duree <= 97.5\ngini = 0.48\nsamples = 5\nvalue = [2, 3]"] ;
213 -> 221 ;
222 [label="gini = 0.0\nsamples = 3\nvalue = [0, 3]"] ;
221 -> 222 ;
223 [label="gini = 0.0\nsamples = 2\nvalue = [2, 0]"] ;
221 -> 223 ;
224 [label="Duree <= 105.5\ngini = 0.227\nsamples = 46\nvalue = [40, 6]"] ;
188 -> 224 ;
225 [label="Fantasy <= 0.5\ngini = 0.169\nsamples = 43\nvalue = [39, 4]"] ;
224 -> 225 ;
226 [label="Action <= 0.5\ngini = 0.133\nsamples = 42\nvalue = [39, 3]"] ;
225 -> 226 ;
227 [label="budget <= 5300000.0\ngini = 0.095\nsamples = 40\nvalue = [38, 2]"] ;
226 -> 227 ;
228 [label="Mystery <= 0.5\ngini = 0.054\nsamples = 36\nvalue = [35, 1]"] ;
227 -> 228 ;
229 [label="gini = 0.0\nsamples = 30\nvalue = [30, 0]"] ;
228 -> 229 ;
230 [label="Duree <= 96.0\ngini = 0.278\nsamples = 6\nvalue = [5, 1]"] ;
228 -> 230 ;
231 [label="gini = 0.0\nsamples = 5\nvalue = [5, 0]"] ;
230 -> 231 ;
232 [label="gini = 0.0\nsamples = 1\nvalue = [0, 1]"] ;
230 -> 232 ;
233 [label="Thriller <= 0.5\ngini = 0.375\nsamples = 4\nvalue = [3, 1]"] ;
227 -> 233 ;
234 [label="gini = 0.0\nsamples = 1\nvalue = [0, 1]"] ;
233 -> 234 ;
235 [label="gini = 0.0\nsamples = 3\nvalue = [3, 0]"] ;
233 -> 235 ;
236 [label="Duree <= 94.0\ngini = 0.5\nsamples = 2\nvalue = [1, 1]"] ;
226 -> 236 ;
237 [label="gini = 0.0\nsamples = 1\nvalue = [1, 0]"] ;
236 -> 237 ;
238 [label="gini = 0.0\nsamples = 1\nvalue = [0, 1]"] ;
236 -> 238 ;
239 [label="gini = 0.0\nsamples = 1\nvalue = [0, 1]"] ;
225 -> 239 ;
240 [label="annee <= 2011.5\ngini = 0.444\nsamples = 3\nvalue = [1, 2]"] ;
224 -> 240 ;
241 [label="gini = 0.0\nsamples = 1\nvalue = [1, 0]"] ;
240 -> 241 ;
242 [label="gini = 0.0\nsamples = 2\nvalue = [0, 2]"] ;
240 -> 242 ;
243 [label="annee <= 1991.5\ngini = 0.345\nsamples = 1113\nvalue = [866, 247]"] ;
127 -> 243 ;
244 [label="budget <= 27400000.0\ngini = 0.478\nsamples = 124\nvalue = [75, 49]"] ;
243 -> 244 ;
245 [label="budget <= 8750000.0\ngini = 0.494\nsamples = 99\nvalue = [55, 44]"] ;
244 -> 245 ;
246 [label="Duree <= 107.0\ngini = 0.32\nsamples = 15\nvalue = [12, 3]"] ;
245 -> 246 ;
247 [label="annee <= 1985.5\ngini = 0.142\nsamples = 13\nvalue = [12, 1]"] ;
246 -> 247 ;
248 [label="Horror <= 0.5\ngini = 0.5\nsamples = 2\nvalue = [1, 1]"] ;
247 -> 248 ;
249 [label="gini = 0.0\nsamples = 1\nvalue = [0, 1]"] ;
248 -> 249 ;
250 [label="gini = 0.0\nsamples = 1\nvalue = [1, 0]"] ;
248 -> 250 ;
251 [label="gini = 0.0\nsamples = 11\nvalue = [11, 0]"] ;
247 -> 251 ;
252 [label="gini = 0.0\nsamples = 2\nvalue = [0, 2]"] ;
246 -> 252 ;
253 [label="budget <= 25500000.0\ngini = 0.5\nsamples = 84\nvalue = [43, 41]"] ;
245 -> 253 ;
254 [label="budget <= 16950000.0\ngini = 0.498\nsamples = 81\nvalue = [43, 38]"] ;
253 -> 254 ;
255 [label="Adventure <= 0.5\ngini = 0.494\nsamples = 47\nvalue = [21, 26]"] ;
254 -> 255 ;
256 [label="Duree <= 101.0\ngini = 0.5\nsamples = 37\nvalue = [19, 18]"] ;
255 -> 256 ;
257 [label="budget <= 10750000.0\ngini = 0.473\nsamples = 26\nvalue = [16, 10]"] ;
256 -> 257 ;
258 [label="gini = 0.0\nsamples = 7\nvalue = [7, 0]"] ;
257 -> 258 ;
259 [label="Comedy <= 0.5\ngini = 0.499\nsamples = 19\nvalue = [9, 10]"] ;
257 -> 259 ;
260 [label="gini = 0.32\nsamples = 5\nvalue = [4, 1]"] ;
259 -> 260 ;
261 [label="gini = 0.459\nsamples = 14\nvalue = [5, 9]"] ;
259 -> 261 ;
262 [label="budget <= 13000000.0\ngini = 0.397\nsamples = 11\nvalue = [3, 8]"] ;
256 -> 262 ;
263 [label="gini = 0.0\nsamples = 5\nvalue = [0, 5]"] ;
262 -> 263 ;
264 [label="Horror <= 0.5\ngini = 0.5\nsamples = 6\nvalue = [3, 3]"] ;
262 -> 264 ;
265 [label="gini = 0.375\nsamples = 4\nvalue = [3, 1]"] ;
264 -> 265 ;
266 [label="gini = 0.0\nsamples = 2\nvalue = [0, 2]"] ;
264 -> 266 ;
267 [label="Duree <= 102.5\ngini = 0.32\nsamples = 10\nvalue = [2, 8]"] ;
255 -> 267 ;
268 [label="gini = 0.0\nsamples = 7\nvalue = [0, 7]"] ;
267 -> 268 ;
269 [label="Duree <= 109.0\ngini = 0.444\nsamples = 3\nvalue = [2, 1]"] ;
267 -> 269 ;
270 [label="gini = 0.0\nsamples = 2\nvalue = [2, 0]"] ;
269 -> 270 ;
271 [label="gini = 0.0\nsamples = 1\nvalue = [0, 1]"] ;
269 -> 271 ;
272 [label="Musical <= 0.5\ngini = 0.457\nsamples = 34\nvalue = [22, 12]"] ;
254 -> 272 ;
273 [label="Duree <= 106.5\ngini = 0.43\nsamples = 32\nvalue = [22, 10]"] ;
272 -> 273 ;
274 [label="Duree <= 86.5\ngini = 0.355\nsamples = 26\nvalue = [20, 6]"] ;
273 -> 274 ;
275 [label="gini = 0.0\nsamples = 1\nvalue = [0, 1]"] ;
274 -> 275 ;
276 [label="Comedy <= 0.5\ngini = 0.32\nsamples = 25\nvalue = [20, 5]"] ;
274 -> 276 ;
277 [label="gini = 0.0\nsamples = 7\nvalue = [7, 0]"] ;
276 -> 277 ;
278 [label="gini = 0.401\nsamples = 18\nvalue = [13, 5]"] ;
276 -> 278 ;
279 [label="annee <= 1985.5\ngini = 0.444\nsamples = 6\nvalue = [2, 4]"] ;
273 -> 279 ;
280 [label="gini = 0.0\nsamples = 3\nvalue = [0, 3]"] ;
279 -> 280 ;
281 [label="Thriller <= 0.5\ngini = 0.444\nsamples = 3\nvalue = [2, 1]"] ;
279 -> 281 ;
282 [label="gini = 0.0\nsamples = 2\nvalue = [2, 0]"] ;
281 -> 282 ;
283 [label="gini = 0.0\nsamples = 1\nvalue = [0, 1]"] ;
281 -> 283 ;
284 [label="gini = 0.0\nsamples = 2\nvalue = [0, 2]"] ;
272 -> 284 ;
285 [label="gini = 0.0\nsamples = 3\nvalue = [0, 3]"] ;
253 -> 285 ;
286 [label="annee <= 1990.5\ngini = 0.32\nsamples = 25\nvalue = [20, 5]"] ;
244 -> 286 ;
287 [label="Duree <= 107.5\ngini = 0.117\nsamples = 16\nvalue = [15, 1]"] ;
286 -> 287 ;
288 [label="gini = 0.0\nsamples = 13\nvalue = [13, 0]"] ;
287 -> 288 ;
289 [label="budget <= 38500000.0\ngini = 0.444\nsamples = 3\nvalue = [2, 1]"] ;
287 -> 289 ;
290 [label="gini = 0.0\nsamples = 2\nvalue = [2, 0]"] ;
289 -> 290 ;
291 [label="gini = 0.0\nsamples = 1\nvalue = [0, 1]"] ;
289 -> 291 ;
292 [label="Duree <= 99.5\ngini = 0.494\nsamples = 9\nvalue = [5, 4]"] ;
286 -> 292 ;
293 [label="Duree <= 95.0\ngini = 0.375\nsamples = 4\nvalue = [1, 3]"] ;
292 -> 293 ;
294 [label="gini = 0.0\nsamples = 1\nvalue = [1, 0]"] ;
293 -> 294 ;
295 [label="gini = 0.0\nsamples = 3\nvalue = [0, 3]"] ;
293 -> 295 ;
296 [label="Duree <= 109.5\ngini = 0.32\nsamples = 5\nvalue = [4, 1]"] ;
292 -> 296 ;
297 [label="gini = 0.0\nsamples = 4\nvalue = [4, 0]"] ;
296 -> 297 ;
298 [label="gini = 0.0\nsamples = 1\nvalue = [0, 1]"] ;
296 -> 298 ;
299 [label="Duree <= 101.5\ngini = 0.32\nsamples = 989\nvalue = [791, 198]"] ;
243 -> 299 ;
300 [label="budget <= 33950000.0\ngini = 0.28\nsamples = 702\nvalue = [584, 118]"] ;
299 -> 300 ;
301 [label="Documentary <= 0.5\ngini = 0.334\nsamples = 453\nvalue = [357, 96]"] ;
300 -> 301 ;
302 [label="annee <= 1999.5\ngini = 0.326\nsamples = 448\nvalue = [356, 92]"] ;
301 -> 302 ;
303 [label="Duree <= 91.5\ngini = 0.421\nsamples = 116\nvalue = [81, 35]"] ;
302 -> 303 ;
304 [label="budget <= 12500000.0\ngini = 0.268\nsamples = 44\nvalue = [37, 7]"] ;
303 -> 304 ;
305 [label="annee <= 1996.5\ngini = 0.444\nsamples = 15\nvalue = [10, 5]"] ;
304 -> 305 ;
306 [label="Duree <= 78.5\ngini = 0.298\nsamples = 11\nvalue = [9, 2]"] ;
305 -> 306 ;
307 [label="gini = 0.0\nsamples = 1\nvalue = [0, 1]"] ;
306 -> 307 ;
308 [label="gini = 0.18\nsamples = 10\nvalue = [9, 1]"] ;
306 -> 308 ;
309 [label="Duree <= 86.5\ngini = 0.375\nsamples = 4\nvalue = [1, 3]"] ;
305 -> 309 ;
310 [label="gini = 0.0\nsamples = 2\nvalue = [0, 2]"] ;
309 -> 310 ;
311 [label="gini = 0.5\nsamples = 2\nvalue = [1, 1]"] ;
309 -> 311 ;
312 [label="Duree <= 75.5\ngini = 0.128\nsamples = 29\nvalue = [27, 2]"] ;
304 -> 312 ;
313 [label="Duree <= 73.5\ngini = 0.5\nsamples = 2\nvalue = [1, 1]"] ;
312 -> 313 ;
314 [label="gini = 0.0\nsamples = 1\nvalue = [1, 0]"] ;
313 -> 314 ;
315 [label="gini = 0.0\nsamples = 1\nvalue = [0, 1]"] ;
313 -> 315 ;
316 [label="Duree <= 88.5\ngini = 0.071\nsamples = 27\nvalue = [26, 1]"] ;
312 -> 316 ;
317 [label="gini = 0.0\nsamples = 20\nvalue = [20, 0]"] ;
316 -> 317 ;
318 [label="gini = 0.245\nsamples = 7\nvalue = [6, 1]"] ;
316 -> 318 ;
319 [label="budget <= 16500000.0\ngini = 0.475\nsamples = 72\nvalue = [44, 28]"] ;
303 -> 319 ;
320 [label="budget <= 10500000.0\ngini = 0.495\nsamples = 31\nvalue = [14, 17]"] ;
319 -> 320 ;
321 [label="budget <= 8250000.0\ngini = 0.397\nsamples = 11\nvalue = [8, 3]"] ;
320 -> 321 ;
322 [label="gini = 0.48\nsamples = 5\nvalue = [2, 3]"] ;
321 -> 322 ;
323 [label="gini = 0.0\nsamples = 6\nvalue = [6, 0]"] ;
321 -> 323 ;
324 [label="budget <= 12500000.0\ngini = 0.42\nsamples = 20\nvalue = [6, 14]"] ;
320 -> 324 ;
325 [label="gini = 0.0\nsamples = 5\nvalue = [0, 5]"] ;
324 -> 325 ;
326 [label="gini = 0.48\nsamples = 15\nvalue = [6, 9]"] ;
324 -> 326 ;
327 [label="Comedy <= 0.5\ngini = 0.393\nsamples = 41\nvalue = [30, 11]"] ;
319 -> 327 ;
328 [label="gini = 0.0\nsamples = 12\nvalue = [12, 0]"] ;
327 -> 328 ;
329 [label="budget <= 32000000.0\ngini = 0.471\nsamples = 29\nvalue = [18, 11]"] ;
327 -> 329 ;
330 [label="gini = 0.444\nsamples = 27\nvalue = [18, 9]"] ;
329 -> 330 ;
331 [label="gini = 0.0\nsamples = 2\nvalue = [0, 2]"] ;
329 -> 331 ;
332 [label="Horror <= 0.5\ngini = 0.284\nsamples = 332\nvalue = [275, 57]"] ;
302 -> 332 ;
333 [label="Duree <= 100.5\ngini = 0.331\nsamples = 239\nvalue = [189, 50]"] ;
332 -> 333 ;
334 [label="Mystery <= 0.5\ngini = 0.317\nsamples = 228\nvalue = [183, 45]"] ;
333 -> 334 ;
335 [label="Crime <= 0.5\ngini = 0.299\nsamples = 213\nvalue = [174, 39]"] ;
334 -> 335 ;
336 [label="gini = 0.26\nsamples = 163\nvalue = [138, 25]"] ;
335 -> 336 ;
337 [label="gini = 0.403\nsamples = 50\nvalue = [36, 14]"] ;
335 -> 337 ;
338 [label="budget <= 26420000.0\ngini = 0.48\nsamples = 15\nvalue = [9, 6]"] ;
334 -> 338 ;
339 [label="gini = 0.375\nsamples = 12\nvalue = [9, 3]"] ;
338 -> 339 ;
340 [label="gini = 0.0\nsamples = 3\nvalue = [0, 3]"] ;
338 -> 340 ;
341 [label="annee <= 2006.0\ngini = 0.496\nsamples = 11\nvalue = [6, 5]"] ;
333 -> 341 ;
342 [label="gini = 0.0\nsamples = 4\nvalue = [4, 0]"] ;
341 -> 342 ;
343 [label="budget <= 16780000.0\ngini = 0.408\nsamples = 7\nvalue = [2, 5]"] ;
341 -> 343 ;
344 [label="gini = 0.444\nsamples = 3\nvalue = [2, 1]"] ;
343 -> 344 ;
345 [label="gini = 0.0\nsamples = 4\nvalue = [0, 4]"] ;
343 -> 345 ;
346 [label="budget <= 21991000.0\ngini = 0.139\nsamples = 93\nvalue = [86, 7]"] ;
332 -> 346 ;
347 [label="Comedy <= 0.5\ngini = 0.029\nsamples = 69\nvalue = [68, 1]"] ;
346 -> 347 ;
348 [label="gini = 0.0\nsamples = 64\nvalue = [64, 0]"] ;
347 -> 348 ;
349 [label="budget <= 8825000.0\ngini = 0.32\nsamples = 5\nvalue = [4, 1]"] ;
347 -> 349 ;
350 [label="gini = 0.0\nsamples = 1\nvalue = [0, 1]"] ;
349 -> 350 ;
351 [label="gini = 0.0\nsamples = 4\nvalue = [4, 0]"] ;
349 -> 351 ;
352 [label="Thriller <= 0.5\ngini = 0.375\nsamples = 24\nvalue = [18, 6]"] ;
346 -> 352 ;
353 [label="budget <= 23800000.0\ngini = 0.496\nsamples = 11\nvalue = [6, 5]"] ;
352 -> 353 ;
354 [label="gini = 0.0\nsamples = 2\nvalue = [0, 2]"] ;
353 -> 354 ;
355 [label="gini = 0.444\nsamples = 9\nvalue = [6, 3]"] ;
353 -> 355 ;
356 [label="annee <= 2011.5\ngini = 0.142\nsamples = 13\nvalue = [12, 1]"] ;
352 -> 356 ;
357 [label="gini = 0.0\nsamples = 11\nvalue = [11, 0]"] ;
356 -> 357 ;
358 [label="gini = 0.5\nsamples = 2\nvalue = [1, 1]"] ;
356 -> 358 ;
359 [label="annee <= 2011.0\ngini = 0.32\nsamples = 5\nvalue = [1, 4]"] ;
301 -> 359 ;
360 [label="gini = 0.0\nsamples = 4\nvalue = [0, 4]"] ;
359 -> 360 ;
361 [label="gini = 0.0\nsamples = 1\nvalue = [1, 0]"] ;
359 -> 361 ;
362 [label="budget <= 177500000.0\ngini = 0.161\nsamples = 249\nvalue = [227, 22]"] ;
300 -> 362 ;
363 [label="Duree <= 99.5\ngini = 0.155\nsamples = 248\nvalue = [227, 21]"] ;
362 -> 363 ;
364 [label="Duree <= 94.5\ngini = 0.188\nsamples = 200\nvalue = [179, 21]"] ;
363 -> 364 ;
365 [label="Duree <= 86.5\ngini = 0.114\nsamples = 115\nvalue = [108, 7]"] ;
364 -> 365 ;
366 [label="Duree <= 85.5\ngini = 0.269\nsamples = 25\nvalue = [21, 4]"] ;
365 -> 366 ;
367 [label="Duree <= 84.5\ngini = 0.1\nsamples = 19\nvalue = [18, 1]"] ;
366 -> 367 ;
368 [label="gini = 0.0\nsamples = 14\nvalue = [14, 0]"] ;
367 -> 368 ;
369 [label="gini = 0.32\nsamples = 5\nvalue = [4, 1]"] ;
367 -> 369 ;
370 [label="Adventure <= 0.5\ngini = 0.5\nsamples = 6\nvalue = [3, 3]"] ;
366 -> 370 ;
371 [label="gini = 0.375\nsamples = 4\nvalue = [1, 3]"] ;
370 -> 371 ;
372 [label="gini = 0.0\nsamples = 2\nvalue = [2, 0]"] ;
370 -> 372 ;
373 [label="annee <= 2008.5\ngini = 0.064\nsamples = 90\nvalue = [87, 3]"] ;
365 -> 373 ;
374 [label="gini = 0.0\nsamples = 64\nvalue = [64, 0]"] ;
373 -> 374 ;
375 [label="Comedy <= 0.5\ngini = 0.204\nsamples = 26\nvalue = [23, 3]"] ;
373 -> 375 ;
376 [label="gini = 0.355\nsamples = 13\nvalue = [10, 3]"] ;
375 -> 376 ;
377 [label="gini = 0.0\nsamples = 13\nvalue = [13, 0]"] ;
375 -> 377 ;
378 [label="War <= 0.5\ngini = 0.275\nsamples = 85\nvalue = [71, 14]"] ;
364 -> 378 ;
379 [label="Action <= 0.5\ngini = 0.262\nsamples = 84\nvalue = [71, 13]"] ;
378 -> 379 ;
380 [label="Duree <= 97.0\ngini = 0.359\nsamples = 47\nvalue = [36, 11]"] ;
379 -> 380 ;
381 [label="gini = 0.463\nsamples = 22\nvalue = [14, 8]"] ;
380 -> 381 ;
382 [label="gini = 0.211\nsamples = 25\nvalue = [22, 3]"] ;
380 -> 382 ;
383 [label="budget <= 36500000.0\ngini = 0.102\nsamples = 37\nvalue = [35, 2]"] ;
379 -> 383 ;
384 [label="gini = 0.5\nsamples = 2\nvalue = [1, 1]"] ;
383 -> 384 ;
385 [label="gini = 0.056\nsamples = 35\nvalue = [34, 1]"] ;
383 -> 385 ;
386 [label="gini = 0.0\nsamples = 1\nvalue = [0, 1]"] ;
378 -> 386 ;
387 [label="gini = 0.0\nsamples = 48\nvalue = [48, 0]"] ;
363 -> 387 ;
388 [label="gini = 0.0\nsamples = 1\nvalue = [0, 1]"] ;
362 -> 388 ;
389 [label="budget <= 6950000.0\ngini = 0.402\nsamples = 287\nvalue = [207, 80]"] ;
299 -> 389 ;
390 [label="gini = 0.0\nsamples = 2\nvalue = [0, 2]"] ;
389 -> 390 ;
391 [label="budget <= 205000000.0\ngini = 0.398\nsamples = 285\nvalue = [207, 78]"] ;
389 -> 391 ;
392 [label="Crime <= 0.5\ngini = 0.393\nsamples = 283\nvalue = [207, 76]"] ;
391 -> 392 ;
393 [label="History <= 0.5\ngini = 0.366\nsamples = 224\nvalue = [170, 54]"] ;
392 -> 393 ;
394 [label="Musical <= 0.5\ngini = 0.362\nsamples = 223\nvalue = [170, 53]"] ;
393 -> 394 ;
395 [label="Duree <= 103.5\ngini = 0.356\nsamples = 220\nvalue = [169, 51]"] ;
394 -> 395 ;
396 [label="Adventure <= 0.5\ngini = 0.21\nsamples = 42\nvalue = [37, 5]"] ;
395 -> 396 ;
397 [label="gini = 0.121\nsamples = 31\nvalue = [29, 2]"] ;
396 -> 397 ;
398 [label="gini = 0.397\nsamples = 11\nvalue = [8, 3]"] ;
396 -> 398 ;
399 [label="Duree <= 104.5\ngini = 0.383\nsamples = 178\nvalue = [132, 46]"] ;
395 -> 399 ;
400 [label="gini = 0.475\nsamples = 31\nvalue = [19, 12]"] ;
399 -> 400 ;
401 [label="gini = 0.356\nsamples = 147\nvalue = [113, 34]"] ;
399 -> 401 ;
402 [label="Duree <= 106.0\ngini = 0.444\nsamples = 3\nvalue = [1, 2]"] ;
394 -> 402 ;
403 [label="gini = 0.0\nsamples = 2\nvalue = [0, 2]"] ;
402 -> 403 ;
404 [label="gini = 0.0\nsamples = 1\nvalue = [1, 0]"] ;
402 -> 404 ;
405 [label="gini = 0.0\nsamples = 1\nvalue = [0, 1]"] ;
393 -> 405 ;
406 [label="budget <= 19500000.0\ngini = 0.468\nsamples = 59\nvalue = [37, 22]"] ;
392 -> 406 ;
407 [label="annee <= 2006.0\ngini = 0.444\nsamples = 15\nvalue = [5, 10]"] ;
406 -> 407 ;
408 [label="Fantasy <= 0.5\ngini = 0.198\nsamples = 9\nvalue = [1, 8]"] ;
407 -> 408 ;
409 [label="gini = 0.0\nsamples = 8\nvalue = [0, 8]"] ;
408 -> 409 ;
410 [label="gini = 0.0\nsamples = 1\nvalue = [1, 0]"] ;
408 -> 410 ;
411 [label="Comedy <= 0.5\ngini = 0.444\nsamples = 6\nvalue = [4, 2]"] ;
407 -> 411 ;
412 [label="budget <= 11250000.0\ngini = 0.32\nsamples = 5\nvalue = [4, 1]"] ;
411 -> 412 ;
413 [label="gini = 0.5\nsamples = 2\nvalue = [1, 1]"] ;
412 -> 413 ;
414 [label="gini = 0.0\nsamples = 3\nvalue = [3, 0]"] ;
412 -> 414 ;
415 [label="gini = 0.0\nsamples = 1\nvalue = [0, 1]"] ;
411 -> 415 ;
416 [label="Thriller <= 0.5\ngini = 0.397\nsamples = 44\nvalue = [32, 12]"] ;
406 -> 416 ;
417 [label="budget <= 36000000.0\ngini = 0.497\nsamples = 13\nvalue = [6, 7]"] ;
416 -> 417 ;
418 [label="gini = 0.0\nsamples = 6\nvalue = [0, 6]"] ;
417 -> 418 ;
419 [label="annee <= 2011.5\ngini = 0.245\nsamples = 7\nvalue = [6, 1]"] ;
417 -> 419 ;
420 [label="gini = 0.0\nsamples = 5\nvalue = [5, 0]"] ;
419 -> 420 ;
421 [label="gini = 0.5\nsamples = 2\nvalue = [1, 1]"] ;
419 -> 421 ;
422 [label="budget <= 30125000.0\ngini = 0.271\nsamples = 31\nvalue = [26, 5]"] ;
416 -> 422 ;
423 [label="gini = 0.0\nsamples = 15\nvalue = [15, 0]"] ;
422 -> 423 ;
424 [label="annee <= 2010.5\ngini = 0.43\nsamples = 16\nvalue = [11, 5]"] ;
422 -> 424 ;
425 [label="gini = 0.337\nsamples = 14\nvalue = [11, 3]"] ;
424 -> 425 ;
426 [label="gini = 0.0\nsamples = 2\nvalue = [0, 2]"] ;
424 -> 426 ;
427 [label="gini = 0.0\nsamples = 2\nvalue = [0, 2]"] ;
391 -> 427 ;
428 [label="budget <= 19000000.0\ngini = 0.465\nsamples = 152\nvalue = [56, 96]"] ;
126 -> 428 ;
429 [label="Thriller <= 0.5\ngini = 0.142\nsamples = 13\nvalue = [1, 12]"] ;
428 -> 429 ;
430 [label="gini = 0.0\nsamples = 10\nvalue = [0, 10]"] ;
429 -> 430 ;
431 [label="Adventure <= 0.5\ngini = 0.444\nsamples = 3\nvalue = [1, 2]"] ;
429 -> 431 ;
432 [label="gini = 0.0\nsamples = 2\nvalue = [0, 2]"] ;
431 -> 432 ;
433 [label="gini = 0.0\nsamples = 1\nvalue = [1, 0]"] ;
431 -> 433 ;
434 [label="budget <= 82500000.0\ngini = 0.478\nsamples = 139\nvalue = [55, 84]"] ;
428 -> 434 ;
435 [label="Family <= 0.5\ngini = 0.5\nsamples = 74\nvalue = [37, 37]"] ;
434 -> 435 ;
436 [label="annee <= 2002.5\ngini = 0.32\nsamples = 10\nvalue = [2, 8]"] ;
435 -> 436 ;
437 [label="Duree <= 87.0\ngini = 0.444\nsamples = 3\nvalue = [2, 1]"] ;
436 -> 437 ;
438 [label="gini = 0.0\nsamples = 1\nvalue = [0, 1]"] ;
437 -> 438 ;
439 [label="gini = 0.0\nsamples = 2\nvalue = [2, 0]"] ;
437 -> 439 ;
440 [label="gini = 0.0\nsamples = 7\nvalue = [0, 7]"] ;
436 -> 440 ;
441 [label="annee <= 2000.5\ngini = 0.496\nsamples = 64\nvalue = [35, 29]"] ;
435 -> 441 ;
442 [label="Fantasy <= 0.5\ngini = 0.457\nsamples = 17\nvalue = [6, 11]"] ;
441 -> 442 ;
443 [label="gini = 0.0\nsamples = 4\nvalue = [0, 4]"] ;
442 -> 443 ;
444 [label="Duree <= 84.5\ngini = 0.497\nsamples = 13\nvalue = [6, 7]"] ;
442 -> 444 ;
445 [label="annee <= 1987.0\ngini = 0.32\nsamples = 5\nvalue = [1, 4]"] ;
444 -> 445 ;
446 [label="gini = 0.0\nsamples = 1\nvalue = [1, 0]"] ;
445 -> 446 ;
447 [label="gini = 0.0\nsamples = 4\nvalue = [0, 4]"] ;
445 -> 447 ;
448 [label="annee <= 1993.0\ngini = 0.469\nsamples = 8\nvalue = [5, 3]"] ;
444 -> 448 ;
449 [label="gini = 0.0\nsamples = 3\nvalue = [0, 3]"] ;
448 -> 449 ;
450 [label="gini = 0.0\nsamples = 5\nvalue = [5, 0]"] ;
448 -> 450 ;
451 [label="Duree <= 95.5\ngini = 0.473\nsamples = 47\nvalue = [29, 18]"] ;
441 -> 451 ;
452 [label="Mystery <= 0.5\ngini = 0.444\nsamples = 42\nvalue = [28, 14]"] ;
451 -> 452 ;
453 [label="Duree <= 88.5\ngini = 0.42\nsamples = 40\nvalue = [28, 12]"] ;
452 -> 453 ;
454 [label="Fantasy <= 0.5\ngini = 0.483\nsamples = 22\nvalue = [13, 9]"] ;
453 -> 454 ;
455 [label="Duree <= 85.5\ngini = 0.48\nsamples = 15\nvalue = [6, 9]"] ;
454 -> 455 ;
456 [label="Duree <= 67.5\ngini = 0.444\nsamples = 9\nvalue = [6, 3]"] ;
455 -> 456 ;
457 [label="gini = 0.0\nsamples = 1\nvalue = [0, 1]"] ;
456 -> 457 ;
458 [label="gini = 0.375\nsamples = 8\nvalue = [6, 2]"] ;
456 -> 458 ;
459 [label="gini = 0.0\nsamples = 6\nvalue = [0, 6]"] ;
455 -> 459 ;
460 [label="gini = 0.0\nsamples = 7\nvalue = [7, 0]"] ;
454 -> 460 ;
461 [label="Fantasy <= 0.5\ngini = 0.278\nsamples = 18\nvalue = [15, 3]"] ;
453 -> 461 ;
462 [label="gini = 0.0\nsamples = 11\nvalue = [11, 0]"] ;
461 -> 462 ;
463 [label="budget <= 61500000.0\ngini = 0.49\nsamples = 7\nvalue = [4, 3]"] ;
461 -> 463 ;
464 [label="Music <= 0.5\ngini = 0.375\nsamples = 4\nvalue = [1, 3]"] ;
463 -> 464 ;
465 [label="gini = 0.0\nsamples = 3\nvalue = [0, 3]"] ;
464 -> 465 ;
466 [label="gini = 0.0\nsamples = 1\nvalue = [1, 0]"] ;
464 -> 466 ;
467 [label="gini = 0.0\nsamples = 3\nvalue = [3, 0]"] ;
463 -> 467 ;
468 [label="gini = 0.0\nsamples = 2\nvalue = [0, 2]"] ;
452 -> 468 ;
469 [label="Comedy <= 0.5\ngini = 0.32\nsamples = 5\nvalue = [1, 4]"] ;
451 -> 469 ;
470 [label="gini = 0.0\nsamples = 1\nvalue = [1, 0]"] ;
469 -> 470 ;
471 [label="gini = 0.0\nsamples = 4\nvalue = [0, 4]"] ;
469 -> 471 ;
472 [label="Duree <= 84.5\ngini = 0.4\nsamples = 65\nvalue = [18, 47]"] ;
434 -> 472 ;
473 [label="annee <= 2001.0\ngini = 0.375\nsamples = 8\nvalue = [6, 2]"] ;
472 -> 473 ;
474 [label="Thriller <= 0.5\ngini = 0.444\nsamples = 3\nvalue = [1, 2]"] ;
473 -> 474 ;
475 [label="gini = 0.0\nsamples = 2\nvalue = [0, 2]"] ;
474 -> 475 ;
476 [label="gini = 0.0\nsamples = 1\nvalue = [1, 0]"] ;
474 -> 476 ;
477 [label="gini = 0.0\nsamples = 5\nvalue = [5, 0]"] ;
473 -> 477 ;
478 [label="Duree <= 104.5\ngini = 0.332\nsamples = 57\nvalue = [12, 45]"] ;
472 -> 478 ;
479 [label="annee <= 2006.5\ngini = 0.269\nsamples = 50\nvalue = [8, 42]"] ;
478 -> 479 ;
480 [label="gini = 0.0\nsamples = 11\nvalue = [0, 11]"] ;
479 -> 480 ;
481 [label="annee <= 2007.5\ngini = 0.326\nsamples = 39\nvalue = [8, 31]"] ;
479 -> 481 ;
482 [label="Sport <= 0.5\ngini = 0.444\nsamples = 3\nvalue = [2, 1]"] ;
481 -> 482 ;
483 [label="gini = 0.0\nsamples = 2\nvalue = [2, 0]"] ;
482 -> 483 ;
484 [label="gini = 0.0\nsamples = 1\nvalue = [0, 1]"] ;
482 -> 484 ;
485 [label="Sport <= 0.5\ngini = 0.278\nsamples = 36\nvalue = [6, 30]"] ;
481 -> 485 ;
486 [label="Duree <= 99.0\ngini = 0.245\nsamples = 35\nvalue = [5, 30]"] ;
485 -> 486 ;
487 [label="budget <= 147500000.0\ngini = 0.153\nsamples = 24\nvalue = [2, 22]"] ;
486 -> 487 ;
488 [label="gini = 0.0\nsamples = 15\nvalue = [0, 15]"] ;
487 -> 488 ;
489 [label="Duree <= 88.5\ngini = 0.346\nsamples = 9\nvalue = [2, 7]"] ;
487 -> 489 ;
490 [label="gini = 0.0\nsamples = 1\nvalue = [1, 0]"] ;
489 -> 490 ;
491 [label="gini = 0.219\nsamples = 8\nvalue = [1, 7]"] ;
489 -> 491 ;
492 [label="budget <= 137500000.0\ngini = 0.397\nsamples = 11\nvalue = [3, 8]"] ;
486 -> 492 ;
493 [label="Comedy <= 0.5\ngini = 0.375\nsamples = 4\nvalue = [3, 1]"] ;
492 -> 493 ;
494 [label="gini = 0.0\nsamples = 1\nvalue = [0, 1]"] ;
493 -> 494 ;
495 [label="gini = 0.0\nsamples = 3\nvalue = [3, 0]"] ;
493 -> 495 ;
496 [label="gini = 0.0\nsamples = 7\nvalue = [0, 7]"] ;
492 -> 496 ;
497 [label="gini = 0.0\nsamples = 1\nvalue = [1, 0]"] ;
485 -> 497 ;
498 [label="Duree <= 106.5\ngini = 0.49\nsamples = 7\nvalue = [4, 3]"] ;
478 -> 498 ;
499 [label="gini = 0.0\nsamples = 3\nvalue = [3, 0]"] ;
498 -> 499 ;
500 [label="Duree <= 107.5\ngini = 0.375\nsamples = 4\nvalue = [1, 3]"] ;
498 -> 500 ;
501 [label="gini = 0.0\nsamples = 3\nvalue = [0, 3]"] ;
500 -> 501 ;
502 [label="gini = 0.0\nsamples = 1\nvalue = [1, 0]"] ;
500 -> 502 ;
503 [label="Duree <= 134.5\ngini = 0.49\nsamples = 512\nvalue = [219, 293]"] ;
125 -> 503 ;
504 [label="annee <= 1992.5\ngini = 0.5\nsamples = 398\nvalue = [193, 205]"] ;
503 -> 504 ;
505 [label="Family <= 0.5\ngini = 0.355\nsamples = 39\nvalue = [9, 30]"] ;
504 -> 505 ;
506 [label="Duree <= 115.5\ngini = 0.307\nsamples = 37\nvalue = [7, 30]"] ;
505 -> 506 ;
507 [label="annee <= 1987.5\ngini = 0.5\nsamples = 8\nvalue = [4, 4]"] ;
506 -> 507 ;
508 [label="gini = 0.0\nsamples = 2\nvalue = [0, 2]"] ;
507 -> 508 ;
509 [label="budget <= 26500000.0\ngini = 0.444\nsamples = 6\nvalue = [4, 2]"] ;
507 -> 509 ;
510 [label="gini = 0.0\nsamples = 3\nvalue = [3, 0]"] ;
509 -> 510 ;
511 [label="Action <= 0.5\ngini = 0.444\nsamples = 3\nvalue = [1, 2]"] ;
509 -> 511 ;
512 [label="gini = 0.0\nsamples = 1\nvalue = [0, 1]"] ;
511 -> 512 ;
513 [label="Comedy <= 0.5\ngini = 0.5\nsamples = 2\nvalue = [1, 1]"] ;
511 -> 513 ;
514 [label="gini = 0.0\nsamples = 1\nvalue = [0, 1]"] ;
513 -> 514 ;
515 [label="gini = 0.0\nsamples = 1\nvalue = [1, 0]"] ;
513 -> 515 ;
516 [label="Horror <= 0.5\ngini = 0.185\nsamples = 29\nvalue = [3, 26]"] ;
506 -> 516 ;
517 [label="annee <= 1985.5\ngini = 0.071\nsamples = 27\nvalue = [1, 26]"] ;
516 -> 517 ;
518 [label="Sci-Fi <= 0.5\ngini = 0.5\nsamples = 2\nvalue = [1, 1]"] ;
517 -> 518 ;
519 [label="gini = 0.0\nsamples = 1\nvalue = [1, 0]"] ;
518 -> 519 ;
520 [label="gini = 0.0\nsamples = 1\nvalue = [0, 1]"] ;
518 -> 520 ;
521 [label="gini = 0.0\nsamples = 25\nvalue = [0, 25]"] ;
517 -> 521 ;
522 [label="gini = 0.0\nsamples = 2\nvalue = [2, 0]"] ;
516 -> 522 ;
523 [label="gini = 0.0\nsamples = 2\nvalue = [2, 0]"] ;
505 -> 523 ;
524 [label="budget <= 21170000.0\ngini = 0.5\nsamples = 359\nvalue = [184, 175]"] ;
504 -> 524 ;
525 [label="Horror <= 0.5\ngini = 0.448\nsamples = 56\nvalue = [19, 37]"] ;
524 -> 525 ;
526 [label="Action <= 0.5\ngini = 0.381\nsamples = 43\nvalue = [11, 32]"] ;
525 -> 526 ;
527 [label="budget <= 19105000.0\ngini = 0.313\nsamples = 36\nvalue = [7, 29]"] ;
526 -> 527 ;
528 [label="Comedy <= 0.5\ngini = 0.257\nsamples = 33\nvalue = [5, 28]"] ;
527 -> 528 ;
529 [label="Music <= 0.5\ngini = 0.391\nsamples = 15\nvalue = [4, 11]"] ;
528 -> 529 ;
530 [label="Duree <= 126.0\ngini = 0.337\nsamples = 14\nvalue = [3, 11]"] ;
529 -> 530 ;
531 [label="Mystery <= 0.5\ngini = 0.26\nsamples = 13\nvalue = [2, 11]"] ;
530 -> 531 ;
532 [label="gini = 0.0\nsamples = 8\nvalue = [0, 8]"] ;
531 -> 532 ;
533 [label="annee <= 2001.5\ngini = 0.48\nsamples = 5\nvalue = [2, 3]"] ;
531 -> 533 ;
534 [label="gini = 0.0\nsamples = 2\nvalue = [0, 2]"] ;
533 -> 534 ;
535 [label="gini = 0.444\nsamples = 3\nvalue = [2, 1]"] ;
533 -> 535 ;
536 [label="gini = 0.0\nsamples = 1\nvalue = [1, 0]"] ;
530 -> 536 ;
537 [label="gini = 0.0\nsamples = 1\nvalue = [1, 0]"] ;
529 -> 537 ;
538 [label="Fantasy <= 0.5\ngini = 0.105\nsamples = 18\nvalue = [1, 17]"] ;
528 -> 538 ;
539 [label="gini = 0.0\nsamples = 14\nvalue = [0, 14]"] ;
538 -> 539 ;
540 [label="Romance <= 0.5\ngini = 0.375\nsamples = 4\nvalue = [1, 3]"] ;
538 -> 540 ;
541 [label="gini = 0.0\nsamples = 3\nvalue = [0, 3]"] ;
540 -> 541 ;
542 [label="gini = 0.0\nsamples = 1\nvalue = [1, 0]"] ;
540 -> 542 ;
543 [label="annee <= 2009.0\ngini = 0.444\nsamples = 3\nvalue = [2, 1]"] ;
527 -> 543 ;
544 [label="gini = 0.0\nsamples = 1\nvalue = [0, 1]"] ;
543 -> 544 ;
545 [label="gini = 0.0\nsamples = 2\nvalue = [2, 0]"] ;
543 -> 545 ;
546 [label="Duree <= 121.5\ngini = 0.49\nsamples = 7\nvalue = [4, 3]"] ;
526 -> 546 ;
547 [label="annee <= 2011.0\ngini = 0.375\nsamples = 4\nvalue = [1, 3]"] ;
546 -> 547 ;
548 [label="gini = 0.0\nsamples = 3\nvalue = [0, 3]"] ;
547 -> 548 ;
549 [label="gini = 0.0\nsamples = 1\nvalue = [1, 0]"] ;
547 -> 549 ;
550 [label="gini = 0.0\nsamples = 3\nvalue = [3, 0]"] ;
546 -> 550 ;
551 [label="budget <= 16500000.0\ngini = 0.473\nsamples = 13\nvalue = [8, 5]"] ;
525 -> 551 ;
552 [label="Duree <= 116.5\ngini = 0.397\nsamples = 11\nvalue = [8, 3]"] ;
551 -> 552 ;
553 [label="annee <= 2004.5\ngini = 0.5\nsamples = 6\nvalue = [3, 3]"] ;
552 -> 553 ;
554 [label="gini = 0.0\nsamples = 2\nvalue = [0, 2]"] ;
553 -> 554 ;
555 [label="budget <= 13250000.0\ngini = 0.375\nsamples = 4\nvalue = [3, 1]"] ;
553 -> 555 ;
556 [label="gini = 0.0\nsamples = 3\nvalue = [3, 0]"] ;
555 -> 556 ;
557 [label="gini = 0.0\nsamples = 1\nvalue = [0, 1]"] ;
555 -> 557 ;
558 [label="gini = 0.0\nsamples = 5\nvalue = [5, 0]"] ;
552 -> 558 ;
559 [label="gini = 0.0\nsamples = 2\nvalue = [0, 2]"] ;
551 -> 559 ;
560 [label="annee <= 2005.5\ngini = 0.496\nsamples = 303\nvalue = [165, 138]"] ;
524 -> 560 ;
561 [label="Comedy <= 0.5\ngini = 0.465\nsamples = 147\nvalue = [93, 54]"] ;
560 -> 561 ;
562 [label="budget <= 49000000.0\ngini = 0.489\nsamples = 101\nvalue = [58, 43]"] ;
561 -> 562 ;
563 [label="annee <= 2000.5\ngini = 0.488\nsamples = 26\nvalue = [11, 15]"] ;
562 -> 563 ;
564 [label="annee <= 1999.5\ngini = 0.494\nsamples = 18\nvalue = [10, 8]"] ;
563 -> 564 ;
565 [label="Duree <= 112.5\ngini = 0.498\nsamples = 15\nvalue = [7, 8]"] ;
564 -> 565 ;
566 [label="budget <= 40000000.0\ngini = 0.32\nsamples = 5\nvalue = [4, 1]"] ;
565 -> 566 ;
567 [label="gini = 0.0\nsamples = 3\nvalue = [3, 0]"] ;
566 -> 567 ;
568 [label="annee <= 1995.0\ngini = 0.5\nsamples = 2\nvalue = [1, 1]"] ;
566 -> 568 ;
569 [label="gini = 0.0\nsamples = 1\nvalue = [1, 0]"] ;
568 -> 569 ;
570 [label="gini = 0.0\nsamples = 1\nvalue = [0, 1]"] ;
568 -> 570 ;
571 [label="annee <= 1995.5\ngini = 0.42\nsamples = 10\nvalue = [3, 7]"] ;
565 -> 571 ;
572 [label="gini = 0.0\nsamples = 4\nvalue = [0, 4]"] ;
571 -> 572 ;
573 [label="annee <= 1998.5\ngini = 0.5\nsamples = 6\nvalue = [3, 3]"] ;
571 -> 573 ;
574 [label="gini = 0.0\nsamples = 3\nvalue = [3, 0]"] ;
573 -> 574 ;
575 [label="gini = 0.0\nsamples = 3\nvalue = [0, 3]"] ;
573 -> 575 ;
576 [label="gini = 0.0\nsamples = 3\nvalue = [3, 0]"] ;
564 -> 576 ;
577 [label="annee <= 2004.0\ngini = 0.219\nsamples = 8\nvalue = [1, 7]"] ;
563 -> 577 ;
578 [label="gini = 0.0\nsamples = 6\nvalue = [0, 6]"] ;
577 -> 578 ;
579 [label="Sci-Fi <= 0.5\ngini = 0.5\nsamples = 2\nvalue = [1, 1]"] ;
577 -> 579 ;
580 [label="gini = 0.0\nsamples = 1\nvalue = [1, 0]"] ;
579 -> 580 ;
581 [label="gini = 0.0\nsamples = 1\nvalue = [0, 1]"] ;
579 -> 581 ;
582 [label="War <= 0.5\ngini = 0.468\nsamples = 75\nvalue = [47, 28]"] ;
562 -> 582 ;
583 [label="Horror <= 0.5\ngini = 0.459\nsamples = 73\nvalue = [47, 26]"] ;
582 -> 583 ;
584 [label="annee <= 2004.5\ngini = 0.472\nsamples = 68\nvalue = [42, 26]"] ;
583 -> 584 ;
585 [label="annee <= 2000.5\ngini = 0.485\nsamples = 63\nvalue = [37, 26]"] ;
584 -> 585 ;
586 [label="annee <= 1994.5\ngini = 0.431\nsamples = 35\nvalue = [24, 11]"] ;
585 -> 586 ;
587 [label="gini = 0.375\nsamples = 4\nvalue = [1, 3]"] ;
586 -> 587 ;
588 [label="gini = 0.383\nsamples = 31\nvalue = [23, 8]"] ;
586 -> 588 ;
589 [label="Duree <= 115.5\ngini = 0.497\nsamples = 28\nvalue = [13, 15]"] ;
585 -> 589 ;
590 [label="gini = 0.0\nsamples = 4\nvalue = [0, 4]"] ;
589 -> 590 ;
591 [label="gini = 0.497\nsamples = 24\nvalue = [13, 11]"] ;
589 -> 591 ;
592 [label="gini = 0.0\nsamples = 5\nvalue = [5, 0]"] ;
584 -> 592 ;
593 [label="gini = 0.0\nsamples = 5\nvalue = [5, 0]"] ;
583 -> 593 ;
594 [label="gini = 0.0\nsamples = 2\nvalue = [0, 2]"] ;
582 -> 594 ;
595 [label="annee <= 1998.5\ngini = 0.364\nsamples = 46\nvalue = [35, 11]"] ;
561 -> 595 ;
596 [label="annee <= 1993.5\ngini = 0.5\nsamples = 12\nvalue = [6, 6]"] ;
595 -> 596 ;
597 [label="gini = 0.0\nsamples = 2\nvalue = [2, 0]"] ;
596 -> 597 ;
598 [label="budget <= 35500000.0\ngini = 0.48\nsamples = 10\nvalue = [4, 6]"] ;
596 -> 598 ;
599 [label="annee <= 1997.0\ngini = 0.32\nsamples = 5\nvalue = [1, 4]"] ;
598 -> 599 ;
600 [label="gini = 0.0\nsamples = 4\nvalue = [0, 4]"] ;
599 -> 600 ;
601 [label="gini = 0.0\nsamples = 1\nvalue = [1, 0]"] ;
599 -> 601 ;
602 [label="Duree <= 120.0\ngini = 0.48\nsamples = 5\nvalue = [3, 2]"] ;
598 -> 602 ;
603 [label="gini = 0.0\nsamples = 2\nvalue = [2, 0]"] ;
602 -> 603 ;
604 [label="budget <= 86500000.0\ngini = 0.444\nsamples = 3\nvalue = [1, 2]"] ;
602 -> 604 ;
605 [label="gini = 0.0\nsamples = 2\nvalue = [0, 2]"] ;
604 -> 605 ;
606 [label="gini = 0.0\nsamples = 1\nvalue = [1, 0]"] ;
604 -> 606 ;
607 [label="Duree <= 127.5\ngini = 0.251\nsamples = 34\nvalue = [29, 5]"] ;
595 -> 607 ;
608 [label="Musical <= 0.5\ngini = 0.175\nsamples = 31\nvalue = [28, 3]"] ;
607 -> 608 ;
609 [label="budget <= 140000000.0\ngini = 0.124\nsamples = 30\nvalue = [28, 2]"] ;
608 -> 609 ;
610 [label="annee <= 2004.5\ngini = 0.067\nsamples = 29\nvalue = [28, 1]"] ;
609 -> 610 ;
611 [label="gini = 0.0\nsamples = 21\nvalue = [21, 0]"] ;
610 -> 611 ;
612 [label="Romance <= 0.5\ngini = 0.219\nsamples = 8\nvalue = [7, 1]"] ;
610 -> 612 ;
613 [label="gini = 0.0\nsamples = 6\nvalue = [6, 0]"] ;
612 -> 613 ;
614 [label="gini = 0.5\nsamples = 2\nvalue = [1, 1]"] ;
612 -> 614 ;
615 [label="gini = 0.0\nsamples = 1\nvalue = [0, 1]"] ;
609 -> 615 ;
616 [label="gini = 0.0\nsamples = 1\nvalue = [0, 1]"] ;
608 -> 616 ;
617 [label="Duree <= 133.5\ngini = 0.444\nsamples = 3\nvalue = [1, 2]"] ;
607 -> 617 ;
618 [label="gini = 0.0\nsamples = 2\nvalue = [0, 2]"] ;
617 -> 618 ;
619 [label="gini = 0.0\nsamples = 1\nvalue = [1, 0]"] ;
617 -> 619 ;
620 [label="Action <= 0.5\ngini = 0.497\nsamples = 156\nvalue = [72, 84]"] ;
560 -> 620 ;
621 [label="annee <= 2007.5\ngini = 0.465\nsamples = 57\nvalue = [36, 21]"] ;
620 -> 621 ;
622 [label="Duree <= 116.5\ngini = 0.444\nsamples = 12\nvalue = [4, 8]"] ;
621 -> 622 ;
623 [label="Adventure <= 0.5\ngini = 0.5\nsamples = 8\nvalue = [4, 4]"] ;
622 -> 623 ;
624 [label="Romance <= 0.5\ngini = 0.444\nsamples = 6\nvalue = [2, 4]"] ;
623 -> 624 ;
625 [label="gini = 0.0\nsamples = 4\nvalue = [0, 4]"] ;
624 -> 625 ;
626 [label="gini = 0.0\nsamples = 2\nvalue = [2, 0]"] ;
624 -> 626 ;
627 [label="gini = 0.0\nsamples = 2\nvalue = [2, 0]"] ;
623 -> 627 ;
628 [label="gini = 0.0\nsamples = 4\nvalue = [0, 4]"] ;
622 -> 628 ;
629 [label="Duree <= 119.5\ngini = 0.411\nsamples = 45\nvalue = [32, 13]"] ;
621 -> 629 ;
630 [label="Music <= 0.5\ngini = 0.285\nsamples = 29\nvalue = [24, 5]"] ;
629 -> 630 ;
631 [label="Sci-Fi <= 0.5\ngini = 0.198\nsamples = 27\nvalue = [24, 3]"] ;
630 -> 631 ;
632 [label="annee <= 2011.5\ngini = 0.147\nsamples = 25\nvalue = [23, 2]"] ;
631 -> 632 ;
633 [label="gini = 0.0\nsamples = 13\nvalue = [13, 0]"] ;
632 -> 633 ;
634 [label="annee <= 2012.5\ngini = 0.278\nsamples = 12\nvalue = [10, 2]"] ;
632 -> 634 ;
635 [label="gini = 0.5\nsamples = 4\nvalue = [2, 2]"] ;
634 -> 635 ;
636 [label="gini = 0.0\nsamples = 8\nvalue = [8, 0]"] ;
634 -> 636 ;
637 [label="Mystery <= 0.5\ngini = 0.5\nsamples = 2\nvalue = [1, 1]"] ;
631 -> 637 ;
638 [label="gini = 0.0\nsamples = 1\nvalue = [1, 0]"] ;
637 -> 638 ;
639 [label="gini = 0.0\nsamples = 1\nvalue = [0, 1]"] ;
637 -> 639 ;
640 [label="gini = 0.0\nsamples = 2\nvalue = [0, 2]"] ;
630 -> 640 ;
641 [label="Duree <= 124.5\ngini = 0.5\nsamples = 16\nvalue = [8, 8]"] ;
629 -> 641 ;
642 [label="Crime <= 0.5\ngini = 0.278\nsamples = 6\nvalue = [1, 5]"] ;
641 -> 642 ;
643 [label="gini = 0.0\nsamples = 5\nvalue = [0, 5]"] ;
642 -> 643 ;
644 [label="gini = 0.0\nsamples = 1\nvalue = [1, 0]"] ;
642 -> 644 ;
645 [label="Mystery <= 0.5\ngini = 0.42\nsamples = 10\nvalue = [7, 3]"] ;
641 -> 645 ;
646 [label="annee <= 2014.5\ngini = 0.346\nsamples = 9\nvalue = [7, 2]"] ;
645 -> 646 ;
647 [label="annee <= 2011.5\ngini = 0.219\nsamples = 8\nvalue = [7, 1]"] ;
646 -> 647 ;
648 [label="gini = 0.5\nsamples = 2\nvalue = [1, 1]"] ;
647 -> 648 ;
649 [label="gini = 0.0\nsamples = 6\nvalue = [6, 0]"] ;
647 -> 649 ;
650 [label="gini = 0.0\nsamples = 1\nvalue = [0, 1]"] ;
646 -> 650 ;
651 [label="gini = 0.0\nsamples = 1\nvalue = [0, 1]"] ;
645 -> 651 ;
652 [label="Romance <= 0.5\ngini = 0.463\nsamples = 99\nvalue = [36, 63]"] ;
620 -> 652 ;
653 [label="Thriller <= 0.5\ngini = 0.447\nsamples = 92\nvalue = [31, 61]"] ;
652 -> 653 ;
654 [label="annee <= 2008.5\ngini = 0.363\nsamples = 42\nvalue = [10, 32]"] ;
653 -> 654 ;
655 [label="budget <= 145000000.0\ngini = 0.496\nsamples = 11\nvalue = [5, 6]"] ;
654 -> 655 ;
656 [label="Duree <= 114.0\ngini = 0.444\nsamples = 9\nvalue = [3, 6]"] ;
655 -> 656 ;
657 [label="gini = 0.0\nsamples = 1\nvalue = [1, 0]"] ;
656 -> 657 ;
658 [label="Sport <= 0.5\ngini = 0.375\nsamples = 8\nvalue = [2, 6]"] ;
656 -> 658 ;
659 [label="gini = 0.245\nsamples = 7\nvalue = [1, 6]"] ;
658 -> 659 ;
660 [label="gini = 0.0\nsamples = 1\nvalue = [1, 0]"] ;
658 -> 660 ;
661 [label="gini = 0.0\nsamples = 2\nvalue = [2, 0]"] ;
655 -> 661 ;
662 [label="annee <= 2014.5\ngini = 0.271\nsamples = 31\nvalue = [5, 26]"] ;
654 -> 662 ;
663 [label="budget <= 80000000.0\ngini = 0.204\nsamples = 26\nvalue = [3, 23]"] ;
662 -> 663 ;
664 [label="budget <= 60000000.0\ngini = 0.444\nsamples = 9\nvalue = [3, 6]"] ;
663 -> 664 ;
665 [label="gini = 0.245\nsamples = 7\nvalue = [1, 6]"] ;
664 -> 665 ;
666 [label="gini = 0.0\nsamples = 2\nvalue = [2, 0]"] ;
664 -> 666 ;
667 [label="gini = 0.0\nsamples = 17\nvalue = [0, 17]"] ;
663 -> 667 ;
668 [label="budget <= 153000000.0\ngini = 0.48\nsamples = 5\nvalue = [2, 3]"] ;
662 -> 668 ;
669 [label="gini = 0.0\nsamples = 3\nvalue = [0, 3]"] ;
668 -> 669 ;
670 [label="gini = 0.0\nsamples = 2\nvalue = [2, 0]"] ;
668 -> 670 ;
671 [label="annee <= 2014.5\ngini = 0.487\nsamples = 50\nvalue = [21, 29]"] ;
653 -> 671 ;
672 [label="Sci-Fi <= 0.5\ngini = 0.499\nsamples = 44\nvalue = [21, 23]"] ;
671 -> 672 ;
673 [label="Fantasy <= 0.5\ngini = 0.452\nsamples = 29\nvalue = [10, 19]"] ;
672 -> 673 ;
674 [label="budget <= 49000000.0\ngini = 0.417\nsamples = 27\nvalue = [8, 19]"] ;
673 -> 674 ;
675 [label="gini = 0.48\nsamples = 5\nvalue = [3, 2]"] ;
674 -> 675 ;
676 [label="gini = 0.351\nsamples = 22\nvalue = [5, 17]"] ;
674 -> 676 ;
677 [label="gini = 0.0\nsamples = 2\nvalue = [2, 0]"] ;
673 -> 677 ;
678 [label="budget <= 36000000.0\ngini = 0.391\nsamples = 15\nvalue = [11, 4]"] ;
672 -> 678 ;
679 [label="annee <= 2011.0\ngini = 0.444\nsamples = 3\nvalue = [1, 2]"] ;
678 -> 679 ;
680 [label="gini = 0.0\nsamples = 1\nvalue = [1, 0]"] ;
679 -> 680 ;
681 [label="gini = 0.0\nsamples = 2\nvalue = [0, 2]"] ;
679 -> 681 ;
682 [label="annee <= 2007.5\ngini = 0.278\nsamples = 12\nvalue = [10, 2]"] ;
678 -> 682 ;
683 [label="gini = 0.0\nsamples = 1\nvalue = [0, 1]"] ;
682 -> 683 ;
684 [label="gini = 0.165\nsamples = 11\nvalue = [10, 1]"] ;
682 -> 684 ;
685 [label="gini = 0.0\nsamples = 6\nvalue = [0, 6]"] ;
671 -> 685 ;
686 [label="Fantasy <= 0.5\ngini = 0.408\nsamples = 7\nvalue = [5, 2]"] ;
652 -> 686 ;
687 [label="gini = 0.0\nsamples = 4\nvalue = [4, 0]"] ;
686 -> 687 ;
688 [label="Duree <= 123.0\ngini = 0.444\nsamples = 3\nvalue = [1, 2]"] ;
686 -> 688 ;
689 [label="gini = 0.0\nsamples = 2\nvalue = [0, 2]"] ;
688 -> 689 ;
690 [label="gini = 0.0\nsamples = 1\nvalue = [1, 0]"] ;
688 -> 690 ;
691 [label="Sci-Fi <= 0.5\ngini = 0.352\nsamples = 114\nvalue = [26, 88]"] ;
503 -> 691 ;
692 [label="Sport <= 0.5\ngini = 0.248\nsamples = 69\nvalue = [10, 59]"] ;
691 -> 692 ;
693 [label="Duree <= 156.5\ngini = 0.23\nsamples = 68\nvalue = [9, 59]"] ;
692 -> 693 ;
694 [label="Duree <= 145.0\ngini = 0.305\nsamples = 48\nvalue = [9, 39]"] ;
693 -> 694 ;
695 [label="annee <= 2012.5\ngini = 0.128\nsamples = 29\nvalue = [2, 27]"] ;
694 -> 695 ;
696 [label="gini = 0.0\nsamples = 26\nvalue = [0, 26]"] ;
695 -> 696 ;
697 [label="Action <= 0.5\ngini = 0.444\nsamples = 3\nvalue = [2, 1]"] ;
695 -> 697 ;
698 [label="gini = 0.0\nsamples = 2\nvalue = [2, 0]"] ;
697 -> 698 ;
699 [label="gini = 0.0\nsamples = 1\nvalue = [0, 1]"] ;
697 -> 699 ;
700 [label="Western <= 0.5\ngini = 0.465\nsamples = 19\nvalue = [7, 12]"] ;
694 -> 700 ;
701 [label="annee <= 2007.5\ngini = 0.415\nsamples = 17\nvalue = [5, 12]"] ;
700 -> 701 ;
702 [label="annee <= 2002.5\ngini = 0.5\nsamples = 10\nvalue = [5, 5]"] ;
701 -> 702 ;
703 [label="gini = 0.0\nsamples = 3\nvalue = [0, 3]"] ;
702 -> 703 ;
704 [label="budget <= 22800000.0\ngini = 0.408\nsamples = 7\nvalue = [5, 2]"] ;
702 -> 704 ;
705 [label="gini = 0.0\nsamples = 2\nvalue = [2, 0]"] ;
704 -> 705 ;
706 [label="budget <= 82500000.0\ngini = 0.48\nsamples = 5\nvalue = [3, 2]"] ;
704 -> 706 ;
707 [label="gini = 0.0\nsamples = 1\nvalue = [0, 1]"] ;
706 -> 707 ;
708 [label="Fantasy <= 0.5\ngini = 0.375\nsamples = 4\nvalue = [3, 1]"] ;
706 -> 708 ;
709 [label="gini = 0.0\nsamples = 3\nvalue = [3, 0]"] ;
708 -> 709 ;
710 [label="gini = 0.0\nsamples = 1\nvalue = [0, 1]"] ;
708 -> 710 ;
711 [label="gini = 0.0\nsamples = 7\nvalue = [0, 7]"] ;
701 -> 711 ;
712 [label="gini = 0.0\nsamples = 2\nvalue = [2, 0]"] ;
700 -> 712 ;
713 [label="gini = 0.0\nsamples = 20\nvalue = [0, 20]"] ;
693 -> 713 ;
714 [label="gini = 0.0\nsamples = 1\nvalue = [1, 0]"] ;
692 -> 714 ;
715 [label="budget <= 65500000.0\ngini = 0.458\nsamples = 45\nvalue = [16, 29]"] ;
691 -> 715 ;
716 [label="annee <= 1986.5\ngini = 0.486\nsamples = 12\nvalue = [7, 5]"] ;
715 -> 716 ;
717 [label="gini = 0.0\nsamples = 2\nvalue = [0, 2]"] ;
716 -> 717 ;
718 [label="Duree <= 171.0\ngini = 0.42\nsamples = 10\nvalue = [7, 3]"] ;
716 -> 718 ;
719 [label="budget <= 9250000.0\ngini = 0.346\nsamples = 9\nvalue = [7, 2]"] ;
718 -> 719 ;
720 [label="gini = 0.0\nsamples = 1\nvalue = [0, 1]"] ;
719 -> 720 ;
721 [label="Duree <= 137.5\ngini = 0.219\nsamples = 8\nvalue = [7, 1]"] ;
719 -> 721 ;
722 [label="Adventure <= 0.5\ngini = 0.5\nsamples = 2\nvalue = [1, 1]"] ;
721 -> 722 ;
723 [label="gini = 0.0\nsamples = 1\nvalue = [0, 1]"] ;
722 -> 723 ;
724 [label="gini = 0.0\nsamples = 1\nvalue = [1, 0]"] ;
722 -> 724 ;
725 [label="gini = 0.0\nsamples = 6\nvalue = [6, 0]"] ;
721 -> 725 ;
726 [label="gini = 0.0\nsamples = 1\nvalue = [0, 1]"] ;
718 -> 726 ;
727 [label="budget <= 172500000.0\ngini = 0.397\nsamples = 33\nvalue = [9, 24]"] ;
715 -> 727 ;
728 [label="Duree <= 139.5\ngini = 0.255\nsamples = 20\nvalue = [3, 17]"] ;
727 -> 728 ;
729 [label="annee <= 2004.0\ngini = 0.42\nsamples = 10\nvalue = [3, 7]"] ;
728 -> 729 ;
730 [label="Crime <= 0.5\ngini = 0.48\nsamples = 5\nvalue = [3, 2]"] ;
729 -> 730 ;
731 [label="budget <= 143500000.0\ngini = 0.375\nsamples = 4\nvalue = [3, 1]"] ;
730 -> 731 ;
732 [label="gini = 0.0\nsamples = 3\nvalue = [3, 0]"] ;
731 -> 732 ;
733 [label="gini = 0.0\nsamples = 1\nvalue = [0, 1]"] ;
731 -> 733 ;
734 [label="gini = 0.0\nsamples = 1\nvalue = [0, 1]"] ;
730 -> 734 ;
735 [label="gini = 0.0\nsamples = 5\nvalue = [0, 5]"] ;
729 -> 735 ;
736 [label="gini = 0.0\nsamples = 10\nvalue = [0, 10]"] ;
728 -> 736 ;
737 [label="annee <= 2011.5\ngini = 0.497\nsamples = 13\nvalue = [6, 7]"] ;
727 -> 737 ;
738 [label="Duree <= 177.0\ngini = 0.278\nsamples = 6\nvalue = [5, 1]"] ;
737 -> 738 ;
739 [label="gini = 0.0\nsamples = 5\nvalue = [5, 0]"] ;
738 -> 739 ;
740 [label="gini = 0.0\nsamples = 1\nvalue = [0, 1]"] ;
738 -> 740 ;
741 [label="Duree <= 157.0\ngini = 0.245\nsamples = 7\nvalue = [1, 6]"] ;
737 -> 741 ;
742 [label="gini = 0.0\nsamples = 3\nvalue = [0, 3]"] ;
741 -> 742 ;
743 [label="Duree <= 169.0\ngini = 0.375\nsamples = 4\nvalue = [1, 3]"] ;
741 -> 743 ;
744 [label="gini = 0.0\nsamples = 1\nvalue = [1, 0]"] ;
743 -> 744 ;
745 [label="gini = 0.0\nsamples = 3\nvalue = [0, 3]"] ;
743 -> 745 ;
746 [label="budget <= 15660000.0\ngini = 0.411\nsamples = 2269\nvalue = [655, 1614]"] ;
0 -> 746 [labeldistance=2.5, labelangle=-45, headlabel="False"] ;
747 [label="Duree <= 104.5\ngini = 0.283\nsamples = 1113\nvalue = [190, 923]"] ;
746 -> 747 ;
748 [label="budget <= 2750000.0\ngini = 0.387\nsamples = 480\nvalue = [126, 354]"] ;
747 -> 748 ;
749 [label="annee <= 2004.5\ngini = 0.209\nsamples = 177\nvalue = [21, 156]"] ;
748 -> 749 ;
750 [label="Music <= 0.5\ngini = 0.069\nsamples = 112\nvalue = [4, 108]"] ;
749 -> 750 ;
751 [label="Biography <= 0.5\ngini = 0.053\nsamples = 110\nvalue = [3, 107]"] ;
750 -> 751 ;
752 [label="budget <= 1140000.0\ngini = 0.037\nsamples = 106\nvalue = [2, 104]"] ;
751 -> 752 ;
753 [label="gini = 0.0\nsamples = 72\nvalue = [0, 72]"] ;
752 -> 753 ;
754 [label="budget <= 1225000.0\ngini = 0.111\nsamples = 34\nvalue = [2, 32]"] ;
752 -> 754 ;
755 [label="Duree <= 92.0\ngini = 0.444\nsamples = 3\nvalue = [1, 2]"] ;
754 -> 755 ;
756 [label="gini = 0.0\nsamples = 1\nvalue = [1, 0]"] ;
755 -> 756 ;
757 [label="gini = 0.0\nsamples = 2\nvalue = [0, 2]"] ;
755 -> 757 ;
758 [label="Thriller <= 0.5\ngini = 0.062\nsamples = 31\nvalue = [1, 30]"] ;
754 -> 758 ;
759 [label="gini = 0.0\nsamples = 25\nvalue = [0, 25]"] ;
758 -> 759 ;
760 [label="annee <= 1982.0\ngini = 0.278\nsamples = 6\nvalue = [1, 5]"] ;
758 -> 760 ;
761 [label="gini = 0.0\nsamples = 5\nvalue = [0, 5]"] ;
760 -> 761 ;
762 [label="gini = 0.0\nsamples = 1\nvalue = [1, 0]"] ;
760 -> 762 ;
763 [label="Duree <= 85.5\ngini = 0.375\nsamples = 4\nvalue = [1, 3]"] ;
751 -> 763 ;
764 [label="gini = 0.0\nsamples = 1\nvalue = [1, 0]"] ;
763 -> 764 ;
765 [label="gini = 0.0\nsamples = 3\nvalue = [0, 3]"] ;
763 -> 765 ;
766 [label="Fantasy <= 0.5\ngini = 0.5\nsamples = 2\nvalue = [1, 1]"] ;
750 -> 766 ;
767 [label="gini = 0.0\nsamples = 1\nvalue = [1, 0]"] ;
766 -> 767 ;
768 [label="gini = 0.0\nsamples = 1\nvalue = [0, 1]"] ;
766 -> 768 ;
769 [label="Horror <= 0.5\ngini = 0.386\nsamples = 65\nvalue = [17, 48]"] ;
749 -> 769 ;
770 [label="Action <= 0.5\ngini = 0.306\nsamples = 53\nvalue = [10, 43]"] ;
769 -> 770 ;
771 [label="Duree <= 78.5\ngini = 0.286\nsamples = 52\nvalue = [9, 43]"] ;
770 -> 771 ;
772 [label="gini = 0.0\nsamples = 1\nvalue = [1, 0]"] ;
771 -> 772 ;
773 [label="Thriller <= 0.5\ngini = 0.265\nsamples = 51\nvalue = [8, 43]"] ;
771 -> 773 ;
774 [label="Duree <= 89.5\ngini = 0.206\nsamples = 43\nvalue = [5, 38]"] ;
773 -> 774 ;
775 [label="gini = 0.0\nsamples = 11\nvalue = [0, 11]"] ;
774 -> 775 ;
776 [label="budget <= 2317500.0\ngini = 0.264\nsamples = 32\nvalue = [5, 27]"] ;
774 -> 776 ;
777 [label="Duree <= 94.5\ngini = 0.231\nsamples = 30\nvalue = [4, 26]"] ;
776 -> 777 ;
778 [label="budget <= 487500.0\ngini = 0.397\nsamples = 11\nvalue = [3, 8]"] ;
777 -> 778 ;
779 [label="gini = 0.0\nsamples = 4\nvalue = [0, 4]"] ;
778 -> 779 ;
780 [label="budget <= 1780000.0\ngini = 0.49\nsamples = 7\nvalue = [3, 4]"] ;
778 -> 780 ;
781 [label="gini = 0.48\nsamples = 5\nvalue = [3, 2]"] ;
780 -> 781 ;
782 [label="gini = 0.0\nsamples = 2\nvalue = [0, 2]"] ;
780 -> 782 ;
783 [label="budget <= 124300.0\ngini = 0.1\nsamples = 19\nvalue = [1, 18]"] ;
777 -> 783 ;
784 [label="annee <= 2011.5\ngini = 0.5\nsamples = 2\nvalue = [1, 1]"] ;
783 -> 784 ;
785 [label="gini = 0.0\nsamples = 1\nvalue = [1, 0]"] ;
784 -> 785 ;
786 [label="gini = 0.0\nsamples = 1\nvalue = [0, 1]"] ;
784 -> 786 ;
787 [label="gini = 0.0\nsamples = 17\nvalue = [0, 17]"] ;
783 -> 787 ;
788 [label="annee <= 2012.0\ngini = 0.5\nsamples = 2\nvalue = [1, 1]"] ;
776 -> 788 ;
789 [label="gini = 0.0\nsamples = 1\nvalue = [1, 0]"] ;
788 -> 789 ;
790 [label="gini = 0.0\nsamples = 1\nvalue = [0, 1]"] ;
788 -> 790 ;
791 [label="budget <= 925000.0\ngini = 0.469\nsamples = 8\nvalue = [3, 5]"] ;
773 -> 791 ;
792 [label="gini = 0.0\nsamples = 3\nvalue = [3, 0]"] ;
791 -> 792 ;
793 [label="gini = 0.0\nsamples = 5\nvalue = [0, 5]"] ;
791 -> 793 ;
794 [label="gini = 0.0\nsamples = 1\nvalue = [1, 0]"] ;
770 -> 794 ;
795 [label="Duree <= 100.5\ngini = 0.486\nsamples = 12\nvalue = [7, 5]"] ;
769 -> 795 ;
796 [label="budget <= 1825000.0\ngini = 0.42\nsamples = 10\nvalue = [7, 3]"] ;
795 -> 796 ;
797 [label="Comedy <= 0.5\ngini = 0.245\nsamples = 7\nvalue = [6, 1]"] ;
796 -> 797 ;
798 [label="gini = 0.0\nsamples = 6\nvalue = [6, 0]"] ;
797 -> 798 ;
799 [label="gini = 0.0\nsamples = 1\nvalue = [0, 1]"] ;
797 -> 799 ;
800 [label="budget <= 2200000.0\ngini = 0.444\nsamples = 3\nvalue = [1, 2]"] ;
796 -> 800 ;
801 [label="gini = 0.0\nsamples = 2\nvalue = [0, 2]"] ;
800 -> 801 ;
802 [label="gini = 0.0\nsamples = 1\nvalue = [1, 0]"] ;
800 -> 802 ;
803 [label="gini = 0.0\nsamples = 2\nvalue = [0, 2]"] ;
795 -> 803 ;
804 [label="Thriller <= 0.5\ngini = 0.453\nsamples = 303\nvalue = [105, 198]"] ;
748 -> 804 ;
805 [label="Animation <= 0.5\ngini = 0.411\nsamples = 218\nvalue = [63, 155]"] ;
804 -> 805 ;
806 [label="Adventure <= 0.5\ngini = 0.42\nsamples = 210\nvalue = [63, 147]"] ;
805 -> 806 ;
807 [label="annee <= 2009.5\ngini = 0.408\nsamples = 196\nvalue = [56, 140]"] ;
806 -> 807 ;
808 [label="Comedy <= 0.5\ngini = 0.366\nsamples = 137\nvalue = [33, 104]"] ;
807 -> 808 ;
809 [label="Music <= 0.5\ngini = 0.278\nsamples = 66\nvalue = [11, 55]"] ;
808 -> 809 ;
810 [label="budget <= 5907000.0\ngini = 0.231\nsamples = 60\nvalue = [8, 52]"] ;
809 -> 810 ;
811 [label="gini = 0.0\nsamples = 20\nvalue = [0, 20]"] ;
810 -> 811 ;
812 [label="annee <= 2006.5\ngini = 0.32\nsamples = 40\nvalue = [8, 32]"] ;
810 -> 812 ;
813 [label="annee <= 2000.5\ngini = 0.391\nsamples = 30\nvalue = [8, 22]"] ;
812 -> 813 ;
814 [label="Duree <= 96.0\ngini = 0.198\nsamples = 18\nvalue = [2, 16]"] ;
813 -> 814 ;
815 [label="gini = 0.408\nsamples = 7\nvalue = [2, 5]"] ;
814 -> 815 ;
816 [label="gini = 0.0\nsamples = 11\nvalue = [0, 11]"] ;
814 -> 816 ;
817 [label="budget <= 10500000.0\ngini = 0.5\nsamples = 12\nvalue = [6, 6]"] ;
813 -> 817 ;
818 [label="gini = 0.444\nsamples = 9\nvalue = [6, 3]"] ;
817 -> 818 ;
819 [label="gini = 0.0\nsamples = 3\nvalue = [0, 3]"] ;
817 -> 819 ;
820 [label="gini = 0.0\nsamples = 10\nvalue = [0, 10]"] ;
812 -> 820 ;
821 [label="Duree <= 96.0\ngini = 0.5\nsamples = 6\nvalue = [3, 3]"] ;
809 -> 821 ;
822 [label="gini = 0.0\nsamples = 2\nvalue = [2, 0]"] ;
821 -> 822 ;
823 [label="Crime <= 0.5\ngini = 0.375\nsamples = 4\nvalue = [1, 3]"] ;
821 -> 823 ;
824 [label="gini = 0.0\nsamples = 3\nvalue = [0, 3]"] ;
823 -> 824 ;
825 [label="gini = 0.0\nsamples = 1\nvalue = [1, 0]"] ;
823 -> 825 ;
826 [label="Crime <= 0.5\ngini = 0.428\nsamples = 71\nvalue = [22, 49]"] ;
808 -> 826 ;
827 [label="Duree <= 88.5\ngini = 0.461\nsamples = 61\nvalue = [22, 39]"] ;
826 -> 827 ;
828 [label="gini = 0.0\nsamples = 2\nvalue = [2, 0]"] ;
827 -> 828 ;
829 [label="annee <= 2003.0\ngini = 0.448\nsamples = 59\nvalue = [20, 39]"] ;
827 -> 829 ;
830 [label="Sport <= 0.5\ngini = 0.493\nsamples = 34\nvalue = [15, 19]"] ;
829 -> 830 ;
831 [label="annee <= 1998.5\ngini = 0.475\nsamples = 31\nvalue = [12, 19]"] ;
830 -> 831 ;
832 [label="gini = 0.36\nsamples = 17\nvalue = [4, 13]"] ;
831 -> 832 ;
833 [label="gini = 0.49\nsamples = 14\nvalue = [8, 6]"] ;
831 -> 833 ;
834 [label="gini = 0.0\nsamples = 3\nvalue = [3, 0]"] ;
830 -> 834 ;
835 [label="budget <= 13350000.0\ngini = 0.32\nsamples = 25\nvalue = [5, 20]"] ;
829 -> 835 ;
836 [label="budget <= 3025500.0\ngini = 0.227\nsamples = 23\nvalue = [3, 20]"] ;
835 -> 836 ;
837 [label="gini = 0.0\nsamples = 1\nvalue = [1, 0]"] ;
836 -> 837 ;
838 [label="gini = 0.165\nsamples = 22\nvalue = [2, 20]"] ;
836 -> 838 ;
839 [label="gini = 0.0\nsamples = 2\nvalue = [2, 0]"] ;
835 -> 839 ;
840 [label="gini = 0.0\nsamples = 10\nvalue = [0, 10]"] ;
826 -> 840 ;
841 [label="Duree <= 97.5\ngini = 0.476\nsamples = 59\nvalue = [23, 36]"] ;
807 -> 841 ;
842 [label="Duree <= 96.5\ngini = 0.497\nsamples = 28\nvalue = [15, 13]"] ;
841 -> 842 ;
843 [label="annee <= 2013.5\ngini = 0.496\nsamples = 22\nvalue = [10, 12]"] ;
842 -> 843 ;
844 [label="Biography <= 0.5\ngini = 0.499\nsamples = 19\nvalue = [10, 9]"] ;
843 -> 844 ;
845 [label="budget <= 13000000.0\ngini = 0.498\nsamples = 17\nvalue = [8, 9]"] ;
844 -> 845 ;
846 [label="budget <= 6815000.0\ngini = 0.498\nsamples = 15\nvalue = [8, 7]"] ;
845 -> 846 ;
847 [label="gini = 0.48\nsamples = 10\nvalue = [4, 6]"] ;
846 -> 847 ;
848 [label="gini = 0.32\nsamples = 5\nvalue = [4, 1]"] ;
846 -> 848 ;
849 [label="gini = 0.0\nsamples = 2\nvalue = [0, 2]"] ;
845 -> 849 ;
850 [label="gini = 0.0\nsamples = 2\nvalue = [2, 0]"] ;
844 -> 850 ;
851 [label="gini = 0.0\nsamples = 3\nvalue = [0, 3]"] ;
843 -> 851 ;
852 [label="Crime <= 0.5\ngini = 0.278\nsamples = 6\nvalue = [5, 1]"] ;
842 -> 852 ;
853 [label="gini = 0.0\nsamples = 5\nvalue = [5, 0]"] ;
852 -> 853 ;
854 [label="gini = 0.0\nsamples = 1\nvalue = [0, 1]"] ;
852 -> 854 ;
855 [label="annee <= 2013.5\ngini = 0.383\nsamples = 31\nvalue = [8, 23]"] ;
841 -> 855 ;
856 [label="History <= 0.5\ngini = 0.269\nsamples = 25\nvalue = [4, 21]"] ;
855 -> 856 ;
857 [label="annee <= 2011.5\ngini = 0.219\nsamples = 24\nvalue = [3, 21]"] ;
856 -> 857 ;
858 [label="budget <= 12250000.0\ngini = 0.32\nsamples = 15\nvalue = [3, 12]"] ;
857 -> 858 ;
859 [label="Duree <= 101.5\ngini = 0.42\nsamples = 10\nvalue = [3, 7]"] ;
858 -> 859 ;
860 [label="gini = 0.245\nsamples = 7\nvalue = [1, 6]"] ;
859 -> 860 ;
861 [label="gini = 0.444\nsamples = 3\nvalue = [2, 1]"] ;
859 -> 861 ;
862 [label="gini = 0.0\nsamples = 5\nvalue = [0, 5]"] ;
858 -> 862 ;
863 [label="gini = 0.0\nsamples = 9\nvalue = [0, 9]"] ;
857 -> 863 ;
864 [label="gini = 0.0\nsamples = 1\nvalue = [1, 0]"] ;
856 -> 864 ;
865 [label="budget <= 12625000.0\ngini = 0.444\nsamples = 6\nvalue = [4, 2]"] ;
855 -> 865 ;
866 [label="Duree <= 101.5\ngini = 0.32\nsamples = 5\nvalue = [4, 1]"] ;
865 -> 866 ;
867 [label="budget <= 8050000.0\ngini = 0.5\nsamples = 2\nvalue = [1, 1]"] ;
866 -> 867 ;
868 [label="gini = 0.0\nsamples = 1\nvalue = [0, 1]"] ;
867 -> 868 ;
869 [label="gini = 0.0\nsamples = 1\nvalue = [1, 0]"] ;
867 -> 869 ;
870 [label="gini = 0.0\nsamples = 3\nvalue = [3, 0]"] ;
866 -> 870 ;
871 [label="gini = 0.0\nsamples = 1\nvalue = [0, 1]"] ;
865 -> 871 ;
872 [label="Duree <= 101.5\ngini = 0.5\nsamples = 14\nvalue = [7, 7]"] ;
806 -> 872 ;
873 [label="Fantasy <= 0.5\ngini = 0.42\nsamples = 10\nvalue = [3, 7]"] ;
872 -> 873 ;
874 [label="Family <= 0.5\ngini = 0.245\nsamples = 7\nvalue = [1, 6]"] ;
873 -> 874 ;
875 [label="gini = 0.0\nsamples = 5\nvalue = [0, 5]"] ;
874 -> 875 ;
876 [label="annee <= 1998.0\ngini = 0.5\nsamples = 2\nvalue = [1, 1]"] ;
874 -> 876 ;
877 [label="gini = 0.0\nsamples = 1\nvalue = [1, 0]"] ;
876 -> 877 ;
878 [label="gini = 0.0\nsamples = 1\nvalue = [0, 1]"] ;
876 -> 878 ;
879 [label="Duree <= 97.0\ngini = 0.444\nsamples = 3\nvalue = [2, 1]"] ;
873 -> 879 ;
880 [label="gini = 0.0\nsamples = 2\nvalue = [2, 0]"] ;
879 -> 880 ;
881 [label="gini = 0.0\nsamples = 1\nvalue = [0, 1]"] ;
879 -> 881 ;
882 [label="gini = 0.0\nsamples = 4\nvalue = [4, 0]"] ;
872 -> 882 ;
883 [label="gini = 0.0\nsamples = 8\nvalue = [0, 8]"] ;
805 -> 883 ;
884 [label="annee <= 2005.5\ngini = 0.5\nsamples = 85\nvalue = [42, 43]"] ;
804 -> 884 ;
885 [label="Duree <= 95.5\ngini = 0.457\nsamples = 48\nvalue = [17, 31]"] ;
884 -> 885 ;
886 [label="annee <= 1987.5\ngini = 0.496\nsamples = 22\nvalue = [12, 10]"] ;
885 -> 886 ;
887 [label="gini = 0.0\nsamples = 4\nvalue = [0, 4]"] ;
886 -> 887 ;
888 [label="Duree <= 83.0\ngini = 0.444\nsamples = 18\nvalue = [12, 6]"] ;
886 -> 888 ;
889 [label="gini = 0.0\nsamples = 2\nvalue = [0, 2]"] ;
888 -> 889 ;
890 [label="budget <= 5500000.0\ngini = 0.375\nsamples = 16\nvalue = [12, 4]"] ;
888 -> 890 ;
891 [label="annee <= 2001.5\ngini = 0.5\nsamples = 6\nvalue = [3, 3]"] ;
890 -> 891 ;
892 [label="Action <= 0.5\ngini = 0.375\nsamples = 4\nvalue = [3, 1]"] ;
891 -> 892 ;
893 [label="gini = 0.0\nsamples = 3\nvalue = [3, 0]"] ;
892 -> 893 ;
894 [label="gini = 0.0\nsamples = 1\nvalue = [0, 1]"] ;
892 -> 894 ;
895 [label="gini = 0.0\nsamples = 2\nvalue = [0, 2]"] ;
891 -> 895 ;
896 [label="Mystery <= 0.5\ngini = 0.18\nsamples = 10\nvalue = [9, 1]"] ;
890 -> 896 ;
897 [label="gini = 0.0\nsamples = 8\nvalue = [8, 0]"] ;
896 -> 897 ;
898 [label="budget <= 9500000.0\ngini = 0.5\nsamples = 2\nvalue = [1, 1]"] ;
896 -> 898 ;
899 [label="gini = 0.0\nsamples = 1\nvalue = [0, 1]"] ;
898 -> 899 ;
900 [label="gini = 0.0\nsamples = 1\nvalue = [1, 0]"] ;
898 -> 900 ;
901 [label="Horror <= 0.5\ngini = 0.311\nsamples = 26\nvalue = [5, 21]"] ;
885 -> 901 ;
902 [label="budget <= 2945000.0\ngini = 0.219\nsamples = 24\nvalue = [3, 21]"] ;
901 -> 902 ;
903 [label="gini = 0.0\nsamples = 1\nvalue = [1, 0]"] ;
902 -> 903 ;
904 [label="Biography <= 0.5\ngini = 0.159\nsamples = 23\nvalue = [2, 21]"] ;
902 -> 904 ;
905 [label="Duree <= 96.5\ngini = 0.087\nsamples = 22\nvalue = [1, 21]"] ;
904 -> 905 ;
906 [label="annee <= 1996.0\ngini = 0.444\nsamples = 3\nvalue = [1, 2]"] ;
905 -> 906 ;
907 [label="gini = 0.0\nsamples = 1\nvalue = [1, 0]"] ;
906 -> 907 ;
908 [label="gini = 0.0\nsamples = 2\nvalue = [0, 2]"] ;
906 -> 908 ;
909 [label="gini = 0.0\nsamples = 19\nvalue = [0, 19]"] ;
905 -> 909 ;
910 [label="gini = 0.0\nsamples = 1\nvalue = [1, 0]"] ;
904 -> 910 ;
911 [label="gini = 0.0\nsamples = 2\nvalue = [2, 0]"] ;
901 -> 911 ;
912 [label="Horror <= 0.5\ngini = 0.438\nsamples = 37\nvalue = [25, 12]"] ;
884 -> 912 ;
913 [label="Duree <= 94.5\ngini = 0.488\nsamples = 26\nvalue = [15, 11]"] ;
912 -> 913 ;
914 [label="Crime <= 0.5\ngini = 0.375\nsamples = 12\nvalue = [9, 3]"] ;
913 -> 914 ;
915 [label="Mystery <= 0.5\ngini = 0.48\nsamples = 5\nvalue = [2, 3]"] ;
914 -> 915 ;
916 [label="gini = 0.0\nsamples = 3\nvalue = [0, 3]"] ;
915 -> 916 ;
917 [label="gini = 0.0\nsamples = 2\nvalue = [2, 0]"] ;
915 -> 917 ;
918 [label="gini = 0.0\nsamples = 7\nvalue = [7, 0]"] ;
914 -> 918 ;
919 [label="Duree <= 102.5\ngini = 0.49\nsamples = 14\nvalue = [6, 8]"] ;
913 -> 919 ;
920 [label="Sci-Fi <= 0.5\ngini = 0.444\nsamples = 12\nvalue = [4, 8]"] ;
919 -> 920 ;
921 [label="annee <= 2011.5\ngini = 0.397\nsamples = 11\nvalue = [3, 8]"] ;
920 -> 921 ;
922 [label="Mystery <= 0.5\ngini = 0.219\nsamples = 8\nvalue = [1, 7]"] ;
921 -> 922 ;
923 [label="gini = 0.0\nsamples = 6\nvalue = [0, 6]"] ;
922 -> 923 ;
924 [label="Duree <= 95.5\ngini = 0.5\nsamples = 2\nvalue = [1, 1]"] ;
922 -> 924 ;
925 [label="gini = 0.0\nsamples = 1\nvalue = [0, 1]"] ;
924 -> 925 ;
926 [label="gini = 0.0\nsamples = 1\nvalue = [1, 0]"] ;
924 -> 926 ;
927 [label="Duree <= 98.0\ngini = 0.444\nsamples = 3\nvalue = [2, 1]"] ;
921 -> 927 ;
928 [label="gini = 0.0\nsamples = 2\nvalue = [2, 0]"] ;
927 -> 928 ;
929 [label="gini = 0.0\nsamples = 1\nvalue = [0, 1]"] ;
927 -> 929 ;
930 [label="gini = 0.0\nsamples = 1\nvalue = [1, 0]"] ;
920 -> 930 ;
931 [label="gini = 0.0\nsamples = 2\nvalue = [2, 0]"] ;
919 -> 931 ;
932 [label="Duree <= 101.5\ngini = 0.165\nsamples = 11\nvalue = [10, 1]"] ;
912 -> 932 ;
933 [label="gini = 0.0\nsamples = 8\nvalue = [8, 0]"] ;
932 -> 933 ;
934 [label="budget <= 4750000.0\ngini = 0.444\nsamples = 3\nvalue = [2, 1]"] ;
932 -> 934 ;
935 [label="gini = 0.0\nsamples = 2\nvalue = [2, 0]"] ;
934 -> 935 ;
936 [label="gini = 0.0\nsamples = 1\nvalue = [0, 1]"] ;
934 -> 936 ;
937 [label="budget <= 11158052.5\ngini = 0.182\nsamples = 633\nvalue = [64, 569]"] ;
747 -> 937 ;
938 [label="budget <= 17805.0\ngini = 0.104\nsamples = 456\nvalue = [25, 431]"] ;
937 -> 938 ;
939 [label="gini = 0.0\nsamples = 1\nvalue = [1, 0]"] ;
938 -> 939 ;
940 [label="Animation <= 0.5\ngini = 0.1\nsamples = 455\nvalue = [24, 431]"] ;
938 -> 940 ;
941 [label="Sci-Fi <= 0.5\ngini = 0.096\nsamples = 454\nvalue = [23, 431]"] ;
940 -> 941 ;
942 [label="budget <= 4570000.0\ngini = 0.084\nsamples = 435\nvalue = [19, 416]"] ;
941 -> 942 ;
943 [label="annee <= 2011.5\ngini = 0.026\nsamples = 224\nvalue = [3, 221]"] ;
942 -> 943 ;
944 [label="budget <= 517750.0\ngini = 0.009\nsamples = 211\nvalue = [1, 210]"] ;
943 -> 944 ;
945 [label="annee <= 2007.0\ngini = 0.117\nsamples = 16\nvalue = [1, 15]"] ;
944 -> 945 ;
946 [label="gini = 0.0\nsamples = 14\nvalue = [0, 14]"] ;
945 -> 946 ;
947 [label="Romance <= 0.5\ngini = 0.5\nsamples = 2\nvalue = [1, 1]"] ;
945 -> 947 ;
948 [label="gini = 0.0\nsamples = 1\nvalue = [0, 1]"] ;
947 -> 948 ;
949 [label="gini = 0.0\nsamples = 1\nvalue = [1, 0]"] ;
947 -> 949 ;
950 [label="gini = 0.0\nsamples = 195\nvalue = [0, 195]"] ;
944 -> 950 ;
951 [label="Duree <= 114.0\ngini = 0.26\nsamples = 13\nvalue = [2, 11]"] ;
943 -> 951 ;
952 [label="budget <= 3180000.0\ngini = 0.5\nsamples = 4\nvalue = [2, 2]"] ;
951 -> 952 ;
953 [label="gini = 0.0\nsamples = 2\nvalue = [2, 0]"] ;
952 -> 953 ;
954 [label="gini = 0.0\nsamples = 2\nvalue = [0, 2]"] ;
952 -> 954 ;
955 [label="gini = 0.0\nsamples = 9\nvalue = [0, 9]"] ;
951 -> 955 ;
956 [label="budget <= 4614391.5\ngini = 0.14\nsamples = 211\nvalue = [16, 195]"] ;
942 -> 956 ;
957 [label="gini = 0.0\nsamples = 1\nvalue = [1, 0]"] ;
956 -> 957 ;
958 [label="Romance <= 0.5\ngini = 0.133\nsamples = 210\nvalue = [15, 195]"] ;
956 -> 958 ;
959 [label="Sport <= 0.5\ngini = 0.089\nsamples = 150\nvalue = [7, 143]"] ;
958 -> 959 ;
960 [label="Duree <= 105.5\ngini = 0.068\nsamples = 142\nvalue = [5, 137]"] ;
959 -> 960 ;
961 [label="budget <= 8500000.0\ngini = 0.32\nsamples = 5\nvalue = [1, 4]"] ;
960 -> 961 ;
962 [label="gini = 0.0\nsamples = 3\nvalue = [0, 3]"] ;
961 -> 962 ;
963 [label="budget <= 9500000.0\ngini = 0.5\nsamples = 2\nvalue = [1, 1]"] ;
961 -> 963 ;
964 [label="gini = 0.0\nsamples = 1\nvalue = [1, 0]"] ;
963 -> 964 ;
965 [label="gini = 0.0\nsamples = 1\nvalue = [0, 1]"] ;
963 -> 965 ;
966 [label="Action <= 0.5\ngini = 0.057\nsamples = 137\nvalue = [4, 133]"] ;
960 -> 966 ;
967 [label="Mystery <= 0.5\ngini = 0.033\nsamples = 120\nvalue = [2, 118]"] ;
966 -> 967 ;
968 [label="gini = 0.019\nsamples = 105\nvalue = [1, 104]"] ;
967 -> 968 ;
969 [label="gini = 0.124\nsamples = 15\nvalue = [1, 14]"] ;
967 -> 969 ;
970 [label="Comedy <= 0.5\ngini = 0.208\nsamples = 17\nvalue = [2, 15]"] ;
966 -> 970 ;
971 [label="gini = 0.117\nsamples = 16\nvalue = [1, 15]"] ;
970 -> 971 ;
972 [label="gini = 0.0\nsamples = 1\nvalue = [1, 0]"] ;
970 -> 972 ;
973 [label="Duree <= 115.5\ngini = 0.375\nsamples = 8\nvalue = [2, 6]"] ;
959 -> 973 ;
974 [label="annee <= 2007.5\ngini = 0.444\nsamples = 3\nvalue = [2, 1]"] ;
973 -> 974 ;
975 [label="gini = 0.0\nsamples = 2\nvalue = [2, 0]"] ;
974 -> 975 ;
976 [label="gini = 0.0\nsamples = 1\nvalue = [0, 1]"] ;
974 -> 976 ;
977 [label="gini = 0.0\nsamples = 5\nvalue = [0, 5]"] ;
973 -> 977 ;
978 [label="Duree <= 117.5\ngini = 0.231\nsamples = 60\nvalue = [8, 52]"] ;
958 -> 978 ;
979 [label="annee <= 1988.5\ngini = 0.363\nsamples = 21\nvalue = [5, 16]"] ;
978 -> 979 ;
980 [label="gini = 0.0\nsamples = 2\nvalue = [2, 0]"] ;
979 -> 980 ;
981 [label="Duree <= 115.5\ngini = 0.266\nsamples = 19\nvalue = [3, 16]"] ;
979 -> 981 ;
982 [label="Family <= 0.5\ngini = 0.198\nsamples = 18\nvalue = [2, 16]"] ;
981 -> 982 ;
983 [label="gini = 0.111\nsamples = 17\nvalue = [1, 16]"] ;
982 -> 983 ;
984 [label="gini = 0.0\nsamples = 1\nvalue = [1, 0]"] ;
982 -> 984 ;
985 [label="gini = 0.0\nsamples = 1\nvalue = [1, 0]"] ;
981 -> 985 ;
986 [label="War <= 0.5\ngini = 0.142\nsamples = 39\nvalue = [3, 36]"] ;
978 -> 986 ;
987 [label="Comedy <= 0.5\ngini = 0.105\nsamples = 36\nvalue = [2, 34]"] ;
986 -> 987 ;
988 [label="annee <= 1978.0\ngini = 0.062\nsamples = 31\nvalue = [1, 30]"] ;
987 -> 988 ;
989 [label="gini = 0.18\nsamples = 10\nvalue = [1, 9]"] ;
988 -> 989 ;
990 [label="gini = 0.0\nsamples = 21\nvalue = [0, 21]"] ;
988 -> 990 ;
991 [label="Musical <= 0.5\ngini = 0.32\nsamples = 5\nvalue = [1, 4]"] ;
987 -> 991 ;
992 [label="gini = 0.0\nsamples = 4\nvalue = [0, 4]"] ;
991 -> 992 ;
993 [label="gini = 0.0\nsamples = 1\nvalue = [1, 0]"] ;
991 -> 993 ;
994 [label="annee <= 2000.0\ngini = 0.444\nsamples = 3\nvalue = [1, 2]"] ;
986 -> 994 ;
995 [label="gini = 0.0\nsamples = 2\nvalue = [0, 2]"] ;
994 -> 995 ;
996 [label="gini = 0.0\nsamples = 1\nvalue = [1, 0]"] ;
994 -> 996 ;
997 [label="Duree <= 112.5\ngini = 0.332\nsamples = 19\nvalue = [4, 15]"] ;
941 -> 997 ;
998 [label="Action <= 0.5\ngini = 0.5\nsamples = 6\nvalue = [3, 3]"] ;
997 -> 998 ;
999 [label="budget <= 1535000.0\ngini = 0.375\nsamples = 4\nvalue = [3, 1]"] ;
998 -> 999 ;
1000 [label="gini = 0.0\nsamples = 1\nvalue = [0, 1]"] ;
999 -> 1000 ;
1001 [label="gini = 0.0\nsamples = 3\nvalue = [3, 0]"] ;
999 -> 1001 ;
1002 [label="gini = 0.0\nsamples = 2\nvalue = [0, 2]"] ;
998 -> 1002 ;
1003 [label="budget <= 8200000.0\ngini = 0.142\nsamples = 13\nvalue = [1, 12]"] ;
997 -> 1003 ;
1004 [label="gini = 0.0\nsamples = 11\nvalue = [0, 11]"] ;
1003 -> 1004 ;
1005 [label="Duree <= 135.5\ngini = 0.5\nsamples = 2\nvalue = [1, 1]"] ;
1003 -> 1005 ;
1006 [label="gini = 0.0\nsamples = 1\nvalue = [0, 1]"] ;
1005 -> 1006 ;
1007 [label="gini = 0.0\nsamples = 1\nvalue = [1, 0]"] ;
1005 -> 1007 ;
1008 [label="gini = 0.0\nsamples = 1\nvalue = [1, 0]"] ;
940 -> 1008 ;
1009 [label="annee <= 2009.5\ngini = 0.344\nsamples = 177\nvalue = [39, 138]"] ;
937 -> 1009 ;
1010 [label="Comedy <= 0.5\ngini = 0.263\nsamples = 135\nvalue = [21, 114]"] ;
1009 -> 1010 ;
1011 [label="budget <= 11250000.0\ngini = 0.194\nsamples = 110\nvalue = [12, 98]"] ;
1010 -> 1011 ;
1012 [label="gini = 0.0\nsamples = 1\nvalue = [1, 0]"] ;
1011 -> 1012 ;
1013 [label="Horror <= 0.5\ngini = 0.181\nsamples = 109\nvalue = [11, 98]"] ;
1011 -> 1013 ;
1014 [label="Music <= 0.5\ngini = 0.168\nsamples = 108\nvalue = [10, 98]"] ;
1013 -> 1014 ;
1015 [label="Duree <= 111.5\ngini = 0.129\nsamples = 101\nvalue = [7, 94]"] ;
1014 -> 1015 ;
1016 [label="annee <= 2001.0\ngini = 0.351\nsamples = 22\nvalue = [5, 17]"] ;
1015 -> 1016 ;
1017 [label="annee <= 1996.0\ngini = 0.494\nsamples = 9\nvalue = [4, 5]"] ;
1016 -> 1017 ;
1018 [label="Duree <= 108.5\ngini = 0.408\nsamples = 7\nvalue = [2, 5]"] ;
1017 -> 1018 ;
1019 [label="gini = 0.0\nsamples = 4\nvalue = [0, 4]"] ;
1018 -> 1019 ;
1020 [label="Romance <= 0.5\ngini = 0.444\nsamples = 3\nvalue = [2, 1]"] ;
1018 -> 1020 ;
1021 [label="gini = 0.0\nsamples = 2\nvalue = [2, 0]"] ;
1020 -> 1021 ;
1022 [label="gini = 0.0\nsamples = 1\nvalue = [0, 1]"] ;
1020 -> 1022 ;
1023 [label="gini = 0.0\nsamples = 2\nvalue = [2, 0]"] ;
1017 -> 1023 ;
1024 [label="Thriller <= 0.5\ngini = 0.142\nsamples = 13\nvalue = [1, 12]"] ;
1016 -> 1024 ;
1025 [label="gini = 0.0\nsamples = 8\nvalue = [0, 8]"] ;
1024 -> 1025 ;
1026 [label="Mystery <= 0.5\ngini = 0.32\nsamples = 5\nvalue = [1, 4]"] ;
1024 -> 1026 ;
1027 [label="Action <= 0.5\ngini = 0.444\nsamples = 3\nvalue = [1, 2]"] ;
1026 -> 1027 ;
1028 [label="gini = 0.0\nsamples = 1\nvalue = [1, 0]"] ;
1027 -> 1028 ;
1029 [label="gini = 0.0\nsamples = 2\nvalue = [0, 2]"] ;
1027 -> 1029 ;
1030 [label="gini = 0.0\nsamples = 2\nvalue = [0, 2]"] ;
1026 -> 1030 ;
1031 [label="Romance <= 0.5\ngini = 0.049\nsamples = 79\nvalue = [2, 77]"] ;
1015 -> 1031 ;
1032 [label="gini = 0.0\nsamples = 54\nvalue = [0, 54]"] ;
1031 -> 1032 ;
1033 [label="Duree <= 130.5\ngini = 0.147\nsamples = 25\nvalue = [2, 23]"] ;
1031 -> 1033 ;
1034 [label="gini = 0.0\nsamples = 18\nvalue = [0, 18]"] ;
1033 -> 1034 ;
1035 [label="Duree <= 133.0\ngini = 0.408\nsamples = 7\nvalue = [2, 5]"] ;
1033 -> 1035 ;
1036 [label="gini = 0.0\nsamples = 1\nvalue = [1, 0]"] ;
1035 -> 1036 ;
1037 [label="annee <= 1997.0\ngini = 0.278\nsamples = 6\nvalue = [1, 5]"] ;
1035 -> 1037 ;
1038 [label="gini = 0.0\nsamples = 3\nvalue = [0, 3]"] ;
1037 -> 1038 ;
1039 [label="gini = 0.444\nsamples = 3\nvalue = [1, 2]"] ;
1037 -> 1039 ;
1040 [label="annee <= 1993.5\ngini = 0.49\nsamples = 7\nvalue = [3, 4]"] ;
1014 -> 1040 ;
1041 [label="gini = 0.0\nsamples = 2\nvalue = [0, 2]"] ;
1040 -> 1041 ;
1042 [label="annee <= 2003.5\ngini = 0.48\nsamples = 5\nvalue = [3, 2]"] ;
1040 -> 1042 ;
1043 [label="gini = 0.0\nsamples = 2\nvalue = [2, 0]"] ;
1042 -> 1043 ;
1044 [label="Romance <= 0.5\ngini = 0.444\nsamples = 3\nvalue = [1, 2]"] ;
1042 -> 1044 ;
1045 [label="gini = 0.0\nsamples = 1\nvalue = [0, 1]"] ;
1044 -> 1045 ;
1046 [label="budget <= 13000000.0\ngini = 0.5\nsamples = 2\nvalue = [1, 1]"] ;
1044 -> 1046 ;
1047 [label="gini = 0.0\nsamples = 1\nvalue = [0, 1]"] ;
1046 -> 1047 ;
1048 [label="gini = 0.0\nsamples = 1\nvalue = [1, 0]"] ;
1046 -> 1048 ;
1049 [label="gini = 0.0\nsamples = 1\nvalue = [1, 0]"] ;
1013 -> 1049 ;
1050 [label="Duree <= 124.5\ngini = 0.461\nsamples = 25\nvalue = [9, 16]"] ;
1010 -> 1050 ;
1051 [label="Duree <= 109.0\ngini = 0.499\nsamples = 19\nvalue = [9, 10]"] ;
1050 -> 1051 ;
1052 [label="gini = 0.0\nsamples = 3\nvalue = [0, 3]"] ;
1051 -> 1052 ;
1053 [label="Duree <= 121.5\ngini = 0.492\nsamples = 16\nvalue = [9, 7]"] ;
1051 -> 1053 ;
1054 [label="Duree <= 119.0\ngini = 0.5\nsamples = 14\nvalue = [7, 7]"] ;
1053 -> 1054 ;
1055 [label="annee <= 2007.0\ngini = 0.444\nsamples = 9\nvalue = [6, 3]"] ;
1054 -> 1055 ;
1056 [label="Mystery <= 0.5\ngini = 0.375\nsamples = 8\nvalue = [6, 2]"] ;
1055 -> 1056 ;
1057 [label="Fantasy <= 0.5\ngini = 0.245\nsamples = 7\nvalue = [6, 1]"] ;
1056 -> 1057 ;
1058 [label="gini = 0.0\nsamples = 5\nvalue = [5, 0]"] ;
1057 -> 1058 ;
1059 [label="Duree <= 115.0\ngini = 0.5\nsamples = 2\nvalue = [1, 1]"] ;
1057 -> 1059 ;
1060 [label="gini = 0.0\nsamples = 1\nvalue = [0, 1]"] ;
1059 -> 1060 ;
1061 [label="gini = 0.0\nsamples = 1\nvalue = [1, 0]"] ;
1059 -> 1061 ;
1062 [label="gini = 0.0\nsamples = 1\nvalue = [0, 1]"] ;
1056 -> 1062 ;
1063 [label="gini = 0.0\nsamples = 1\nvalue = [0, 1]"] ;
1055 -> 1063 ;
1064 [label="War <= 0.5\ngini = 0.32\nsamples = 5\nvalue = [1, 4]"] ;
1054 -> 1064 ;
1065 [label="gini = 0.0\nsamples = 3\nvalue = [0, 3]"] ;
1064 -> 1065 ;
1066 [label="Duree <= 120.5\ngini = 0.5\nsamples = 2\nvalue = [1, 1]"] ;
1064 -> 1066 ;
1067 [label="gini = 0.0\nsamples = 1\nvalue = [1, 0]"] ;
1066 -> 1067 ;
1068 [label="gini = 0.0\nsamples = 1\nvalue = [0, 1]"] ;
1066 -> 1068 ;
1069 [label="gini = 0.0\nsamples = 2\nvalue = [2, 0]"] ;
1053 -> 1069 ;
1070 [label="gini = 0.0\nsamples = 6\nvalue = [0, 6]"] ;
1050 -> 1070 ;
1071 [label="Duree <= 120.0\ngini = 0.49\nsamples = 42\nvalue = [18, 24]"] ;
1009 -> 1071 ;
1072 [label="Duree <= 106.5\ngini = 0.499\nsamples = 29\nvalue = [15, 14]"] ;
1071 -> 1072 ;
1073 [label="gini = 0.0\nsamples = 3\nvalue = [0, 3]"] ;
1072 -> 1073 ;
1074 [label="Crime <= 0.5\ngini = 0.488\nsamples = 26\nvalue = [15, 11]"] ;
1072 -> 1074 ;
1075 [label="Action <= 0.5\ngini = 0.499\nsamples = 21\nvalue = [10, 11]"] ;
1074 -> 1075 ;
1076 [label="Music <= 0.5\ngini = 0.488\nsamples = 19\nvalue = [8, 11]"] ;
1075 -> 1076 ;
1077 [label="annee <= 2011.5\ngini = 0.457\nsamples = 17\nvalue = [6, 11]"] ;
1076 -> 1077 ;
1078 [label="gini = 0.0\nsamples = 5\nvalue = [0, 5]"] ;
1077 -> 1078 ;
1079 [label="Romance <= 0.5\ngini = 0.5\nsamples = 12\nvalue = [6, 6]"] ;
1077 -> 1079 ;
1080 [label="Horror <= 0.5\ngini = 0.444\nsamples = 9\nvalue = [3, 6]"] ;
1079 -> 1080 ;
1081 [label="Duree <= 112.5\ngini = 0.375\nsamples = 8\nvalue = [2, 6]"] ;
1080 -> 1081 ;
1082 [label="gini = 0.5\nsamples = 4\nvalue = [2, 2]"] ;
1081 -> 1082 ;
1083 [label="gini = 0.0\nsamples = 4\nvalue = [0, 4]"] ;
1081 -> 1083 ;
1084 [label="gini = 0.0\nsamples = 1\nvalue = [1, 0]"] ;
1080 -> 1084 ;
1085 [label="gini = 0.0\nsamples = 3\nvalue = [3, 0]"] ;
1079 -> 1085 ;
1086 [label="gini = 0.0\nsamples = 2\nvalue = [2, 0]"] ;
1076 -> 1086 ;
1087 [label="gini = 0.0\nsamples = 2\nvalue = [2, 0]"] ;
1075 -> 1087 ;
1088 [label="gini = 0.0\nsamples = 5\nvalue = [5, 0]"] ;
1074 -> 1088 ;
1089 [label="budget <= 14345000.0\ngini = 0.355\nsamples = 13\nvalue = [3, 10]"] ;
1071 -> 1089 ;
1090 [label="Romance <= 0.5\ngini = 0.5\nsamples = 6\nvalue = [3, 3]"] ;
1089 -> 1090 ;
1091 [label="History <= 0.5\ngini = 0.375\nsamples = 4\nvalue = [3, 1]"] ;
1090 -> 1091 ;
1092 [label="gini = 0.0\nsamples = 3\nvalue = [3, 0]"] ;
1091 -> 1092 ;
1093 [label="gini = 0.0\nsamples = 1\nvalue = [0, 1]"] ;
1091 -> 1093 ;
1094 [label="gini = 0.0\nsamples = 2\nvalue = [0, 2]"] ;
1090 -> 1094 ;
1095 [label="gini = 0.0\nsamples = 7\nvalue = [0, 7]"] ;
1089 -> 1095 ;
1096 [label="Duree <= 115.5\ngini = 0.481\nsamples = 1156\nvalue = [465, 691]"] ;
746 -> 1096 ;
1097 [label="Biography <= 0.5\ngini = 0.486\nsamples = 540\nvalue = [315, 225]"] ;
1096 -> 1097 ;
1098 [label="Thriller <= 0.5\ngini = 0.477\nsamples = 512\nvalue = [311, 201]"] ;
1097 -> 1098 ;
1099 [label="Duree <= 107.5\ngini = 0.499\nsamples = 284\nvalue = [149, 135]"] ;
1098 -> 1099 ;
1100 [label="Animation <= 0.5\ngini = 0.481\nsamples = 189\nvalue = [113, 76]"] ;
1099 -> 1100 ;
1101 [label="budget <= 32500000.0\ngini = 0.464\nsamples = 172\nvalue = [109, 63]"] ;
1100 -> 1101 ;
1102 [label="annee <= 1996.5\ngini = 0.495\nsamples = 116\nvalue = [64, 52]"] ;
1101 -> 1102 ;
1103 [label="Music <= 0.5\ngini = 0.444\nsamples = 27\nvalue = [9, 18]"] ;
1102 -> 1103 ;
1104 [label="Sci-Fi <= 0.5\ngini = 0.403\nsamples = 25\nvalue = [7, 18]"] ;
1103 -> 1104 ;
1105 [label="budget <= 26000000.0\ngini = 0.375\nsamples = 24\nvalue = [6, 18]"] ;
1104 -> 1105 ;
1106 [label="annee <= 1988.5\ngini = 0.432\nsamples = 19\nvalue = [6, 13]"] ;
1105 -> 1106 ;
1107 [label="Duree <= 101.5\ngini = 0.375\nsamples = 4\nvalue = [3, 1]"] ;
1106 -> 1107 ;
1108 [label="gini = 0.0\nsamples = 2\nvalue = [2, 0]"] ;
1107 -> 1108 ;
1109 [label="gini = 0.5\nsamples = 2\nvalue = [1, 1]"] ;
1107 -> 1109 ;
1110 [label="Family <= 0.5\ngini = 0.32\nsamples = 15\nvalue = [3, 12]"] ;
1106 -> 1110 ;
1111 [label="gini = 0.165\nsamples = 11\nvalue = [1, 10]"] ;
1110 -> 1111 ;
1112 [label="gini = 0.5\nsamples = 4\nvalue = [2, 2]"] ;
1110 -> 1112 ;
1113 [label="gini = 0.0\nsamples = 5\nvalue = [0, 5]"] ;
1105 -> 1113 ;
1114 [label="gini = 0.0\nsamples = 1\nvalue = [1, 0]"] ;
1104 -> 1114 ;
1115 [label="gini = 0.0\nsamples = 2\nvalue = [2, 0]"] ;
1103 -> 1115 ;
1116 [label="budget <= 17600000.0\ngini = 0.472\nsamples = 89\nvalue = [55, 34]"] ;
1102 -> 1116 ;
1117 [label="Duree <= 99.0\ngini = 0.463\nsamples = 11\nvalue = [4, 7]"] ;
1116 -> 1117 ;
1118 [label="Duree <= 88.5\ngini = 0.346\nsamples = 9\nvalue = [2, 7]"] ;
1117 -> 1118 ;
1119 [label="gini = 0.0\nsamples = 1\nvalue = [1, 0]"] ;
1118 -> 1119 ;
1120 [label="annee <= 2002.5\ngini = 0.219\nsamples = 8\nvalue = [1, 7]"] ;
1118 -> 1120 ;
1121 [label="annee <= 1999.5\ngini = 0.5\nsamples = 2\nvalue = [1, 1]"] ;
1120 -> 1121 ;
1122 [label="gini = 0.0\nsamples = 1\nvalue = [0, 1]"] ;
1121 -> 1122 ;
1123 [label="gini = 0.0\nsamples = 1\nvalue = [1, 0]"] ;
1121 -> 1123 ;
1124 [label="gini = 0.0\nsamples = 6\nvalue = [0, 6]"] ;
1120 -> 1124 ;
1125 [label="gini = 0.0\nsamples = 2\nvalue = [2, 0]"] ;
1117 -> 1125 ;
1126 [label="Duree <= 81.5\ngini = 0.453\nsamples = 78\nvalue = [51, 27]"] ;
1116 -> 1126 ;
1127 [label="gini = 0.0\nsamples = 2\nvalue = [0, 2]"] ;
1126 -> 1127 ;
1128 [label="Duree <= 94.5\ngini = 0.441\nsamples = 76\nvalue = [51, 25]"] ;
1126 -> 1128 ;
1129 [label="annee <= 2010.0\ngini = 0.153\nsamples = 12\nvalue = [11, 1]"] ;
1128 -> 1129 ;
1130 [label="gini = 0.0\nsamples = 10\nvalue = [10, 0]"] ;
1129 -> 1130 ;
1131 [label="Duree <= 88.0\ngini = 0.5\nsamples = 2\nvalue = [1, 1]"] ;
1129 -> 1131 ;
1132 [label="gini = 0.0\nsamples = 1\nvalue = [1, 0]"] ;
1131 -> 1132 ;
1133 [label="gini = 0.0\nsamples = 1\nvalue = [0, 1]"] ;
1131 -> 1133 ;
1134 [label="annee <= 2009.5\ngini = 0.469\nsamples = 64\nvalue = [40, 24]"] ;
1128 -> 1134 ;
1135 [label="Sport <= 0.5\ngini = 0.499\nsamples = 44\nvalue = [23, 21]"] ;
1134 -> 1135 ;
1136 [label="gini = 0.499\nsamples = 40\nvalue = [19, 21]"] ;
1135 -> 1136 ;
1137 [label="gini = 0.0\nsamples = 4\nvalue = [4, 0]"] ;
1135 -> 1137 ;
1138 [label="budget <= 18500000.0\ngini = 0.255\nsamples = 20\nvalue = [17, 3]"] ;
1134 -> 1138 ;
1139 [label="gini = 0.0\nsamples = 1\nvalue = [0, 1]"] ;
1138 -> 1139 ;
1140 [label="gini = 0.188\nsamples = 19\nvalue = [17, 2]"] ;
1138 -> 1140 ;
1141 [label="budget <= 80500000.0\ngini = 0.316\nsamples = 56\nvalue = [45, 11]"] ;
1101 -> 1141 ;
1142 [label="annee <= 2005.5\ngini = 0.269\nsamples = 50\nvalue = [42, 8]"] ;
1141 -> 1142 ;
1143 [label="Duree <= 106.5\ngini = 0.121\nsamples = 31\nvalue = [29, 2]"] ;
1142 -> 1143 ;
1144 [label="budget <= 59000000.0\ngini = 0.069\nsamples = 28\nvalue = [27, 1]"] ;
1143 -> 1144 ;
1145 [label="gini = 0.0\nsamples = 22\nvalue = [22, 0]"] ;
1144 -> 1145 ;
1146 [label="Comedy <= 0.5\ngini = 0.278\nsamples = 6\nvalue = [5, 1]"] ;
1144 -> 1146 ;
1147 [label="Duree <= 101.0\ngini = 0.5\nsamples = 2\nvalue = [1, 1]"] ;
1146 -> 1147 ;
1148 [label="gini = 0.0\nsamples = 1\nvalue = [1, 0]"] ;
1147 -> 1148 ;
1149 [label="gini = 0.0\nsamples = 1\nvalue = [0, 1]"] ;
1147 -> 1149 ;
1150 [label="gini = 0.0\nsamples = 4\nvalue = [4, 0]"] ;
1146 -> 1150 ;
1151 [label="budget <= 40000000.0\ngini = 0.444\nsamples = 3\nvalue = [2, 1]"] ;
1143 -> 1151 ;
1152 [label="gini = 0.0\nsamples = 1\nvalue = [0, 1]"] ;
1151 -> 1152 ;
1153 [label="gini = 0.0\nsamples = 2\nvalue = [2, 0]"] ;
1151 -> 1153 ;
1154 [label="Sci-Fi <= 0.5\ngini = 0.432\nsamples = 19\nvalue = [13, 6]"] ;
1142 -> 1154 ;
1155 [label="Crime <= 0.5\ngini = 0.36\nsamples = 17\nvalue = [13, 4]"] ;
1154 -> 1155 ;
1156 [label="Adventure <= 0.5\ngini = 0.245\nsamples = 14\nvalue = [12, 2]"] ;
1155 -> 1156 ;
1157 [label="annee <= 2006.5\ngini = 0.142\nsamples = 13\nvalue = [12, 1]"] ;
1156 -> 1157 ;
1158 [label="gini = 0.444\nsamples = 3\nvalue = [2, 1]"] ;
1157 -> 1158 ;
1159 [label="gini = 0.0\nsamples = 10\nvalue = [10, 0]"] ;
1157 -> 1159 ;
1160 [label="gini = 0.0\nsamples = 1\nvalue = [0, 1]"] ;
1156 -> 1160 ;
1161 [label="Action <= 0.5\ngini = 0.444\nsamples = 3\nvalue = [1, 2]"] ;
1155 -> 1161 ;
1162 [label="gini = 0.0\nsamples = 2\nvalue = [0, 2]"] ;
1161 -> 1162 ;
1163 [label="gini = 0.0\nsamples = 1\nvalue = [1, 0]"] ;
1161 -> 1163 ;
1164 [label="gini = 0.0\nsamples = 2\nvalue = [0, 2]"] ;
1154 -> 1164 ;
1165 [label="annee <= 2010.5\ngini = 0.5\nsamples = 6\nvalue = [3, 3]"] ;
1141 -> 1165 ;
1166 [label="gini = 0.0\nsamples = 3\nvalue = [0, 3]"] ;
1165 -> 1166 ;
1167 [label="gini = 0.0\nsamples = 3\nvalue = [3, 0]"] ;
1165 -> 1167 ;
1168 [label="budget <= 42500000.0\ngini = 0.36\nsamples = 17\nvalue = [4, 13]"] ;
1100 -> 1168 ;
1169 [label="Comedy <= 0.5\ngini = 0.49\nsamples = 7\nvalue = [4, 3]"] ;
1168 -> 1169 ;
1170 [label="Duree <= 97.0\ngini = 0.375\nsamples = 4\nvalue = [1, 3]"] ;
1169 -> 1170 ;
1171 [label="gini = 0.0\nsamples = 3\nvalue = [0, 3]"] ;
1170 -> 1171 ;
1172 [label="gini = 0.0\nsamples = 1\nvalue = [1, 0]"] ;
1170 -> 1172 ;
1173 [label="gini = 0.0\nsamples = 3\nvalue = [3, 0]"] ;
1169 -> 1173 ;
1174 [label="gini = 0.0\nsamples = 10\nvalue = [0, 10]"] ;
1168 -> 1174 ;
1175 [label="annee <= 2005.5\ngini = 0.471\nsamples = 95\nvalue = [36, 59]"] ;
1099 -> 1175 ;
1176 [label="Sport <= 0.5\ngini = 0.386\nsamples = 46\nvalue = [12, 34]"] ;
1175 -> 1176 ;
1177 [label="annee <= 1980.5\ngini = 0.369\nsamples = 45\nvalue = [11, 34]"] ;
1176 -> 1177 ;
1178 [label="gini = 0.0\nsamples = 1\nvalue = [1, 0]"] ;
1177 -> 1178 ;
1179 [label="annee <= 1992.5\ngini = 0.351\nsamples = 44\nvalue = [10, 34]"] ;
1177 -> 1179 ;
1180 [label="gini = 0.0\nsamples = 10\nvalue = [0, 10]"] ;
1179 -> 1180 ;
1181 [label="annee <= 1994.0\ngini = 0.415\nsamples = 34\nvalue = [10, 24]"] ;
1179 -> 1181 ;
1182 [label="gini = 0.0\nsamples = 1\nvalue = [1, 0]"] ;
1181 -> 1182 ;
1183 [label="budget <= 22000000.0\ngini = 0.397\nsamples = 33\nvalue = [9, 24]"] ;
1181 -> 1183 ;
1184 [label="gini = 0.0\nsamples = 8\nvalue = [0, 8]"] ;
1183 -> 1184 ;
1185 [label="Comedy <= 0.5\ngini = 0.461\nsamples = 25\nvalue = [9, 16]"] ;
1183 -> 1185 ;
1186 [label="annee <= 1999.5\ngini = 0.298\nsamples = 11\nvalue = [2, 9]"] ;
1185 -> 1186 ;
1187 [label="gini = 0.48\nsamples = 5\nvalue = [2, 3]"] ;
1186 -> 1187 ;
1188 [label="gini = 0.0\nsamples = 6\nvalue = [0, 6]"] ;
1186 -> 1188 ;
1189 [label="budget <= 61000000.0\ngini = 0.5\nsamples = 14\nvalue = [7, 7]"] ;
1185 -> 1189 ;
1190 [label="gini = 0.486\nsamples = 12\nvalue = [7, 5]"] ;
1189 -> 1190 ;
1191 [label="gini = 0.0\nsamples = 2\nvalue = [0, 2]"] ;
1189 -> 1191 ;
1192 [label="gini = 0.0\nsamples = 1\nvalue = [1, 0]"] ;
1176 -> 1192 ;
1193 [label="budget <= 100000000.0\ngini = 0.5\nsamples = 49\nvalue = [24, 25]"] ;
1175 -> 1193 ;
1194 [label="Music <= 0.5\ngini = 0.496\nsamples = 46\nvalue = [21, 25]"] ;
1193 -> 1194 ;
1195 [label="Family <= 0.5\ngini = 0.491\nsamples = 44\nvalue = [19, 25]"] ;
1194 -> 1195 ;
1196 [label="budget <= 51500000.0\ngini = 0.497\nsamples = 41\nvalue = [19, 22]"] ;
1195 -> 1196 ;
1197 [label="Fantasy <= 0.5\ngini = 0.486\nsamples = 36\nvalue = [15, 21]"] ;
1196 -> 1197 ;
1198 [label="Duree <= 111.5\ngini = 0.493\nsamples = 34\nvalue = [15, 19]"] ;
1197 -> 1198 ;
1199 [label="Romance <= 0.5\ngini = 0.444\nsamples = 18\nvalue = [6, 12]"] ;
1198 -> 1199 ;
1200 [label="gini = 0.18\nsamples = 10\nvalue = [1, 9]"] ;
1199 -> 1200 ;
1201 [label="gini = 0.469\nsamples = 8\nvalue = [5, 3]"] ;
1199 -> 1201 ;
1202 [label="Duree <= 112.5\ngini = 0.492\nsamples = 16\nvalue = [9, 7]"] ;
1198 -> 1202 ;
1203 [label="gini = 0.32\nsamples = 5\nvalue = [4, 1]"] ;
1202 -> 1203 ;
1204 [label="gini = 0.496\nsamples = 11\nvalue = [5, 6]"] ;
1202 -> 1204 ;
1205 [label="gini = 0.0\nsamples = 2\nvalue = [0, 2]"] ;
1197 -> 1205 ;
1206 [label="budget <= 82500000.0\ngini = 0.32\nsamples = 5\nvalue = [4, 1]"] ;
1196 -> 1206 ;
1207 [label="gini = 0.0\nsamples = 4\nvalue = [4, 0]"] ;
1206 -> 1207 ;
1208 [label="gini = 0.0\nsamples = 1\nvalue = [0, 1]"] ;
1206 -> 1208 ;
1209 [label="gini = 0.0\nsamples = 3\nvalue = [0, 3]"] ;
1195 -> 1209 ;
1210 [label="gini = 0.0\nsamples = 2\nvalue = [2, 0]"] ;
1194 -> 1210 ;
1211 [label="gini = 0.0\nsamples = 3\nvalue = [3, 0]"] ;
1193 -> 1211 ;
1212 [label="Duree <= 104.5\ngini = 0.411\nsamples = 228\nvalue = [162, 66]"] ;
1098 -> 1212 ;
1213 [label="War <= 0.5\ngini = 0.308\nsamples = 105\nvalue = [85, 20]"] ;
1212 -> 1213 ;
1214 [label="Crime <= 0.5\ngini = 0.291\nsamples = 102\nvalue = [84, 18]"] ;
1213 -> 1214 ;
1215 [label="Duree <= 80.0\ngini = 0.153\nsamples = 48\nvalue = [44, 4]"] ;
1214 -> 1215 ;
1216 [label="gini = 0.0\nsamples = 1\nvalue = [0, 1]"] ;
1215 -> 1216 ;
1217 [label="budget <= 49000000.0\ngini = 0.12\nsamples = 47\nvalue = [44, 3]"] ;
1215 -> 1217 ;
1218 [label="Sci-Fi <= 0.5\ngini = 0.053\nsamples = 37\nvalue = [36, 1]"] ;
1217 -> 1218 ;
1219 [label="gini = 0.0\nsamples = 26\nvalue = [26, 0]"] ;
1218 -> 1219 ;
1220 [label="Mystery <= 0.5\ngini = 0.165\nsamples = 11\nvalue = [10, 1]"] ;
1218 -> 1220 ;
1221 [label="gini = 0.0\nsamples = 7\nvalue = [7, 0]"] ;
1220 -> 1221 ;
1222 [label="budget <= 29500000.0\ngini = 0.375\nsamples = 4\nvalue = [3, 1]"] ;
1220 -> 1222 ;
1223 [label="Horror <= 0.5\ngini = 0.5\nsamples = 2\nvalue = [1, 1]"] ;
1222 -> 1223 ;
1224 [label="gini = 0.0\nsamples = 1\nvalue = [1, 0]"] ;
1223 -> 1224 ;
1225 [label="gini = 0.0\nsamples = 1\nvalue = [0, 1]"] ;
1223 -> 1225 ;
1226 [label="gini = 0.0\nsamples = 2\nvalue = [2, 0]"] ;
1222 -> 1226 ;
1227 [label="budget <= 52500000.0\ngini = 0.32\nsamples = 10\nvalue = [8, 2]"] ;
1217 -> 1227 ;
1228 [label="gini = 0.0\nsamples = 1\nvalue = [0, 1]"] ;
1227 -> 1228 ;
1229 [label="budget <= 120000000.0\ngini = 0.198\nsamples = 9\nvalue = [8, 1]"] ;
1227 -> 1229 ;
1230 [label="gini = 0.0\nsamples = 6\nvalue = [6, 0]"] ;
1229 -> 1230 ;
1231 [label="Duree <= 103.5\ngini = 0.444\nsamples = 3\nvalue = [2, 1]"] ;
1229 -> 1231 ;
1232 [label="gini = 0.0\nsamples = 2\nvalue = [2, 0]"] ;
1231 -> 1232 ;
1233 [label="gini = 0.0\nsamples = 1\nvalue = [0, 1]"] ;
1231 -> 1233 ;
1234 [label="budget <= 21000000.0\ngini = 0.384\nsamples = 54\nvalue = [40, 14]"] ;
1214 -> 1234 ;
1235 [label="Duree <= 93.0\ngini = 0.486\nsamples = 12\nvalue = [5, 7]"] ;
1234 -> 1235 ;
1236 [label="gini = 0.0\nsamples = 2\nvalue = [2, 0]"] ;
1235 -> 1236 ;
1237 [label="budget <= 19125000.0\ngini = 0.42\nsamples = 10\nvalue = [3, 7]"] ;
1235 -> 1237 ;
1238 [label="annee <= 2007.5\ngini = 0.5\nsamples = 6\nvalue = [3, 3]"] ;
1237 -> 1238 ;
1239 [label="budget <= 18500000.0\ngini = 0.375\nsamples = 4\nvalue = [1, 3]"] ;
1238 -> 1239 ;
1240 [label="gini = 0.0\nsamples = 3\nvalue = [0, 3]"] ;
1239 -> 1240 ;
1241 [label="gini = 0.0\nsamples = 1\nvalue = [1, 0]"] ;
1239 -> 1241 ;
1242 [label="gini = 0.0\nsamples = 2\nvalue = [2, 0]"] ;
1238 -> 1242 ;
1243 [label="gini = 0.0\nsamples = 4\nvalue = [0, 4]"] ;
1237 -> 1243 ;
1244 [label="annee <= 2005.5\ngini = 0.278\nsamples = 42\nvalue = [35, 7]"] ;
1234 -> 1244 ;
1245 [label="Duree <= 90.5\ngini = 0.397\nsamples = 22\nvalue = [16, 6]"] ;
1244 -> 1245 ;
1246 [label="gini = 0.0\nsamples = 1\nvalue = [0, 1]"] ;
1245 -> 1246 ;
1247 [label="annee <= 2004.5\ngini = 0.363\nsamples = 21\nvalue = [16, 5]"] ;
1245 -> 1247 ;
1248 [label="budget <= 37000000.0\ngini = 0.278\nsamples = 18\nvalue = [15, 3]"] ;
1247 -> 1248 ;
