digraph Tree {
node [shape=box] ;
0 [label="Drama <= 0.5\ngini = 0.491\nsamples = 4587\nvalue = [1985, 2602]"] ;
1 [label="annee <= 1984.5\ngini = 0.489\nsamples = 2318\nvalue = [1330, 988]"] ;
0 -> 1 [labeldistance=2.5, labelangle=45, headlabel="True"] ;
2 [label="annee <= 1976.5\ngini = 0.328\nsamples = 319\nvalue = [66, 253]"] ;
1 -> 2 ;
3 [label="budget <= 95000.0\ngini = 0.169\nsamples = 183\nvalue = [17, 166]"] ;
2 -> 3 ;
4 [label="annee <= 1958.5\ngini = 0.497\nsamples = 13\nvalue = [6, 7]"] ;
3 -> 4 ;
5 [label="gini = 0.0\nsamples = 5\nvalue = [0, 5]"] ;
4 -> 5 ;
6 [label="Thriller <= 0.5\ngini = 0.375\nsamples = 8\nvalue = [6, 2]"] ;
4 -> 6 ;
7 [label="budget <= 71766.0\ngini = 0.245\nsamples = 7\nvalue = [6, 1]"] ;
6 -> 7 ;
8 [label="gini = 0.0\nsamples = 5\nvalue = [5, 0]"] ;
7 -> 8 ;
9 [label="annee <= 1973.0\ngini = 0.5\nsamples = 2\nvalue = [1, 1]"] ;
7 -> 9 ;
10 [label="gini = 0.0\nsamples = 1\nvalue = [1, 0]"] ;
9 -> 10 ;
11 [label="gini = 0.0\nsamples = 1\nvalue = [0, 1]"] ;
9 -> 11 ;
12 [label="gini = 0.0\nsamples = 1\nvalue = [0, 1]"] ;
6 -> 12 ;
13 [label="Sci-Fi <= 0.5\ngini = 0.121\nsamples = 170\nvalue = [11, 159]"] ;
3 -> 13 ;
14 [label="budget <= 22000000.0\ngini = 0.054\nsamples = 145\nvalue = [4, 141]"] ;
13 -> 14 ;
15 [label="budget <= 11000000.0\ngini = 0.041\nsamples = 144\nvalue = [3, 141]"] ;
14 -> 15 ;
16 [label="annee <= 1965.5\ngini = 0.029\nsamples = 137\nvalue = [2, 135]"] ;
15 -> 16 ;
17 [label="gini = 0.0\nsamples = 77\nvalue = [0, 77]"] ;
16 -> 17 ;
18 [label="Family <= 0.5\ngini = 0.064\nsamples = 60\nvalue = [2, 58]"] ;
16 -> 18 ;
19 [label="Duree <= 124.0\ngini = 0.035\nsamples = 56\nvalue = [1, 55]"] ;
18 -> 19 ;
20 [label="gini = 0.0\nsamples = 45\nvalue = [0, 45]"] ;
19 -> 20 ;
21 [label="Duree <= 127.0\ngini = 0.165\nsamples = 11\nvalue = [1, 10]"] ;
19 -> 21 ;
22 [label="budget <= 2500000.0\ngini = 0.5\nsamples = 2\nvalue = [1, 1]"] ;
21 -> 22 ;
23 [label="gini = 0.0\nsamples = 1\nvalue = [0, 1]"] ;
22 -> 23 ;
24 [label="gini = 0.0\nsamples = 1\nvalue = [1, 0]"] ;
22 -> 24 ;
25 [label="gini = 0.0\nsamples = 9\nvalue = [0, 9]"] ;
21 -> 25 ;
26 [label="budget <= 2188900.0\ngini = 0.375\nsamples = 4\nvalue = [1, 3]"] ;
18 -> 26 ;
27 [label="gini = 0.0\nsamples = 1\nvalue = [1, 0]"] ;
26 -> 27 ;
28 [label="gini = 0.0\nsamples = 3\nvalue = [0, 3]"] ;
26 -> 28 ;
29 [label="budget <= 12500000.0\ngini = 0.245\nsamples = 7\nvalue = [1, 6]"] ;
15 -> 29 ;
30 [label="annee <= 1966.0\ngini = 0.5\nsamples = 2\nvalue = [1, 1]"] ;
29 -> 30 ;
31 [label="gini = 0.0\nsamples = 1\nvalue = [0, 1]"] ;
30 -> 31 ;
32 [label="gini = 0.0\nsamples = 1\nvalue = [1, 0]"] ;
30 -> 32 ;
33 [label="gini = 0.0\nsamples = 5\nvalue = [0, 5]"] ;
29 -> 33 ;
34 [label="gini = 0.0\nsamples = 1\nvalue = [1, 0]"] ;
14 -> 34 ;
35 [label="Action <= 0.5\ngini = 0.403\nsamples = 25\nvalue = [7, 18]"] ;
13 -> 35 ;
36 [label="budget <= 265500.0\ngini = 0.208\nsamples = 17\nvalue = [2, 15]"] ;
35 -> 36 ;
37 [label="annee <= 1966.5\ngini = 0.5\nsamples = 2\nvalue = [1, 1]"] ;
36 -> 37 ;
38 [label="gini = 0.0\nsamples = 1\nvalue = [1, 0]"] ;
37 -> 38 ;
39 [label="gini = 0.0\nsamples = 1\nvalue = [0, 1]"] ;
37 -> 39 ;
40 [label="Comedy <= 0.5\ngini = 0.124\nsamples = 15\nvalue = [1, 14]"] ;
36 -> 40 ;
41 [label="gini = 0.0\nsamples = 12\nvalue = [0, 12]"] ;
40 -> 41 ;
42 [label="Duree <= 94.0\ngini = 0.444\nsamples = 3\nvalue = [1, 2]"] ;
40 -> 42 ;
43 [label="gini = 0.0\nsamples = 2\nvalue = [0, 2]"] ;
42 -> 43 ;
44 [label="gini = 0.0\nsamples = 1\nvalue = [1, 0]"] ;
42 -> 44 ;
45 [label="annee <= 1963.0\ngini = 0.469\nsamples = 8\nvalue = [5, 3]"] ;
35 -> 45 ;
46 [label="gini = 0.0\nsamples = 2\nvalue = [0, 2]"] ;
45 -> 46 ;
47 [label="budget <= 6837500.0\ngini = 0.278\nsamples = 6\nvalue = [5, 1]"] ;
45 -> 47 ;
48 [label="gini = 0.0\nsamples = 5\nvalue = [5, 0]"] ;
47 -> 48 ;
49 [label="gini = 0.0\nsamples = 1\nvalue = [0, 1]"] ;
47 -> 49 ;
50 [label="budget <= 33250000.0\ngini = 0.461\nsamples = 136\nvalue = [49, 87]"] ;
2 -> 50 ;
51 [label="Horror <= 0.5\ngini = 0.443\nsamples = 127\nvalue = [42, 85]"] ;
50 -> 51 ;
52 [label="Sci-Fi <= 0.5\ngini = 0.362\nsamples = 80\nvalue = [19, 61]"] ;
51 -> 52 ;
53 [label="Fantasy <= 0.5\ngini = 0.419\nsamples = 57\nvalue = [17, 40]"] ;
52 -> 53 ;
54 [label="budget <= 1390000.0\ngini = 0.351\nsamples = 44\nvalue = [10, 34]"] ;
53 -> 54 ;
55 [label="gini = 0.0\nsamples = 2\nvalue = [2, 0]"] ;
54 -> 55 ;
56 [label="Action <= 0.5\ngini = 0.308\nsamples = 42\nvalue = [8, 34]"] ;
54 -> 56 ;
57 [label="War <= 0.5\ngini = 0.191\nsamples = 28\nvalue = [3, 25]"] ;
56 -> 57 ;
58 [label="Duree <= 86.5\ngini = 0.142\nsamples = 26\nvalue = [2, 24]"] ;
57 -> 58 ;
59 [label="Duree <= 84.5\ngini = 0.444\nsamples = 3\nvalue = [1, 2]"] ;
58 -> 59 ;
60 [label="gini = 0.0\nsamples = 2\nvalue = [0, 2]"] ;
59 -> 60 ;
61 [label="gini = 0.0\nsamples = 1\nvalue = [1, 0]"] ;
59 -> 61 ;
62 [label="Duree <= 95.0\ngini = 0.083\nsamples = 23\nvalue = [1, 22]"] ;
58 -> 62 ;
63 [label="Duree <= 93.5\ngini = 0.198\nsamples = 9\nvalue = [1, 8]"] ;
62 -> 63 ;
64 [label="gini = 0.0\nsamples = 5\nvalue = [0, 5]"] ;
63 -> 64 ;
65 [label="annee <= 1980.0\ngini = 0.375\nsamples = 4\nvalue = [1, 3]"] ;
63 -> 65 ;
66 [label="gini = 0.0\nsamples = 2\nvalue = [0, 2]"] ;
65 -> 66 ;
67 [label="annee <= 1982.0\ngini = 0.5\nsamples = 2\nvalue = [1, 1]"] ;
65 -> 67 ;
68 [label="gini = 0.0\nsamples = 1\nvalue = [1, 0]"] ;
67 -> 68 ;
69 [label="gini = 0.0\nsamples = 1\nvalue = [0, 1]"] ;
67 -> 69 ;
70 [label="gini = 0.0\nsamples = 14\nvalue = [0, 14]"] ;
62 -> 70 ;
71 [label="Duree <= 113.0\ngini = 0.5\nsamples = 2\nvalue = [1, 1]"] ;
57 -> 71 ;
72 [label="gini = 0.0\nsamples = 1\nvalue = [1, 0]"] ;
71 -> 72 ;
73 [label="gini = 0.0\nsamples = 1\nvalue = [0, 1]"] ;
71 -> 73 ;
74 [label="budget <= 9500000.0\ngini = 0.459\nsamples = 14\nvalue = [5, 9]"] ;
56 -> 74 ;
75 [label="Duree <= 122.0\ngini = 0.32\nsamples = 5\nvalue = [4, 1]"] ;
74 -> 75 ;
76 [label="gini = 0.0\nsamples = 4\nvalue = [4, 0]"] ;
75 -> 76 ;
77 [label="gini = 0.0\nsamples = 1\nvalue = [0, 1]"] ;
75 -> 77 ;
78 [label="Duree <= 100.0\ngini = 0.198\nsamples = 9\nvalue = [1, 8]"] ;
74 -> 78 ;
79 [label="annee <= 1981.5\ngini = 0.5\nsamples = 2\nvalue = [1, 1]"] ;
78 -> 79 ;
80 [label="gini = 0.0\nsamples = 1\nvalue = [1, 0]"] ;
79 -> 80 ;
81 [label="gini = 0.0\nsamples = 1\nvalue = [0, 1]"] ;
79 -> 81 ;
82 [label="gini = 0.0\nsamples = 7\nvalue = [0, 7]"] ;
78 -> 82 ;
83 [label="Musical <= 0.5\ngini = 0.497\nsamples = 13\nvalue = [7, 6]"] ;
53 -> 83 ;
84 [label="annee <= 1982.5\ngini = 0.48\nsamples = 10\nvalue = [4, 6]"] ;
83 -> 84 ;
85 [label="Duree <= 130.5\ngini = 0.278\nsamples = 6\nvalue = [1, 5]"] ;
84 -> 85 ;
86 [label="gini = 0.0\nsamples = 5\nvalue = [0, 5]"] ;
85 -> 86 ;
87 [label="gini = 0.0\nsamples = 1\nvalue = [1, 0]"] ;
85 -> 87 ;
88 [label="budget <= 29500000.0\ngini = 0.375\nsamples = 4\nvalue = [3, 1]"] ;
84 -> 88 ;
89 [label="gini = 0.0\nsamples = 3\nvalue = [3, 0]"] ;
88 -> 89 ;
90 [label="gini = 0.0\nsamples = 1\nvalue = [0, 1]"] ;
88 -> 90 ;
91 [label="gini = 0.0\nsamples = 3\nvalue = [3, 0]"] ;
83 -> 91 ;
92 [label="budget <= 19000000.0\ngini = 0.159\nsamples = 23\nvalue = [2, 21]"] ;
52 -> 92 ;
93 [label="gini = 0.0\nsamples = 17\nvalue = [0, 17]"] ;
92 -> 93 ;
94 [label="budget <= 24500000.0\ngini = 0.444\nsamples = 6\nvalue = [2, 4]"] ;
92 -> 94 ;
95 [label="gini = 0.0\nsamples = 2\nvalue = [2, 0]"] ;
94 -> 95 ;
96 [label="gini = 0.0\nsamples = 4\nvalue = [0, 4]"] ;
94 -> 96 ;
97 [label="Thriller <= 0.5\ngini = 0.5\nsamples = 47\nvalue = [23, 24]"] ;
51 -> 97 ;
98 [label="Duree <= 108.0\ngini = 0.482\nsamples = 37\nvalue = [15, 22]"] ;
97 -> 98 ;
99 [label="budget <= 900000.0\ngini = 0.5\nsamples = 30\nvalue = [15, 15]"] ;
98 -> 99 ;
100 [label="budget <= 437500.0\ngini = 0.444\nsamples = 15\nvalue = [10, 5]"] ;
99 -> 100 ;
101 [label="Duree <= 87.0\ngini = 0.494\nsamples = 9\nvalue = [4, 5]"] ;
100 -> 101 ;
102 [label="budget <= 375000.0\ngini = 0.32\nsamples = 5\nvalue = [4, 1]"] ;
101 -> 102 ;
103 [label="gini = 0.0\nsamples = 4\nvalue = [4, 0]"] ;
102 -> 103 ;
104 [label="gini = 0.0\nsamples = 1\nvalue = [0, 1]"] ;
102 -> 104 ;
105 [label="gini = 0.0\nsamples = 4\nvalue = [0, 4]"] ;
101 -> 105 ;
106 [label="gini = 0.0\nsamples = 6\nvalue = [6, 0]"] ;
100 -> 106 ;
107 [label="budget <= 2250000.0\ngini = 0.444\nsamples = 15\nvalue = [5, 10]"] ;
99 -> 107 ;
108 [label="gini = 0.0\nsamples = 5\nvalue = [0, 5]"] ;
107 -> 108 ;
109 [label="budget <= 2890000.0\ngini = 0.5\nsamples = 10\nvalue = [5, 5]"] ;
107 -> 109 ;
110 [label="gini = 0.0\nsamples = 2\nvalue = [2, 0]"] ;
109 -> 110 ;
111 [label="budget <= 6440000.0\ngini = 0.469\nsamples = 8\nvalue = [3, 5]"] ;
109 -> 111 ;
112 [label="gini = 0.0\nsamples = 3\nvalue = [0, 3]"] ;
111 -> 112 ;
113 [label="Comedy <= 0.5\ngini = 0.48\nsamples = 5\nvalue = [3, 2]"] ;
111 -> 113 ;
114 [label="gini = 0.0\nsamples = 3\nvalue = [3, 0]"] ;
113 -> 114 ;
115 [label="gini = 0.0\nsamples = 2\nvalue = [0, 2]"] ;
113 -> 115 ;
116 [label="gini = 0.0\nsamples = 7\nvalue = [0, 7]"] ;
98 -> 116 ;
117 [label="budget <= 775000.0\ngini = 0.32\nsamples = 10\nvalue = [8, 2]"] ;
97 -> 117 ;
118 [label="gini = 0.0\nsamples = 1\nvalue = [0, 1]"] ;
117 -> 118 ;
119 [label="Sci-Fi <= 0.5\ngini = 0.198\nsamples = 9\nvalue = [8, 1]"] ;
117 -> 119 ;
120 [label="gini = 0.0\nsamples = 7\nvalue = [7, 0]"] ;
119 -> 120 ;
121 [label="Duree <= 102.0\ngini = 0.5\nsamples = 2\nvalue = [1, 1]"] ;
119 -> 121 ;
122 [label="gini = 0.0\nsamples = 1\nvalue = [1, 0]"] ;
121 -> 122 ;
123 [label="gini = 0.0\nsamples = 1\nvalue = [0, 1]"] ;
121 -> 123 ;
124 [label="budget <= 39500000.0\ngini = 0.346\nsamples = 9\nvalue = [7, 2]"] ;
50 -> 124 ;
125 [label="gini = 0.0\nsamples = 7\nvalue = [7, 0]"] ;
124 -> 125 ;
126 [label="gini = 0.0\nsamples = 2\nvalue = [0, 2]"] ;
124 -> 126 ;
127 [label="Duree <= 110.5\ngini = 0.465\nsamples = 1999\nvalue = [1264, 735]"] ;
1 -> 127 ;
128 [label="Animation <= 0.5\ngini = 0.418\nsamples = 1487\nvalue = [1045, 442]"] ;
127 -> 128 ;
129 [label="budget <= 6160000.0\ngini = 0.384\nsamples = 1335\nvalue = [989, 346]"] ;
128 -> 129 ;
130 [label="Horror <= 0.5\ngini = 0.494\nsamples = 222\nvalue = [123, 99]"] ;
129 -> 130 ;
131 [label="annee <= 2003.5\ngini = 0.478\nsamples = 104\nvalue = [41, 63]"] ;
130 -> 131 ;
132 [label="Sport <= 0.5\ngini = 0.343\nsamples = 41\nvalue = [9, 32]"] ;
131 -> 132 ;
133 [label="Duree <= 86.5\ngini = 0.32\nsamples = 40\nvalue = [8, 32]"] ;
132 -> 133 ;
134 [label="Action <= 0.5\ngini = 0.48\nsamples = 5\nvalue = [2, 3]"] ;
133 -> 134 ;
135 [label="gini = 0.0\nsamples = 3\nvalue = [0, 3]"] ;
134 -> 135 ;
136 [label="gini = 0.0\nsamples = 2\nvalue = [2, 0]"] ;
134 -> 136 ;
137 [label="Comedy <= 0.5\ngini = 0.284\nsamples = 35\nvalue = [6, 29]"] ;
133 -> 137 ;
138 [label="gini = 0.0\nsamples = 7\nvalue = [0, 7]"] ;
137 -> 138 ;
139 [label="budget <= 3433000.0\ngini = 0.337\nsamples = 28\nvalue = [6, 22]"] ;
137 -> 139 ;
140 [label="budget <= 450000.0\ngini = 0.231\nsamples = 15\nvalue = [2, 13]"] ;
139 -> 140 ;
141 [label="couleur <= 1.5\ngini = 0.5\nsamples = 2\nvalue = [1, 1]"] ;
140 -> 141 ;
142 [label="gini = 0.0\nsamples = 1\nvalue = [0, 1]"] ;
141 -> 142 ;
143 [label="gini = 0.0\nsamples = 1\nvalue = [1, 0]"] ;
141 -> 143 ;
144 [label="budget <= 1100000.0\ngini = 0.142\nsamples = 13\nvalue = [1, 12]"] ;
140 -> 144 ;
145 [label="annee <= 1995.5\ngini = 0.32\nsamples = 5\nvalue = [1, 4]"] ;
144 -> 145 ;
146 [label="gini = 0.0\nsamples = 3\nvalue = [0, 3]"] ;
145 -> 146 ;
147 [label="annee <= 1999.5\ngini = 0.5\nsamples = 2\nvalue = [1, 1]"] ;
145 -> 147 ;
148 [label="gini = 0.0\nsamples = 1\nvalue = [1, 0]"] ;
147 -> 148 ;
149 [label="gini = 0.0\nsamples = 1\nvalue = [0, 1]"] ;
147 -> 149 ;
150 [label="gini = 0.0\nsamples = 8\nvalue = [0, 8]"] ;
144 -> 150 ;
151 [label="budget <= 3750000.0\ngini = 0.426\nsamples = 13\nvalue = [4, 9]"] ;
139 -> 151 ;
152 [label="gini = 0.0\nsamples = 1\nvalue = [1, 0]"] ;
151 -> 152 ;
153 [label="Romance <= 0.5\ngini = 0.375\nsamples = 12\nvalue = [3, 9]"] ;
151 -> 153 ;
154 [label="Duree <= 104.0\ngini = 0.219\nsamples = 8\nvalue = [1, 7]"] ;
153 -> 154 ;
155 [label="gini = 0.0\nsamples = 6\nvalue = [0, 6]"] ;
154 -> 155 ;
156 [label="Duree <= 107.5\ngini = 0.5\nsamples = 2\nvalue = [1, 1]"] ;
154 -> 156 ;
157 [label="gini = 0.0\nsamples = 1\nvalue = [1, 0]"] ;
156 -> 157 ;
158 [label="gini = 0.0\nsamples = 1\nvalue = [0, 1]"] ;
156 -> 158 ;
159 [label="budget <= 5500000.0\ngini = 0.5\nsamples = 4\nvalue = [2, 2]"] ;
153 -> 159 ;
160 [label="gini = 0.0\nsamples = 2\nvalue = [0, 2]"] ;
159 -> 160 ;
161 [label="gini = 0.0\nsamples = 2\nvalue = [2, 0]"] ;
159 -> 161 ;
162 [label="gini = 0.0\nsamples = 1\nvalue = [1, 0]"] ;
132 -> 162 ;
163 [label="budget <= 2950000.0\ngini = 0.5\nsamples = 63\nvalue = [32, 31]"] ;
131 -> 163 ;
164 [label="budget <= 2250000.0\ngini = 0.436\nsamples = 28\nvalue = [9, 19]"] ;
163 -> 164 ;
165 [label="Comedy <= 0.5\ngini = 0.476\nsamples = 23\nvalue = [9, 14]"] ;
164 -> 165 ;
166 [label="Mystery <= 0.5\ngini = 0.198\nsamples = 9\nvalue = [1, 8]"] ;
165 -> 166 ;
167 [label="gini = 0.0\nsamples = 8\nvalue = [0, 8]"] ;
166 -> 167 ;
168 [label="gini = 0.0\nsamples = 1\nvalue = [1, 0]"] ;
166 -> 168 ;
169 [label="budget <= 450000.0\ngini = 0.49\nsamples = 14\nvalue = [8, 6]"] ;
165 -> 169 ;
170 [label="gini = 0.0\nsamples = 2\nvalue = [0, 2]"] ;
169 -> 170 ;
171 [label="Short <= 0.5\ngini = 0.444\nsamples = 12\nvalue = [8, 4]"] ;
169 -> 171 ;
172 [label="Crime <= 0.5\ngini = 0.397\nsamples = 11\nvalue = [8, 3]"] ;
171 -> 172 ;
173 [label="Duree <= 105.0\ngini = 0.32\nsamples = 10\nvalue = [8, 2]"] ;
172 -> 173 ;
174 [label="Documentary <= 0.5\ngini = 0.198\nsamples = 9\nvalue = [8, 1]"] ;
173 -> 174 ;
175 [label="gini = 0.0\nsamples = 7\nvalue = [7, 0]"] ;
174 -> 175 ;
176 [label="Duree <= 92.0\ngini = 0.5\nsamples = 2\nvalue = [1, 1]"] ;
174 -> 176 ;
177 [label="gini = 0.0\nsamples = 1\nvalue = [0, 1]"] ;
176 -> 177 ;
178 [label="gini = 0.0\nsamples = 1\nvalue = [1, 0]"] ;
176 -> 178 ;
179 [label="gini = 0.0\nsamples = 1\nvalue = [0, 1]"] ;
173 -> 179 ;
180 [label="gini = 0.0\nsamples = 1\nvalue = [0, 1]"] ;
172 -> 180 ;
181 [label="gini = 0.0\nsamples = 1\nvalue = [0, 1]"] ;
171 -> 181 ;
182 [label="gini = 0.0\nsamples = 5\nvalue = [0, 5]"] ;
164 -> 182 ;
183 [label="Duree <= 93.5\ngini = 0.451\nsamples = 35\nvalue = [23, 12]"] ;
163 -> 183 ;
184 [label="Adventure <= 0.5\ngini = 0.124\nsamples = 15\nvalue = [14, 1]"] ;
183 -> 184 ;
185 [label="gini = 0.0\nsamples = 13\nvalue = [13, 0]"] ;
184 -> 185 ;
186 [label="annee <= 2008.5\ngini = 0.5\nsamples = 2\nvalue = [1, 1]"] ;
184 -> 186 ;
187 [label="gini = 0.0\nsamples = 1\nvalue = [0, 1]"] ;
186 -> 187 ;
188 [label="gini = 0.0\nsamples = 1\nvalue = [1, 0]"] ;
186 -> 188 ;
189 [label="Action <= 0.5\ngini = 0.495\nsamples = 20\nvalue = [9, 11]"] ;
183 -> 189 ;
190 [label="Sci-Fi <= 0.5\ngini = 0.391\nsamples = 15\nvalue = [4, 11]"] ;
189 -> 190 ;
191 [label="annee <= 2009.5\ngini = 0.26\nsamples = 13\nvalue = [2, 11]"] ;
190 -> 191 ;
192 [label="annee <= 2006.5\ngini = 0.48\nsamples = 5\nvalue = [2, 3]"] ;
191 -> 192 ;
193 [label="gini = 0.0\nsamples = 3\nvalue = [0, 3]"] ;
192 -> 193 ;
194 [label="gini = 0.0\nsamples = 2\nvalue = [2, 0]"] ;
192 -> 194 ;
195 [label="gini = 0.0\nsamples = 8\nvalue = [0, 8]"] ;
191 -> 195 ;
196 [label="gini = 0.0\nsamples = 2\nvalue = [2, 0]"] ;
190 -> 196 ;
197 [label="gini = 0.0\nsamples = 5\nvalue = [5, 0]"] ;
189 -> 197 ;
198 [label="annee <= 2008.5\ngini = 0.424\nsamples = 118\nvalue = [82, 36]"] ;
130 -> 198 ;
199 [label="Thriller <= 0.5\ngini = 0.486\nsamples = 72\nvalue = [42, 30]"] ;
198 -> 199 ;
200 [label="Duree <= 101.5\ngini = 0.5\nsamples = 49\nvalue = [24, 25]"] ;
199 -> 200 ;
201 [label="annee <= 1987.5\ngini = 0.485\nsamples = 41\nvalue = [24, 17]"] ;
200 -> 201 ;
202 [label="Duree <= 88.5\ngini = 0.444\nsamples = 12\nvalue = [4, 8]"] ;
201 -> 202 ;
203 [label="budget <= 2850000.0\ngini = 0.219\nsamples = 8\nvalue = [1, 7]"] ;
202 -> 203 ;
204 [label="budget <= 2000000.0\ngini = 0.444\nsamples = 3\nvalue = [1, 2]"] ;
203 -> 204 ;
205 [label="gini = 0.0\nsamples = 2\nvalue = [0, 2]"] ;
204 -> 205 ;
206 [label="gini = 0.0\nsamples = 1\nvalue = [1, 0]"] ;
204 -> 206 ;
207 [label="gini = 0.0\nsamples = 5\nvalue = [0, 5]"] ;
203 -> 207 ;
208 [label="Sci-Fi <= 0.5\ngini = 0.375\nsamples = 4\nvalue = [3, 1]"] ;
202 -> 208 ;
209 [label="gini = 0.0\nsamples = 3\nvalue = [3, 0]"] ;
208 -> 209 ;
210 [label="gini = 0.0\nsamples = 1\nvalue = [0, 1]"] ;
208 -> 210 ;
211 [label="budget <= 5177500.0\ngini = 0.428\nsamples = 29\nvalue = [20, 9]"] ;
201 -> 211 ;
212 [label="budget <= 1100000.0\ngini = 0.384\nsamples = 27\nvalue = [20, 7]"] ;
211 -> 212 ;
213 [label="gini = 0.0\nsamples = 7\nvalue = [7, 0]"] ;
212 -> 213 ;
214 [label="budget <= 4400000.0\ngini = 0.455\nsamples = 20\nvalue = [13, 7]"] ;
212 -> 214 ;
215 [label="Duree <= 88.5\ngini = 0.492\nsamples = 16\nvalue = [9, 7]"] ;
214 -> 215 ;
216 [label="gini = 0.0\nsamples = 4\nvalue = [4, 0]"] ;
215 -> 216 ;
217 [label="budget <= 2243000.0\ngini = 0.486\nsamples = 12\nvalue = [5, 7]"] ;
215 -> 217 ;
218 [label="Comedy <= 0.5\ngini = 0.469\nsamples = 8\nvalue = [5, 3]"] ;
217 -> 218 ;
219 [label="annee <= 1999.5\ngini = 0.48\nsamples = 5\nvalue = [2, 3]"] ;
218 -> 219 ;
220 [label="gini = 0.0\nsamples = 2\nvalue = [0, 2]"] ;
219 -> 220 ;
221 [label="annee <= 2007.5\ngini = 0.444\nsamples = 3\nvalue = [2, 1]"] ;
219 -> 221 ;
222 [label="gini = 0.0\nsamples = 2\nvalue = [2, 0]"] ;
221 -> 222 ;
223 [label="gini = 0.0\nsamples = 1\nvalue = [0, 1]"] ;
221 -> 223 ;
224 [label="gini = 0.0\nsamples = 3\nvalue = [3, 0]"] ;
218 -> 224 ;
225 [label="gini = 0.0\nsamples = 4\nvalue = [0, 4]"] ;
217 -> 225 ;
226 [label="gini = 0.0\nsamples = 4\nvalue = [4, 0]"] ;
214 -> 226 ;
227 [label="gini = 0.0\nsamples = 2\nvalue = [0, 2]"] ;
211 -> 227 ;
228 [label="gini = 0.0\nsamples = 8\nvalue = [0, 8]"] ;
200 -> 228 ;
229 [label="annee <= 2006.5\ngini = 0.34\nsamples = 23\nvalue = [18, 5]"] ;
199 -> 229 ;
230 [label="Crime <= 0.5\ngini = 0.198\nsamples = 18\nvalue = [16, 2]"] ;
229 -> 230 ;
231 [label="Duree <= 86.5\ngini = 0.111\nsamples = 17\nvalue = [16, 1]"] ;
230 -> 231 ;
232 [label="budget <= 3850000.0\ngini = 0.32\nsamples = 5\nvalue = [4, 1]"] ;
231 -> 232 ;
233 [label="gini = 0.0\nsamples = 4\nvalue = [4, 0]"] ;
232 -> 233 ;
234 [label="gini = 0.0\nsamples = 1\nvalue = [0, 1]"] ;
232 -> 234 ;
235 [label="gini = 0.0\nsamples = 12\nvalue = [12, 0]"] ;
231 -> 235 ;
236 [label="gini = 0.0\nsamples = 1\nvalue = [0, 1]"] ;
230 -> 236 ;
237 [label="Duree <= 97.5\ngini = 0.48\nsamples = 5\nvalue = [2, 3]"] ;
229 -> 237 ;
238 [label="gini = 0.0\nsamples = 3\nvalue = [0, 3]"] ;
237 -> 238 ;
239 [label="gini = 0.0\nsamples = 2\nvalue = [2, 0]"] ;
237 -> 239 ;
240 [label="Duree <= 105.5\ngini = 0.227\nsamples = 46\nvalue = [40, 6]"] ;
198 -> 240 ;
241 [label="Fantasy <= 0.5\ngini = 0.169\nsamples = 43\nvalue = [39, 4]"] ;
240 -> 241 ;
242 [label="Action <= 0.5\ngini = 0.133\nsamples = 42\nvalue = [39, 3]"] ;
241 -> 242 ;
243 [label="budget <= 5300000.0\ngini = 0.095\nsamples = 40\nvalue = [38, 2]"] ;
242 -> 243 ;
244 [label="Mystery <= 0.5\ngini = 0.054\nsamples = 36\nvalue = [35, 1]"] ;
243 -> 244 ;
245 [label="gini = 0.0\nsamples = 30\nvalue = [30, 0]"] ;
244 -> 245 ;
246 [label="Duree <= 96.0\ngini = 0.278\nsamples = 6\nvalue = [5, 1]"] ;
244 -> 246 ;
247 [label="gini = 0.0\nsamples = 5\nvalue = [5, 0]"] ;
246 -> 247 ;
248 [label="gini = 0.0\nsamples = 1\nvalue = [0, 1]"] ;
246 -> 248 ;
249 [label="Duree <= 87.0\ngini = 0.375\nsamples = 4\nvalue = [3, 1]"] ;
243 -> 249 ;
250 [label="gini = 0.0\nsamples = 1\nvalue = [0, 1]"] ;
249 -> 250 ;
251 [label="gini = 0.0\nsamples = 3\nvalue = [3, 0]"] ;
249 -> 251 ;
252 [label="budget <= 4275000.0\ngini = 0.5\nsamples = 2\nvalue = [1, 1]"] ;
242 -> 252 ;
253 [label="gini = 0.0\nsamples = 1\nvalue = [1, 0]"] ;
252 -> 253 ;
254 [label="gini = 0.0\nsamples = 1\nvalue = [0, 1]"] ;
252 -> 254 ;
255 [label="gini = 0.0\nsamples = 1\nvalue = [0, 1]"] ;
241 -> 255 ;
256 [label="annee <= 2011.5\ngini = 0.444\nsamples = 3\nvalue = [1, 2]"] ;
240 -> 256 ;
257 [label="gini = 0.0\nsamples = 1\nvalue = [1, 0]"] ;
256 -> 257 ;
258 [label="gini = 0.0\nsamples = 2\nvalue = [0, 2]"] ;
256 -> 258 ;
259 [label="annee <= 1991.5\ngini = 0.345\nsamples = 1113\nvalue = [866, 247]"] ;
129 -> 259 ;
260 [label="budget <= 27400000.0\ngini = 0.478\nsamples = 124\nvalue = [75, 49]"] ;
259 -> 260 ;
261 [label="budget <= 8750000.0\ngini = 0.494\nsamples = 99\nvalue = [55, 44]"] ;
260 -> 261 ;
262 [label="Duree <= 107.0\ngini = 0.32\nsamples = 15\nvalue = [12, 3]"] ;
261 -> 262 ;
263 [label="Fantasy <= 0.5\ngini = 0.142\nsamples = 13\nvalue = [12, 1]"] ;
262 -> 263 ;
264 [label="gini = 0.0\nsamples = 11\nvalue = [11, 0]"] ;
263 -> 264 ;
265 [label="annee <= 1987.0\ngini = 0.5\nsamples = 2\nvalue = [1, 1]"] ;
263 -> 265 ;
266 [label="gini = 0.0\nsamples = 1\nvalue = [0, 1]"] ;
265 -> 266 ;
267 [label="gini = 0.0\nsamples = 1\nvalue = [1, 0]"] ;
265 -> 267 ;
268 [label="gini = 0.0\nsamples = 2\nvalue = [0, 2]"] ;
262 -> 268 ;
269 [label="budget <= 25500000.0\ngini = 0.5\nsamples = 84\nvalue = [43, 41]"] ;
261 -> 269 ;
270 [label="budget <= 16950000.0\ngini = 0.498\nsamples = 81\nvalue = [43, 38]"] ;
269 -> 270 ;
271 [label="Adventure <= 0.5\ngini = 0.494\nsamples = 47\nvalue = [21, 26]"] ;
270 -> 271 ;
272 [label="Duree <= 101.0\ngini = 0.5\nsamples = 37\nvalue = [19, 18]"] ;
271 -> 272 ;
273 [label="budget <= 10750000.0\ngini = 0.473\nsamples = 26\nvalue = [16, 10]"] ;
272 -> 273 ;
274 [label="gini = 0.0\nsamples = 7\nvalue = [7, 0]"] ;
273 -> 274 ;
275 [label="Comedy <= 0.5\ngini = 0.499\nsamples = 19\nvalue = [9, 10]"] ;
273 -> 275 ;
276 [label="annee <= 1987.5\ngini = 0.32\nsamples = 5\nvalue = [4, 1]"] ;
275 -> 276 ;
277 [label="gini = 0.0\nsamples = 1\nvalue = [0, 1]"] ;
276 -> 277 ;
278 [label="gini = 0.0\nsamples = 4\nvalue = [4, 0]"] ;
276 -> 278 ;
279 [label="Fantasy <= 0.5\ngini = 0.459\nsamples = 14\nvalue = [5, 9]"] ;
275 -> 279 ;
280 [label="Romance <= 0.5\ngini = 0.496\nsamples = 11\nvalue = [5, 6]"] ;
279 -> 280 ;
281 [label="Thriller <= 0.5\ngini = 0.444\nsamples = 9\nvalue = [3, 6]"] ;
280 -> 281 ;
282 [label="Family <= 0.5\ngini = 0.278\nsamples = 6\nvalue = [1, 5]"] ;
281 -> 282 ;
283 [label="gini = 0.0\nsamples = 5\nvalue = [0, 5]"] ;
282 -> 283 ;
284 [label="gini = 0.0\nsamples = 1\nvalue = [1, 0]"] ;
282 -> 284 ;
285 [label="Mystery <= 0.5\ngini = 0.444\nsamples = 3\nvalue = [2, 1]"] ;
281 -> 285 ;
286 [label="gini = 0.0\nsamples = 2\nvalue = [2, 0]"] ;
285 -> 286 ;
287 [label="gini = 0.0\nsamples = 1\nvalue = [0, 1]"] ;
285 -> 287 ;
288 [label="gini = 0.0\nsamples = 2\nvalue = [2, 0]"] ;
280 -> 288 ;
289 [label="gini = 0.0\nsamples = 3\nvalue = [0, 3]"] ;
279 -> 289 ;
290 [label="budget <= 13000000.0\ngini = 0.397\nsamples = 11\nvalue = [3, 8]"] ;
272 -> 290 ;
291 [label="gini = 0.0\nsamples = 5\nvalue = [0, 5]"] ;
290 -> 291 ;
292 [label="Sci-Fi <= 0.5\ngini = 0.5\nsamples = 6\nvalue = [3, 3]"] ;
290 -> 292 ;
293 [label="Family <= 0.5\ngini = 0.375\nsamples = 4\nvalue = [3, 1]"] ;
292 -> 293 ;
294 [label="gini = 0.0\nsamples = 3\nvalue = [3, 0]"] ;
293 -> 294 ;
295 [label="gini = 0.0\nsamples = 1\nvalue = [0, 1]"] ;
293 -> 295 ;
296 [label="gini = 0.0\nsamples = 2\nvalue = [0, 2]"] ;
292 -> 296 ;
297 [label="Duree <= 102.5\ngini = 0.32\nsamples = 10\nvalue = [2, 8]"] ;
271 -> 297 ;
298 [label="gini = 0.0\nsamples = 7\nvalue = [0, 7]"] ;
297 -> 298 ;
299 [label="Fantasy <= 0.5\ngini = 0.444\nsamples = 3\nvalue = [2, 1]"] ;
297 -> 299 ;
300 [label="gini = 0.0\nsamples = 2\nvalue = [2, 0]"] ;
299 -> 300 ;
301 [label="gini = 0.0\nsamples = 1\nvalue = [0, 1]"] ;
299 -> 301 ;
302 [label="Musical <= 0.5\ngini = 0.457\nsamples = 34\nvalue = [22, 12]"] ;
270 -> 302 ;
303 [label="Duree <= 106.5\ngini = 0.43\nsamples = 32\nvalue = [22, 10]"] ;
302 -> 303 ;
304 [label="Duree <= 86.5\ngini = 0.355\nsamples = 26\nvalue = [20, 6]"] ;
303 -> 304 ;
305 [label="gini = 0.0\nsamples = 1\nvalue = [0, 1]"] ;
304 -> 305 ;
306 [label="Comedy <= 0.5\ngini = 0.32\nsamples = 25\nvalue = [20, 5]"] ;
304 -> 306 ;
307 [label="gini = 0.0\nsamples = 7\nvalue = [7, 0]"] ;
306 -> 307 ;
308 [label="Thriller <= 0.5\ngini = 0.401\nsamples = 18\nvalue = [13, 5]"] ;
306 -> 308 ;
309 [label="Duree <= 100.5\ngini = 0.36\nsamples = 17\nvalue = [13, 4]"] ;
308 -> 309 ;
310 [label="annee <= 1988.5\ngini = 0.48\nsamples = 10\nvalue = [6, 4]"] ;
309 -> 310 ;
311 [label="Mystery <= 0.5\ngini = 0.49\nsamples = 7\nvalue = [3, 4]"] ;
310 -> 311 ;
312 [label="gini = 0.444\nsamples = 6\nvalue = [2, 4]"] ;
311 -> 312 ;
313 [label="gini = 0.0\nsamples = 1\nvalue = [1, 0]"] ;
311 -> 313 ;
314 [label="gini = 0.0\nsamples = 3\nvalue = [3, 0]"] ;
310 -> 314 ;
315 [label="gini = 0.0\nsamples = 7\nvalue = [7, 0]"] ;
309 -> 315 ;
316 [label="gini = 0.0\nsamples = 1\nvalue = [0, 1]"] ;
308 -> 316 ;
317 [label="annee <= 1985.5\ngini = 0.444\nsamples = 6\nvalue = [2, 4]"] ;
303 -> 317 ;
318 [label="gini = 0.0\nsamples = 3\nvalue = [0, 3]"] ;
317 -> 318 ;
319 [label="Thriller <= 0.5\ngini = 0.444\nsamples = 3\nvalue = [2, 1]"] ;
317 -> 319 ;
320 [label="gini = 0.0\nsamples = 2\nvalue = [2, 0]"] ;
319 -> 320 ;
321 [label="gini = 0.0\nsamples = 1\nvalue = [0, 1]"] ;
319 -> 321 ;
322 [label="gini = 0.0\nsamples = 2\nvalue = [0, 2]"] ;
302 -> 322 ;
323 [label="gini = 0.0\nsamples = 3\nvalue = [0, 3]"] ;
269 -> 323 ;
324 [label="annee <= 1990.5\ngini = 0.32\nsamples = 25\nvalue = [20, 5]"] ;
260 -> 324 ;
325 [label="Duree <= 107.5\ngini = 0.117\nsamples = 16\nvalue = [15, 1]"] ;
324 -> 325 ;
326 [label="gini = 0.0\nsamples = 13\nvalue = [13, 0]"] ;
325 -> 326 ;
327 [label="budget <= 38500000.0\ngini = 0.444\nsamples = 3\nvalue = [2, 1]"] ;
325 -> 327 ;
328 [label="gini = 0.0\nsamples = 2\nvalue = [2, 0]"] ;
327 -> 328 ;
329 [label="gini = 0.0\nsamples = 1\nvalue = [0, 1]"] ;
327 -> 329 ;
330 [label="Duree <= 99.5\ngini = 0.494\nsamples = 9\nvalue = [5, 4]"] ;
324 -> 330 ;
331 [label="budget <= 39000000.0\ngini = 0.375\nsamples = 4\nvalue = [1, 3]"] ;
330 -> 331 ;
332 [label="gini = 0.0\nsamples = 3\nvalue = [0, 3]"] ;
331 -> 332 ;
333 [label="gini = 0.0\nsamples = 1\nvalue = [1, 0]"] ;
331 -> 333 ;
334 [label="Duree <= 109.5\ngini = 0.32\nsamples = 5\nvalue = [4, 1]"] ;
330 -> 334 ;
335 [label="gini = 0.0\nsamples = 4\nvalue = [4, 0]"] ;
334 -> 335 ;
336 [label="gini = 0.0\nsamples = 1\nvalue = [0, 1]"] ;
334 -> 336 ;
337 [label="Duree <= 101.5\ngini = 0.32\nsamples = 989\nvalue = [791, 198]"] ;
259 -> 337 ;
338 [label="budget <= 33950000.0\ngini = 0.28\nsamples = 702\nvalue = [584, 118]"] ;
337 -> 338 ;
339 [label="Documentary <= 0.5\ngini = 0.334\nsamples = 453\nvalue = [357, 96]"] ;
338 -> 339 ;
340 [label="annee <= 1999.5\ngini = 0.326\nsamples = 448\nvalue = [356, 92]"] ;
339 -> 340 ;
341 [label="Duree <= 91.5\ngini = 0.421\nsamples = 116\nvalue = [81, 35]"] ;
340 -> 341 ;
342 [label="budget <= 12500000.0\ngini = 0.268\nsamples = 44\nvalue = [37, 7]"] ;
341 -> 342 ;
343 [label="annee <= 1996.5\ngini = 0.444\nsamples = 15\nvalue = [10, 5]"] ;
342 -> 343 ;
344 [label="Duree <= 78.5\ngini = 0.298\nsamples = 11\nvalue = [9, 2]"] ;
343 -> 344 ;
345 [label="gini = 0.0\nsamples = 1\nvalue = [0, 1]"] ;
344 -> 345 ;
346 [label="Thriller <= 0.5\ngini = 0.18\nsamples = 10\nvalue = [9, 1]"] ;
344 -> 346 ;
347 [label="gini = 0.0\nsamples = 8\nvalue = [8, 0]"] ;
346 -> 347 ;
348 [label="Duree <= 86.5\ngini = 0.5\nsamples = 2\nvalue = [1, 1]"] ;
346 -> 348 ;
349 [label="gini = 0.0\nsamples = 1\nvalue = [1, 0]"] ;
348 -> 349 ;
350 [label="gini = 0.0\nsamples = 1\nvalue = [0, 1]"] ;
348 -> 350 ;
351 [label="budget <= 9505000.0\ngini = 0.375\nsamples = 4\nvalue = [1, 3]"] ;
343 -> 351 ;
352 [label="gini = 0.0\nsamples = 2\nvalue = [0, 2]"] ;
351 -> 352 ;
353 [label="Crime <= 0.5\ngini = 0.5\nsamples = 2\nvalue = [1, 1]"] ;
351 -> 353 ;
354 [label="gini = 0.0\nsamples = 1\nvalue = [0, 1]"] ;
353 -> 354 ;
355 [label="gini = 0.0\nsamples = 1\nvalue = [1, 0]"] ;
353 -> 355 ;
356 [label="Duree <= 75.5\ngini = 0.128\nsamples = 29\nvalue = [27, 2]"] ;
342 -> 356 ;
357 [label="annee <= 1997.0\ngini = 0.5\nsamples = 2\nvalue = [1, 1]"] ;
356 -> 357 ;
358 [label="gini = 0.0\nsamples = 1\nvalue = [1, 0]"] ;
357 -> 358 ;
359 [label="gini = 0.0\nsamples = 1\nvalue = [0, 1]"] ;
357 -> 359 ;
360 [label="Duree <= 88.5\ngini = 0.071\nsamples = 27\nvalue = [26, 1]"] ;
356 -> 360 ;
361 [label="gini = 0.0\nsamples = 20\nvalue = [20, 0]"] ;
360 -> 361 ;
362 [label="Duree <= 89.5\ngini = 0.245\nsamples = 7\nvalue = [6, 1]"] ;
360 -> 362 ;
363 [label="Family <= 0.5\ngini = 0.444\nsamples = 3\nvalue = [2, 1]"] ;
362 -> 363 ;
364 [label="gini = 0.0\nsamples = 1\nvalue = [0, 1]"] ;
363 -> 364 ;
365 [label="gini = 0.0\nsamples = 2\nvalue = [2, 0]"] ;
363 -> 365 ;
366 [label="gini = 0.0\nsamples = 4\nvalue = [4, 0]"] ;
362 -> 366 ;
367 [label="budget <= 16500000.0\ngini = 0.475\nsamples = 72\nvalue = [44, 28]"] ;
341 -> 367 ;
368 [label="budget <= 10500000.0\ngini = 0.495\nsamples = 31\nvalue = [14, 17]"] ;
367 -> 368 ;
369 [label="budget <= 8250000.0\ngini = 0.397\nsamples = 11\nvalue = [8, 3]"] ;
368 -> 369 ;
370 [label="annee <= 1993.0\ngini = 0.48\nsamples = 5\nvalue = [2, 3]"] ;
369 -> 370 ;
371 [label="gini = 0.0\nsamples = 2\nvalue = [2, 0]"] ;
370 -> 371 ;
372 [label="gini = 0.0\nsamples = 3\nvalue = [0, 3]"] ;
370 -> 372 ;
373 [label="gini = 0.0\nsamples = 6\nvalue = [6, 0]"] ;
369 -> 373 ;
374 [label="Romance <= 0.5\ngini = 0.42\nsamples = 20\nvalue = [6, 14]"] ;
368 -> 374 ;
375 [label="annee <= 1994.5\ngini = 0.48\nsamples = 15\nvalue = [6, 9]"] ;
374 -> 375 ;
376 [label="gini = 0.0\nsamples = 3\nvalue = [0, 3]"] ;
375 -> 376 ;
377 [label="budget <= 12500000.0\ngini = 0.5\nsamples = 12\nvalue = [6, 6]"] ;
375 -> 377 ;
378 [label="gini = 0.0\nsamples = 3\nvalue = [0, 3]"] ;
377 -> 378 ;
379 [label="Duree <= 93.0\ngini = 0.444\nsamples = 9\nvalue = [6, 3]"] ;
377 -> 379 ;
380 [label="gini = 0.0\nsamples = 1\nvalue = [0, 1]"] ;
379 -> 380 ;
381 [label="Duree <= 99.5\ngini = 0.375\nsamples = 8\nvalue = [6, 2]"] ;
379 -> 381 ;
382 [label="gini = 0.245\nsamples = 7\nvalue = [6, 1]"] ;
381 -> 382 ;
383 [label="gini = 0.0\nsamples = 1\nvalue = [0, 1]"] ;
381 -> 383 ;
384 [label="gini = 0.0\nsamples = 5\nvalue = [0, 5]"] ;
374 -> 384 ;
385 [label="Comedy <= 0.5\ngini = 0.393\nsamples = 41\nvalue = [30, 11]"] ;
367 -> 385 ;
386 [label="gini = 0.0\nsamples = 12\nvalue = [12, 0]"] ;
385 -> 386 ;
387 [label="budget <= 32000000.0\ngini = 0.471\nsamples = 29\nvalue = [18, 11]"] ;
385 -> 387 ;
388 [label="Duree <= 93.5\ngini = 0.444\nsamples = 27\nvalue = [18, 9]"] ;
387 -> 388 ;
389 [label="gini = 0.0\nsamples = 6\nvalue = [6, 0]"] ;
388 -> 389 ;
390 [label="Duree <= 95.5\ngini = 0.49\nsamples = 21\nvalue = [12, 9]"] ;
388 -> 390 ;
391 [label="gini = 0.0\nsamples = 3\nvalue = [0, 3]"] ;
390 -> 391 ;
392 [label="annee <= 1992.5\ngini = 0.444\nsamples = 18\nvalue = [12, 6]"] ;
390 -> 392 ;
393 [label="gini = 0.0\nsamples = 3\nvalue = [3, 0]"] ;
392 -> 393 ;
394 [label="annee <= 1998.0\ngini = 0.48\nsamples = 15\nvalue = [9, 6]"] ;
392 -> 394 ;
395 [label="gini = 0.5\nsamples = 12\nvalue = [6, 6]"] ;
394 -> 395 ;
396 [label="gini = 0.0\nsamples = 3\nvalue = [3, 0]"] ;
394 -> 396 ;
397 [label="gini = 0.0\nsamples = 2\nvalue = [0, 2]"] ;
387 -> 397 ;
398 [label="Horror <= 0.5\ngini = 0.284\nsamples = 332\nvalue = [275, 57]"] ;
340 -> 398 ;
399 [label="Duree <= 100.5\ngini = 0.331\nsamples = 239\nvalue = [189, 50]"] ;
398 -> 399 ;
400 [label="Mystery <= 0.5\ngini = 0.317\nsamples = 228\nvalue = [183, 45]"] ;
399 -> 400 ;
401 [label="Crime <= 0.5\ngini = 0.299\nsamples = 213\nvalue = [174, 39]"] ;
400 -> 401 ;
402 [label="Duree <= 82.5\ngini = 0.26\nsamples = 163\nvalue = [138, 25]"] ;
401 -> 402 ;
403 [label="annee <= 2008.0\ngini = 0.463\nsamples = 11\nvalue = [7, 4]"] ;
402 -> 403 ;
404 [label="Comedy <= 0.5\ngini = 0.5\nsamples = 8\nvalue = [4, 4]"] ;
403 -> 404 ;
405 [label="gini = 0.0\nsamples = 2\nvalue = [0, 2]"] ;
404 -> 405 ;
406 [label="Duree <= 81.0\ngini = 0.444\nsamples = 6\nvalue = [4, 2]"] ;
404 -> 406 ;
407 [label="gini = 0.0\nsamples = 3\nvalue = [3, 0]"] ;
406 -> 407 ;
408 [label="gini = 0.444\nsamples = 3\nvalue = [1, 2]"] ;
406 -> 408 ;
409 [label="gini = 0.0\nsamples = 3\nvalue = [3, 0]"] ;
403 -> 409 ;
410 [label="annee <= 2002.5\ngini = 0.238\nsamples = 152\nvalue = [131, 21]"] ;
402 -> 410 ;
411 [label="budget <= 27000000.0\ngini = 0.102\nsamples = 37\nvalue = [35, 2]"] ;
410 -> 411 ;
412 [label="Duree <= 84.5\ngini = 0.059\nsamples = 33\nvalue = [32, 1]"] ;
411 -> 412 ;
413 [label="gini = 0.32\nsamples = 5\nvalue = [4, 1]"] ;
412 -> 413 ;
414 [label="gini = 0.0\nsamples = 28\nvalue = [28, 0]"] ;
412 -> 414 ;
415 [label="budget <= 28500000.0\ngini = 0.375\nsamples = 4\nvalue = [3, 1]"] ;
411 -> 415 ;
416 [label="gini = 0.0\nsamples = 1\nvalue = [0, 1]"] ;
415 -> 416 ;
417 [label="gini = 0.0\nsamples = 3\nvalue = [3, 0]"] ;
415 -> 417 ;
418 [label="Duree <= 87.5\ngini = 0.276\nsamples = 115\nvalue = [96, 19]"] ;
410 -> 418 ;
419 [label="gini = 0.0\nsamples = 14\nvalue = [14, 0]"] ;
418 -> 419 ;
420 [label="Duree <= 88.5\ngini = 0.305\nsamples = 101\nvalue = [82, 19]"] ;
418 -> 420 ;
421 [label="gini = 0.49\nsamples = 7\nvalue = [3, 4]"] ;
420 -> 421 ;
422 [label="gini = 0.268\nsamples = 94\nvalue = [79, 15]"] ;
420 -> 422 ;
423 [label="budget <= 24500000.0\ngini = 0.403\nsamples = 50\nvalue = [36, 14]"] ;
401 -> 423 ;
424 [label="annee <= 2006.5\ngini = 0.461\nsamples = 36\nvalue = [23, 13]"] ;
423 -> 424 ;
425 [label="budget <= 13280000.0\ngini = 0.499\nsamples = 19\nvalue = [10, 9]"] ;
424 -> 425 ;
426 [label="annee <= 2005.0\ngini = 0.32\nsamples = 10\nvalue = [8, 2]"] ;
425 -> 426 ;
427 [label="gini = 0.0\nsamples = 8\nvalue = [8, 0]"] ;
426 -> 427 ;
428 [label="gini = 0.0\nsamples = 2\nvalue = [0, 2]"] ;
426 -> 428 ;
429 [label="Romance <= 0.5\ngini = 0.346\nsamples = 9\nvalue = [2, 7]"] ;
425 -> 429 ;
430 [label="gini = 0.219\nsamples = 8\nvalue = [1, 7]"] ;
429 -> 430 ;
431 [label="gini = 0.0\nsamples = 1\nvalue = [1, 0]"] ;
429 -> 431 ;
432 [label="budget <= 17000000.0\ngini = 0.36\nsamples = 17\nvalue = [13, 4]"] ;
424 -> 432 ;
433 [label="budget <= 15500000.0\ngini = 0.444\nsamples = 12\nvalue = [8, 4]"] ;
432 -> 433 ;
434 [label="gini = 0.397\nsamples = 11\nvalue = [8, 3]"] ;
433 -> 434 ;
435 [label="gini = 0.0\nsamples = 1\nvalue = [0, 1]"] ;
433 -> 435 ;
436 [label="gini = 0.0\nsamples = 5\nvalue = [5, 0]"] ;
432 -> 436 ;
437 [label="Action <= 0.5\ngini = 0.133\nsamples = 14\nvalue = [13, 1]"] ;
423 -> 437 ;
438 [label="budget <= 30503600.0\ngini = 0.375\nsamples = 4\nvalue = [3, 1]"] ;
437 -> 438 ;
439 [label="gini = 0.0\nsamples = 3\nvalue = [3, 0]"] ;
438 -> 439 ;
440 [label="gini = 0.0\nsamples = 1\nvalue = [0, 1]"] ;
438 -> 440 ;
441 [label="gini = 0.0\nsamples = 10\nvalue = [10, 0]"] ;
437 -> 441 ;
442 [label="budget <= 26420000.0\ngini = 0.48\nsamples = 15\nvalue = [9, 6]"] ;
400 -> 442 ;
443 [label="budget <= 8050000.0\ngini = 0.375\nsamples = 12\nvalue = [9, 3]"] ;
442 -> 443 ;
444 [label="gini = 0.0\nsamples = 1\nvalue = [0, 1]"] ;
443 -> 444 ;
445 [label="Duree <= 96.5\ngini = 0.298\nsamples = 11\nvalue = [9, 2]"] ;
443 -> 445 ;
446 [label="gini = 0.0\nsamples = 6\nvalue = [6, 0]"] ;
445 -> 446 ;
447 [label="Crime <= 0.5\ngini = 0.48\nsamples = 5\nvalue = [3, 2]"] ;
445 -> 447 ;
448 [label="Sci-Fi <= 0.5\ngini = 0.444\nsamples = 3\nvalue = [1, 2]"] ;
447 -> 448 ;
449 [label="gini = 0.0\nsamples = 2\nvalue = [0, 2]"] ;
448 -> 449 ;
450 [label="gini = 0.0\nsamples = 1\nvalue = [1, 0]"] ;
448 -> 450 ;
451 [label="gini = 0.0\nsamples = 2\nvalue = [2, 0]"] ;
447 -> 451 ;
452 [label="gini = 0.0\nsamples = 3\nvalue = [0, 3]"] ;
442 -> 452 ;
453 [label="annee <= 2006.0\ngini = 0.496\nsamples = 11\nvalue = [6, 5]"] ;
399 -> 453 ;
454 [label="gini = 0.0\nsamples = 4\nvalue = [4, 0]"] ;
453 -> 454 ;
455 [label="Comedy <= 0.5\ngini = 0.408\nsamples = 7\nvalue = [2, 5]"] ;
453 -> 455 ;
456 [label="annee <= 2012.5\ngini = 0.444\nsamples = 3\nvalue = [2, 1]"] ;
455 -> 456 ;
457 [label="gini = 0.0\nsamples = 2\nvalue = [2, 0]"] ;
456 -> 457 ;
458 [label="gini = 0.0\nsamples = 1\nvalue = [0, 1]"] ;
456 -> 458 ;
459 [label="gini = 0.0\nsamples = 4\nvalue = [0, 4]"] ;
455 -> 459 ;
460 [label="budget <= 21991000.0\ngini = 0.139\nsamples = 93\nvalue = [86, 7]"] ;
398 -> 460 ;
461 [label="Comedy <= 0.5\ngini = 0.029\nsamples = 69\nvalue = [68, 1]"] ;
460 -> 461 ;
462 [label="gini = 0.0\nsamples = 64\nvalue = [64, 0]"] ;
461 -> 462 ;
463 [label="budget <= 8825000.0\ngini = 0.32\nsamples = 5\nvalue = [4, 1]"] ;
461 -> 463 ;
464 [label="gini = 0.0\nsamples = 1\nvalue = [0, 1]"] ;
463 -> 464 ;
465 [label="gini = 0.0\nsamples = 4\nvalue = [4, 0]"] ;
463 -> 465 ;
466 [label="Thriller <= 0.5\ngini = 0.375\nsamples = 24\nvalue = [18, 6]"] ;
460 -> 466 ;
467 [label="budget <= 23800000.0\ngini = 0.496\nsamples = 11\nvalue = [6, 5]"] ;
466 -> 467 ;
468 [label="gini = 0.0\nsamples = 2\nvalue = [0, 2]"] ;
467 -> 468 ;
469 [label="budget <= 29000000.0\ngini = 0.444\nsamples = 9\nvalue = [6, 3]"] ;
467 -> 469 ;
470 [label="Duree <= 86.0\ngini = 0.245\nsamples = 7\nvalue = [6, 1]"] ;
469 -> 470 ;
471 [label="gini = 0.0\nsamples = 1\nvalue = [0, 1]"] ;
470 -> 471 ;
472 [label="gini = 0.0\nsamples = 6\nvalue = [6, 0]"] ;
470 -> 472 ;
473 [label="gini = 0.0\nsamples = 2\nvalue = [0, 2]"] ;
469 -> 473 ;
474 [label="annee <= 2011.5\ngini = 0.142\nsamples = 13\nvalue = [12, 1]"] ;
466 -> 474 ;
475 [label="gini = 0.0\nsamples = 11\nvalue = [11, 0]"] ;
474 -> 475 ;
476 [label="budget <= 26700000.0\ngini = 0.5\nsamples = 2\nvalue = [1, 1]"] ;
474 -> 476 ;
477 [label="gini = 0.0\nsamples = 1\nvalue = [1, 0]"] ;
476 -> 477 ;
478 [label="gini = 0.0\nsamples = 1\nvalue = [0, 1]"] ;
476 -> 478 ;
479 [label="annee <= 2011.0\ngini = 0.32\nsamples = 5\nvalue = [1, 4]"] ;
339 -> 479 ;
480 [label="gini = 0.0\nsamples = 4\nvalue = [0, 4]"] ;
479 -> 480 ;
481 [label="gini = 0.0\nsamples = 1\nvalue = [1, 0]"] ;
479 -> 481 ;
482 [label="budget <= 177500000.0\ngini = 0.161\nsamples = 249\nvalue = [227, 22]"] ;
338 -> 482 ;
483 [label="Duree <= 99.5\ngini = 0.155\nsamples = 248\nvalue = [227, 21]"] ;
482 -> 483 ;
484 [label="Duree <= 94.5\ngini = 0.188\nsamples = 200\nvalue = [179, 21]"] ;
483 -> 484 ;
485 [label="Duree <= 86.5\ngini = 0.114\nsamples = 115\nvalue = [108, 7]"] ;
484 -> 485 ;
486 [label="Duree <= 85.5\ngini = 0.269\nsamples = 25\nvalue = [21, 4]"] ;
485 -> 486 ;
487 [label="budget <= 55295000.0\ngini = 0.1\nsamples = 19\nvalue = [18, 1]"] ;
486 -> 487 ;
488 [label="gini = 0.0\nsamples = 14\nvalue = [14, 0]"] ;
487 -> 488 ;
489 [label="budget <= 63545000.0\ngini = 0.32\nsamples = 5\nvalue = [4, 1]"] ;
487 -> 489 ;
490 [label="gini = 0.0\nsamples = 1\nvalue = [0, 1]"] ;
489 -> 490 ;
491 [label="gini = 0.0\nsamples = 4\nvalue = [4, 0]"] ;
489 -> 491 ;
492 [label="Adventure <= 0.5\ngini = 0.5\nsamples = 6\nvalue = [3, 3]"] ;
486 -> 492 ;
493 [label="Comedy <= 0.5\ngini = 0.375\nsamples = 4\nvalue = [1, 3]"] ;
492 -> 493 ;
494 [label="gini = 0.0\nsamples = 1\nvalue = [1, 0]"] ;
493 -> 494 ;
495 [label="gini = 0.0\nsamples = 3\nvalue = [0, 3]"] ;
493 -> 495 ;
496 [label="gini = 0.0\nsamples = 2\nvalue = [2, 0]"] ;
492 -> 496 ;
497 [label="annee <= 2008.5\ngini = 0.064\nsamples = 90\nvalue = [87, 3]"] ;
485 -> 497 ;
498 [label="gini = 0.0\nsamples = 64\nvalue = [64, 0]"] ;
497 -> 498 ;
499 [label="Thriller <= 0.5\ngini = 0.204\nsamples = 26\nvalue = [23, 3]"] ;
497 -> 499 ;
500 [label="gini = 0.0\nsamples = 13\nvalue = [13, 0]"] ;
499 -> 500 ;
501 [label="Adventure <= 0.5\ngini = 0.355\nsamples = 13\nvalue = [10, 3]"] ;
499 -> 501 ;
502 [label="budget <= 90000000.0\ngini = 0.278\nsamples = 12\nvalue = [10, 2]"] ;
501 -> 502 ;
503 [label="Duree <= 92.5\ngini = 0.165\nsamples = 11\nvalue = [10, 1]"] ;
502 -> 503 ;
504 [label="gini = 0.0\nsamples = 9\nvalue = [9, 0]"] ;
503 -> 504 ;
505 [label="War <= 0.5\ngini = 0.5\nsamples = 2\nvalue = [1, 1]"] ;
503 -> 505 ;
506 [label="gini = 0.0\nsamples = 1\nvalue = [0, 1]"] ;
505 -> 506 ;
507 [label="gini = 0.0\nsamples = 1\nvalue = [1, 0]"] ;
505 -> 507 ;
508 [label="gini = 0.0\nsamples = 1\nvalue = [0, 1]"] ;
502 -> 508 ;
509 [label="gini = 0.0\nsamples = 1\nvalue = [0, 1]"] ;
501 -> 509 ;
510 [label="War <= 0.5\ngini = 0.275\nsamples = 85\nvalue = [71, 14]"] ;
484 -> 510 ;
511 [label="Action <= 0.5\ngini = 0.262\nsamples = 84\nvalue = [71, 13]"] ;
510 -> 511 ;
512 [label="Duree <= 97.0\ngini = 0.359\nsamples = 47\nvalue = [36, 11]"] ;
511 -> 512 ;
513 [label="annee <= 2003.5\ngini = 0.463\nsamples = 22\nvalue = [14, 8]"] ;
512 -> 513 ;
514 [label="Horror <= 0.5\ngini = 0.198\nsamples = 9\nvalue = [8, 1]"] ;
513 -> 514 ;
515 [label="gini = 0.0\nsamples = 7\nvalue = [7, 0]"] ;
514 -> 515 ;
516 [label="Crime <= 0.5\ngini = 0.5\nsamples = 2\nvalue = [1, 1]"] ;
514 -> 516 ;
517 [label="gini = 0.0\nsamples = 1\nvalue = [0, 1]"] ;
516 -> 517 ;
518 [label="gini = 0.0\nsamples = 1\nvalue = [1, 0]"] ;
516 -> 518 ;
519 [label="Romance <= 0.5\ngini = 0.497\nsamples = 13\nvalue = [6, 7]"] ;
513 -> 519 ;
520 [label="Fantasy <= 0.5\ngini = 0.375\nsamples = 8\nvalue = [2, 6]"] ;
519 -> 520 ;
521 [label="gini = 0.0\nsamples = 5\nvalue = [0, 5]"] ;
520 -> 521 ;
522 [label="Comedy <= 0.5\ngini = 0.444\nsamples = 3\nvalue = [2, 1]"] ;
520 -> 522 ;
523 [label="gini = 0.0\nsamples = 1\nvalue = [0, 1]"] ;
522 -> 523 ;
524 [label="gini = 0.0\nsamples = 2\nvalue = [2, 0]"] ;
522 -> 524 ;
525 [label="budget <= 54000000.0\ngini = 0.32\nsamples = 5\nvalue = [4, 1]"] ;
519 -> 525 ;
526 [label="gini = 0.0\nsamples = 4\nvalue = [4, 0]"] ;
525 -> 526 ;
527 [label="gini = 0.0\nsamples = 1\nvalue = [0, 1]"] ;
525 -> 527 ;
528 [label="annee <= 2012.5\ngini = 0.211\nsamples = 25\nvalue = [22, 3]"] ;
512 -> 528 ;
529 [label="budget <= 70000000.0\ngini = 0.159\nsamples = 23\nvalue = [21, 2]"] ;
528 -> 529 ;
530 [label="gini = 0.0\nsamples = 17\nvalue = [17, 0]"] ;
529 -> 530 ;
531 [label="annee <= 2005.5\ngini = 0.444\nsamples = 6\nvalue = [4, 2]"] ;
529 -> 531 ;
532 [label="Duree <= 98.5\ngini = 0.444\nsamples = 3\nvalue = [1, 2]"] ;
531 -> 532 ;
533 [label="gini = 0.5\nsamples = 2\nvalue = [1, 1]"] ;
532 -> 533 ;
534 [label="gini = 0.0\nsamples = 1\nvalue = [0, 1]"] ;
532 -> 534 ;
535 [label="gini = 0.0\nsamples = 3\nvalue = [3, 0]"] ;
531 -> 535 ;
536 [label="budget <= 81000000.0\ngini = 0.5\nsamples = 2\nvalue = [1, 1]"] ;
528 -> 536 ;
537 [label="gini = 0.0\nsamples = 1\nvalue = [0, 1]"] ;
536 -> 537 ;
538 [label="gini = 0.0\nsamples = 1\nvalue = [1, 0]"] ;
536 -> 538 ;
539 [label="budget <= 36500000.0\ngini = 0.102\nsamples = 37\nvalue = [35, 2]"] ;
511 -> 539 ;
540 [label="Thriller <= 0.5\ngini = 0.5\nsamples = 2\nvalue = [1, 1]"] ;
539 -> 540 ;
541 [label="gini = 0.0\nsamples = 1\nvalue = [0, 1]"] ;
540 -> 541 ;
542 [label="gini = 0.0\nsamples = 1\nvalue = [1, 0]"] ;
540 -> 542 ;
543 [label="budget <= 92500000.0\ngini = 0.056\nsamples = 35\nvalue = [34, 1]"] ;
539 -> 543 ;
544 [label="gini = 0.0\nsamples = 31\nvalue = [31, 0]"] ;
543 -> 544 ;
545 [label="Thriller <= 0.5\ngini = 0.375\nsamples = 4\nvalue = [3, 1]"] ;
543 -> 545 ;
546 [label="gini = 0.0\nsamples = 3\nvalue = [3, 0]"] ;
545 -> 546 ;
547 [label="gini = 0.0\nsamples = 1\nvalue = [0, 1]"] ;
545 -> 547 ;
548 [label="gini = 0.0\nsamples = 1\nvalue = [0, 1]"] ;
510 -> 548 ;
549 [label="gini = 0.0\nsamples = 48\nvalue = [48, 0]"] ;
483 -> 549 ;
550 [label="gini = 0.0\nsamples = 1\nvalue = [0, 1]"] ;
482 -> 550 ;
551 [label="budget <= 6950000.0\ngini = 0.402\nsamples = 287\nvalue = [207, 80]"] ;
337 -> 551 ;
552 [label="gini = 0.0\nsamples = 2\nvalue = [0, 2]"] ;
551 -> 552 ;
553 [label="budget <= 205000000.0\ngini = 0.398\nsamples = 285\nvalue = [207, 78]"] ;
551 -> 553 ;
554 [label="Crime <= 0.5\ngini = 0.393\nsamples = 283\nvalue = [207, 76]"] ;
553 -> 554 ;
555 [label="History <= 0.5\ngini = 0.366\nsamples = 224\nvalue = [170, 54]"] ;
554 -> 555 ;
556 [label="Musical <= 0.5\ngini = 0.362\nsamples = 223\nvalue = [170, 53]"] ;
555 -> 556 ;
557 [label="Duree <= 103.5\ngini = 0.356\nsamples = 220\nvalue = [169, 51]"] ;
556 -> 557 ;
558 [label="Adventure <= 0.5\ngini = 0.21\nsamples = 42\nvalue = [37, 5]"] ;
557 -> 558 ;
559 [label="annee <= 2012.5\ngini = 0.121\nsamples = 31\nvalue = [29, 2]"] ;
558 -> 559 ;
560 [label="Fantasy <= 0.5\ngini = 0.067\nsamples = 29\nvalue = [28, 1]"] ;
559 -> 560 ;
561 [label="gini = 0.0\nsamples = 24\nvalue = [24, 0]"] ;
560 -> 561 ;
562 [label="annee <= 2000.5\ngini = 0.32\nsamples = 5\nvalue = [4, 1]"] ;
560 -> 562 ;
563 [label="budget <= 30000000.0\ngini = 0.5\nsamples = 2\nvalue = [1, 1]"] ;
562 -> 563 ;
564 [label="gini = 0.0\nsamples = 1\nvalue = [1, 0]"] ;
563 -> 564 ;
565 [label="gini = 0.0\nsamples = 1\nvalue = [0, 1]"] ;
563 -> 565 ;
566 [label="gini = 0.0\nsamples = 3\nvalue = [3, 0]"] ;
562 -> 566 ;
567 [label="Action <= 0.5\ngini = 0.5\nsamples = 2\nvalue = [1, 1]"] ;
559 -> 567 ;
568 [label="gini = 0.0\nsamples = 1\nvalue = [0, 1]"] ;
567 -> 568 ;
569 [label="gini = 0.0\nsamples = 1\nvalue = [1, 0]"] ;
567 -> 569 ;
570 [label="budget <= 25000000.0\ngini = 0.397\nsamples = 11\nvalue = [8, 3]"] ;
558 -> 570 ;
571 [label="gini = 0.0\nsamples = 1\nvalue = [0, 1]"] ;
570 -> 571 ;
572 [label="Fantasy <= 0.5\ngini = 0.32\nsamples = 10\nvalue = [8, 2]"] ;
570 -> 572 ;
573 [label="annee <= 1998.5\ngini = 0.444\nsamples = 6\nvalue = [4, 2]"] ;
572 -> 573 ;
574 [label="gini = 0.0\nsamples = 3\nvalue = [3, 0]"] ;
573 -> 574 ;
575 [label="budget <= 96000000.0\ngini = 0.444\nsamples = 3\nvalue = [1, 2]"] ;
573 -> 575 ;
576 [label="gini = 0.0\nsamples = 2\nvalue = [0, 2]"] ;
575 -> 576 ;
577 [label="gini = 0.0\nsamples = 1\nvalue = [1, 0]"] ;
575 -> 577 ;
578 [label="gini = 0.0\nsamples = 4\nvalue = [4, 0]"] ;
572 -> 578 ;
579 [label="Duree <= 104.5\ngini = 0.383\nsamples = 178\nvalue = [132, 46]"] ;
557 -> 579 ;
580 [label="budget <= 62500000.0\ngini = 0.475\nsamples = 31\nvalue = [19, 12]"] ;
579 -> 580 ;
581 [label="budget <= 41500000.0\ngini = 0.426\nsamples = 26\nvalue = [18, 8]"] ;
580 -> 581 ;
582 [label="Adventure <= 0.5\ngini = 0.492\nsamples = 16\nvalue = [9, 7]"] ;
581 -> 582 ;
583 [label="Sci-Fi <= 0.5\ngini = 0.459\nsamples = 14\nvalue = [9, 5]"] ;
582 -> 583 ;
584 [label="gini = 0.5\nsamples = 10\nvalue = [5, 5]"] ;
583 -> 584 ;
585 [label="gini = 0.0\nsamples = 4\nvalue = [4, 0]"] ;
583 -> 585 ;
586 [label="gini = 0.0\nsamples = 2\nvalue = [0, 2]"] ;
582 -> 586 ;
587 [label="Romance <= 0.5\ngini = 0.18\nsamples = 10\nvalue = [9, 1]"] ;
581 -> 587 ;
588 [label="gini = 0.0\nsamples = 8\nvalue = [8, 0]"] ;
587 -> 588 ;
589 [label="Fantasy <= 0.5\ngini = 0.5\nsamples = 2\nvalue = [1, 1]"] ;
587 -> 589 ;
590 [label="gini = 0.0\nsamples = 1\nvalue = [1, 0]"] ;
589 -> 590 ;
591 [label="gini = 0.0\nsamples = 1\nvalue = [0, 1]"] ;
589 -> 591 ;
592 [label="budget <= 92500000.0\ngini = 0.32\nsamples = 5\nvalue = [1, 4]"] ;
580 -> 592 ;
593 [label="gini = 0.0\nsamples = 4\nvalue = [0, 4]"] ;
592 -> 593 ;
594 [label="gini = 0.0\nsamples = 1\nvalue = [1, 0]"] ;
592 -> 594 ;
595 [label="budget <= 21000000.0\ngini = 0.356\nsamples = 147\nvalue = [113, 34]"] ;
579 -> 595 ;
596 [label="annee <= 1993.5\ngini = 0.198\nsamples = 36\nvalue = [32, 4]"] ;
595 -> 596 ;
597 [label="gini = 0.0\nsamples = 1\nvalue = [0, 1]"] ;
596 -> 597 ;
598 [label="Romance <= 0.5\ngini = 0.157\nsamples = 35\nvalue = [32, 3]"] ;
596 -> 598 ;
599 [label="gini = 0.0\nsamples = 26\nvalue = [26, 0]"] ;
598 -> 599 ;
600 [label="budget <= 13610500.0\ngini = 0.444\nsamples = 9\nvalue = [6, 3]"] ;
598 -> 600 ;
601 [label="gini = 0.0\nsamples = 3\nvalue = [0, 3]"] ;
600 -> 601 ;
602 [label="gini = 0.0\nsamples = 6\nvalue = [6, 0]"] ;
600 -> 602 ;
603 [label="annee <= 1997.5\ngini = 0.394\nsamples = 111\nvalue = [81, 30]"] ;
595 -> 603 ;
604 [label="Duree <= 109.5\ngini = 0.124\nsamples = 15\nvalue = [14, 1]"] ;
603 -> 604 ;
605 [label="gini = 0.0\nsamples = 13\nvalue = [13, 0]"] ;
604 -> 605 ;
606 [label="Mystery <= 0.5\ngini = 0.5\nsamples = 2\nvalue = [1, 1]"] ;
604 -> 606 ;
607 [label="gini = 0.0\nsamples = 1\nvalue = [0, 1]"] ;
606 -> 607 ;
608 [label="gini = 0.0\nsamples = 1\nvalue = [1, 0]"] ;
606 -> 608 ;
609 [label="budget <= 23500000.0\ngini = 0.422\nsamples = 96\nvalue = [67, 29]"] ;
603 -> 609 ;
610 [label="Family <= 0.5\ngini = 0.375\nsamples = 4\nvalue = [1, 3]"] ;
609 -> 610 ;
611 [label="gini = 0.0\nsamples = 3\nvalue = [0, 3]"] ;
610 -> 611 ;
612 [label="gini = 0.0\nsamples = 1\nvalue = [1, 0]"] ;
610 -> 612 ;
613 [label="budget <= 57500000.0\ngini = 0.405\nsamples = 92\nvalue = [66, 26]"] ;
609 -> 613 ;
614 [label="gini = 0.452\nsamples = 58\nvalue = [38, 20]"] ;
613 -> 614 ;
615 [label="gini = 0.291\nsamples = 34\nvalue = [28, 6]"] ;
613 -> 615 ;
616 [label="budget <= 48500000.0\ngini = 0.444\nsamples = 3\nvalue = [1, 2]"] ;
556 -> 616 ;
617 [label="gini = 0.0\nsamples = 2\nvalue = [0, 2]"] ;
616 -> 617 ;
618 [label="gini = 0.0\nsamples = 1\nvalue = [1, 0]"] ;
616 -> 618 ;
619 [label="gini = 0.0\nsamples = 1\nvalue = [0, 1]"] ;
555 -> 619 ;
620 [label="budget <= 19500000.0\ngini = 0.468\nsamples = 59\nvalue = [37, 22]"] ;
554 -> 620 ;
621 [label="annee <= 2006.0\ngini = 0.444\nsamples = 15\nvalue = [5, 10]"] ;
620 -> 621 ;
622 [label="Fantasy <= 0.5\ngini = 0.198\nsamples = 9\nvalue = [1, 8]"] ;
621 -> 622 ;
623 [label="gini = 0.0\nsamples = 8\nvalue = [0, 8]"] ;
622 -> 623 ;
624 [label="gini = 0.0\nsamples = 1\nvalue = [1, 0]"] ;
622 -> 624 ;
625 [label="Thriller <= 0.5\ngini = 0.444\nsamples = 6\nvalue = [4, 2]"] ;
621 -> 625 ;
626 [label="gini = 0.0\nsamples = 1\nvalue = [0, 1]"] ;
625 -> 626 ;
627 [label="budget <= 11250000.0\ngini = 0.32\nsamples = 5\nvalue = [4, 1]"] ;
625 -> 627 ;
628 [label="Action <= 0.5\ngini = 0.5\nsamples = 2\nvalue = [1, 1]"] ;
627 -> 628 ;
629 [label="gini = 0.0\nsamples = 1\nvalue = [1, 0]"] ;
628 -> 629 ;
630 [label="gini = 0.0\nsamples = 1\nvalue = [0, 1]"] ;
628 -> 630 ;
631 [label="gini = 0.0\nsamples = 3\nvalue = [3, 0]"] ;
627 -> 631 ;
632 [label="Thriller <= 0.5\ngini = 0.397\nsamples = 44\nvalue = [32, 12]"] ;
620 -> 632 ;
633 [label="budget <= 36000000.0\ngini = 0.497\nsamples = 13\nvalue = [6, 7]"] ;
632 -> 633 ;
634 [label="gini = 0.0\nsamples = 6\nvalue = [0, 6]"] ;
633 -> 634 ;
635 [label="Duree <= 108.0\ngini = 0.245\nsamples = 7\nvalue = [6, 1]"] ;
633 -> 635 ;
636 [label="gini = 0.0\nsamples = 5\nvalue = [5, 0]"] ;
635 -> 636 ;
637 [label="budget <= 43500000.0\ngini = 0.5\nsamples = 2\nvalue = [1, 1]"] ;
635 -> 637 ;
638 [label="gini = 0.0\nsamples = 1\nvalue = [0, 1]"] ;
637 -> 638 ;
639 [label="gini = 0.0\nsamples = 1\nvalue = [1, 0]"] ;
637 -> 639 ;
640 [label="budget <= 30125000.0\ngini = 0.271\nsamples = 31\nvalue = [26, 5]"] ;
632 -> 640 ;
641 [label="gini = 0.0\nsamples = 15\nvalue = [15, 0]"] ;
640 -> 641 ;
642 [label="Duree <= 102.5\ngini = 0.43\nsamples = 16\nvalue = [11, 5]"] ;
640 -> 642 ;
643 [label="gini = 0.0\nsamples = 2\nvalue = [0, 2]"] ;
642 -> 643 ;
644 [label="budget <= 32075000.0\ngini = 0.337\nsamples = 14\nvalue = [11, 3]"] ;
642 -> 644 ;
645 [label="gini = 0.0\nsamples = 1\nvalue = [0, 1]"] ;
644 -> 645 ;
646 [label="Duree <= 109.5\ngini = 0.26\nsamples = 13\nvalue = [11, 2]"] ;
644 -> 646 ;
647 [label="annee <= 2002.0\ngini = 0.165\nsamples = 11\nvalue = [10, 1]"] ;
646 -> 647 ;
648 [label="annee <= 2000.0\ngini = 0.444\nsamples = 3\nvalue = [2, 1]"] ;
647 -> 648 ;
649 [label="gini = 0.0\nsamples = 2\nvalue = [2, 0]"] ;
648 -> 649 ;
650 [label="gini = 0.0\nsamples = 1\nvalue = [0, 1]"] ;
648 -> 650 ;
651 [label="gini = 0.0\nsamples = 8\nvalue = [8, 0]"] ;
647 -> 651 ;
652 [label="annee <= 2006.5\ngini = 0.5\nsamples = 2\nvalue = [1, 1]"] ;
646 -> 652 ;
653 [label="gini = 0.0\nsamples = 1\nvalue = [1, 0]"] ;
652 -> 653 ;
654 [label="gini = 0.0\nsamples = 1\nvalue = [0, 1]"] ;
652 -> 654 ;
655 [label="gini = 0.0\nsamples = 2\nvalue = [0, 2]"] ;
553 -> 655 ;
656 [label="budget <= 19000000.0\ngini = 0.465\nsamples = 152\nvalue = [56, 96]"] ;
128 -> 656 ;
657 [label="Duree <= 95.5\ngini = 0.142\nsamples = 13\nvalue = [1, 12]"] ;
656 -> 657 ;
658 [label="gini = 0.0\nsamples = 10\nvalue = [0, 10]"] ;
657 -> 658 ;
659 [label="annee <= 2007.0\ngini = 0.444\nsamples = 3\nvalue = [1, 2]"] ;
657 -> 659 ;
660 [label="gini = 0.0\nsamples = 2\nvalue = [0, 2]"] ;
659 -> 660 ;
661 [label="gini = 0.0\nsamples = 1\nvalue = [1, 0]"] ;
659 -> 661 ;
662 [label="budget <= 82500000.0\ngini = 0.478\nsamples = 139\nvalue = [55, 84]"] ;
656 -> 662 ;
663 [label="Duree <= 95.5\ngini = 0.5\nsamples = 74\nvalue = [37, 37]"] ;
662 -> 663 ;
664 [label="annee <= 2000.5\ngini = 0.496\nsamples = 64\nvalue = [35, 29]"] ;
663 -> 664 ;
665 [label="Fantasy <= 0.5\ngini = 0.43\nsamples = 16\nvalue = [5, 11]"] ;
664 -> 665 ;
666 [label="gini = 0.0\nsamples = 5\nvalue = [0, 5]"] ;
665 -> 666 ;
667 [label="Duree <= 84.5\ngini = 0.496\nsamples = 11\nvalue = [5, 6]"] ;
665 -> 667 ;
668 [label="annee <= 1987.0\ngini = 0.32\nsamples = 5\nvalue = [1, 4]"] ;
667 -> 668 ;
669 [label="gini = 0.0\nsamples = 1\nvalue = [1, 0]"] ;
668 -> 669 ;
670 [label="gini = 0.0\nsamples = 4\nvalue = [0, 4]"] ;
668 -> 670 ;
671 [label="annee <= 1993.0\ngini = 0.444\nsamples = 6\nvalue = [4, 2]"] ;
667 -> 671 ;
672 [label="gini = 0.0\nsamples = 2\nvalue = [0, 2]"] ;
671 -> 672 ;
673 [label="gini = 0.0\nsamples = 4\nvalue = [4, 0]"] ;
671 -> 673 ;
674 [label="Duree <= 88.5\ngini = 0.469\nsamples = 48\nvalue = [30, 18]"] ;
664 -> 674 ;
675 [label="Fantasy <= 0.5\ngini = 0.5\nsamples = 26\nvalue = [13, 13]"] ;
674 -> 675 ;
676 [label="Duree <= 84.5\ngini = 0.444\nsamples = 18\nvalue = [6, 12]"] ;
675 -> 676 ;
677 [label="Duree <= 67.5\ngini = 0.408\nsamples = 7\nvalue = [5, 2]"] ;
676 -> 677 ;
678 [label="gini = 0.0\nsamples = 1\nvalue = [0, 1]"] ;
677 -> 678 ;
679 [label="budget <= 65000000.0\ngini = 0.278\nsamples = 6\nvalue = [5, 1]"] ;
677 -> 679 ;
680 [label="gini = 0.0\nsamples = 4\nvalue = [4, 0]"] ;
679 -> 680 ;
681 [label="annee <= 2008.0\ngini = 0.5\nsamples = 2\nvalue = [1, 1]"] ;
679 -> 681 ;
682 [label="gini = 0.0\nsamples = 1\nvalue = [0, 1]"] ;
681 -> 682 ;
683 [label="gini = 0.0\nsamples = 1\nvalue = [1, 0]"] ;
681 -> 683 ;
684 [label="annee <= 2013.0\ngini = 0.165\nsamples = 11\nvalue = [1, 10]"] ;
676 -> 684 ;
685 [label="gini = 0.0\nsamples = 9\nvalue = [0, 9]"] ;
684 -> 685 ;
686 [label="budget <= 33500000.0\ngini = 0.5\nsamples = 2\nvalue = [1, 1]"] ;
684 -> 686 ;
687 [label="gini = 0.0\nsamples = 1\nvalue = [0, 1]"] ;
686 -> 687 ;
688 [label="gini = 0.0\nsamples = 1\nvalue = [1, 0]"] ;
686 -> 688 ;
689 [label="Family <= 0.5\ngini = 0.219\nsamples = 8\nvalue = [7, 1]"] ;
675 -> 689 ;
690 [label="gini = 0.0\nsamples = 1\nvalue = [0, 1]"] ;
689 -> 690 ;
691 [label="gini = 0.0\nsamples = 7\nvalue = [7, 0]"] ;
689 -> 691 ;
692 [label="Fantasy <= 0.5\ngini = 0.351\nsamples = 22\nvalue = [17, 5]"] ;
674 -> 692 ;
693 [label="gini = 0.0\nsamples = 11\nvalue = [11, 0]"] ;
692 -> 693 ;
694 [label="budget <= 61500000.0\ngini = 0.496\nsamples = 11\nvalue = [6, 5]"] ;
692 -> 694 ;
695 [label="Adventure <= 0.5\ngini = 0.32\nsamples = 5\nvalue = [1, 4]"] ;
694 -> 695 ;
696 [label="gini = 0.0\nsamples = 1\nvalue = [1, 0]"] ;
695 -> 696 ;
697 [label="gini = 0.0\nsamples = 4\nvalue = [0, 4]"] ;
695 -> 697 ;
698 [label="Mystery <= 0.5\ngini = 0.278\nsamples = 6\nvalue = [5, 1]"] ;
694 -> 698 ;
699 [label="gini = 0.0\nsamples = 5\nvalue = [5, 0]"] ;
698 -> 699 ;
700 [label="gini = 0.0\nsamples = 1\nvalue = [0, 1]"] ;
698 -> 700 ;
701 [label="Mystery <= 0.5\ngini = 0.32\nsamples = 10\nvalue = [2, 8]"] ;
663 -> 701 ;
702 [label="Duree <= 103.5\ngini = 0.198\nsamples = 9\nvalue = [1, 8]"] ;
701 -> 702 ;
703 [label="gini = 0.0\nsamples = 7\nvalue = [0, 7]"] ;
702 -> 703 ;
704 [label="budget <= 71725000.0\ngini = 0.5\nsamples = 2\nvalue = [1, 1]"] ;
702 -> 704 ;
705 [label="gini = 0.0\nsamples = 1\nvalue = [0, 1]"] ;
704 -> 705 ;
706 [label="gini = 0.0\nsamples = 1\nvalue = [1, 0]"] ;
704 -> 706 ;
707 [label="gini = 0.0\nsamples = 1\nvalue = [1, 0]"] ;
701 -> 707 ;
708 [label="Duree <= 84.5\ngini = 0.4\nsamples = 65\nvalue = [18, 47]"] ;
662 -> 708 ;
709 [label="annee <= 2001.0\ngini = 0.375\nsamples = 8\nvalue = [6, 2]"] ;
708 -> 709 ;
710 [label="budget <= 113750000.0\ngini = 0.444\nsamples = 3\nvalue = [1, 2]"] ;
709 -> 710 ;
711 [label="gini = 0.0\nsamples = 2\nvalue = [0, 2]"] ;
710 -> 711 ;
712 [label="gini = 0.0\nsamples = 1\nvalue = [1, 0]"] ;
710 -> 712 ;
713 [label="gini = 0.0\nsamples = 5\nvalue = [5, 0]"] ;
709 -> 713 ;
714 [label="Duree <= 104.5\ngini = 0.332\nsamples = 57\nvalue = [12, 45]"] ;
708 -> 714 ;
715 [label="budget <= 101500000.0\ngini = 0.269\nsamples = 50\nvalue = [8, 42]"] ;
714 -> 715 ;
716 [label="gini = 0.0\nsamples = 11\nvalue = [0, 11]"] ;
715 -> 716 ;
717 [label="budget <= 112500000.0\ngini = 0.326\nsamples = 39\nvalue = [8, 31]"] ;
715 -> 717 ;
718 [label="Duree <= 99.0\ngini = 0.444\nsamples = 3\nvalue = [2, 1]"] ;
717 -> 718 ;
719 [label="gini = 0.0\nsamples = 1\nvalue = [0, 1]"] ;
718 -> 719 ;
720 [label="gini = 0.0\nsamples = 2\nvalue = [2, 0]"] ;
718 -> 720 ;
721 [label="Sport <= 0.5\ngini = 0.278\nsamples = 36\nvalue = [6, 30]"] ;
717 -> 721 ;
722 [label="Duree <= 93.5\ngini = 0.245\nsamples = 35\nvalue = [5, 30]"] ;
721 -> 722 ;
723 [label="budget <= 149500000.0\ngini = 0.391\nsamples = 15\nvalue = [4, 11]"] ;
722 -> 723 ;
724 [label="gini = 0.0\nsamples = 8\nvalue = [0, 8]"] ;
723 -> 724 ;
725 [label="annee <= 2005.5\ngini = 0.49\nsamples = 7\nvalue = [4, 3]"] ;
723 -> 725 ;
726 [label="gini = 0.0\nsamples = 1\nvalue = [0, 1]"] ;
725 -> 726 ;
727 [label="budget <= 175000000.0\ngini = 0.444\nsamples = 6\nvalue = [4, 2]"] ;
725 -> 727 ;
728 [label="Duree <= 90.0\ngini = 0.32\nsamples = 5\nvalue = [4, 1]"] ;
727 -> 728 ;
729 [label="annee <= 2009.5\ngini = 0.5\nsamples = 2\nvalue = [1, 1]"] ;
728 -> 729 ;
730 [label="gini = 0.0\nsamples = 1\nvalue = [0, 1]"] ;
729 -> 730 ;
731 [label="gini = 0.0\nsamples = 1\nvalue = [1, 0]"] ;
729 -> 731 ;
732 [label="gini = 0.0\nsamples = 3\nvalue = [3, 0]"] ;
728 -> 732 ;
733 [label="gini = 0.0\nsamples = 1\nvalue = [0, 1]"] ;
727 -> 733 ;
734 [label="Musical <= 0.5\ngini = 0.095\nsamples = 20\nvalue = [1, 19]"] ;
722 -> 734 ;
735 [label="gini = 0.0\nsamples = 17\nvalue = [0, 17]"] ;
734 -> 735 ;
736 [label="budget <= 140000000.0\ngini = 0.444\nsamples = 3\nvalue = [1, 2]"] ;
734 -> 736 ;
737 [label="gini = 0.0\nsamples = 1\nvalue = [1, 0]"] ;
736 -> 737 ;
738 [label="gini = 0.0\nsamples = 2\nvalue = [0, 2]"] ;
736 -> 738 ;
739 [label="gini = 0.0\nsamples = 1\nvalue = [1, 0]"] ;
721 -> 739 ;
740 [label="Duree <= 106.5\ngini = 0.49\nsamples = 7\nvalue = [4, 3]"] ;
714 -> 740 ;
741 [label="gini = 0.0\nsamples = 3\nvalue = [3, 0]"] ;
740 -> 741 ;
742 [label="Duree <= 107.5\ngini = 0.375\nsamples = 4\nvalue = [1, 3]"] ;
740 -> 742 ;
743 [label="gini = 0.0\nsamples = 3\nvalue = [0, 3]"] ;
742 -> 743 ;
744 [label="gini = 0.0\nsamples = 1\nvalue = [1, 0]"] ;
742 -> 744 ;
745 [label="Duree <= 134.5\ngini = 0.49\nsamples = 512\nvalue = [219, 293]"] ;
127 -> 745 ;
746 [label="annee <= 1992.5\ngini = 0.5\nsamples = 398\nvalue = [193, 205]"] ;
745 -> 746 ;
747 [label="Family <= 0.5\ngini = 0.355\nsamples = 39\nvalue = [9, 30]"] ;
746 -> 747 ;
748 [label="Duree <= 115.5\ngini = 0.307\nsamples = 37\nvalue = [7, 30]"] ;
747 -> 748 ;
749 [label="annee <= 1987.5\ngini = 0.5\nsamples = 8\nvalue = [4, 4]"] ;
748 -> 749 ;
750 [label="gini = 0.0\nsamples = 2\nvalue = [0, 2]"] ;
749 -> 750 ;
751 [label="budget <= 26500000.0\ngini = 0.444\nsamples = 6\nvalue = [4, 2]"] ;
749 -> 751 ;
752 [label="gini = 0.0\nsamples = 3\nvalue = [3, 0]"] ;
751 -> 752 ;
753 [label="Sci-Fi <= 0.5\ngini = 0.444\nsamples = 3\nvalue = [1, 2]"] ;
751 -> 753 ;
754 [label="annee <= 1990.5\ngini = 0.5\nsamples = 2\nvalue = [1, 1]"] ;
753 -> 754 ;
755 [label="gini = 0.0\nsamples = 1\nvalue = [1, 0]"] ;
754 -> 755 ;
756 [label="gini = 0.0\nsamples = 1\nvalue = [0, 1]"] ;
754 -> 756 ;
757 [label="gini = 0.0\nsamples = 1\nvalue = [0, 1]"] ;
753 -> 757 ;
758 [label="Horror <= 0.5\ngini = 0.185\nsamples = 29\nvalue = [3, 26]"] ;
748 -> 758 ;
759 [label="annee <= 1985.5\ngini = 0.071\nsamples = 27\nvalue = [1, 26]"] ;
758 -> 759 ;
760 [label="Duree <= 123.5\ngini = 0.5\nsamples = 2\nvalue = [1, 1]"] ;
759 -> 760 ;
761 [label="gini = 0.0\nsamples = 1\nvalue = [0, 1]"] ;
760 -> 761 ;
762 [label="gini = 0.0\nsamples = 1\nvalue = [1, 0]"] ;
760 -> 762 ;
763 [label="gini = 0.0\nsamples = 25\nvalue = [0, 25]"] ;
759 -> 763 ;
764 [label="gini = 0.0\nsamples = 2\nvalue = [2, 0]"] ;
758 -> 764 ;
765 [label="gini = 0.0\nsamples = 2\nvalue = [2, 0]"] ;
747 -> 765 ;
766 [label="budget <= 21170000.0\ngini = 0.5\nsamples = 359\nvalue = [184, 175]"] ;
746 -> 766 ;
767 [label="Horror <= 0.5\ngini = 0.448\nsamples = 56\nvalue = [19, 37]"] ;
766 -> 767 ;
768 [label="Action <= 0.5\ngini = 0.381\nsamples = 43\nvalue = [11, 32]"] ;
767 -> 768 ;
769 [label="budget <= 19105000.0\ngini = 0.313\nsamples = 36\nvalue = [7, 29]"] ;
768 -> 769 ;
770 [label="Comedy <= 0.5\ngini = 0.257\nsamples = 33\nvalue = [5, 28]"] ;
769 -> 770 ;
771 [label="Duree <= 126.0\ngini = 0.391\nsamples = 15\nvalue = [4, 11]"] ;
770 -> 771 ;
772 [label="Music <= 0.5\ngini = 0.337\nsamples = 14\nvalue = [3, 11]"] ;
771 -> 772 ;
773 [label="Mystery <= 0.5\ngini = 0.26\nsamples = 13\nvalue = [2, 11]"] ;
772 -> 773 ;
774 [label="gini = 0.0\nsamples = 8\nvalue = [0, 8]"] ;
773 -> 774 ;
775 [label="annee <= 2001.5\ngini = 0.48\nsamples = 5\nvalue = [2, 3]"] ;
773 -> 775 ;
776 [label="gini = 0.0\nsamples = 2\nvalue = [0, 2]"] ;
775 -> 776 ;
777 [label="annee <= 2011.0\ngini = 0.444\nsamples = 3\nvalue = [2, 1]"] ;
775 -> 777 ;
778 [label="gini = 0.0\nsamples = 2\nvalue = [2, 0]"] ;
777 -> 778 ;
779 [label="gini = 0.0\nsamples = 1\nvalue = [0, 1]"] ;
777 -> 779 ;
780 [label="gini = 0.0\nsamples = 1\nvalue = [1, 0]"] ;
772 -> 780 ;
781 [label="gini = 0.0\nsamples = 1\nvalue = [1, 0]"] ;
771 -> 781 ;
782 [label="Fantasy <= 0.5\ngini = 0.105\nsamples = 18\nvalue = [1, 17]"] ;
770 -> 782 ;
783 [label="gini = 0.0\nsamples = 14\nvalue = [0, 14]"] ;
782 -> 783 ;
784 [label="Romance <= 0.5\ngini = 0.375\nsamples = 4\nvalue = [1, 3]"] ;
782 -> 784 ;
785 [label="gini = 0.0\nsamples = 3\nvalue = [0, 3]"] ;
784 -> 785 ;
786 [label="gini = 0.0\nsamples = 1\nvalue = [1, 0]"] ;
784 -> 786 ;
787 [label="Romance <= 0.5\ngini = 0.444\nsamples = 3\nvalue = [2, 1]"] ;
769 -> 787 ;
788 [label="gini = 0.0\nsamples = 1\nvalue = [0, 1]"] ;
787 -> 788 ;
789 [label="gini = 0.0\nsamples = 2\nvalue = [2, 0]"] ;
787 -> 789 ;
790 [label="budget <= 11120000.0\ngini = 0.49\nsamples = 7\nvalue = [4, 3]"] ;
768 -> 790 ;
791 [label="gini = 0.0\nsamples = 3\nvalue = [3, 0]"] ;
790 -> 791 ;
792 [label="Duree <= 124.5\ngini = 0.375\nsamples = 4\nvalue = [1, 3]"] ;
790 -> 792 ;
793 [label="gini = 0.0\nsamples = 3\nvalue = [0, 3]"] ;
792 -> 793 ;
794 [label="gini = 0.0\nsamples = 1\nvalue = [1, 0]"] ;
792 -> 794 ;
795 [label="budget <= 16500000.0\ngini = 0.473\nsamples = 13\nvalue = [8, 5]"] ;
767 -> 795 ;
796 [label="Duree <= 116.5\ngini = 0.397\nsamples = 11\nvalue = [8, 3]"] ;
795 -> 796 ;
797 [label="budget <= 13250000.0\ngini = 0.5\nsamples = 6\nvalue = [3, 3]"] ;
796 -> 797 ;
798 [label="Thriller <= 0.5\ngini = 0.375\nsamples = 4\nvalue = [3, 1]"] ;
797 -> 798 ;
799 [label="gini = 0.0\nsamples = 1\nvalue = [0, 1]"] ;
798 -> 799 ;
800 [label="gini = 0.0\nsamples = 3\nvalue = [3, 0]"] ;
798 -> 800 ;
801 [label="gini = 0.0\nsamples = 2\nvalue = [0, 2]"] ;
797 -> 801 ;
802 [label="gini = 0.0\nsamples = 5\nvalue = [5, 0]"] ;
796 -> 802 ;
803 [label="gini = 0.0\nsamples = 2\nvalue = [0, 2]"] ;
795 -> 803 ;
804 [label="annee <= 2005.5\ngini = 0.496\nsamples = 303\nvalue = [165, 138]"] ;
766 -> 804 ;
805 [label="Comedy <= 0.5\ngini = 0.465\nsamples = 147\nvalue = [93, 54]"] ;
804 -> 805 ;
806 [label="budget <= 49000000.0\ngini = 0.489\nsamples = 101\nvalue = [58, 43]"] ;
805 -> 806 ;
807 [label="annee <= 2000.5\ngini = 0.488\nsamples = 26\nvalue = [11, 15]"] ;
806 -> 807 ;
808 [label="annee <= 1999.5\ngini = 0.494\nsamples = 18\nvalue = [10, 8]"] ;
807 -> 808 ;
809 [label="Thriller <= 0.5\ngini = 0.498\nsamples = 15\nvalue = [7, 8]"] ;
808 -> 809 ;
810 [label="annee <= 1998.5\ngini = 0.32\nsamples = 5\nvalue = [4, 1]"] ;
809 -> 810 ;
811 [label="gini = 0.0\nsamples = 4\nvalue = [4, 0]"] ;
810 -> 811 ;
812 [label="gini = 0.0\nsamples = 1\nvalue = [0, 1]"] ;
810 -> 812 ;
813 [label="Duree <= 115.5\ngini = 0.42\nsamples = 10\nvalue = [3, 7]"] ;
809 -> 813 ;
814 [label="annee <= 1995.5\ngini = 0.48\nsamples = 5\nvalue = [3, 2]"] ;
813 -> 814 ;
815 [label="gini = 0.0\nsamples = 2\nvalue = [2, 0]"] ;
814 -> 815 ;
816 [label="budget <= 35000000.0\ngini = 0.444\nsamples = 3\nvalue = [1, 2]"] ;
814 -> 816 ;
817 [label="gini = 0.0\nsamples = 1\nvalue = [1, 0]"] ;
816 -> 817 ;
818 [label="gini = 0.0\nsamples = 2\nvalue = [0, 2]"] ;
816 -> 818 ;
819 [label="gini = 0.0\nsamples = 5\nvalue = [0, 5]"] ;
813 -> 819 ;
820 [label="gini = 0.0\nsamples = 3\nvalue = [3, 0]"] ;
808 -> 820 ;
821 [label="annee <= 2004.0\ngini = 0.219\nsamples = 8\nvalue = [1, 7]"] ;
807 -> 821 ;
822 [label="gini = 0.0\nsamples = 6\nvalue = [0, 6]"] ;
821 -> 822 ;
823 [label="Adventure <= 0.5\ngini = 0.5\nsamples = 2\nvalue = [1, 1]"] ;
821 -> 823 ;
824 [label="gini = 0.0\nsamples = 1\nvalue = [1, 0]"] ;
823 -> 824 ;
825 [label="gini = 0.0\nsamples = 1\nvalue = [0, 1]"] ;
823 -> 825 ;
826 [label="War <= 0.5\ngini = 0.468\nsamples = 75\nvalue = [47, 28]"] ;
806 -> 826 ;
827 [label="annee <= 2004.5\ngini = 0.459\nsamples = 73\nvalue = [47, 26]"] ;
826 -> 827 ;
828 [label="Horror <= 0.5\ngini = 0.472\nsamples = 68\nvalue = [42, 26]"] ;
827 -> 828 ;
829 [label="annee <= 2000.5\ngini = 0.485\nsamples = 63\nvalue = [37, 26]"] ;
828 -> 829 ;
830 [label="annee <= 1994.5\ngini = 0.431\nsamples = 35\nvalue = [24, 11]"] ;
829 -> 830 ;
831 [label="Sci-Fi <= 0.5\ngini = 0.375\nsamples = 4\nvalue = [1, 3]"] ;
830 -> 831 ;
832 [label="gini = 0.0\nsamples = 1\nvalue = [1, 0]"] ;
831 -> 832 ;
833 [label="gini = 0.0\nsamples = 3\nvalue = [0, 3]"] ;
831 -> 833 ;
834 [label="Duree <= 120.0\ngini = 0.383\nsamples = 31\nvalue = [23, 8]"] ;
830 -> 834 ;
835 [label="gini = 0.0\nsamples = 7\nvalue = [7, 0]"] ;
834 -> 835 ;
836 [label="annee <= 1999.5\ngini = 0.444\nsamples = 24\nvalue = [16, 8]"] ;
834 -> 836 ;
837 [label="Duree <= 131.5\ngini = 0.48\nsamples = 20\nvalue = [12, 8]"] ;
836 -> 837 ;
838 [label="budget <= 96500000.0\ngini = 0.498\nsamples = 17\nvalue = [9, 8]"] ;
837 -> 838 ;
839 [label="gini = 0.486\nsamples = 12\nvalue = [5, 7]"] ;
838 -> 839 ;
840 [label="gini = 0.32\nsamples = 5\nvalue = [4, 1]"] ;
838 -> 840 ;
841 [label="gini = 0.0\nsamples = 3\nvalue = [3, 0]"] ;
837 -> 841 ;
842 [label="gini = 0.0\nsamples = 4\nvalue = [4, 0]"] ;
836 -> 842 ;
843 [label="Duree <= 115.5\ngini = 0.497\nsamples = 28\nvalue = [13, 15]"] ;
829 -> 843 ;
844 [label="gini = 0.0\nsamples = 4\nvalue = [0, 4]"] ;
843 -> 844 ;
845 [label="Duree <= 133.5\ngini = 0.497\nsamples = 24\nvalue = [13, 11]"] ;
843 -> 845 ;
846 [label="Adventure <= 0.5\ngini = 0.483\nsamples = 22\nvalue = [13, 9]"] ;
845 -> 846 ;
847 [label="annee <= 2002.5\ngini = 0.48\nsamples = 10\nvalue = [4, 6]"] ;
846 -> 847 ;
848 [label="gini = 0.0\nsamples = 4\nvalue = [0, 4]"] ;
847 -> 848 ;
849 [label="Thriller <= 0.5\ngini = 0.444\nsamples = 6\nvalue = [4, 2]"] ;
847 -> 849 ;
850 [label="gini = 0.0\nsamples = 2\nvalue = [0, 2]"] ;
849 -> 850 ;
851 [label="gini = 0.0\nsamples = 4\nvalue = [4, 0]"] ;
849 -> 851 ;
852 [label="budget <= 99000000.0\ngini = 0.375\nsamples = 12\nvalue = [9, 3]"] ;
846 -> 852 ;
853 [label="gini = 0.0\nsamples = 5\nvalue = [5, 0]"] ;
852 -> 853 ;
854 [label="budget <= 140500000.0\ngini = 0.49\nsamples = 7\nvalue = [4, 3]"] ;
852 -> 854 ;
855 [label="gini = 0.48\nsamples = 5\nvalue = [2, 3]"] ;
854 -> 855 ;
856 [label="gini = 0.0\nsamples = 2\nvalue = [2, 0]"] ;
854 -> 856 ;
857 [label="gini = 0.0\nsamples = 2\nvalue = [0, 2]"] ;
845 -> 857 ;
858 [label="gini = 0.0\nsamples = 5\nvalue = [5, 0]"] ;
828 -> 858 ;
859 [label="gini = 0.0\nsamples = 5\nvalue = [5, 0]"] ;
827 -> 859 ;
860 [label="gini = 0.0\nsamples = 2\nvalue = [0, 2]"] ;
826 -> 860 ;
861 [label="annee <= 1998.5\ngini = 0.364\nsamples = 46\nvalue = [35, 11]"] ;
805 -> 861 ;
862 [label="annee <= 1993.5\ngini = 0.5\nsamples = 12\nvalue = [6, 6]"] ;
861 -> 862 ;
863 [label="gini = 0.0\nsamples = 2\nvalue = [2, 0]"] ;
862 -> 863 ;
864 [label="budget <= 35500000.0\ngini = 0.48\nsamples = 10\nvalue = [4, 6]"] ;
862 -> 864 ;
865 [label="Action <= 0.5\ngini = 0.32\nsamples = 5\nvalue = [1, 4]"] ;
864 -> 865 ;
866 [label="gini = 0.0\nsamples = 4\nvalue = [0, 4]"] ;
865 -> 866 ;
867 [label="gini = 0.0\nsamples = 1\nvalue = [1, 0]"] ;
865 -> 867 ;
868 [label="budget <= 46500000.0\ngini = 0.48\nsamples = 5\nvalue = [3, 2]"] ;
864 -> 868 ;
869 [label="gini = 0.0\nsamples = 2\nvalue = [2, 0]"] ;
868 -> 869 ;
870 [label="budget <= 86500000.0\ngini = 0.444\nsamples = 3\nvalue = [1, 2]"] ;
868 -> 870 ;
871 [label="gini = 0.0\nsamples = 2\nvalue = [0, 2]"] ;
870 -> 871 ;
872 [label="gini = 0.0\nsamples = 1\nvalue = [1, 0]"] ;
870 -> 872 ;
873 [label="Duree <= 127.5\ngini = 0.251\nsamples = 34\nvalue = [29, 5]"] ;
861 -> 873 ;
874 [label="budget <= 140000000.0\ngini = 0.175\nsamples = 31\nvalue = [28, 3]"] ;
873 -> 874 ;
875 [label="Musical <= 0.5\ngini = 0.124\nsamples = 30\nvalue = [28, 2]"] ;
874 -> 875 ;
876 [label="annee <= 2004.5\ngini = 0.067\nsamples = 29\nvalue = [28, 1]"] ;
875 -> 876 ;
877 [label="gini = 0.0\nsamples = 21\nvalue = [21, 0]"] ;
876 -> 877 ;
878 [label="Romance <= 0.5\ngini = 0.219\nsamples = 8\nvalue = [7, 1]"] ;
876 -> 878 ;
879 [label="gini = 0.0\nsamples = 6\nvalue = [6, 0]"] ;
878 -> 879 ;
880 [label="Crime <= 0.5\ngini = 0.5\nsamples = 2\nvalue = [1, 1]"] ;
878 -> 880 ;
881 [label="gini = 0.0\nsamples = 1\nvalue = [0, 1]"] ;
880 -> 881 ;
882 [label="gini = 0.0\nsamples = 1\nvalue = [1, 0]"] ;
880 -> 882 ;
883 [label="gini = 0.0\nsamples = 1\nvalue = [0, 1]"] ;
875 -> 883 ;
884 [label="gini = 0.0\nsamples = 1\nvalue = [0, 1]"] ;
874 -> 884 ;
885 [label="Musical <= 0.5\ngini = 0.444\nsamples = 3\nvalue = [1, 2]"] ;
873 -> 885 ;
886 [label="gini = 0.0\nsamples = 2\nvalue = [0, 2]"] ;
885 -> 886 ;
887 [label="gini = 0.0\nsamples = 1\nvalue = [1, 0]"] ;
885 -> 887 ;
888 [label="Action <= 0.5\ngini = 0.497\nsamples = 156\nvalue = [72, 84]"] ;
804 -> 888 ;
889 [label="annee <= 2007.5\ngini = 0.465\nsamples = 57\nvalue = [36, 21]"] ;
888 -> 889 ;
890 [label="Duree <= 116.5\ngini = 0.444\nsamples = 12\nvalue = [4, 8]"] ;
889 -> 890 ;
891 [label="Duree <= 114.5\ngini = 0.5\nsamples = 8\nvalue = [4, 4]"] ;
890 -> 891 ;
892 [label="Adventure <= 0.5\ngini = 0.444\nsamples = 6\nvalue = [2, 4]"] ;
891 -> 892 ;
893 [label="gini = 0.0\nsamples = 4\nvalue = [0, 4]"] ;
892 -> 893 ;
894 [label="gini = 0.0\nsamples = 2\nvalue = [2, 0]"] ;
892 -> 894 ;
895 [label="gini = 0.0\nsamples = 2\nvalue = [2, 0]"] ;
891 -> 895 ;
896 [label="gini = 0.0\nsamples = 4\nvalue = [0, 4]"] ;
890 -> 896 ;
897 [label="Duree <= 119.5\ngini = 0.411\nsamples = 45\nvalue = [32, 13]"] ;
889 -> 897 ;
898 [label="Music <= 0.5\ngini = 0.285\nsamples = 29\nvalue = [24, 5]"] ;
897 -> 898 ;
899 [label="Sci-Fi <= 0.5\ngini = 0.198\nsamples = 27\nvalue = [24, 3]"] ;
898 -> 899 ;
900 [label="annee <= 2011.5\ngini = 0.147\nsamples = 25\nvalue = [23, 2]"] ;
899 -> 900 ;
901 [label="gini = 0.0\nsamples = 13\nvalue = [13, 0]"] ;
900 -> 901 ;
902 [label="annee <= 2012.5\ngini = 0.278\nsamples = 12\nvalue = [10, 2]"] ;
900 -> 902 ;
903 [label="budget <= 60000000.0\ngini = 0.5\nsamples = 4\nvalue = [2, 2]"] ;
902 -> 903 ;
904 [label="gini = 0.0\nsamples = 2\nvalue = [0, 2]"] ;
903 -> 904 ;
905 [label="gini = 0.0\nsamples = 2\nvalue = [2, 0]"] ;
903 -> 905 ;
906 [label="gini = 0.0\nsamples = 8\nvalue = [8, 0]"] ;
902 -> 906 ;
907 [label="budget <= 80000000.0\ngini = 0.5\nsamples = 2\nvalue = [1, 1]"] ;
899 -> 907 ;
908 [label="gini = 0.0\nsamples = 1\nvalue = [0, 1]"] ;
907 -> 908 ;
909 [label="gini = 0.0\nsamples = 1\nvalue = [1, 0]"] ;
907 -> 909 ;
910 [label="gini = 0.0\nsamples = 2\nvalue = [0, 2]"] ;
898 -> 910 ;
911 [label="Duree <= 124.5\ngini = 0.5\nsamples = 16\nvalue = [8, 8]"] ;
897 -> 911 ;
912 [label="Crime <= 0.5\ngini = 0.278\nsamples = 6\nvalue = [1, 5]"] ;
911 -> 912 ;
913 [label="gini = 0.0\nsamples = 5\nvalue = [0, 5]"] ;
912 -> 913 ;
914 [label="gini = 0.0\nsamples = 1\nvalue = [1, 0]"] ;
912 -> 914 ;
915 [label="Mystery <= 0.5\ngini = 0.42\nsamples = 10\nvalue = [7, 3]"] ;
911 -> 915 ;
916 [label="annee <= 2014.5\ngini = 0.346\nsamples = 9\nvalue = [7, 2]"] ;
915 -> 916 ;
917 [label="budget <= 33750000.0\ngini = 0.219\nsamples = 8\nvalue = [7, 1]"] ;
916 -> 917 ;
918 [label="annee <= 2011.5\ngini = 0.5\nsamples = 2\nvalue = [1, 1]"] ;
917 -> 918 ;
919 [label="gini = 0.0\nsamples = 1\nvalue = [0, 1]"] ;
918 -> 919 ;
920 [label="gini = 0.0\nsamples = 1\nvalue = [1, 0]"] ;
918 -> 920 ;
921 [label="gini = 0.0\nsamples = 6\nvalue = [6, 0]"] ;
917 -> 921 ;
922 [label="gini = 0.0\nsamples = 1\nvalue = [0, 1]"] ;
916 -> 922 ;
923 [label="gini = 0.0\nsamples = 1\nvalue = [0, 1]"] ;
915 -> 923 ;
924 [label="Romance <= 0.5\ngini = 0.463\nsamples = 99\nvalue = [36, 63]"] ;
888 -> 924 ;
925 [label="Thriller <= 0.5\ngini = 0.447\nsamples = 92\nvalue = [31, 61]"] ;
924 -> 925 ;
926 [label="annee <= 2008.5\ngini = 0.363\nsamples = 42\nvalue = [10, 32]"] ;
925 -> 926 ;
927 [label="budget <= 145000000.0\ngini = 0.496\nsamples = 11\nvalue = [5, 6]"] ;
926 -> 927 ;
928 [label="Fantasy <= 0.5\ngini = 0.444\nsamples = 9\nvalue = [3, 6]"] ;
927 -> 928 ;
929 [label="Duree <= 116.0\ngini = 0.5\nsamples = 6\nvalue = [3, 3]"] ;
928 -> 929 ;
930 [label="gini = 0.0\nsamples = 2\nvalue = [2, 0]"] ;
929 -> 930 ;
931 [label="Sport <= 0.5\ngini = 0.375\nsamples = 4\nvalue = [1, 3]"] ;
929 -> 931 ;
932 [label="gini = 0.0\nsamples = 3\nvalue = [0, 3]"] ;
931 -> 932 ;
933 [label="gini = 0.0\nsamples = 1\nvalue = [1, 0]"] ;
931 -> 933 ;
934 [label="gini = 0.0\nsamples = 3\nvalue = [0, 3]"] ;
928 -> 934 ;
935 [label="gini = 0.0\nsamples = 2\nvalue = [2, 0]"] ;
927 -> 935 ;
936 [label="annee <= 2014.5\ngini = 0.271\nsamples = 31\nvalue = [5, 26]"] ;
926 -> 936 ;
937 [label="budget <= 80000000.0\ngini = 0.204\nsamples = 26\nvalue = [3, 23]"] ;
936 -> 937 ;
938 [label="budget <= 60000000.0\ngini = 0.444\nsamples = 9\nvalue = [3, 6]"] ;
937 -> 938 ;
939 [label="annee <= 2012.0\ngini = 0.245\nsamples = 7\nvalue = [1, 6]"] ;
938 -> 939 ;
940 [label="budget <= 31000000.0\ngini = 0.444\nsamples = 3\nvalue = [1, 2]"] ;
939 -> 940 ;
941 [label="gini = 0.0\nsamples = 2\nvalue = [0, 2]"] ;
940 -> 941 ;
942 [label="gini = 0.0\nsamples = 1\nvalue = [1, 0]"] ;
940 -> 942 ;
943 [label="gini = 0.0\nsamples = 4\nvalue = [0, 4]"] ;
939 -> 943 ;
944 [label="gini = 0.0\nsamples = 2\nvalue = [2, 0]"] ;
938 -> 944 ;
945 [label="gini = 0.0\nsamples = 17\nvalue = [0, 17]"] ;
937 -> 945 ;
946 [label="budget <= 153000000.0\ngini = 0.48\nsamples = 5\nvalue = [2, 3]"] ;
936 -> 946 ;
947 [label="gini = 0.0\nsamples = 3\nvalue = [0, 3]"] ;
946 -> 947 ;
948 [label="gini = 0.0\nsamples = 2\nvalue = [2, 0]"] ;
946 -> 948 ;
949 [label="annee <= 2014.5\ngini = 0.487\nsamples = 50\nvalue = [21, 29]"] ;
925 -> 949 ;
950 [label="Sci-Fi <= 0.5\ngini = 0.499\nsamples = 44\nvalue = [21, 23]"] ;
949 -> 950 ;
951 [label="Fantasy <= 0.5\ngini = 0.452\nsamples = 29\nvalue = [10, 19]"] ;
950 -> 951 ;
952 [label="budget <= 49000000.0\ngini = 0.417\nsamples = 27\nvalue = [8, 19]"] ;
951 -> 952 ;
953 [label="Duree <= 114.0\ngini = 0.48\nsamples = 5\nvalue = [3, 2]"] ;
952 -> 953 ;
954 [label="gini = 0.0\nsamples = 2\nvalue = [0, 2]"] ;
953 -> 954 ;
955 [label="gini = 0.0\nsamples = 3\nvalue = [3, 0]"] ;
953 -> 955 ;
956 [label="Duree <= 133.5\ngini = 0.351\nsamples = 22\nvalue = [5, 17]"] ;
952 -> 956 ;
957 [label="Crime <= 0.5\ngini = 0.308\nsamples = 21\nvalue = [4, 17]"] ;
956 -> 957 ;
958 [label="annee <= 2009.0\ngini = 0.48\nsamples = 10\nvalue = [4, 6]"] ;
957 -> 958 ;
959 [label="Duree <= 121.5\ngini = 0.32\nsamples = 5\nvalue = [1, 4]"] ;
958 -> 959 ;
960 [label="gini = 0.0\nsamples = 3\nvalue = [0, 3]"] ;
959 -> 960 ;
961 [label="gini = 0.5\nsamples = 2\nvalue = [1, 1]"] ;
959 -> 961 ;
962 [label="Mystery <= 0.5\ngini = 0.48\nsamples = 5\nvalue = [3, 2]"] ;
958 -> 962 ;
963 [label="gini = 0.375\nsamples = 4\nvalue = [3, 1]"] ;
962 -> 963 ;
964 [label="gini = 0.0\nsamples = 1\nvalue = [0, 1]"] ;
962 -> 964 ;
965 [label="gini = 0.0\nsamples = 11\nvalue = [0, 11]"] ;
957 -> 965 ;
966 [label="gini = 0.0\nsamples = 1\nvalue = [1, 0]"] ;
956 -> 966 ;
967 [label="gini = 0.0\nsamples = 2\nvalue = [2, 0]"] ;
951 -> 967 ;
968 [label="budget <= 36000000.0\ngini = 0.391\nsamples = 15\nvalue = [11, 4]"] ;
950 -> 968 ;
969 [label="annee <= 2011.0\ngini = 0.444\nsamples = 3\nvalue = [1, 2]"] ;
968 -> 969 ;
970 [label="gini = 0.0\nsamples = 1\nvalue = [1, 0]"] ;
969 -> 970 ;
971 [label="gini = 0.0\nsamples = 2\nvalue = [0, 2]"] ;
969 -> 971 ;
972 [label="Horror <= 0.5\ngini = 0.278\nsamples = 12\nvalue = [10, 2]"] ;
968 -> 972 ;
973 [label="annee <= 2007.5\ngini = 0.165\nsamples = 11\nvalue = [10, 1]"] ;
972 -> 973 ;
974 [label="gini = 0.0\nsamples = 1\nvalue = [0, 1]"] ;
973 -> 974 ;
975 [label="gini = 0.0\nsamples = 10\nvalue = [10, 0]"] ;
973 -> 975 ;
976 [label="gini = 0.0\nsamples = 1\nvalue = [0, 1]"] ;
972 -> 976 ;
977 [label="gini = 0.0\nsamples = 6\nvalue = [0, 6]"] ;
949 -> 977 ;
978 [label="Fantasy <= 0.5\ngini = 0.408\nsamples = 7\nvalue = [5, 2]"] ;
924 -> 978 ;
979 [label="gini = 0.0\nsamples = 4\nvalue = [4, 0]"] ;
978 -> 979 ;
980 [label="Duree <= 123.0\ngini = 0.444\nsamples = 3\nvalue = [1, 2]"] ;
978 -> 980 ;
981 [label="gini = 0.0\nsamples = 2\nvalue = [0, 2]"] ;
980 -> 981 ;
982 [label="gini = 0.0\nsamples = 1\nvalue = [1, 0]"] ;
980 -> 982 ;
983 [label="Sci-Fi <= 0.5\ngini = 0.352\nsamples = 114\nvalue = [26, 88]"] ;
745 -> 983 ;
984 [label="Sport <= 0.5\ngini = 0.248\nsamples = 69\nvalue = [10, 59]"] ;
983 -> 984 ;
985 [label="Duree <= 156.5\ngini = 0.23\nsamples = 68\nvalue = [9, 59]"] ;
984 -> 985 ;
986 [label="Duree <= 145.0\ngini = 0.305\nsamples = 48\nvalue = [9, 39]"] ;
985 -> 986 ;
987 [label="annee <= 2012.5\ngini = 0.128\nsamples = 29\nvalue = [2, 27]"] ;
986 -> 987 ;
988 [label="gini = 0.0\nsamples = 26\nvalue = [0, 26]"] ;
987 -> 988 ;
989 [label="budget <= 120000000.0\ngini = 0.444\nsamples = 3\nvalue = [2, 1]"] ;
987 -> 989 ;
990 [label="gini = 0.0\nsamples = 2\nvalue = [2, 0]"] ;
989 -> 990 ;
991 [label="gini = 0.0\nsamples = 1\nvalue = [0, 1]"] ;
989 -> 991 ;
992 [label="Western <= 0.5\ngini = 0.465\nsamples = 19\nvalue = [7, 12]"] ;
986 -> 992 ;
993 [label="annee <= 2007.5\ngini = 0.415\nsamples = 17\nvalue = [5, 12]"] ;
992 -> 993 ;
994 [label="annee <= 2002.5\ngini = 0.5\nsamples = 10\nvalue = [5, 5]"] ;
993 -> 994 ;
995 [label="gini = 0.0\nsamples = 3\nvalue = [0, 3]"] ;
994 -> 995 ;
996 [label="budget <= 22800000.0\ngini = 0.408\nsamples = 7\nvalue = [5, 2]"] ;
994 -> 996 ;
997 [label="gini = 0.0\nsamples = 2\nvalue = [2, 0]"] ;
996 -> 997 ;
998 [label="Fantasy <= 0.5\ngini = 0.48\nsamples = 5\nvalue = [3, 2]"] ;
996 -> 998 ;
999 [label="budget <= 82500000.0\ngini = 0.375\nsamples = 4\nvalue = [3, 1]"] ;
998 -> 999 ;
1000 [label="gini = 0.0\nsamples = 1\nvalue = [0, 1]"] ;
999 -> 1000 ;
1001 [label="gini = 0.0\nsamples = 3\nvalue = [3, 0]"] ;
999 -> 1001 ;
1002 [label="gini = 0.0\nsamples = 1\nvalue = [0, 1]"] ;
998 -> 1002 ;
1003 [label="gini = 0.0\nsamples = 7\nvalue = [0, 7]"] ;
993 -> 1003 ;
1004 [label="gini = 0.0\nsamples = 2\nvalue = [2, 0]"] ;
992 -> 1004 ;
1005 [label="gini = 0.0\nsamples = 20\nvalue = [0, 20]"] ;
985 -> 1005 ;
1006 [label="gini = 0.0\nsamples = 1\nvalue = [1, 0]"] ;
984 -> 1006 ;
1007 [label="budget <= 65500000.0\ngini = 0.458\nsamples = 45\nvalue = [16, 29]"] ;
983 -> 1007 ;
1008 [label="annee <= 1986.5\ngini = 0.486\nsamples = 12\nvalue = [7, 5]"] ;
1007 -> 1008 ;
1009 [label="gini = 0.0\nsamples = 2\nvalue = [0, 2]"] ;
1008 -> 1009 ;
1010 [label="Duree <= 171.0\ngini = 0.42\nsamples = 10\nvalue = [7, 3]"] ;
1008 -> 1010 ;
1011 [label="budget <= 9250000.0\ngini = 0.346\nsamples = 9\nvalue = [7, 2]"] ;
1010 -> 1011 ;
1012 [label="gini = 0.0\nsamples = 1\nvalue = [0, 1]"] ;
1011 -> 1012 ;
1013 [label="budget <= 61500000.0\ngini = 0.219\nsamples = 8\nvalue = [7, 1]"] ;
1011 -> 1013 ;
1014 [label="gini = 0.0\nsamples = 6\nvalue = [6, 0]"] ;
1013 -> 1014 ;
1015 [label="annee <= 1995.5\ngini = 0.5\nsamples = 2\nvalue = [1, 1]"] ;
1013 -> 1015 ;
1016 [label="gini = 0.0\nsamples = 1\nvalue = [1, 0]"] ;
1015 -> 1016 ;
1017 [label="gini = 0.0\nsamples = 1\nvalue = [0, 1]"] ;
1015 -> 1017 ;
1018 [label="gini = 0.0\nsamples = 1\nvalue = [0, 1]"] ;
1010 -> 1018 ;
1019 [label="budget <= 172500000.0\ngini = 0.397\nsamples = 33\nvalue = [9, 24]"] ;
1007 -> 1019 ;
1020 [label="Duree <= 139.5\ngini = 0.255\nsamples = 20\nvalue = [3, 17]"] ;
1019 -> 1020 ;
1021 [label="annee <= 2004.0\ngini = 0.42\nsamples = 10\nvalue = [3, 7]"] ;
1020 -> 1021 ;
1022 [label="Crime <= 0.5\ngini = 0.48\nsamples = 5\nvalue = [3, 2]"] ;
1021 -> 1022 ;
1023 [label="budget <= 143500000.0\ngini = 0.375\nsamples = 4\nvalue = [3, 1]"] ;
1022 -> 1023 ;
1024 [label="gini = 0.0\nsamples = 3\nvalue = [3, 0]"] ;
1023 -> 1024 ;
1025 [label="gini = 0.0\nsamples = 1\nvalue = [0, 1]"] ;
1023 -> 1025 ;
1026 [label="gini = 0.0\nsamples = 1\nvalue = [0, 1]"] ;
1022 -> 1026 ;
1027 [label="gini = 0.0\nsamples = 5\nvalue = [0, 5]"] ;
1021 -> 1027 ;
1028 [label="gini = 0.0\nsamples = 10\nvalue = [0, 10]"] ;
1020 -> 1028 ;
1029 [label="annee <= 2011.5\ngini = 0.497\nsamples = 13\nvalue = [6, 7]"] ;
1019 -> 1029 ;
1030 [label="Duree <= 177.0\ngini = 0.278\nsamples = 6\nvalue = [5, 1]"] ;
1029 -> 1030 ;
1031 [label="gini = 0.0\nsamples = 5\nvalue = [5, 0]"] ;
1030 -> 1031 ;
1032 [label="gini = 0.0\nsamples = 1\nvalue = [0, 1]"] ;
1030 -> 1032 ;
1033 [label="Duree <= 157.0\ngini = 0.245\nsamples = 7\nvalue = [1, 6]"] ;
1029 -> 1033 ;
1034 [label="gini = 0.0\nsamples = 3\nvalue = [0, 3]"] ;
1033 -> 1034 ;
1035 [label="Duree <= 169.0\ngini = 0.375\nsamples = 4\nvalue = [1, 3]"] ;
1033 -> 1035 ;
1036 [label="gini = 0.0\nsamples = 1\nvalue = [1, 0]"] ;
1035 -> 1036 ;
1037 [label="gini = 0.0\nsamples = 3\nvalue = [0, 3]"] ;
1035 -> 1037 ;
1038 [label="budget <= 15660000.0\ngini = 0.411\nsamples = 2269\nvalue = [655, 1614]"] ;
0 -> 1038 [labeldistance=2.5, labelangle=-45, headlabel="False"] ;
1039 [label="Duree <= 104.5\ngini = 0.283\nsamples = 1113\nvalue = [190, 923]"] ;
1038 -> 1039 ;
1040 [label="budget <= 2750000.0\ngini = 0.387\nsamples = 480\nvalue = [126, 354]"] ;
1039 -> 1040 ;
1041 [label="annee <= 2004.5\ngini = 0.209\nsamples = 177\nvalue = [21, 156]"] ;
1040 -> 1041 ;
1042 [label="Music <= 0.5\ngini = 0.069\nsamples = 112\nvalue = [4, 108]"] ;
1041 -> 1042 ;
1043 [label="Biography <= 0.5\ngini = 0.053\nsamples = 110\nvalue = [3, 107]"] ;
1042 -> 1043 ;
1044 [label="budget <= 1140000.0\ngini = 0.037\nsamples = 106\nvalue = [2, 104]"] ;
1043 -> 1044 ;
1045 [label="gini = 0.0\nsamples = 72\nvalue = [0, 72]"] ;
1044 -> 1045 ;
1046 [label="budget <= 1225000.0\ngini = 0.111\nsamples = 34\nvalue = [2, 32]"] ;
1044 -> 1046 ;
1047 [label="Duree <= 92.0\ngini = 0.444\nsamples = 3\nvalue = [1, 2]"] ;
1046 -> 1047 ;
1048 [label="gini = 0.0\nsamples = 1\nvalue = [1, 0]"] ;
1047 -> 1048 ;
1049 [label="gini = 0.0\nsamples = 2\nvalue = [0, 2]"] ;
1047 -> 1049 ;
1050 [label="Thriller <= 0.5\ngini = 0.062\nsamples = 31\nvalue = [1, 30]"] ;
1046 -> 1050 ;
1051 [label="gini = 0.0\nsamples = 25\nvalue = [0, 25]"] ;
1050 -> 1051 ;
1052 [label="annee <= 1982.0\ngini = 0.278\nsamples = 6\nvalue = [1, 5]"] ;
1050 -> 1052 ;
1053 [label="gini = 0.0\nsamples = 5\nvalue = [0, 5]"] ;
1052 -> 1053 ;
1054 [label="gini = 0.0\nsamples = 1\nvalue = [1, 0]"] ;
1052 -> 1054 ;
1055 [label="Duree <= 85.5\ngini = 0.375\nsamples = 4\nvalue = [1, 3]"] ;
1043 -> 1055 ;
1056 [label="gini = 0.0\nsamples = 1\nvalue = [1, 0]"] ;
1055 -> 1056 ;
1057 [label="gini = 0.0\nsamples = 3\nvalue = [0, 3]"] ;
1055 -> 1057 ;
1058 [label="budget <= 1415000.0\ngini = 0.5\nsamples = 2\nvalue = [1, 1]"] ;
1042 -> 1058 ;
1059 [label="gini = 0.0\nsamples = 1\nvalue = [0, 1]"] ;
1058 -> 1059 ;
1060 [label="gini = 0.0\nsamples = 1\nvalue = [1, 0]"] ;
1058 -> 1060 ;
1061 [label="Horror <= 0.5\ngini = 0.386\nsamples = 65\nvalue = [17, 48]"] ;
1041 -> 1061 ;
1062 [label="Duree <= 78.5\ngini = 0.306\nsamples = 53\nvalue = [10, 43]"] ;
1061 -> 1062 ;
1063 [label="gini = 0.0\nsamples = 1\nvalue = [1, 0]"] ;
1062 -> 1063 ;
1064 [label="Action <= 0.5\ngini = 0.286\nsamples = 52\nvalue = [9, 43]"] ;
1062 -> 1064 ;
1065 [label="Thriller <= 0.5\ngini = 0.265\nsamples = 51\nvalue = [8, 43]"] ;
1064 -> 1065 ;
1066 [label="Duree <= 89.5\ngini = 0.206\nsamples = 43\nvalue = [5, 38]"] ;
1065 -> 1066 ;
1067 [label="gini = 0.0\nsamples = 11\nvalue = [0, 11]"] ;
1066 -> 1067 ;
1068 [label="budget <= 2317500.0\ngini = 0.264\nsamples = 32\nvalue = [5, 27]"] ;
1066 -> 1068 ;
1069 [label="Duree <= 94.5\ngini = 0.231\nsamples = 30\nvalue = [4, 26]"] ;
1068 -> 1069 ;
1070 [label="budget <= 487500.0\ngini = 0.397\nsamples = 11\nvalue = [3, 8]"] ;
1069 -> 1070 ;
1071 [label="gini = 0.0\nsamples = 4\nvalue = [0, 4]"] ;
1070 -> 1071 ;
1072 [label="budget <= 1780000.0\ngini = 0.49\nsamples = 7\nvalue = [3, 4]"] ;
1070 -> 1072 ;
1073 [label="Biography <= 0.5\ngini = 0.48\nsamples = 5\nvalue = [3, 2]"] ;
1072 -> 1073 ;
1074 [label="annee <= 2006.0\ngini = 0.375\nsamples = 4\nvalue = [3, 1]"] ;
1073 -> 1074 ;
1075 [label="budget <= 1380000.0\ngini = 0.5\nsamples = 2\nvalue = [1, 1]"] ;
1074 -> 1075 ;
1076 [label="gini = 0.0\nsamples = 1\nvalue = [0, 1]"] ;
1075 -> 1076 ;
1077 [label="gini = 0.0\nsamples = 1\nvalue = [1, 0]"] ;
1075 -> 1077 ;
1078 [label="gini = 0.0\nsamples = 2\nvalue = [2, 0]"] ;
1074 -> 1078 ;
1079 [label="gini = 0.0\nsamples = 1\nvalue = [0, 1]"] ;
1073 -> 1079 ;
1080 [label="gini = 0.0\nsamples = 2\nvalue = [0, 2]"] ;
1072 -> 1080 ;
1081 [label="budget <= 124300.0\ngini = 0.1\nsamples = 19\nvalue = [1, 18]"] ;
1069 -> 1081 ;
1082 [label="Comedy <= 0.5\ngini = 0.5\nsamples = 2\nvalue = [1, 1]"] ;
1081 -> 1082 ;
1083 [label="gini = 0.0\nsamples = 1\nvalue = [0, 1]"] ;
1082 -> 1083 ;
1084 [label="gini = 0.0\nsamples = 1\nvalue = [1, 0]"] ;
1082 -> 1084 ;
1085 [label="gini = 0.0\nsamples = 17\nvalue = [0, 17]"] ;
1081 -> 1085 ;
1086 [label="Duree <= 98.0\ngini = 0.5\nsamples = 2\nvalue = [1, 1]"] ;
1068 -> 1086 ;
1087 [label="gini = 0.0\nsamples = 1\nvalue = [0, 1]"] ;
1086 -> 1087 ;
1088 [label="gini = 0.0\nsamples = 1\nvalue = [1, 0]"] ;
1086 -> 1088 ;
1089 [label="budget <= 925000.0\ngini = 0.469\nsamples = 8\nvalue = [3, 5]"] ;
1065 -> 1089 ;
1090 [label="gini = 0.0\nsamples = 3\nvalue = [3, 0]"] ;
1089 -> 1090 ;
1091 [label="gini = 0.0\nsamples = 5\nvalue = [0, 5]"] ;
1089 -> 1091 ;
1092 [label="gini = 0.0\nsamples = 1\nvalue = [1, 0]"] ;
1064 -> 1092 ;
1093 [label="Duree <= 100.5\ngini = 0.486\nsamples = 12\nvalue = [7, 5]"] ;
1061 -> 1093 ;
1094 [label="budget <= 1825000.0\ngini = 0.42\nsamples = 10\nvalue = [7, 3]"] ;
1093 -> 1094 ;
1095 [label="Crime <= 0.5\ngini = 0.245\nsamples = 7\nvalue = [6, 1]"] ;
1094 -> 1095 ;
1096 [label="gini = 0.0\nsamples = 6\nvalue = [6, 0]"] ;
1095 -> 1096 ;
1097 [label="gini = 0.0\nsamples = 1\nvalue = [0, 1]"] ;
1095 -> 1097 ;
1098 [label="Duree <= 90.0\ngini = 0.444\nsamples = 3\nvalue = [1, 2]"] ;
1094 -> 1098 ;
1099 [label="gini = 0.0\nsamples = 1\nvalue = [1, 0]"] ;
1098 -> 1099 ;
1100 [label="gini = 0.0\nsamples = 2\nvalue = [0, 2]"] ;
1098 -> 1100 ;
1101 [label="gini = 0.0\nsamples = 2\nvalue = [0, 2]"] ;
1093 -> 1101 ;
1102 [label="Thriller <= 0.5\ngini = 0.453\nsamples = 303\nvalue = [105, 198]"] ;
1040 -> 1102 ;
1103 [label="Animation <= 0.5\ngini = 0.411\nsamples = 218\nvalue = [63, 155]"] ;
1102 -> 1103 ;
1104 [label="Adventure <= 0.5\ngini = 0.42\nsamples = 210\nvalue = [63, 147]"] ;
1103 -> 1104 ;
1105 [label="annee <= 2009.5\ngini = 0.408\nsamples = 196\nvalue = [56, 140]"] ;
1104 -> 1105 ;
1106 [label="Comedy <= 0.5\ngini = 0.366\nsamples = 137\nvalue = [33, 104]"] ;
1105 -> 1106 ;
1107 [label="Music <= 0.5\ngini = 0.278\nsamples = 66\nvalue = [11, 55]"] ;
1106 -> 1107 ;
1108 [label="budget <= 5907000.0\ngini = 0.231\nsamples = 60\nvalue = [8, 52]"] ;
1107 -> 1108 ;
1109 [label="gini = 0.0\nsamples = 20\nvalue = [0, 20]"] ;
1108 -> 1109 ;
1110 [label="annee <= 2006.5\ngini = 0.32\nsamples = 40\nvalue = [8, 32]"] ;
1108 -> 1110 ;
1111 [label="annee <= 2000.5\ngini = 0.391\nsamples = 30\nvalue = [8, 22]"] ;
1110 -> 1111 ;
1112 [label="Duree <= 96.0\ngini = 0.198\nsamples = 18\nvalue = [2, 16]"] ;
1111 -> 1112 ;
1113 [label="annee <= 1984.0\ngini = 0.408\nsamples = 7\nvalue = [2, 5]"] ;
1112 -> 1113 ;
1114 [label="gini = 0.0\nsamples = 3\nvalue = [0, 3]"] ;
1113 -> 1114 ;
1115 [label="annee <= 1997.5\ngini = 0.5\nsamples = 4\nvalue = [2, 2]"] ;
1113 -> 1115 ;
1116 [label="gini = 0.0\nsamples = 2\nvalue = [2, 0]"] ;
1115 -> 1116 ;
1117 [label="gini = 0.0\nsamples = 2\nvalue = [0, 2]"] ;
1115 -> 1117 ;
1118 [label="gini = 0.0\nsamples = 11\nvalue = [0, 11]"] ;
1112 -> 1118 ;
1119 [label="Romance <= 0.5\ngini = 0.5\nsamples = 12\nvalue = [6, 6]"] ;
1111 -> 1119 ;
1120 [label="budget <= 12497000.0\ngini = 0.444\nsamples = 9\nvalue = [6, 3]"] ;
1119 -> 1120 ;
1121 [label="Duree <= 91.0\ngini = 0.375\nsamples = 8\nvalue = [6, 2]"] ;
1120 -> 1121 ;
1122 [label="gini = 0.0\nsamples = 1\nvalue = [0, 1]"] ;
1121 -> 1122 ;
1123 [label="couleur <= 1.5\ngini = 0.245\nsamples = 7\nvalue = [6, 1]"] ;
1121 -> 1123 ;
1124 [label="gini = 0.0\nsamples = 1\nvalue = [0, 1]"] ;
1123 -> 1124 ;
1125 [label="gini = 0.0\nsamples = 6\nvalue = [6, 0]"] ;
1123 -> 1125 ;
1126 [label="gini = 0.0\nsamples = 1\nvalue = [0, 1]"] ;
1120 -> 1126 ;
1127 [label="gini = 0.0\nsamples = 3\nvalue = [0, 3]"] ;
1119 -> 1127 ;
1128 [label="gini = 0.0\nsamples = 10\nvalue = [0, 10]"] ;
1110 -> 1128 ;
1129 [label="Duree <= 96.0\ngini = 0.5\nsamples = 6\nvalue = [3, 3]"] ;
1107 -> 1129 ;
1130 [label="gini = 0.0\nsamples = 2\nvalue = [2, 0]"] ;
1129 -> 1130 ;
1131 [label="budget <= 11500000.0\ngini = 0.375\nsamples = 4\nvalue = [1, 3]"] ;
1129 -> 1131 ;
1132 [label="gini = 0.0\nsamples = 3\nvalue = [0, 3]"] ;
1131 -> 1132 ;
1133 [label="gini = 0.0\nsamples = 1\nvalue = [1, 0]"] ;
1131 -> 1133 ;
1134 [label="Crime <= 0.5\ngini = 0.428\nsamples = 71\nvalue = [22, 49]"] ;
1106 -> 1134 ;
1135 [label="Duree <= 88.5\ngini = 0.461\nsamples = 61\nvalue = [22, 39]"] ;
1134 -> 1135 ;
1136 [label="gini = 0.0\nsamples = 2\nvalue = [2, 0]"] ;
1135 -> 1136 ;
1137 [label="annee <= 2003.0\ngini = 0.448\nsamples = 59\nvalue = [20, 39]"] ;
1135 -> 1137 ;
1138 [label="Sport <= 0.5\ngini = 0.493\nsamples = 34\nvalue = [15, 19]"] ;
1137 -> 1138 ;
1139 [label="annee <= 1998.5\ngini = 0.475\nsamples = 31\nvalue = [12, 19]"] ;
1138 -> 1139 ;
1140 [label="Duree <= 101.0\ngini = 0.36\nsamples = 17\nvalue = [4, 13]"] ;
1139 -> 1140 ;
1141 [label="budget <= 4000000.0\ngini = 0.142\nsamples = 13\nvalue = [1, 12]"] ;
1140 -> 1141 ;
1142 [label="Romance <= 0.5\ngini = 0.375\nsamples = 4\nvalue = [1, 3]"] ;
1141 -> 1142 ;
1143 [label="gini = 0.0\nsamples = 2\nvalue = [0, 2]"] ;
1142 -> 1143 ;
1144 [label="Duree <= 98.0\ngini = 0.5\nsamples = 2\nvalue = [1, 1]"] ;
1142 -> 1144 ;
1145 [label="gini = 0.0\nsamples = 1\nvalue = [1, 0]"] ;
1144 -> 1145 ;
1146 [label="gini = 0.0\nsamples = 1\nvalue = [0, 1]"] ;
1144 -> 1146 ;
1147 [label="gini = 0.0\nsamples = 9\nvalue = [0, 9]"] ;
1141 -> 1147 ;
1148 [label="budget <= 13000000.0\ngini = 0.375\nsamples = 4\nvalue = [3, 1]"] ;
1140 -> 1148 ;
1149 [label="gini = 0.0\nsamples = 3\nvalue = [3, 0]"] ;
1148 -> 1149 ;
1150 [label="gini = 0.0\nsamples = 1\nvalue = [0, 1]"] ;
1148 -> 1150 ;
1151 [label="Duree <= 102.5\ngini = 0.49\nsamples = 14\nvalue = [8, 6]"] ;
1139 -> 1151 ;
1152 [label="Romance <= 0.5\ngini = 0.444\nsamples = 12\nvalue = [8, 4]"] ;
1151 -> 1152 ;
1153 [label="budget <= 9500000.0\ngini = 0.48\nsamples = 5\nvalue = [2, 3]"] ;
1152 -> 1153 ;
1154 [label="gini = 0.0\nsamples = 3\nvalue = [0, 3]"] ;
1153 -> 1154 ;
1155 [label="gini = 0.0\nsamples = 2\nvalue = [2, 0]"] ;
1153 -> 1155 ;
1156 [label="budget <= 13500000.0\ngini = 0.245\nsamples = 7\nvalue = [6, 1]"] ;
1152 -> 1156 ;
1157 [label="gini = 0.0\nsamples = 6\nvalue = [6, 0]"] ;
1156 -> 1157 ;
1158 [label="gini = 0.0\nsamples = 1\nvalue = [0, 1]"] ;
1156 -> 1158 ;
1159 [label="gini = 0.0\nsamples = 2\nvalue = [0, 2]"] ;
1151 -> 1159 ;
1160 [label="gini = 0.0\nsamples = 3\nvalue = [3, 0]"] ;
1138 -> 1160 ;
1161 [label="budget <= 13350000.0\ngini = 0.32\nsamples = 25\nvalue = [5, 20]"] ;
1137 -> 1161 ;
1162 [label="budget <= 3025500.0\ngini = 0.227\nsamples = 23\nvalue = [3, 20]"] ;
1161 -> 1162 ;
1163 [label="gini = 0.0\nsamples = 1\nvalue = [1, 0]"] ;
1162 -> 1163 ;
1164 [label="Duree <= 96.5\ngini = 0.165\nsamples = 22\nvalue = [2, 20]"] ;
1162 -> 1164 ;
1165 [label="budget <= 9500000.0\ngini = 0.278\nsamples = 12\nvalue = [2, 10]"] ;
1164 -> 1165 ;
1166 [label="annee <= 2008.5\ngini = 0.165\nsamples = 11\nvalue = [1, 10]"] ;
1165 -> 1166 ;
1167 [label="gini = 0.0\nsamples = 9\nvalue = [0, 9]"] ;
1166 -> 1167 ;
1168 [label="Duree <= 95.5\ngini = 0.5\nsamples = 2\nvalue = [1, 1]"] ;
1166 -> 1168 ;
1169 [label="gini = 0.0\nsamples = 1\nvalue = [0, 1]"] ;
1168 -> 1169 ;
1170 [label="gini = 0.0\nsamples = 1\nvalue = [1, 0]"] ;
1168 -> 1170 ;
1171 [label="gini = 0.0\nsamples = 1\nvalue = [1, 0]"] ;
1165 -> 1171 ;
1172 [label="gini = 0.0\nsamples = 10\nvalue = [0, 10]"] ;
1164 -> 1172 ;
1173 [label="gini = 0.0\nsamples = 2\nvalue = [2, 0]"] ;
1161 -> 1173 ;
1174 [label="gini = 0.0\nsamples = 10\nvalue = [0, 10]"] ;
1134 -> 1174 ;
1175 [label="Duree <= 97.5\ngini = 0.476\nsamples = 59\nvalue = [23, 36]"] ;
1105 -> 1175 ;
1176 [label="Duree <= 96.5\ngini = 0.497\nsamples = 28\nvalue = [15, 13]"] ;
1175 -> 1176 ;
1177 [label="annee <= 2013.5\ngini = 0.496\nsamples = 22\nvalue = [10, 12]"] ;
1176 -> 1177 ;
1178 [label="Biography <= 0.5\ngini = 0.499\nsamples = 19\nvalue = [10, 9]"] ;
1177 -> 1178 ;
1179 [label="budget <= 13000000.0\ngini = 0.498\nsamples = 17\nvalue = [8, 9]"] ;
1178 -> 1179 ;
1180 [label="budget <= 6815000.0\ngini = 0.498\nsamples = 15\nvalue = [8, 7]"] ;
1179 -> 1180 ;
1181 [label="Duree <= 90.5\ngini = 0.48\nsamples = 10\nvalue = [4, 6]"] ;
1180 -> 1181 ;
1182 [label="budget <= 5500000.0\ngini = 0.375\nsamples = 4\nvalue = [3, 1]"] ;
1181 -> 1182 ;
1183 [label="gini = 0.0\nsamples = 3\nvalue = [3, 0]"] ;
1182 -> 1183 ;
1184 [label="gini = 0.0\nsamples = 1\nvalue = [0, 1]"] ;
1182 -> 1184 ;
1185 [label="annee <= 2011.5\ngini = 0.278\nsamples = 6\nvalue = [1, 5]"] ;
1181 -> 1185 ;
1186 [label="gini = 0.0\nsamples = 5\nvalue = [0, 5]"] ;
1185 -> 1186 ;
1187 [label="gini = 0.0\nsamples = 1\nvalue = [1, 0]"] ;
1185 -> 1187 ;
1188 [label="annee <= 2012.5\ngini = 0.32\nsamples = 5\nvalue = [4, 1]"] ;
1180 -> 1188 ;
1189 [label="gini = 0.0\nsamples = 4\nvalue = [4, 0]"] ;
1188 -> 1189 ;
1190 [label="gini = 0.0\nsamples = 1\nvalue = [0, 1]"] ;
1188 -> 1190 ;
1191 [label="gini = 0.0\nsamples = 2\nvalue = [0, 2]"] ;
1179 -> 1191 ;
1192 [label="gini = 0.0\nsamples = 2\nvalue = [2, 0]"] ;
1178 -> 1192 ;
1193 [label="gini = 0.0\nsamples = 3\nvalue = [0, 3]"] ;
1177 -> 1193 ;
1194 [label="Crime <= 0.5\ngini = 0.278\nsamples = 6\nvalue = [5, 1]"] ;
1176 -> 1194 ;
1195 [label="gini = 0.0\nsamples = 5\nvalue = [5, 0]"] ;
1194 -> 1195 ;
1196 [label="gini = 0.0\nsamples = 1\nvalue = [0, 1]"] ;
1194 -> 1196 ;
1197 [label="annee <= 2013.5\ngini = 0.383\nsamples = 31\nvalue = [8, 23]"] ;
1175 -> 1197 ;
1198 [label="History <= 0.5\ngini = 0.269\nsamples = 25\nvalue = [4, 21]"] ;
1197 -> 1198 ;
1199 [label="annee <= 2011.5\ngini = 0.219\nsamples = 24\nvalue = [3, 21]"] ;
1198 -> 1199 ;
1200 [label="Duree <= 101.5\ngini = 0.32\nsamples = 15\nvalue = [3, 12]"] ;
1199 -> 1200 ;
1201 [label="budget <= 7500000.0\ngini = 0.18\nsamples = 10\nvalue = [1, 9]"] ;
1200 -> 1201 ;
1202 [label="budget <= 6750000.0\ngini = 0.444\nsamples = 3\nvalue = [1, 2]"] ;
1201 -> 1202 ;
1203 [label="gini = 0.0\nsamples = 2\nvalue = [0, 2]"] ;
1202 -> 1203 ;
1204 [label="gini = 0.0\nsamples = 1\nvalue = [1, 0]"] ;
1202 -> 1204 ;
1205 [label="gini = 0.0\nsamples = 7\nvalue = [0, 7]"] ;
1201 -> 1205 ;
1206 [label="budget <= 13500000.0\ngini = 0.48\nsamples = 5\nvalue = [2, 3]"] ;
1200 -> 1206 ;
1207 [label="budget <= 9085000.0\ngini = 0.444\nsamples = 3\nvalue = [2, 1]"] ;
1206 -> 1207 ;
1208 [label="gini = 0.0\nsamples = 1\nvalue = [1, 0]"] ;
1207 -> 1208 ;
1209 [label="budget <= 11085000.0\ngini = 0.5\nsamples = 2\nvalue = [1, 1]"] ;
1207 -> 1209 ;
1210 [label="gini = 0.0\nsamples = 1\nvalue = [0, 1]"] ;
1209 -> 1210 ;
1211 [label="gini = 0.0\nsamples = 1\nvalue = [1, 0]"] ;
1209 -> 1211 ;
1212 [label="gini = 0.0\nsamples = 2\nvalue = [0, 2]"] ;
1206 -> 1212 ;
1213 [label="gini = 0.0\nsamples = 9\nvalue = [0, 9]"] ;
1199 -> 1213 ;
1214 [label="gini = 0.0\nsamples = 1\nvalue = [1, 0]"] ;
1198 -> 1214 ;
1215 [label="budget <= 12625000.0\ngini = 0.444\nsamples = 6\nvalue = [4, 2]"] ;
1197 -> 1215 ;
1216 [label="Duree <= 101.5\ngini = 0.32\nsamples = 5\nvalue = [4, 1]"] ;
1215 -> 1216 ;
1217 [label="budget <= 8050000.0\ngini = 0.5\nsamples = 2\nvalue = [1, 1]"] ;
1216 -> 1217 ;
1218 [label="gini = 0.0\nsamples = 1\nvalue = [0, 1]"] ;
1217 -> 1218 ;
1219 [label="gini = 0.0\nsamples = 1\nvalue = [1, 0]"] ;
1217 -> 1219 ;
1220 [label="gini = 0.0\nsamples = 3\nvalue = [3, 0]"] ;
1216 -> 1220 ;
1221 [label="gini = 0.0\nsamples = 1\nvalue = [0, 1]"] ;
1215 -> 1221 ;
1222 [label="Duree <= 101.5\ngini = 0.5\nsamples = 14\nvalue = [7, 7]"] ;
1104 -> 1222 ;
1223 [label="Fantasy <= 0.5\ngini = 0.42\nsamples = 10\nvalue = [3, 7]"] ;
1222 -> 1223 ;
1224 [label="Family <= 0.5\ngini = 0.245\nsamples = 7\nvalue = [1, 6]"] ;
1223 -> 1224 ;
1225 [label="gini = 0.0\nsamples = 5\nvalue = [0, 5]"] ;
1224 -> 1225 ;
1226 [label="annee <= 1998.0\ngini = 0.5\nsamples = 2\nvalue = [1, 1]"] ;
1224 -> 1226 ;
1227 [label="gini = 0.0\nsamples = 1\nvalue = [1, 0]"] ;
1226 -> 1227 ;
1228 [label="gini = 0.0\nsamples = 1\nvalue = [0, 1]"] ;
1226 -> 1228 ;
1229 [label="Duree <= 97.0\ngini = 0.444\nsamples = 3\nvalue = [2, 1]"] ;
1223 -> 1229 ;
1230 [label="gini = 0.0\nsamples = 2\nvalue = [2, 0]"] ;
1229 -> 1230 ;
1231 [label="gini = 0.0\nsamples = 1\nvalue = [0, 1]"] ;
1229 -> 1231 ;
1232 [label="gini = 0.0\nsamples = 4\nvalue = [4, 0]"] ;
1222 -> 1232 ;
1233 [label="gini = 0.0\nsamples = 8\nvalue = [0, 8]"] ;
1103 -> 1233 ;
1234 [label="annee <= 2005.5\ngini = 0.5\nsamples = 85\nvalue = [42, 43]"] ;
1102 -> 1234 ;
1235 [label="Duree <= 95.5\ngini = 0.457\nsamples = 48\nvalue = [17, 31]"] ;
1234 -> 1235 ;
1236 [label="annee <= 1987.5\ngini = 0.496\nsamples = 22\nvalue = [12, 10]"] ;
1235 -> 1236 ;
1237 [label="gini = 0.0\nsamples = 4\nvalue = [0, 4]"] ;
1236 -> 1237 ;
1238 [label="Duree <= 83.0\ngini = 0.444\nsamples = 18\nvalue = [12, 6]"] ;
1236 -> 1238 ;
1239 [label="gini = 0.0\nsamples = 2\nvalue = [0, 2]"] ;
1238 -> 1239 ;
1240 [label="budget <= 5500000.0\ngini = 0.375\nsamples = 16\nvalue = [12, 4]"] ;
1238 -> 1240 ;
1241 [label="annee <= 2001.5\ngini = 0.5\nsamples = 6\nvalue = [3, 3]"] ;
1240 -> 1241 ;
1242 [label="Action <= 0.5\ngini = 0.375\nsamples = 4\nvalue = [3, 1]"] ;
1241 -> 1242 ;
1243 [label="gini = 0.0\nsamples = 3\nvalue = [3, 0]"] ;
1242 -> 1243 ;
1244 [label="gini = 0.0\nsamples = 1\nvalue = [0, 1]"] ;
1242 -> 1244 ;
1245 [label="gini = 0.0\nsamples = 2\nvalue = [0, 2]"] ;
1241 -> 1245 ;
1246 [label="Mystery <= 0.5\ngini = 0.18\nsamples = 10\nvalue = [9, 1]"] ;
1240 -> 1246 ;
1247 [label="gini = 0.0\nsamples = 8\nvalue = [8, 0]"] ;
1246 -> 1247 ;
1248 [label="Horror <= 0.5\ngini = 0.5\nsamples = 2\nvalue = [1, 1]"] ;
1246 -> 1248 ;
1249 [label="gini = 0.0\nsamples = 1\nvalue = [0, 1]"] ;
1248 -> 1249 ;
1250 [label="gini = 0.0\nsamples = 1\nvalue = [1, 0]"] ;
1248 -> 1250 ;
