digraph Tree {
node [shape=box] ;
0 [label="Drama <= 0.5\ngini = 0.491\nsamples = 4587\nvalue = [1985, 2602]"] ;
1 [label="annee <= 1984.5\ngini = 0.489\nsamples = 2318\nvalue = [1330, 988]"] ;
0 -> 1 [labeldistance=2.5, labelangle=45, headlabel="True"] ;
2 [label="annee <= 1976.5\ngini = 0.328\nsamples = 319\nvalue = [66, 253]"] ;
1 -> 2 ;
3 [label="budget <= 95000.0\ngini = 0.169\nsamples = 183\nvalue = [17, 166]"] ;
2 -> 3 ;
4 [label="annee <= 1958.5\ngini = 0.497\nsamples = 13\nvalue = [6, 7]"] ;
3 -> 4 ;
5 [label="gini = 0.0\nsamples = 5\nvalue = [0, 5]"] ;
4 -> 5 ;
6 [label="Thriller <= 0.5\ngini = 0.375\nsamples = 8\nvalue = [6, 2]"] ;
4 -> 6 ;
7 [label="Duree <= 86.0\ngini = 0.245\nsamples = 7\nvalue = [6, 1]"] ;
6 -> 7 ;
8 [label="gini = 0.0\nsamples = 5\nvalue = [5, 0]"] ;
7 -> 8 ;
9 [label="Comedy <= 0.5\ngini = 0.5\nsamples = 2\nvalue = [1, 1]"] ;
7 -> 9 ;
10 [label="gini = 0.0\nsamples = 1\nvalue = [0, 1]"] ;
9 -> 10 ;
11 [label="gini = 0.0\nsamples = 1\nvalue = [1, 0]"] ;
9 -> 11 ;
12 [label="gini = 0.0\nsamples = 1\nvalue = [0, 1]"] ;
6 -> 12 ;
13 [label="Sci-Fi <= 0.5\ngini = 0.121\nsamples = 170\nvalue = [11, 159]"] ;
3 -> 13 ;
14 [label="budget <= 22000000.0\ngini = 0.054\nsamples = 145\nvalue = [4, 141]"] ;
13 -> 14 ;
15 [label="budget <= 11000000.0\ngini = 0.041\nsamples = 144\nvalue = [3, 141]"] ;
14 -> 15 ;
16 [label="annee <= 1965.5\ngini = 0.029\nsamples = 137\nvalue = [2, 135]"] ;
15 -> 16 ;
17 [label="gini = 0.0\nsamples = 77\nvalue = [0, 77]"] ;
16 -> 17 ;
18 [label="Family <= 0.5\ngini = 0.064\nsamples = 60\nvalue = [2, 58]"] ;
16 -> 18 ;
19 [label="Duree <= 124.0\ngini = 0.035\nsamples = 56\nvalue = [1, 55]"] ;
18 -> 19 ;
20 [label="gini = 0.0\nsamples = 45\nvalue = [0, 45]"] ;
19 -> 20 ;
21 [label="Duree <= 127.0\ngini = 0.165\nsamples = 11\nvalue = [1, 10]"] ;
19 -> 21 ;
22 [label="Western <= 0.5\ngini = 0.5\nsamples = 2\nvalue = [1, 1]"] ;
21 -> 22 ;
23 [label="gini = 0.0\nsamples = 1\nvalue = [1, 0]"] ;
22 -> 23 ;
24 [label="gini = 0.0\nsamples = 1\nvalue = [0, 1]"] ;
22 -> 24 ;
25 [label="gini = 0.0\nsamples = 9\nvalue = [0, 9]"] ;
21 -> 25 ;
26 [label="budget <= 2188900.0\ngini = 0.375\nsamples = 4\nvalue = [1, 3]"] ;
18 -> 26 ;
27 [label="gini = 0.0\nsamples = 1\nvalue = [1, 0]"] ;
26 -> 27 ;
28 [label="gini = 0.0\nsamples = 3\nvalue = [0, 3]"] ;
26 -> 28 ;
29 [label="budget <= 12500000.0\ngini = 0.245\nsamples = 7\nvalue = [1, 6]"] ;
15 -> 29 ;
30 [label="Romance <= 0.5\ngini = 0.5\nsamples = 2\nvalue = [1, 1]"] ;
29 -> 30 ;
31 [label="gini = 0.0\nsamples = 1\nvalue = [1, 0]"] ;
30 -> 31 ;
32 [label="gini = 0.0\nsamples = 1\nvalue = [0, 1]"] ;
30 -> 32 ;
33 [label="gini = 0.0\nsamples = 5\nvalue = [0, 5]"] ;
29 -> 33 ;
34 [label="gini = 0.0\nsamples = 1\nvalue = [1, 0]"] ;
14 -> 34 ;
35 [label="Action <= 0.5\ngini = 0.403\nsamples = 25\nvalue = [7, 18]"] ;
13 -> 35 ;
36 [label="budget <= 265500.0\ngini = 0.208\nsamples = 17\nvalue = [2, 15]"] ;
35 -> 36 ;
37 [label="Duree <= 85.0\ngini = 0.5\nsamples = 2\nvalue = [1, 1]"] ;
36 -> 37 ;
38 [label="gini = 0.0\nsamples = 1\nvalue = [1, 0]"] ;
37 -> 38 ;
39 [label="gini = 0.0\nsamples = 1\nvalue = [0, 1]"] ;
37 -> 39 ;
40 [label="Fantasy <= 0.5\ngini = 0.124\nsamples = 15\nvalue = [1, 14]"] ;
36 -> 40 ;
41 [label="gini = 0.0\nsamples = 12\nvalue = [0, 12]"] ;
40 -> 41 ;
42 [label="annee <= 1964.0\ngini = 0.444\nsamples = 3\nvalue = [1, 2]"] ;
40 -> 42 ;
43 [label="gini = 0.0\nsamples = 2\nvalue = [0, 2]"] ;
42 -> 43 ;
44 [label="gini = 0.0\nsamples = 1\nvalue = [1, 0]"] ;
42 -> 44 ;
45 [label="annee <= 1963.0\ngini = 0.469\nsamples = 8\nvalue = [5, 3]"] ;
35 -> 45 ;
46 [label="gini = 0.0\nsamples = 2\nvalue = [0, 2]"] ;
45 -> 46 ;
47 [label="Duree <= 108.5\ngini = 0.278\nsamples = 6\nvalue = [5, 1]"] ;
45 -> 47 ;
48 [label="gini = 0.0\nsamples = 5\nvalue = [5, 0]"] ;
47 -> 48 ;
49 [label="gini = 0.0\nsamples = 1\nvalue = [0, 1]"] ;
47 -> 49 ;
50 [label="budget <= 33250000.0\ngini = 0.461\nsamples = 136\nvalue = [49, 87]"] ;
2 -> 50 ;
51 [label="Horror <= 0.5\ngini = 0.443\nsamples = 127\nvalue = [42, 85]"] ;
50 -> 51 ;
52 [label="Sci-Fi <= 0.5\ngini = 0.362\nsamples = 80\nvalue = [19, 61]"] ;
51 -> 52 ;
53 [label="Fantasy <= 0.5\ngini = 0.419\nsamples = 57\nvalue = [17, 40]"] ;
52 -> 53 ;
54 [label="budget <= 1390000.0\ngini = 0.351\nsamples = 44\nvalue = [10, 34]"] ;
53 -> 54 ;
55 [label="gini = 0.0\nsamples = 2\nvalue = [2, 0]"] ;
54 -> 55 ;
56 [label="Action <= 0.5\ngini = 0.308\nsamples = 42\nvalue = [8, 34]"] ;
54 -> 56 ;
57 [label="War <= 0.5\ngini = 0.191\nsamples = 28\nvalue = [3, 25]"] ;
56 -> 57 ;
58 [label="budget <= 13500000.0\ngini = 0.142\nsamples = 26\nvalue = [2, 24]"] ;
57 -> 58 ;
59 [label="budget <= 4250000.0\ngini = 0.083\nsamples = 23\nvalue = [1, 22]"] ;
58 -> 59 ;
60 [label="annee <= 1980.5\ngini = 0.18\nsamples = 10\nvalue = [1, 9]"] ;
59 -> 60 ;
61 [label="gini = 0.0\nsamples = 5\nvalue = [0, 5]"] ;
60 -> 61 ;
62 [label="annee <= 1982.0\ngini = 0.32\nsamples = 5\nvalue = [1, 4]"] ;
60 -> 62 ;
63 [label="gini = 0.0\nsamples = 1\nvalue = [1, 0]"] ;
62 -> 63 ;
64 [label="gini = 0.0\nsamples = 4\nvalue = [0, 4]"] ;
62 -> 64 ;
65 [label="gini = 0.0\nsamples = 13\nvalue = [0, 13]"] ;
59 -> 65 ;
66 [label="Duree <= 91.5\ngini = 0.444\nsamples = 3\nvalue = [1, 2]"] ;
58 -> 66 ;
67 [label="gini = 0.0\nsamples = 1\nvalue = [1, 0]"] ;
66 -> 67 ;
68 [label="gini = 0.0\nsamples = 2\nvalue = [0, 2]"] ;
66 -> 68 ;
69 [label="Duree <= 113.0\ngini = 0.5\nsamples = 2\nvalue = [1, 1]"] ;
57 -> 69 ;
70 [label="gini = 0.0\nsamples = 1\nvalue = [1, 0]"] ;
69 -> 70 ;
71 [label="gini = 0.0\nsamples = 1\nvalue = [0, 1]"] ;
69 -> 71 ;
72 [label="Duree <= 102.0\ngini = 0.459\nsamples = 14\nvalue = [5, 9]"] ;
56 -> 72 ;
73 [label="annee <= 1981.5\ngini = 0.32\nsamples = 5\nvalue = [4, 1]"] ;
72 -> 73 ;
74 [label="gini = 0.0\nsamples = 3\nvalue = [3, 0]"] ;
73 -> 74 ;
75 [label="Crime <= 0.5\ngini = 0.5\nsamples = 2\nvalue = [1, 1]"] ;
73 -> 75 ;
76 [label="gini = 0.0\nsamples = 1\nvalue = [0, 1]"] ;
75 -> 76 ;
77 [label="gini = 0.0\nsamples = 1\nvalue = [1, 0]"] ;
75 -> 77 ;
78 [label="annee <= 1979.0\ngini = 0.198\nsamples = 9\nvalue = [1, 8]"] ;
72 -> 78 ;
79 [label="Comedy <= 0.5\ngini = 0.5\nsamples = 2\nvalue = [1, 1]"] ;
78 -> 79 ;
80 [label="gini = 0.0\nsamples = 1\nvalue = [0, 1]"] ;
79 -> 80 ;
81 [label="gini = 0.0\nsamples = 1\nvalue = [1, 0]"] ;
79 -> 81 ;
82 [label="gini = 0.0\nsamples = 7\nvalue = [0, 7]"] ;
78 -> 82 ;
83 [label="Musical <= 0.5\ngini = 0.497\nsamples = 13\nvalue = [7, 6]"] ;
53 -> 83 ;
84 [label="annee <= 1982.5\ngini = 0.48\nsamples = 10\nvalue = [4, 6]"] ;
83 -> 84 ;
85 [label="Duree <= 130.5\ngini = 0.278\nsamples = 6\nvalue = [1, 5]"] ;
84 -> 85 ;
86 [label="gini = 0.0\nsamples = 5\nvalue = [0, 5]"] ;
85 -> 86 ;
87 [label="gini = 0.0\nsamples = 1\nvalue = [1, 0]"] ;
85 -> 87 ;
88 [label="budget <= 29500000.0\ngini = 0.375\nsamples = 4\nvalue = [3, 1]"] ;
84 -> 88 ;
89 [label="gini = 0.0\nsamples = 3\nvalue = [3, 0]"] ;
88 -> 89 ;
90 [label="gini = 0.0\nsamples = 1\nvalue = [0, 1]"] ;
88 -> 90 ;
91 [label="gini = 0.0\nsamples = 3\nvalue = [3, 0]"] ;
83 -> 91 ;
92 [label="budget <= 19000000.0\ngini = 0.159\nsamples = 23\nvalue = [2, 21]"] ;
52 -> 92 ;
93 [label="gini = 0.0\nsamples = 17\nvalue = [0, 17]"] ;
92 -> 93 ;
94 [label="budget <= 24500000.0\ngini = 0.444\nsamples = 6\nvalue = [2, 4]"] ;
92 -> 94 ;
95 [label="gini = 0.0\nsamples = 2\nvalue = [2, 0]"] ;
94 -> 95 ;
96 [label="gini = 0.0\nsamples = 4\nvalue = [0, 4]"] ;
94 -> 96 ;
97 [label="Thriller <= 0.5\ngini = 0.5\nsamples = 47\nvalue = [23, 24]"] ;
51 -> 97 ;
98 [label="Duree <= 108.0\ngini = 0.482\nsamples = 37\nvalue = [15, 22]"] ;
97 -> 98 ;
99 [label="budget <= 900000.0\ngini = 0.5\nsamples = 30\nvalue = [15, 15]"] ;
98 -> 99 ;
100 [label="budget <= 437500.0\ngini = 0.444\nsamples = 15\nvalue = [10, 5]"] ;
99 -> 100 ;
101 [label="Duree <= 87.0\ngini = 0.494\nsamples = 9\nvalue = [4, 5]"] ;
100 -> 101 ;
102 [label="Duree <= 83.0\ngini = 0.32\nsamples = 5\nvalue = [4, 1]"] ;
101 -> 102 ;
103 [label="gini = 0.0\nsamples = 1\nvalue = [0, 1]"] ;
102 -> 103 ;
104 [label="gini = 0.0\nsamples = 4\nvalue = [4, 0]"] ;
102 -> 104 ;
105 [label="gini = 0.0\nsamples = 4\nvalue = [0, 4]"] ;
101 -> 105 ;
106 [label="gini = 0.0\nsamples = 6\nvalue = [6, 0]"] ;
100 -> 106 ;
107 [label="budget <= 2250000.0\ngini = 0.444\nsamples = 15\nvalue = [5, 10]"] ;
99 -> 107 ;
108 [label="gini = 0.0\nsamples = 5\nvalue = [0, 5]"] ;
107 -> 108 ;
109 [label="Comedy <= 0.5\ngini = 0.5\nsamples = 10\nvalue = [5, 5]"] ;
107 -> 109 ;
110 [label="budget <= 6440000.0\ngini = 0.469\nsamples = 8\nvalue = [5, 3]"] ;
109 -> 110 ;
111 [label="budget <= 2890000.0\ngini = 0.48\nsamples = 5\nvalue = [2, 3]"] ;
110 -> 111 ;
112 [label="gini = 0.0\nsamples = 2\nvalue = [2, 0]"] ;
111 -> 112 ;
113 [label="gini = 0.0\nsamples = 3\nvalue = [0, 3]"] ;
111 -> 113 ;
114 [label="gini = 0.0\nsamples = 3\nvalue = [3, 0]"] ;
110 -> 114 ;
115 [label="gini = 0.0\nsamples = 2\nvalue = [0, 2]"] ;
109 -> 115 ;
116 [label="gini = 0.0\nsamples = 7\nvalue = [0, 7]"] ;
98 -> 116 ;
117 [label="budget <= 775000.0\ngini = 0.32\nsamples = 10\nvalue = [8, 2]"] ;
97 -> 117 ;
118 [label="gini = 0.0\nsamples = 1\nvalue = [0, 1]"] ;
117 -> 118 ;
119 [label="Sci-Fi <= 0.5\ngini = 0.198\nsamples = 9\nvalue = [8, 1]"] ;
117 -> 119 ;
120 [label="gini = 0.0\nsamples = 7\nvalue = [7, 0]"] ;
119 -> 120 ;
121 [label="Duree <= 102.0\ngini = 0.5\nsamples = 2\nvalue = [1, 1]"] ;
119 -> 121 ;
122 [label="gini = 0.0\nsamples = 1\nvalue = [1, 0]"] ;
121 -> 122 ;
123 [label="gini = 0.0\nsamples = 1\nvalue = [0, 1]"] ;
121 -> 123 ;
124 [label="budget <= 39500000.0\ngini = 0.346\nsamples = 9\nvalue = [7, 2]"] ;
50 -> 124 ;
125 [label="gini = 0.0\nsamples = 7\nvalue = [7, 0]"] ;
124 -> 125 ;
126 [label="gini = 0.0\nsamples = 2\nvalue = [0, 2]"] ;
124 -> 126 ;
127 [label="Duree <= 110.5\ngini = 0.465\nsamples = 1999\nvalue = [1264, 735]"] ;
1 -> 127 ;
128 [label="Animation <= 0.5\ngini = 0.418\nsamples = 1487\nvalue = [1045, 442]"] ;
127 -> 128 ;
129 [label="budget <= 6160000.0\ngini = 0.384\nsamples = 1335\nvalue = [989, 346]"] ;
128 -> 129 ;
130 [label="Horror <= 0.5\ngini = 0.494\nsamples = 222\nvalue = [123, 99]"] ;
129 -> 130 ;
131 [label="annee <= 2003.5\ngini = 0.478\nsamples = 104\nvalue = [41, 63]"] ;
130 -> 131 ;
132 [label="Sport <= 0.5\ngini = 0.343\nsamples = 41\nvalue = [9, 32]"] ;
131 -> 132 ;
133 [label="Duree <= 86.5\ngini = 0.32\nsamples = 40\nvalue = [8, 32]"] ;
132 -> 133 ;
134 [label="Action <= 0.5\ngini = 0.48\nsamples = 5\nvalue = [2, 3]"] ;
133 -> 134 ;
135 [label="gini = 0.0\nsamples = 3\nvalue = [0, 3]"] ;
134 -> 135 ;
136 [label="gini = 0.0\nsamples = 2\nvalue = [2, 0]"] ;
134 -> 136 ;
137 [label="Comedy <= 0.5\ngini = 0.284\nsamples = 35\nvalue = [6, 29]"] ;
133 -> 137 ;
138 [label="gini = 0.0\nsamples = 7\nvalue = [0, 7]"] ;
137 -> 138 ;
139 [label="budget <= 3433000.0\ngini = 0.337\nsamples = 28\nvalue = [6, 22]"] ;
137 -> 139 ;
140 [label="budget <= 450000.0\ngini = 0.231\nsamples = 15\nvalue = [2, 13]"] ;
139 -> 140 ;
141 [label="Duree <= 100.5\ngini = 0.5\nsamples = 2\nvalue = [1, 1]"] ;
140 -> 141 ;
142 [label="gini = 0.0\nsamples = 1\nvalue = [1, 0]"] ;
141 -> 142 ;
143 [label="gini = 0.0\nsamples = 1\nvalue = [0, 1]"] ;
141 -> 143 ;
144 [label="budget <= 1100000.0\ngini = 0.142\nsamples = 13\nvalue = [1, 12]"] ;
140 -> 144 ;
145 [label="annee <= 1995.5\ngini = 0.32\nsamples = 5\nvalue = [1, 4]"] ;
144 -> 145 ;
146 [label="gini = 0.0\nsamples = 3\nvalue = [0, 3]"] ;
145 -> 146 ;
147 [label="Mystery <= 0.5\ngini = 0.5\nsamples = 2\nvalue = [1, 1]"] ;
145 -> 147 ;
148 [label="gini = 0.0\nsamples = 1\nvalue = [1, 0]"] ;
147 -> 148 ;
149 [label="gini = 0.0\nsamples = 1\nvalue = [0, 1]"] ;
147 -> 149 ;
150 [label="gini = 0.0\nsamples = 8\nvalue = [0, 8]"] ;
144 -> 150 ;
151 [label="Thriller <= 0.5\ngini = 0.426\nsamples = 13\nvalue = [4, 9]"] ;
139 -> 151 ;
152 [label="Romance <= 0.5\ngini = 0.375\nsamples = 12\nvalue = [3, 9]"] ;
151 -> 152 ;
153 [label="Duree <= 104.0\ngini = 0.219\nsamples = 8\nvalue = [1, 7]"] ;
152 -> 153 ;
154 [label="gini = 0.0\nsamples = 6\nvalue = [0, 6]"] ;
153 -> 154 ;
155 [label="Crime <= 0.5\ngini = 0.5\nsamples = 2\nvalue = [1, 1]"] ;
153 -> 155 ;
156 [label="gini = 0.0\nsamples = 1\nvalue = [1, 0]"] ;
155 -> 156 ;
157 [label="gini = 0.0\nsamples = 1\nvalue = [0, 1]"] ;
155 -> 157 ;
158 [label="budget <= 5500000.0\ngini = 0.5\nsamples = 4\nvalue = [2, 2]"] ;
152 -> 158 ;
159 [label="gini = 0.0\nsamples = 2\nvalue = [0, 2]"] ;
158 -> 159 ;
160 [label="gini = 0.0\nsamples = 2\nvalue = [2, 0]"] ;
158 -> 160 ;
161 [label="gini = 0.0\nsamples = 1\nvalue = [1, 0]"] ;
151 -> 161 ;
162 [label="gini = 0.0\nsamples = 1\nvalue = [1, 0]"] ;
132 -> 162 ;
163 [label="budget <= 2950000.0\ngini = 0.5\nsamples = 63\nvalue = [32, 31]"] ;
131 -> 163 ;
164 [label="Crime <= 0.5\ngini = 0.436\nsamples = 28\nvalue = [9, 19]"] ;
163 -> 164 ;
165 [label="Documentary <= 0.5\ngini = 0.476\nsamples = 23\nvalue = [9, 14]"] ;
164 -> 165 ;
166 [label="Duree <= 105.0\ngini = 0.498\nsamples = 15\nvalue = [8, 7]"] ;
165 -> 166 ;
167 [label="Action <= 0.5\ngini = 0.444\nsamples = 12\nvalue = [8, 4]"] ;
166 -> 167 ;
168 [label="budget <= 450000.0\ngini = 0.245\nsamples = 7\nvalue = [6, 1]"] ;
167 -> 168 ;
169 [label="gini = 0.0\nsamples = 1\nvalue = [0, 1]"] ;
168 -> 169 ;
170 [label="gini = 0.0\nsamples = 6\nvalue = [6, 0]"] ;
168 -> 170 ;
171 [label="budget <= 1397500.0\ngini = 0.48\nsamples = 5\nvalue = [2, 3]"] ;
167 -> 171 ;
172 [label="gini = 0.0\nsamples = 2\nvalue = [0, 2]"] ;
171 -> 172 ;
173 [label="annee <= 2009.5\ngini = 0.444\nsamples = 3\nvalue = [2, 1]"] ;
171 -> 173 ;
174 [label="gini = 0.0\nsamples = 1\nvalue = [0, 1]"] ;
173 -> 174 ;
175 [label="gini = 0.0\nsamples = 2\nvalue = [2, 0]"] ;
173 -> 175 ;
176 [label="gini = 0.0\nsamples = 3\nvalue = [0, 3]"] ;
166 -> 176 ;
177 [label="annee <= 2007.5\ngini = 0.219\nsamples = 8\nvalue = [1, 7]"] ;
165 -> 177 ;
178 [label="annee <= 2006.5\ngini = 0.5\nsamples = 2\nvalue = [1, 1]"] ;
177 -> 178 ;
179 [label="gini = 0.0\nsamples = 1\nvalue = [0, 1]"] ;
178 -> 179 ;
180 [label="gini = 0.0\nsamples = 1\nvalue = [1, 0]"] ;
178 -> 180 ;
181 [label="gini = 0.0\nsamples = 6\nvalue = [0, 6]"] ;
177 -> 181 ;
182 [label="gini = 0.0\nsamples = 5\nvalue = [0, 5]"] ;
164 -> 182 ;
183 [label="Duree <= 93.5\ngini = 0.451\nsamples = 35\nvalue = [23, 12]"] ;
163 -> 183 ;
184 [label="Sci-Fi <= 0.5\ngini = 0.124\nsamples = 15\nvalue = [14, 1]"] ;
183 -> 184 ;
185 [label="gini = 0.0\nsamples = 13\nvalue = [13, 0]"] ;
184 -> 185 ;
186 [label="annee <= 2008.5\ngini = 0.5\nsamples = 2\nvalue = [1, 1]"] ;
184 -> 186 ;
187 [label="gini = 0.0\nsamples = 1\nvalue = [0, 1]"] ;
186 -> 187 ;
188 [label="gini = 0.0\nsamples = 1\nvalue = [1, 0]"] ;
186 -> 188 ;
189 [label="Action <= 0.5\ngini = 0.495\nsamples = 20\nvalue = [9, 11]"] ;
183 -> 189 ;
190 [label="Sci-Fi <= 0.5\ngini = 0.391\nsamples = 15\nvalue = [4, 11]"] ;
189 -> 190 ;
191 [label="annee <= 2009.5\ngini = 0.26\nsamples = 13\nvalue = [2, 11]"] ;
190 -> 191 ;
192 [label="annee <= 2006.5\ngini = 0.48\nsamples = 5\nvalue = [2, 3]"] ;
191 -> 192 ;
193 [label="gini = 0.0\nsamples = 3\nvalue = [0, 3]"] ;
192 -> 193 ;
194 [label="gini = 0.0\nsamples = 2\nvalue = [2, 0]"] ;
192 -> 194 ;
195 [label="gini = 0.0\nsamples = 8\nvalue = [0, 8]"] ;
191 -> 195 ;
196 [label="gini = 0.0\nsamples = 2\nvalue = [2, 0]"] ;
190 -> 196 ;
197 [label="gini = 0.0\nsamples = 5\nvalue = [5, 0]"] ;
189 -> 197 ;
198 [label="annee <= 2008.5\ngini = 0.424\nsamples = 118\nvalue = [82, 36]"] ;
130 -> 198 ;
199 [label="Thriller <= 0.5\ngini = 0.486\nsamples = 72\nvalue = [42, 30]"] ;
198 -> 199 ;
200 [label="Duree <= 101.5\ngini = 0.5\nsamples = 49\nvalue = [24, 25]"] ;
199 -> 200 ;
201 [label="annee <= 1987.5\ngini = 0.485\nsamples = 41\nvalue = [24, 17]"] ;
200 -> 201 ;
202 [label="Duree <= 88.5\ngini = 0.444\nsamples = 12\nvalue = [4, 8]"] ;
201 -> 202 ;
203 [label="budget <= 2850000.0\ngini = 0.219\nsamples = 8\nvalue = [1, 7]"] ;
202 -> 203 ;
204 [label="budget <= 2000000.0\ngini = 0.444\nsamples = 3\nvalue = [1, 2]"] ;
203 -> 204 ;
205 [label="gini = 0.0\nsamples = 2\nvalue = [0, 2]"] ;
204 -> 205 ;
206 [label="gini = 0.0\nsamples = 1\nvalue = [1, 0]"] ;
204 -> 206 ;
207 [label="gini = 0.0\nsamples = 5\nvalue = [0, 5]"] ;
203 -> 207 ;
208 [label="Sci-Fi <= 0.5\ngini = 0.375\nsamples = 4\nvalue = [3, 1]"] ;
202 -> 208 ;
209 [label="gini = 0.0\nsamples = 3\nvalue = [3, 0]"] ;
208 -> 209 ;
210 [label="gini = 0.0\nsamples = 1\nvalue = [0, 1]"] ;
208 -> 210 ;
211 [label="budget <= 5177500.0\ngini = 0.428\nsamples = 29\nvalue = [20, 9]"] ;
201 -> 211 ;
212 [label="budget <= 1100000.0\ngini = 0.384\nsamples = 27\nvalue = [20, 7]"] ;
211 -> 212 ;
213 [label="gini = 0.0\nsamples = 7\nvalue = [7, 0]"] ;
212 -> 213 ;
214 [label="Duree <= 88.5\ngini = 0.455\nsamples = 20\nvalue = [13, 7]"] ;
212 -> 214 ;
215 [label="gini = 0.0\nsamples = 4\nvalue = [4, 0]"] ;
214 -> 215 ;
216 [label="budget <= 4400000.0\ngini = 0.492\nsamples = 16\nvalue = [9, 7]"] ;
214 -> 216 ;
217 [label="budget <= 2243000.0\ngini = 0.486\nsamples = 12\nvalue = [5, 7]"] ;
216 -> 217 ;
218 [label="Comedy <= 0.5\ngini = 0.469\nsamples = 8\nvalue = [5, 3]"] ;
217 -> 218 ;
219 [label="gini = 0.48\nsamples = 5\nvalue = [2, 3]"] ;
218 -> 219 ;
220 [label="gini = 0.0\nsamples = 3\nvalue = [3, 0]"] ;
218 -> 220 ;
221 [label="gini = 0.0\nsamples = 4\nvalue = [0, 4]"] ;
217 -> 221 ;
222 [label="gini = 0.0\nsamples = 4\nvalue = [4, 0]"] ;
216 -> 222 ;
223 [label="gini = 0.0\nsamples = 2\nvalue = [0, 2]"] ;
211 -> 223 ;
224 [label="gini = 0.0\nsamples = 8\nvalue = [0, 8]"] ;
200 -> 224 ;
225 [label="annee <= 2006.5\ngini = 0.34\nsamples = 23\nvalue = [18, 5]"] ;
199 -> 225 ;
226 [label="Crime <= 0.5\ngini = 0.198\nsamples = 18\nvalue = [16, 2]"] ;
225 -> 226 ;
227 [label="Duree <= 86.5\ngini = 0.111\nsamples = 17\nvalue = [16, 1]"] ;
226 -> 227 ;
228 [label="budget <= 3850000.0\ngini = 0.32\nsamples = 5\nvalue = [4, 1]"] ;
227 -> 228 ;
229 [label="gini = 0.0\nsamples = 4\nvalue = [4, 0]"] ;
228 -> 229 ;
230 [label="gini = 0.0\nsamples = 1\nvalue = [0, 1]"] ;
228 -> 230 ;
231 [label="gini = 0.0\nsamples = 12\nvalue = [12, 0]"] ;
227 -> 231 ;
232 [label="gini = 0.0\nsamples = 1\nvalue = [0, 1]"] ;
226 -> 232 ;
233 [label="Duree <= 97.5\ngini = 0.48\nsamples = 5\nvalue = [2, 3]"] ;
225 -> 233 ;
234 [label="gini = 0.0\nsamples = 3\nvalue = [0, 3]"] ;
233 -> 234 ;
235 [label="gini = 0.0\nsamples = 2\nvalue = [2, 0]"] ;
233 -> 235 ;
236 [label="Duree <= 105.5\ngini = 0.227\nsamples = 46\nvalue = [40, 6]"] ;
198 -> 236 ;
237 [label="Adventure <= 0.5\ngini = 0.169\nsamples = 43\nvalue = [39, 4]"] ;
236 -> 237 ;
238 [label="Action <= 0.5\ngini = 0.133\nsamples = 42\nvalue = [39, 3]"] ;
237 -> 238 ;
239 [label="budget <= 5300000.0\ngini = 0.095\nsamples = 40\nvalue = [38, 2]"] ;
238 -> 239 ;
240 [label="Mystery <= 0.5\ngini = 0.054\nsamples = 36\nvalue = [35, 1]"] ;
239 -> 240 ;
241 [label="gini = 0.0\nsamples = 30\nvalue = [30, 0]"] ;
240 -> 241 ;
242 [label="Duree <= 96.0\ngini = 0.278\nsamples = 6\nvalue = [5, 1]"] ;
240 -> 242 ;
243 [label="gini = 0.0\nsamples = 5\nvalue = [5, 0]"] ;
242 -> 243 ;
244 [label="gini = 0.0\nsamples = 1\nvalue = [0, 1]"] ;
242 -> 244 ;
245 [label="budget <= 5800000.0\ngini = 0.375\nsamples = 4\nvalue = [3, 1]"] ;
239 -> 245 ;
246 [label="gini = 0.0\nsamples = 1\nvalue = [0, 1]"] ;
245 -> 246 ;
247 [label="gini = 0.0\nsamples = 3\nvalue = [3, 0]"] ;
245 -> 247 ;
248 [label="Crime <= 0.5\ngini = 0.5\nsamples = 2\nvalue = [1, 1]"] ;
238 -> 248 ;
249 [label="gini = 0.0\nsamples = 1\nvalue = [0, 1]"] ;
248 -> 249 ;
250 [label="gini = 0.0\nsamples = 1\nvalue = [1, 0]"] ;
248 -> 250 ;
251 [label="gini = 0.0\nsamples = 1\nvalue = [0, 1]"] ;
237 -> 251 ;
252 [label="annee <= 2011.5\ngini = 0.444\nsamples = 3\nvalue = [1, 2]"] ;
236 -> 252 ;
253 [label="gini = 0.0\nsamples = 1\nvalue = [1, 0]"] ;
252 -> 253 ;
254 [label="gini = 0.0\nsamples = 2\nvalue = [0, 2]"] ;
252 -> 254 ;
255 [label="annee <= 1991.5\ngini = 0.345\nsamples = 1113\nvalue = [866, 247]"] ;
129 -> 255 ;
256 [label="budget <= 27400000.0\ngini = 0.478\nsamples = 124\nvalue = [75, 49]"] ;
255 -> 256 ;
257 [label="budget <= 8750000.0\ngini = 0.494\nsamples = 99\nvalue = [55, 44]"] ;
256 -> 257 ;
258 [label="Duree <= 107.0\ngini = 0.32\nsamples = 15\nvalue = [12, 3]"] ;
257 -> 258 ;
259 [label="annee <= 1985.5\ngini = 0.142\nsamples = 13\nvalue = [12, 1]"] ;
258 -> 259 ;
260 [label="budget <= 7250000.0\ngini = 0.5\nsamples = 2\nvalue = [1, 1]"] ;
259 -> 260 ;
261 [label="gini = 0.0\nsamples = 1\nvalue = [1, 0]"] ;
260 -> 261 ;
262 [label="gini = 0.0\nsamples = 1\nvalue = [0, 1]"] ;
260 -> 262 ;
263 [label="gini = 0.0\nsamples = 11\nvalue = [11, 0]"] ;
259 -> 263 ;
264 [label="gini = 0.0\nsamples = 2\nvalue = [0, 2]"] ;
258 -> 264 ;
265 [label="budget <= 25500000.0\ngini = 0.5\nsamples = 84\nvalue = [43, 41]"] ;
257 -> 265 ;
266 [label="budget <= 16950000.0\ngini = 0.498\nsamples = 81\nvalue = [43, 38]"] ;
265 -> 266 ;
267 [label="Adventure <= 0.5\ngini = 0.494\nsamples = 47\nvalue = [21, 26]"] ;
266 -> 267 ;
268 [label="Duree <= 101.0\ngini = 0.5\nsamples = 37\nvalue = [19, 18]"] ;
267 -> 268 ;
269 [label="budget <= 10750000.0\ngini = 0.473\nsamples = 26\nvalue = [16, 10]"] ;
268 -> 269 ;
270 [label="gini = 0.0\nsamples = 7\nvalue = [7, 0]"] ;
269 -> 270 ;
271 [label="Comedy <= 0.5\ngini = 0.499\nsamples = 19\nvalue = [9, 10]"] ;
269 -> 271 ;
272 [label="annee <= 1987.5\ngini = 0.32\nsamples = 5\nvalue = [4, 1]"] ;
271 -> 272 ;
273 [label="gini = 0.0\nsamples = 1\nvalue = [0, 1]"] ;
272 -> 273 ;
274 [label="gini = 0.0\nsamples = 4\nvalue = [4, 0]"] ;
272 -> 274 ;
275 [label="Fantasy <= 0.5\ngini = 0.459\nsamples = 14\nvalue = [5, 9]"] ;
271 -> 275 ;
276 [label="Romance <= 0.5\ngini = 0.496\nsamples = 11\nvalue = [5, 6]"] ;
275 -> 276 ;
277 [label="gini = 0.444\nsamples = 9\nvalue = [3, 6]"] ;
276 -> 277 ;
278 [label="gini = 0.0\nsamples = 2\nvalue = [2, 0]"] ;
276 -> 278 ;
279 [label="gini = 0.0\nsamples = 3\nvalue = [0, 3]"] ;
275 -> 279 ;
280 [label="budget <= 13000000.0\ngini = 0.397\nsamples = 11\nvalue = [3, 8]"] ;
268 -> 280 ;
281 [label="gini = 0.0\nsamples = 5\nvalue = [0, 5]"] ;
280 -> 281 ;
282 [label="Sci-Fi <= 0.5\ngini = 0.5\nsamples = 6\nvalue = [3, 3]"] ;
280 -> 282 ;
283 [label="Family <= 0.5\ngini = 0.375\nsamples = 4\nvalue = [3, 1]"] ;
282 -> 283 ;
284 [label="gini = 0.0\nsamples = 3\nvalue = [3, 0]"] ;
283 -> 284 ;
285 [label="gini = 0.0\nsamples = 1\nvalue = [0, 1]"] ;
283 -> 285 ;
286 [label="gini = 0.0\nsamples = 2\nvalue = [0, 2]"] ;
282 -> 286 ;
287 [label="Duree <= 102.5\ngini = 0.32\nsamples = 10\nvalue = [2, 8]"] ;
267 -> 287 ;
288 [label="gini = 0.0\nsamples = 7\nvalue = [0, 7]"] ;
287 -> 288 ;
289 [label="budget <= 14162000.0\ngini = 0.444\nsamples = 3\nvalue = [2, 1]"] ;
287 -> 289 ;
290 [label="gini = 0.0\nsamples = 2\nvalue = [2, 0]"] ;
289 -> 290 ;
291 [label="gini = 0.0\nsamples = 1\nvalue = [0, 1]"] ;
289 -> 291 ;
292 [label="Musical <= 0.5\ngini = 0.457\nsamples = 34\nvalue = [22, 12]"] ;
266 -> 292 ;
293 [label="Duree <= 106.5\ngini = 0.43\nsamples = 32\nvalue = [22, 10]"] ;
292 -> 293 ;
294 [label="Duree <= 86.5\ngini = 0.355\nsamples = 26\nvalue = [20, 6]"] ;
293 -> 294 ;
295 [label="gini = 0.0\nsamples = 1\nvalue = [0, 1]"] ;
294 -> 295 ;
296 [label="Comedy <= 0.5\ngini = 0.32\nsamples = 25\nvalue = [20, 5]"] ;
294 -> 296 ;
297 [label="gini = 0.0\nsamples = 7\nvalue = [7, 0]"] ;
296 -> 297 ;
298 [label="Thriller <= 0.5\ngini = 0.401\nsamples = 18\nvalue = [13, 5]"] ;
296 -> 298 ;
299 [label="Duree <= 100.5\ngini = 0.36\nsamples = 17\nvalue = [13, 4]"] ;
298 -> 299 ;
300 [label="gini = 0.48\nsamples = 10\nvalue = [6, 4]"] ;
299 -> 300 ;
301 [label="gini = 0.0\nsamples = 7\nvalue = [7, 0]"] ;
299 -> 301 ;
302 [label="gini = 0.0\nsamples = 1\nvalue = [0, 1]"] ;
298 -> 302 ;
303 [label="annee <= 1985.5\ngini = 0.444\nsamples = 6\nvalue = [2, 4]"] ;
293 -> 303 ;
304 [label="gini = 0.0\nsamples = 3\nvalue = [0, 3]"] ;
303 -> 304 ;
305 [label="Thriller <= 0.5\ngini = 0.444\nsamples = 3\nvalue = [2, 1]"] ;
303 -> 305 ;
306 [label="gini = 0.0\nsamples = 2\nvalue = [2, 0]"] ;
305 -> 306 ;
307 [label="gini = 0.0\nsamples = 1\nvalue = [0, 1]"] ;
305 -> 307 ;
308 [label="gini = 0.0\nsamples = 2\nvalue = [0, 2]"] ;
292 -> 308 ;
309 [label="gini = 0.0\nsamples = 3\nvalue = [0, 3]"] ;
265 -> 309 ;
310 [label="annee <= 1990.5\ngini = 0.32\nsamples = 25\nvalue = [20, 5]"] ;
256 -> 310 ;
311 [label="Duree <= 107.5\ngini = 0.117\nsamples = 16\nvalue = [15, 1]"] ;
310 -> 311 ;
312 [label="gini = 0.0\nsamples = 13\nvalue = [13, 0]"] ;
311 -> 312 ;
313 [label="budget <= 38500000.0\ngini = 0.444\nsamples = 3\nvalue = [2, 1]"] ;
311 -> 313 ;
314 [label="gini = 0.0\nsamples = 2\nvalue = [2, 0]"] ;
313 -> 314 ;
315 [label="gini = 0.0\nsamples = 1\nvalue = [0, 1]"] ;
313 -> 315 ;
316 [label="Duree <= 99.5\ngini = 0.494\nsamples = 9\nvalue = [5, 4]"] ;
310 -> 316 ;
317 [label="Duree <= 95.0\ngini = 0.375\nsamples = 4\nvalue = [1, 3]"] ;
316 -> 317 ;
318 [label="gini = 0.0\nsamples = 1\nvalue = [1, 0]"] ;
317 -> 318 ;
319 [label="gini = 0.0\nsamples = 3\nvalue = [0, 3]"] ;
317 -> 319 ;
320 [label="Duree <= 109.5\ngini = 0.32\nsamples = 5\nvalue = [4, 1]"] ;
316 -> 320 ;
321 [label="gini = 0.0\nsamples = 4\nvalue = [4, 0]"] ;
320 -> 321 ;
322 [label="gini = 0.0\nsamples = 1\nvalue = [0, 1]"] ;
320 -> 322 ;
323 [label="Duree <= 101.5\ngini = 0.32\nsamples = 989\nvalue = [791, 198]"] ;
255 -> 323 ;
324 [label="budget <= 33950000.0\ngini = 0.28\nsamples = 702\nvalue = [584, 118]"] ;
323 -> 324 ;
325 [label="Documentary <= 0.5\ngini = 0.334\nsamples = 453\nvalue = [357, 96]"] ;
324 -> 325 ;
326 [label="annee <= 1999.5\ngini = 0.326\nsamples = 448\nvalue = [356, 92]"] ;
325 -> 326 ;
327 [label="Duree <= 91.5\ngini = 0.421\nsamples = 116\nvalue = [81, 35]"] ;
326 -> 327 ;
328 [label="budget <= 12500000.0\ngini = 0.268\nsamples = 44\nvalue = [37, 7]"] ;
327 -> 328 ;
329 [label="annee <= 1996.5\ngini = 0.444\nsamples = 15\nvalue = [10, 5]"] ;
328 -> 329 ;
330 [label="Duree <= 78.5\ngini = 0.298\nsamples = 11\nvalue = [9, 2]"] ;
329 -> 330 ;
331 [label="gini = 0.0\nsamples = 1\nvalue = [0, 1]"] ;
330 -> 331 ;
332 [label="Thriller <= 0.5\ngini = 0.18\nsamples = 10\nvalue = [9, 1]"] ;
330 -> 332 ;
333 [label="gini = 0.0\nsamples = 8\nvalue = [8, 0]"] ;
332 -> 333 ;
334 [label="Duree <= 86.5\ngini = 0.5\nsamples = 2\nvalue = [1, 1]"] ;
332 -> 334 ;
335 [label="gini = 0.0\nsamples = 1\nvalue = [1, 0]"] ;
334 -> 335 ;
336 [label="gini = 0.0\nsamples = 1\nvalue = [0, 1]"] ;
334 -> 336 ;
337 [label="Duree <= 86.5\ngini = 0.375\nsamples = 4\nvalue = [1, 3]"] ;
329 -> 337 ;
338 [label="gini = 0.0\nsamples = 2\nvalue = [0, 2]"] ;
337 -> 338 ;
339 [label="Duree <= 88.0\ngini = 0.5\nsamples = 2\nvalue = [1, 1]"] ;
337 -> 339 ;
340 [label="gini = 0.0\nsamples = 1\nvalue = [1, 0]"] ;
339 -> 340 ;
341 [label="gini = 0.0\nsamples = 1\nvalue = [0, 1]"] ;
339 -> 341 ;
342 [label="Duree <= 75.5\ngini = 0.128\nsamples = 29\nvalue = [27, 2]"] ;
328 -> 342 ;
343 [label="Duree <= 73.5\ngini = 0.5\nsamples = 2\nvalue = [1, 1]"] ;
342 -> 343 ;
344 [label="gini = 0.0\nsamples = 1\nvalue = [1, 0]"] ;
343 -> 344 ;
345 [label="gini = 0.0\nsamples = 1\nvalue = [0, 1]"] ;
343 -> 345 ;
346 [label="Duree <= 88.5\ngini = 0.071\nsamples = 27\nvalue = [26, 1]"] ;
342 -> 346 ;
347 [label="gini = 0.0\nsamples = 20\nvalue = [20, 0]"] ;
346 -> 347 ;
348 [label="Duree <= 89.5\ngini = 0.245\nsamples = 7\nvalue = [6, 1]"] ;
346 -> 348 ;
349 [label="Family <= 0.5\ngini = 0.444\nsamples = 3\nvalue = [2, 1]"] ;
348 -> 349 ;
350 [label="gini = 0.0\nsamples = 1\nvalue = [0, 1]"] ;
349 -> 350 ;
351 [label="gini = 0.0\nsamples = 2\nvalue = [2, 0]"] ;
349 -> 351 ;
352 [label="gini = 0.0\nsamples = 4\nvalue = [4, 0]"] ;
348 -> 352 ;
353 [label="budget <= 16500000.0\ngini = 0.475\nsamples = 72\nvalue = [44, 28]"] ;
327 -> 353 ;
354 [label="budget <= 10500000.0\ngini = 0.495\nsamples = 31\nvalue = [14, 17]"] ;
353 -> 354 ;
355 [label="budget <= 8250000.0\ngini = 0.397\nsamples = 11\nvalue = [8, 3]"] ;
354 -> 355 ;
356 [label="annee <= 1993.0\ngini = 0.48\nsamples = 5\nvalue = [2, 3]"] ;
355 -> 356 ;
357 [label="gini = 0.0\nsamples = 2\nvalue = [2, 0]"] ;
356 -> 357 ;
358 [label="gini = 0.0\nsamples = 3\nvalue = [0, 3]"] ;
356 -> 358 ;
359 [label="gini = 0.0\nsamples = 6\nvalue = [6, 0]"] ;
355 -> 359 ;
360 [label="budget <= 12500000.0\ngini = 0.42\nsamples = 20\nvalue = [6, 14]"] ;
354 -> 360 ;
361 [label="gini = 0.0\nsamples = 5\nvalue = [0, 5]"] ;
360 -> 361 ;
362 [label="annee <= 1994.5\ngini = 0.48\nsamples = 15\nvalue = [6, 9]"] ;
360 -> 362 ;
363 [label="gini = 0.0\nsamples = 4\nvalue = [0, 4]"] ;
362 -> 363 ;
364 [label="Romance <= 0.5\ngini = 0.496\nsamples = 11\nvalue = [6, 5]"] ;
362 -> 364 ;
365 [label="gini = 0.444\nsamples = 9\nvalue = [6, 3]"] ;
364 -> 365 ;
366 [label="gini = 0.0\nsamples = 2\nvalue = [0, 2]"] ;
364 -> 366 ;
367 [label="Comedy <= 0.5\ngini = 0.393\nsamples = 41\nvalue = [30, 11]"] ;
353 -> 367 ;
368 [label="gini = 0.0\nsamples = 12\nvalue = [12, 0]"] ;
367 -> 368 ;
369 [label="budget <= 32000000.0\ngini = 0.471\nsamples = 29\nvalue = [18, 11]"] ;
367 -> 369 ;
370 [label="Duree <= 93.5\ngini = 0.444\nsamples = 27\nvalue = [18, 9]"] ;
369 -> 370 ;
371 [label="gini = 0.0\nsamples = 6\nvalue = [6, 0]"] ;
370 -> 371 ;
372 [label="Duree <= 95.5\ngini = 0.49\nsamples = 21\nvalue = [12, 9]"] ;
370 -> 372 ;
373 [label="gini = 0.0\nsamples = 3\nvalue = [0, 3]"] ;
372 -> 373 ;
374 [label="gini = 0.444\nsamples = 18\nvalue = [12, 6]"] ;
372 -> 374 ;
375 [label="gini = 0.0\nsamples = 2\nvalue = [0, 2]"] ;
369 -> 375 ;
376 [label="Horror <= 0.5\ngini = 0.284\nsamples = 332\nvalue = [275, 57]"] ;
326 -> 376 ;
377 [label="Duree <= 100.5\ngini = 0.331\nsamples = 239\nvalue = [189, 50]"] ;
376 -> 377 ;
378 [label="Mystery <= 0.5\ngini = 0.317\nsamples = 228\nvalue = [183, 45]"] ;
377 -> 378 ;
379 [label="Crime <= 0.5\ngini = 0.299\nsamples = 213\nvalue = [174, 39]"] ;
378 -> 379 ;
380 [label="Duree <= 82.5\ngini = 0.26\nsamples = 163\nvalue = [138, 25]"] ;
379 -> 380 ;
381 [label="annee <= 2008.0\ngini = 0.463\nsamples = 11\nvalue = [7, 4]"] ;
380 -> 381 ;
382 [label="gini = 0.5\nsamples = 8\nvalue = [4, 4]"] ;
381 -> 382 ;
383 [label="gini = 0.0\nsamples = 3\nvalue = [3, 0]"] ;
381 -> 383 ;
384 [label="annee <= 2002.5\ngini = 0.238\nsamples = 152\nvalue = [131, 21]"] ;
380 -> 384 ;
385 [label="gini = 0.102\nsamples = 37\nvalue = [35, 2]"] ;
384 -> 385 ;
386 [label="gini = 0.276\nsamples = 115\nvalue = [96, 19]"] ;
384 -> 386 ;
387 [label="budget <= 24500000.0\ngini = 0.403\nsamples = 50\nvalue = [36, 14]"] ;
379 -> 387 ;
388 [label="annee <= 2006.5\ngini = 0.461\nsamples = 36\nvalue = [23, 13]"] ;
387 -> 388 ;
389 [label="gini = 0.499\nsamples = 19\nvalue = [10, 9]"] ;
388 -> 389 ;
390 [label="gini = 0.36\nsamples = 17\nvalue = [13, 4]"] ;
388 -> 390 ;
391 [label="Duree <= 86.0\ngini = 0.133\nsamples = 14\nvalue = [13, 1]"] ;
387 -> 391 ;
392 [label="gini = 0.375\nsamples = 4\nvalue = [3, 1]"] ;
391 -> 392 ;
393 [label="gini = 0.0\nsamples = 10\nvalue = [10, 0]"] ;
391 -> 393 ;
394 [label="budget <= 26420000.0\ngini = 0.48\nsamples = 15\nvalue = [9, 6]"] ;
378 -> 394 ;
395 [label="budget <= 8050000.0\ngini = 0.375\nsamples = 12\nvalue = [9, 3]"] ;
394 -> 395 ;
396 [label="gini = 0.0\nsamples = 1\nvalue = [0, 1]"] ;
395 -> 396 ;
397 [label="Duree <= 96.5\ngini = 0.298\nsamples = 11\nvalue = [9, 2]"] ;
395 -> 397 ;
398 [label="gini = 0.0\nsamples = 6\nvalue = [6, 0]"] ;
397 -> 398 ;
399 [label="gini = 0.48\nsamples = 5\nvalue = [3, 2]"] ;
397 -> 399 ;
400 [label="gini = 0.0\nsamples = 3\nvalue = [0, 3]"] ;
394 -> 400 ;
401 [label="annee <= 2006.0\ngini = 0.496\nsamples = 11\nvalue = [6, 5]"] ;
377 -> 401 ;
402 [label="gini = 0.0\nsamples = 4\nvalue = [4, 0]"] ;
401 -> 402 ;
403 [label="Thriller <= 0.5\ngini = 0.408\nsamples = 7\nvalue = [2, 5]"] ;
401 -> 403 ;
404 [label="gini = 0.0\nsamples = 4\nvalue = [0, 4]"] ;
403 -> 404 ;
405 [label="annee <= 2012.5\ngini = 0.444\nsamples = 3\nvalue = [2, 1]"] ;
403 -> 405 ;
406 [label="gini = 0.0\nsamples = 2\nvalue = [2, 0]"] ;
405 -> 406 ;
407 [label="gini = 0.0\nsamples = 1\nvalue = [0, 1]"] ;
405 -> 407 ;
408 [label="budget <= 21991000.0\ngini = 0.139\nsamples = 93\nvalue = [86, 7]"] ;
376 -> 408 ;
409 [label="Comedy <= 0.5\ngini = 0.029\nsamples = 69\nvalue = [68, 1]"] ;
408 -> 409 ;
410 [label="gini = 0.0\nsamples = 64\nvalue = [64, 0]"] ;
409 -> 410 ;
411 [label="budget <= 8825000.0\ngini = 0.32\nsamples = 5\nvalue = [4, 1]"] ;
409 -> 411 ;
412 [label="gini = 0.0\nsamples = 1\nvalue = [0, 1]"] ;
411 -> 412 ;
413 [label="gini = 0.0\nsamples = 4\nvalue = [4, 0]"] ;
411 -> 413 ;
414 [label="Thriller <= 0.5\ngini = 0.375\nsamples = 24\nvalue = [18, 6]"] ;
408 -> 414 ;
415 [label="budget <= 23800000.0\ngini = 0.496\nsamples = 11\nvalue = [6, 5]"] ;
414 -> 415 ;
416 [label="gini = 0.0\nsamples = 2\nvalue = [0, 2]"] ;
415 -> 416 ;
417 [label="budget <= 29000000.0\ngini = 0.444\nsamples = 9\nvalue = [6, 3]"] ;
415 -> 417 ;
418 [label="Duree <= 86.0\ngini = 0.245\nsamples = 7\nvalue = [6, 1]"] ;
417 -> 418 ;
419 [label="gini = 0.0\nsamples = 1\nvalue = [0, 1]"] ;
418 -> 419 ;
420 [label="gini = 0.0\nsamples = 6\nvalue = [6, 0]"] ;
418 -> 420 ;
421 [label="gini = 0.0\nsamples = 2\nvalue = [0, 2]"] ;
417 -> 421 ;
422 [label="annee <= 2011.5\ngini = 0.142\nsamples = 13\nvalue = [12, 1]"] ;
414 -> 422 ;
423 [label="gini = 0.0\nsamples = 11\nvalue = [11, 0]"] ;
422 -> 423 ;
424 [label="Action <= 0.5\ngini = 0.5\nsamples = 2\nvalue = [1, 1]"] ;
422 -> 424 ;
425 [label="gini = 0.0\nsamples = 1\nvalue = [0, 1]"] ;
424 -> 425 ;
426 [label="gini = 0.0\nsamples = 1\nvalue = [1, 0]"] ;
424 -> 426 ;
427 [label="annee <= 2011.0\ngini = 0.32\nsamples = 5\nvalue = [1, 4]"] ;
325 -> 427 ;
428 [label="gini = 0.0\nsamples = 4\nvalue = [0, 4]"] ;
427 -> 428 ;
429 [label="gini = 0.0\nsamples = 1\nvalue = [1, 0]"] ;
427 -> 429 ;
430 [label="budget <= 177500000.0\ngini = 0.161\nsamples = 249\nvalue = [227, 22]"] ;
324 -> 430 ;
431 [label="Duree <= 99.5\ngini = 0.155\nsamples = 248\nvalue = [227, 21]"] ;
430 -> 431 ;
432 [label="Duree <= 94.5\ngini = 0.188\nsamples = 200\nvalue = [179, 21]"] ;
431 -> 432 ;
433 [label="Duree <= 86.5\ngini = 0.114\nsamples = 115\nvalue = [108, 7]"] ;
432 -> 433 ;
434 [label="Duree <= 85.5\ngini = 0.269\nsamples = 25\nvalue = [21, 4]"] ;
433 -> 434 ;
435 [label="Duree <= 84.5\ngini = 0.1\nsamples = 19\nvalue = [18, 1]"] ;
434 -> 435 ;
436 [label="gini = 0.0\nsamples = 14\nvalue = [14, 0]"] ;
435 -> 436 ;
437 [label="annee <= 2001.5\ngini = 0.32\nsamples = 5\nvalue = [4, 1]"] ;
435 -> 437 ;
438 [label="gini = 0.0\nsamples = 3\nvalue = [3, 0]"] ;
437 -> 438 ;
439 [label="budget <= 83795000.0\ngini = 0.5\nsamples = 2\nvalue = [1, 1]"] ;
437 -> 439 ;
440 [label="gini = 0.0\nsamples = 1\nvalue = [0, 1]"] ;
439 -> 440 ;
441 [label="gini = 0.0\nsamples = 1\nvalue = [1, 0]"] ;
439 -> 441 ;
442 [label="Adventure <= 0.5\ngini = 0.5\nsamples = 6\nvalue = [3, 3]"] ;
434 -> 442 ;
443 [label="Comedy <= 0.5\ngini = 0.375\nsamples = 4\nvalue = [1, 3]"] ;
442 -> 443 ;
444 [label="gini = 0.0\nsamples = 1\nvalue = [1, 0]"] ;
443 -> 444 ;
445 [label="gini = 0.0\nsamples = 3\nvalue = [0, 3]"] ;
443 -> 445 ;
446 [label="gini = 0.0\nsamples = 2\nvalue = [2, 0]"] ;
442 -> 446 ;
447 [label="annee <= 2008.5\ngini = 0.064\nsamples = 90\nvalue = [87, 3]"] ;
433 -> 447 ;
448 [label="gini = 0.0\nsamples = 64\nvalue = [64, 0]"] ;
447 -> 448 ;
449 [label="Thriller <= 0.5\ngini = 0.204\nsamples = 26\nvalue = [23, 3]"] ;
447 -> 449 ;
450 [label="gini = 0.0\nsamples = 13\nvalue = [13, 0]"] ;
449 -> 450 ;
451 [label="Action <= 0.5\ngini = 0.355\nsamples = 13\nvalue = [10, 3]"] ;
449 -> 451 ;
452 [label="gini = 0.0\nsamples = 1\nvalue = [0, 1]"] ;
451 -> 452 ;
453 [label="Adventure <= 0.5\ngini = 0.278\nsamples = 12\nvalue = [10, 2]"] ;
451 -> 453 ;
454 [label="gini = 0.165\nsamples = 11\nvalue = [10, 1]"] ;
453 -> 454 ;
455 [label="gini = 0.0\nsamples = 1\nvalue = [0, 1]"] ;
453 -> 455 ;
456 [label="War <= 0.5\ngini = 0.275\nsamples = 85\nvalue = [71, 14]"] ;
432 -> 456 ;
457 [label="Action <= 0.5\ngini = 0.262\nsamples = 84\nvalue = [71, 13]"] ;
456 -> 457 ;
458 [label="Duree <= 97.0\ngini = 0.359\nsamples = 47\nvalue = [36, 11]"] ;
457 -> 458 ;
459 [label="annee <= 2003.5\ngini = 0.463\nsamples = 22\nvalue = [14, 8]"] ;
458 -> 459 ;
460 [label="Horror <= 0.5\ngini = 0.198\nsamples = 9\nvalue = [8, 1]"] ;
459 -> 460 ;
461 [label="gini = 0.0\nsamples = 7\nvalue = [7, 0]"] ;
460 -> 461 ;
462 [label="gini = 0.5\nsamples = 2\nvalue = [1, 1]"] ;
460 -> 462 ;
463 [label="Romance <= 0.5\ngini = 0.497\nsamples = 13\nvalue = [6, 7]"] ;
459 -> 463 ;
464 [label="gini = 0.375\nsamples = 8\nvalue = [2, 6]"] ;
463 -> 464 ;
465 [label="gini = 0.32\nsamples = 5\nvalue = [4, 1]"] ;
463 -> 465 ;
466 [label="annee <= 2012.5\ngini = 0.211\nsamples = 25\nvalue = [22, 3]"] ;
458 -> 466 ;
467 [label="budget <= 70000000.0\ngini = 0.159\nsamples = 23\nvalue = [21, 2]"] ;
466 -> 467 ;
468 [label="gini = 0.0\nsamples = 17\nvalue = [17, 0]"] ;
467 -> 468 ;
469 [label="gini = 0.444\nsamples = 6\nvalue = [4, 2]"] ;
467 -> 469 ;
470 [label="Adventure <= 0.5\ngini = 0.5\nsamples = 2\nvalue = [1, 1]"] ;
466 -> 470 ;
471 [label="gini = 0.0\nsamples = 1\nvalue = [0, 1]"] ;
470 -> 471 ;
472 [label="gini = 0.0\nsamples = 1\nvalue = [1, 0]"] ;
470 -> 472 ;
473 [label="budget <= 36500000.0\ngini = 0.102\nsamples = 37\nvalue = [35, 2]"] ;
457 -> 473 ;
474 [label="Crime <= 0.5\ngini = 0.5\nsamples = 2\nvalue = [1, 1]"] ;
473 -> 474 ;
475 [label="gini = 0.0\nsamples = 1\nvalue = [0, 1]"] ;
474 -> 475 ;
476 [label="gini = 0.0\nsamples = 1\nvalue = [1, 0]"] ;
474 -> 476 ;
477 [label="budget <= 92500000.0\ngini = 0.056\nsamples = 35\nvalue = [34, 1]"] ;
473 -> 477 ;
478 [label="gini = 0.0\nsamples = 31\nvalue = [31, 0]"] ;
477 -> 478 ;
479 [label="Thriller <= 0.5\ngini = 0.375\nsamples = 4\nvalue = [3, 1]"] ;
477 -> 479 ;
480 [label="gini = 0.0\nsamples = 3\nvalue = [3, 0]"] ;
479 -> 480 ;
481 [label="gini = 0.0\nsamples = 1\nvalue = [0, 1]"] ;
479 -> 481 ;
482 [label="gini = 0.0\nsamples = 1\nvalue = [0, 1]"] ;
456 -> 482 ;
483 [label="gini = 0.0\nsamples = 48\nvalue = [48, 0]"] ;
431 -> 483 ;
484 [label="gini = 0.0\nsamples = 1\nvalue = [0, 1]"] ;
430 -> 484 ;
485 [label="budget <= 6950000.0\ngini = 0.402\nsamples = 287\nvalue = [207, 80]"] ;
323 -> 485 ;
486 [label="gini = 0.0\nsamples = 2\nvalue = [0, 2]"] ;
485 -> 486 ;
487 [label="budget <= 205000000.0\ngini = 0.398\nsamples = 285\nvalue = [207, 78]"] ;
485 -> 487 ;
488 [label="Crime <= 0.5\ngini = 0.393\nsamples = 283\nvalue = [207, 76]"] ;
487 -> 488 ;
489 [label="History <= 0.5\ngini = 0.366\nsamples = 224\nvalue = [170, 54]"] ;
488 -> 489 ;
490 [label="Musical <= 0.5\ngini = 0.362\nsamples = 223\nvalue = [170, 53]"] ;
489 -> 490 ;
491 [label="Duree <= 103.5\ngini = 0.356\nsamples = 220\nvalue = [169, 51]"] ;
490 -> 491 ;
492 [label="Adventure <= 0.5\ngini = 0.21\nsamples = 42\nvalue = [37, 5]"] ;
491 -> 492 ;
493 [label="annee <= 2012.5\ngini = 0.121\nsamples = 31\nvalue = [29, 2]"] ;
492 -> 493 ;
494 [label="annee <= 1996.5\ngini = 0.067\nsamples = 29\nvalue = [28, 1]"] ;
493 -> 494 ;
495 [label="gini = 0.32\nsamples = 5\nvalue = [4, 1]"] ;
494 -> 495 ;
496 [label="gini = 0.0\nsamples = 24\nvalue = [24, 0]"] ;
494 -> 496 ;
497 [label="Duree <= 102.5\ngini = 0.5\nsamples = 2\nvalue = [1, 1]"] ;
493 -> 497 ;
498 [label="gini = 0.0\nsamples = 1\nvalue = [0, 1]"] ;
497 -> 498 ;
499 [label="gini = 0.0\nsamples = 1\nvalue = [1, 0]"] ;
497 -> 499 ;
500 [label="budget <= 25000000.0\ngini = 0.397\nsamples = 11\nvalue = [8, 3]"] ;
492 -> 500 ;
501 [label="gini = 0.0\nsamples = 1\nvalue = [0, 1]"] ;
500 -> 501 ;
502 [label="Fantasy <= 0.5\ngini = 0.32\nsamples = 10\nvalue = [8, 2]"] ;
500 -> 502 ;
503 [label="gini = 0.444\nsamples = 6\nvalue = [4, 2]"] ;
502 -> 503 ;
504 [label="gini = 0.0\nsamples = 4\nvalue = [4, 0]"] ;
502 -> 504 ;
505 [label="Duree <= 104.5\ngini = 0.383\nsamples = 178\nvalue = [132, 46]"] ;
491 -> 505 ;
506 [label="budget <= 62500000.0\ngini = 0.475\nsamples = 31\nvalue = [19, 12]"] ;
505 -> 506 ;
507 [label="budget <= 41500000.0\ngini = 0.426\nsamples = 26\nvalue = [18, 8]"] ;
506 -> 507 ;
508 [label="gini = 0.492\nsamples = 16\nvalue = [9, 7]"] ;
507 -> 508 ;
509 [label="gini = 0.18\nsamples = 10\nvalue = [9, 1]"] ;
507 -> 509 ;
510 [label="budget <= 92500000.0\ngini = 0.32\nsamples = 5\nvalue = [1, 4]"] ;
506 -> 510 ;
511 [label="gini = 0.0\nsamples = 4\nvalue = [0, 4]"] ;
510 -> 511 ;
512 [label="gini = 0.0\nsamples = 1\nvalue = [1, 0]"] ;
510 -> 512 ;
513 [label="budget <= 21000000.0\ngini = 0.356\nsamples = 147\nvalue = [113, 34]"] ;
505 -> 513 ;
514 [label="annee <= 1993.5\ngini = 0.198\nsamples = 36\nvalue = [32, 4]"] ;
513 -> 514 ;
515 [label="gini = 0.0\nsamples = 1\nvalue = [0, 1]"] ;
514 -> 515 ;
516 [label="gini = 0.157\nsamples = 35\nvalue = [32, 3]"] ;
514 -> 516 ;
517 [label="annee <= 1997.5\ngini = 0.394\nsamples = 111\nvalue = [81, 30]"] ;
513 -> 517 ;
518 [label="gini = 0.124\nsamples = 15\nvalue = [14, 1]"] ;
517 -> 518 ;
519 [label="gini = 0.422\nsamples = 96\nvalue = [67, 29]"] ;
517 -> 519 ;
520 [label="budget <= 48500000.0\ngini = 0.444\nsamples = 3\nvalue = [1, 2]"] ;
490 -> 520 ;
521 [label="gini = 0.0\nsamples = 2\nvalue = [0, 2]"] ;
520 -> 521 ;
522 [label="gini = 0.0\nsamples = 1\nvalue = [1, 0]"] ;
520 -> 522 ;
523 [label="gini = 0.0\nsamples = 1\nvalue = [0, 1]"] ;
489 -> 523 ;
524 [label="budget <= 19500000.0\ngini = 0.468\nsamples = 59\nvalue = [37, 22]"] ;
488 -> 524 ;
525 [label="annee <= 2006.0\ngini = 0.444\nsamples = 15\nvalue = [5, 10]"] ;
524 -> 525 ;
526 [label="Fantasy <= 0.5\ngini = 0.198\nsamples = 9\nvalue = [1, 8]"] ;
525 -> 526 ;
527 [label="gini = 0.0\nsamples = 8\nvalue = [0, 8]"] ;
526 -> 527 ;
528 [label="gini = 0.0\nsamples = 1\nvalue = [1, 0]"] ;
526 -> 528 ;
529 [label="Duree <= 109.0\ngini = 0.444\nsamples = 6\nvalue = [4, 2]"] ;
525 -> 529 ;
530 [label="budget <= 11250000.0\ngini = 0.32\nsamples = 5\nvalue = [4, 1]"] ;
529 -> 530 ;
531 [label="budget <= 10250000.0\ngini = 0.5\nsamples = 2\nvalue = [1, 1]"] ;
530 -> 531 ;
532 [label="gini = 0.0\nsamples = 1\nvalue = [1, 0]"] ;
531 -> 532 ;
533 [label="gini = 0.0\nsamples = 1\nvalue = [0, 1]"] ;
531 -> 533 ;
534 [label="gini = 0.0\nsamples = 3\nvalue = [3, 0]"] ;
530 -> 534 ;
535 [label="gini = 0.0\nsamples = 1\nvalue = [0, 1]"] ;
529 -> 535 ;
536 [label="Thriller <= 0.5\ngini = 0.397\nsamples = 44\nvalue = [32, 12]"] ;
524 -> 536 ;
537 [label="budget <= 36000000.0\ngini = 0.497\nsamples = 13\nvalue = [6, 7]"] ;
536 -> 537 ;
538 [label="gini = 0.0\nsamples = 6\nvalue = [0, 6]"] ;
537 -> 538 ;
539 [label="annee <= 2011.5\ngini = 0.245\nsamples = 7\nvalue = [6, 1]"] ;
537 -> 539 ;
540 [label="gini = 0.0\nsamples = 5\nvalue = [5, 0]"] ;
539 -> 540 ;
541 [label="budget <= 41000000.0\ngini = 0.5\nsamples = 2\nvalue = [1, 1]"] ;
539 -> 541 ;
542 [label="gini = 0.0\nsamples = 1\nvalue = [1, 0]"] ;
541 -> 542 ;
543 [label="gini = 0.0\nsamples = 1\nvalue = [0, 1]"] ;
541 -> 543 ;
544 [label="budget <= 30125000.0\ngini = 0.271\nsamples = 31\nvalue = [26, 5]"] ;
536 -> 544 ;
545 [label="gini = 0.0\nsamples = 15\nvalue = [15, 0]"] ;
544 -> 545 ;
546 [label="annee <= 2010.5\ngini = 0.43\nsamples = 16\nvalue = [11, 5]"] ;
544 -> 546 ;
547 [label="budget <= 32075000.0\ngini = 0.337\nsamples = 14\nvalue = [11, 3]"] ;
546 -> 547 ;
548 [label="gini = 0.0\nsamples = 1\nvalue = [0, 1]"] ;
547 -> 548 ;
549 [label="Duree <= 109.5\ngini = 0.26\nsamples = 13\nvalue = [11, 2]"] ;
547 -> 549 ;
550 [label="gini = 0.165\nsamples = 11\nvalue = [10, 1]"] ;
549 -> 550 ;
551 [label="gini = 0.5\nsamples = 2\nvalue = [1, 1]"] ;
549 -> 551 ;
552 [label="gini = 0.0\nsamples = 2\nvalue = [0, 2]"] ;
546 -> 552 ;
553 [label="gini = 0.0\nsamples = 2\nvalue = [0, 2]"] ;
487 -> 553 ;
554 [label="budget <= 19000000.0\ngini = 0.465\nsamples = 152\nvalue = [56, 96]"] ;
128 -> 554 ;
555 [label="Duree <= 95.5\ngini = 0.142\nsamples = 13\nvalue = [1, 12]"] ;
554 -> 555 ;
556 [label="gini = 0.0\nsamples = 10\nvalue = [0, 10]"] ;
555 -> 556 ;
557 [label="Duree <= 99.0\ngini = 0.444\nsamples = 3\nvalue = [1, 2]"] ;
555 -> 557 ;
558 [label="gini = 0.0\nsamples = 1\nvalue = [1, 0]"] ;
557 -> 558 ;
559 [label="gini = 0.0\nsamples = 2\nvalue = [0, 2]"] ;
557 -> 559 ;
560 [label="budget <= 82500000.0\ngini = 0.478\nsamples = 139\nvalue = [55, 84]"] ;
554 -> 560 ;
561 [label="Duree <= 95.5\ngini = 0.5\nsamples = 74\nvalue = [37, 37]"] ;
560 -> 561 ;
562 [label="annee <= 2000.5\ngini = 0.496\nsamples = 64\nvalue = [35, 29]"] ;
561 -> 562 ;
563 [label="Fantasy <= 0.5\ngini = 0.43\nsamples = 16\nvalue = [5, 11]"] ;
562 -> 563 ;
564 [label="gini = 0.0\nsamples = 5\nvalue = [0, 5]"] ;
563 -> 564 ;
565 [label="Duree <= 84.5\ngini = 0.496\nsamples = 11\nvalue = [5, 6]"] ;
563 -> 565 ;
566 [label="annee <= 1987.0\ngini = 0.32\nsamples = 5\nvalue = [1, 4]"] ;
565 -> 566 ;
567 [label="gini = 0.0\nsamples = 1\nvalue = [1, 0]"] ;
566 -> 567 ;
568 [label="gini = 0.0\nsamples = 4\nvalue = [0, 4]"] ;
566 -> 568 ;
569 [label="annee <= 1993.0\ngini = 0.444\nsamples = 6\nvalue = [4, 2]"] ;
565 -> 569 ;
570 [label="gini = 0.0\nsamples = 2\nvalue = [0, 2]"] ;
569 -> 570 ;
571 [label="gini = 0.0\nsamples = 4\nvalue = [4, 0]"] ;
569 -> 571 ;
572 [label="Duree <= 88.5\ngini = 0.469\nsamples = 48\nvalue = [30, 18]"] ;
562 -> 572 ;
573 [label="Fantasy <= 0.5\ngini = 0.5\nsamples = 26\nvalue = [13, 13]"] ;
572 -> 573 ;
574 [label="Duree <= 84.5\ngini = 0.444\nsamples = 18\nvalue = [6, 12]"] ;
573 -> 574 ;
575 [label="Duree <= 67.5\ngini = 0.408\nsamples = 7\nvalue = [5, 2]"] ;
574 -> 575 ;
576 [label="gini = 0.0\nsamples = 1\nvalue = [0, 1]"] ;
575 -> 576 ;
577 [label="budget <= 65000000.0\ngini = 0.278\nsamples = 6\nvalue = [5, 1]"] ;
575 -> 577 ;
578 [label="gini = 0.0\nsamples = 4\nvalue = [4, 0]"] ;
577 -> 578 ;
579 [label="Duree <= 81.5\ngini = 0.5\nsamples = 2\nvalue = [1, 1]"] ;
577 -> 579 ;
580 [label="gini = 0.0\nsamples = 1\nvalue = [1, 0]"] ;
579 -> 580 ;
581 [label="gini = 0.0\nsamples = 1\nvalue = [0, 1]"] ;
579 -> 581 ;
582 [label="annee <= 2013.0\ngini = 0.165\nsamples = 11\nvalue = [1, 10]"] ;
574 -> 582 ;
583 [label="gini = 0.0\nsamples = 9\nvalue = [0, 9]"] ;
582 -> 583 ;
584 [label="budget <= 33500000.0\ngini = 0.5\nsamples = 2\nvalue = [1, 1]"] ;
582 -> 584 ;
585 [label="gini = 0.0\nsamples = 1\nvalue = [0, 1]"] ;
584 -> 585 ;
586 [label="gini = 0.0\nsamples = 1\nvalue = [1, 0]"] ;
584 -> 586 ;
587 [label="Musical <= 0.5\ngini = 0.219\nsamples = 8\nvalue = [7, 1]"] ;
573 -> 587 ;
588 [label="gini = 0.0\nsamples = 7\nvalue = [7, 0]"] ;
587 -> 588 ;
589 [label="gini = 0.0\nsamples = 1\nvalue = [0, 1]"] ;
587 -> 589 ;
590 [label="Fantasy <= 0.5\ngini = 0.351\nsamples = 22\nvalue = [17, 5]"] ;
572 -> 590 ;
591 [label="gini = 0.0\nsamples = 11\nvalue = [11, 0]"] ;
590 -> 591 ;
592 [label="budget <= 61500000.0\ngini = 0.496\nsamples = 11\nvalue = [6, 5]"] ;
590 -> 592 ;
593 [label="Adventure <= 0.5\ngini = 0.32\nsamples = 5\nvalue = [1, 4]"] ;
592 -> 593 ;
594 [label="gini = 0.0\nsamples = 1\nvalue = [1, 0]"] ;
593 -> 594 ;
595 [label="gini = 0.0\nsamples = 4\nvalue = [0, 4]"] ;
593 -> 595 ;
596 [label="Mystery <= 0.5\ngini = 0.278\nsamples = 6\nvalue = [5, 1]"] ;
592 -> 596 ;
597 [label="gini = 0.0\nsamples = 5\nvalue = [5, 0]"] ;
596 -> 597 ;
598 [label="gini = 0.0\nsamples = 1\nvalue = [0, 1]"] ;
596 -> 598 ;
599 [label="Mystery <= 0.5\ngini = 0.32\nsamples = 10\nvalue = [2, 8]"] ;
561 -> 599 ;
600 [label="Duree <= 103.5\ngini = 0.198\nsamples = 9\nvalue = [1, 8]"] ;
599 -> 600 ;
601 [label="gini = 0.0\nsamples = 7\nvalue = [0, 7]"] ;
600 -> 601 ;
602 [label="Adventure <= 0.5\ngini = 0.5\nsamples = 2\nvalue = [1, 1]"] ;
600 -> 602 ;
603 [label="gini = 0.0\nsamples = 1\nvalue = [0, 1]"] ;
602 -> 603 ;
604 [label="gini = 0.0\nsamples = 1\nvalue = [1, 0]"] ;
602 -> 604 ;
605 [label="gini = 0.0\nsamples = 1\nvalue = [1, 0]"] ;
599 -> 605 ;
606 [label="Duree <= 84.5\ngini = 0.4\nsamples = 65\nvalue = [18, 47]"] ;
560 -> 606 ;
607 [label="annee <= 2001.0\ngini = 0.375\nsamples = 8\nvalue = [6, 2]"] ;
606 -> 607 ;
608 [label="Fantasy <= 0.5\ngini = 0.444\nsamples = 3\nvalue = [1, 2]"] ;
607 -> 608 ;
609 [label="gini = 0.0\nsamples = 1\nvalue = [1, 0]"] ;
608 -> 609 ;
610 [label="gini = 0.0\nsamples = 2\nvalue = [0, 2]"] ;
608 -> 610 ;
611 [label="gini = 0.0\nsamples = 5\nvalue = [5, 0]"] ;
607 -> 611 ;
612 [label="Duree <= 104.5\ngini = 0.332\nsamples = 57\nvalue = [12, 45]"] ;
606 -> 612 ;
613 [label="annee <= 2006.5\ngini = 0.269\nsamples = 50\nvalue = [8, 42]"] ;
612 -> 613 ;
614 [label="gini = 0.0\nsamples = 11\nvalue = [0, 11]"] ;
613 -> 614 ;
615 [label="annee <= 2007.5\ngini = 0.326\nsamples = 39\nvalue = [8, 31]"] ;
613 -> 615 ;
616 [label="Sport <= 0.5\ngini = 0.444\nsamples = 3\nvalue = [2, 1]"] ;
615 -> 616 ;
617 [label="gini = 0.0\nsamples = 2\nvalue = [2, 0]"] ;
616 -> 617 ;
618 [label="gini = 0.0\nsamples = 1\nvalue = [0, 1]"] ;
616 -> 618 ;
619 [label="Sport <= 0.5\ngini = 0.278\nsamples = 36\nvalue = [6, 30]"] ;
615 -> 619 ;
620 [label="Duree <= 99.0\ngini = 0.245\nsamples = 35\nvalue = [5, 30]"] ;
619 -> 620 ;
621 [label="budget <= 147500000.0\ngini = 0.153\nsamples = 24\nvalue = [2, 22]"] ;
620 -> 621 ;
622 [label="gini = 0.0\nsamples = 15\nvalue = [0, 15]"] ;
621 -> 622 ;
623 [label="Duree <= 88.5\ngini = 0.346\nsamples = 9\nvalue = [2, 7]"] ;
621 -> 623 ;
624 [label="gini = 0.0\nsamples = 1\nvalue = [1, 0]"] ;
623 -> 624 ;
625 [label="annee <= 2009.5\ngini = 0.219\nsamples = 8\nvalue = [1, 7]"] ;
623 -> 625 ;
626 [label="gini = 0.0\nsamples = 5\nvalue = [0, 5]"] ;
625 -> 626 ;
627 [label="annee <= 2011.0\ngini = 0.444\nsamples = 3\nvalue = [1, 2]"] ;
625 -> 627 ;
628 [label="gini = 0.5\nsamples = 2\nvalue = [1, 1]"] ;
627 -> 628 ;
629 [label="gini = 0.0\nsamples = 1\nvalue = [0, 1]"] ;
627 -> 629 ;
630 [label="budget <= 137500000.0\ngini = 0.397\nsamples = 11\nvalue = [3, 8]"] ;
620 -> 630 ;
631 [label="budget <= 101500000.0\ngini = 0.375\nsamples = 4\nvalue = [3, 1]"] ;
630 -> 631 ;
632 [label="gini = 0.0\nsamples = 1\nvalue = [0, 1]"] ;
631 -> 632 ;
633 [label="gini = 0.0\nsamples = 3\nvalue = [3, 0]"] ;
631 -> 633 ;
634 [label="gini = 0.0\nsamples = 7\nvalue = [0, 7]"] ;
630 -> 634 ;
635 [label="gini = 0.0\nsamples = 1\nvalue = [1, 0]"] ;
619 -> 635 ;
636 [label="Duree <= 106.5\ngini = 0.49\nsamples = 7\nvalue = [4, 3]"] ;
612 -> 636 ;
637 [label="gini = 0.0\nsamples = 3\nvalue = [3, 0]"] ;
636 -> 637 ;
638 [label="Music <= 0.5\ngini = 0.375\nsamples = 4\nvalue = [1, 3]"] ;
636 -> 638 ;
639 [label="gini = 0.0\nsamples = 3\nvalue = [0, 3]"] ;
638 -> 639 ;
640 [label="gini = 0.0\nsamples = 1\nvalue = [1, 0]"] ;
638 -> 640 ;
641 [label="Duree <= 134.5\ngini = 0.49\nsamples = 512\nvalue = [219, 293]"] ;
127 -> 641 ;
642 [label="annee <= 1992.5\ngini = 0.5\nsamples = 398\nvalue = [193, 205]"] ;
641 -> 642 ;
643 [label="Family <= 0.5\ngini = 0.355\nsamples = 39\nvalue = [9, 30]"] ;
642 -> 643 ;
644 [label="Duree <= 115.5\ngini = 0.307\nsamples = 37\nvalue = [7, 30]"] ;
643 -> 644 ;
645 [label="annee <= 1987.5\ngini = 0.5\nsamples = 8\nvalue = [4, 4]"] ;
644 -> 645 ;
646 [label="gini = 0.0\nsamples = 2\nvalue = [0, 2]"] ;
645 -> 646 ;
647 [label="budget <= 26500000.0\ngini = 0.444\nsamples = 6\nvalue = [4, 2]"] ;
645 -> 647 ;
648 [label="gini = 0.0\nsamples = 3\nvalue = [3, 0]"] ;
647 -> 648 ;
649 [label="Sci-Fi <= 0.5\ngini = 0.444\nsamples = 3\nvalue = [1, 2]"] ;
647 -> 649 ;
650 [label="Action <= 0.5\ngini = 0.5\nsamples = 2\nvalue = [1, 1]"] ;
649 -> 650 ;
651 [label="gini = 0.0\nsamples = 1\nvalue = [0, 1]"] ;
650 -> 651 ;
652 [label="gini = 0.0\nsamples = 1\nvalue = [1, 0]"] ;
650 -> 652 ;
653 [label="gini = 0.0\nsamples = 1\nvalue = [0, 1]"] ;
649 -> 653 ;
654 [label="Horror <= 0.5\ngini = 0.185\nsamples = 29\nvalue = [3, 26]"] ;
644 -> 654 ;
655 [label="annee <= 1985.5\ngini = 0.071\nsamples = 27\nvalue = [1, 26]"] ;
654 -> 655 ;
656 [label="Sci-Fi <= 0.5\ngini = 0.5\nsamples = 2\nvalue = [1, 1]"] ;
655 -> 656 ;
657 [label="gini = 0.0\nsamples = 1\nvalue = [1, 0]"] ;
656 -> 657 ;
658 [label="gini = 0.0\nsamples = 1\nvalue = [0, 1]"] ;
656 -> 658 ;
659 [label="gini = 0.0\nsamples = 25\nvalue = [0, 25]"] ;
655 -> 659 ;
660 [label="gini = 0.0\nsamples = 2\nvalue = [2, 0]"] ;
654 -> 660 ;
661 [label="gini = 0.0\nsamples = 2\nvalue = [2, 0]"] ;
643 -> 661 ;
662 [label="budget <= 21170000.0\ngini = 0.5\nsamples = 359\nvalue = [184, 175]"] ;
642 -> 662 ;
663 [label="Horror <= 0.5\ngini = 0.448\nsamples = 56\nvalue = [19, 37]"] ;
662 -> 663 ;
664 [label="Action <= 0.5\ngini = 0.381\nsamples = 43\nvalue = [11, 32]"] ;
663 -> 664 ;
665 [label="budget <= 19105000.0\ngini = 0.313\nsamples = 36\nvalue = [7, 29]"] ;
664 -> 665 ;
666 [label="Comedy <= 0.5\ngini = 0.257\nsamples = 33\nvalue = [5, 28]"] ;
665 -> 666 ;
667 [label="Duree <= 126.0\ngini = 0.391\nsamples = 15\nvalue = [4, 11]"] ;
666 -> 667 ;
668 [label="Music <= 0.5\ngini = 0.337\nsamples = 14\nvalue = [3, 11]"] ;
667 -> 668 ;
669 [label="Mystery <= 0.5\ngini = 0.26\nsamples = 13\nvalue = [2, 11]"] ;
668 -> 669 ;
670 [label="gini = 0.0\nsamples = 8\nvalue = [0, 8]"] ;
669 -> 670 ;
671 [label="annee <= 2001.5\ngini = 0.48\nsamples = 5\nvalue = [2, 3]"] ;
669 -> 671 ;
672 [label="gini = 0.0\nsamples = 2\nvalue = [0, 2]"] ;
671 -> 672 ;
673 [label="Romance <= 0.5\ngini = 0.444\nsamples = 3\nvalue = [2, 1]"] ;
671 -> 673 ;
674 [label="gini = 0.0\nsamples = 2\nvalue = [2, 0]"] ;
673 -> 674 ;
675 [label="gini = 0.0\nsamples = 1\nvalue = [0, 1]"] ;
673 -> 675 ;
676 [label="gini = 0.0\nsamples = 1\nvalue = [1, 0]"] ;
668 -> 676 ;
677 [label="gini = 0.0\nsamples = 1\nvalue = [1, 0]"] ;
667 -> 677 ;
678 [label="Fantasy <= 0.5\ngini = 0.105\nsamples = 18\nvalue = [1, 17]"] ;
666 -> 678 ;
679 [label="gini = 0.0\nsamples = 14\nvalue = [0, 14]"] ;
678 -> 679 ;
680 [label="Romance <= 0.5\ngini = 0.375\nsamples = 4\nvalue = [1, 3]"] ;
678 -> 680 ;
681 [label="gini = 0.0\nsamples = 3\nvalue = [0, 3]"] ;
680 -> 681 ;
682 [label="gini = 0.0\nsamples = 1\nvalue = [1, 0]"] ;
680 -> 682 ;
683 [label="Romance <= 0.5\ngini = 0.444\nsamples = 3\nvalue = [2, 1]"] ;
665 -> 683 ;
684 [label="gini = 0.0\nsamples = 1\nvalue = [0, 1]"] ;
683 -> 684 ;
685 [label="gini = 0.0\nsamples = 2\nvalue = [2, 0]"] ;
683 -> 685 ;
686 [label="budget <= 11120000.0\ngini = 0.49\nsamples = 7\nvalue = [4, 3]"] ;
664 -> 686 ;
687 [label="gini = 0.0\nsamples = 3\nvalue = [3, 0]"] ;
686 -> 687 ;
688 [label="Duree <= 124.5\ngini = 0.375\nsamples = 4\nvalue = [1, 3]"] ;
686 -> 688 ;
689 [label="gini = 0.0\nsamples = 3\nvalue = [0, 3]"] ;
688 -> 689 ;
690 [label="gini = 0.0\nsamples = 1\nvalue = [1, 0]"] ;
688 -> 690 ;
691 [label="budget <= 16500000.0\ngini = 0.473\nsamples = 13\nvalue = [8, 5]"] ;
663 -> 691 ;
692 [label="Duree <= 116.5\ngini = 0.397\nsamples = 11\nvalue = [8, 3]"] ;
691 -> 692 ;
693 [label="Thriller <= 0.5\ngini = 0.5\nsamples = 6\nvalue = [3, 3]"] ;
692 -> 693 ;
694 [label="gini = 0.0\nsamples = 2\nvalue = [0, 2]"] ;
693 -> 694 ;
695 [label="budget <= 13250000.0\ngini = 0.375\nsamples = 4\nvalue = [3, 1]"] ;
693 -> 695 ;
696 [label="gini = 0.0\nsamples = 3\nvalue = [3, 0]"] ;
695 -> 696 ;
697 [label="gini = 0.0\nsamples = 1\nvalue = [0, 1]"] ;
695 -> 697 ;
698 [label="gini = 0.0\nsamples = 5\nvalue = [5, 0]"] ;
692 -> 698 ;
699 [label="gini = 0.0\nsamples = 2\nvalue = [0, 2]"] ;
691 -> 699 ;
700 [label="annee <= 2005.5\ngini = 0.496\nsamples = 303\nvalue = [165, 138]"] ;
662 -> 700 ;
701 [label="Comedy <= 0.5\ngini = 0.465\nsamples = 147\nvalue = [93, 54]"] ;
700 -> 701 ;
702 [label="budget <= 49000000.0\ngini = 0.489\nsamples = 101\nvalue = [58, 43]"] ;
701 -> 702 ;
703 [label="annee <= 2000.5\ngini = 0.488\nsamples = 26\nvalue = [11, 15]"] ;
702 -> 703 ;
704 [label="annee <= 1999.5\ngini = 0.494\nsamples = 18\nvalue = [10, 8]"] ;
703 -> 704 ;
705 [label="Thriller <= 0.5\ngini = 0.498\nsamples = 15\nvalue = [7, 8]"] ;
704 -> 705 ;
706 [label="annee <= 1998.5\ngini = 0.32\nsamples = 5\nvalue = [4, 1]"] ;
705 -> 706 ;
707 [label="gini = 0.0\nsamples = 4\nvalue = [4, 0]"] ;
706 -> 707 ;
708 [label="gini = 0.0\nsamples = 1\nvalue = [0, 1]"] ;
706 -> 708 ;
709 [label="Duree <= 115.5\ngini = 0.42\nsamples = 10\nvalue = [3, 7]"] ;
705 -> 709 ;
710 [label="annee <= 1995.5\ngini = 0.48\nsamples = 5\nvalue = [3, 2]"] ;
709 -> 710 ;
711 [label="gini = 0.0\nsamples = 2\nvalue = [2, 0]"] ;
710 -> 711 ;
712 [label="budget <= 35000000.0\ngini = 0.444\nsamples = 3\nvalue = [1, 2]"] ;
710 -> 712 ;
713 [label="gini = 0.0\nsamples = 1\nvalue = [1, 0]"] ;
712 -> 713 ;
714 [label="gini = 0.0\nsamples = 2\nvalue = [0, 2]"] ;
712 -> 714 ;
715 [label="gini = 0.0\nsamples = 5\nvalue = [0, 5]"] ;
709 -> 715 ;
716 [label="gini = 0.0\nsamples = 3\nvalue = [3, 0]"] ;
704 -> 716 ;
717 [label="annee <= 2004.0\ngini = 0.219\nsamples = 8\nvalue = [1, 7]"] ;
703 -> 717 ;
718 [label="gini = 0.0\nsamples = 6\nvalue = [0, 6]"] ;
717 -> 718 ;
719 [label="Duree <= 116.0\ngini = 0.5\nsamples = 2\nvalue = [1, 1]"] ;
717 -> 719 ;
720 [label="gini = 0.0\nsamples = 1\nvalue = [1, 0]"] ;
719 -> 720 ;
721 [label="gini = 0.0\nsamples = 1\nvalue = [0, 1]"] ;
719 -> 721 ;
722 [label="War <= 0.5\ngini = 0.468\nsamples = 75\nvalue = [47, 28]"] ;
702 -> 722 ;
723 [label="Horror <= 0.5\ngini = 0.459\nsamples = 73\nvalue = [47, 26]"] ;
722 -> 723 ;
724 [label="annee <= 2004.5\ngini = 0.472\nsamples = 68\nvalue = [42, 26]"] ;
723 -> 724 ;
725 [label="annee <= 2000.5\ngini = 0.485\nsamples = 63\nvalue = [37, 26]"] ;
724 -> 725 ;
726 [label="annee <= 1994.5\ngini = 0.431\nsamples = 35\nvalue = [24, 11]"] ;
725 -> 726 ;
727 [label="Sci-Fi <= 0.5\ngini = 0.375\nsamples = 4\nvalue = [1, 3]"] ;
726 -> 727 ;
728 [label="gini = 0.0\nsamples = 1\nvalue = [1, 0]"] ;
727 -> 728 ;
729 [label="gini = 0.0\nsamples = 3\nvalue = [0, 3]"] ;
727 -> 729 ;
730 [label="Duree <= 120.0\ngini = 0.383\nsamples = 31\nvalue = [23, 8]"] ;
726 -> 730 ;
731 [label="gini = 0.0\nsamples = 7\nvalue = [7, 0]"] ;
730 -> 731 ;
732 [label="annee <= 1999.5\ngini = 0.444\nsamples = 24\nvalue = [16, 8]"] ;
730 -> 732 ;
733 [label="gini = 0.48\nsamples = 20\nvalue = [12, 8]"] ;
732 -> 733 ;
734 [label="gini = 0.0\nsamples = 4\nvalue = [4, 0]"] ;
732 -> 734 ;
735 [label="Duree <= 115.5\ngini = 0.497\nsamples = 28\nvalue = [13, 15]"] ;
725 -> 735 ;
736 [label="gini = 0.0\nsamples = 4\nvalue = [0, 4]"] ;
735 -> 736 ;
737 [label="Duree <= 133.5\ngini = 0.497\nsamples = 24\nvalue = [13, 11]"] ;
735 -> 737 ;
738 [label="Adventure <= 0.5\ngini = 0.483\nsamples = 22\nvalue = [13, 9]"] ;
737 -> 738 ;
739 [label="gini = 0.48\nsamples = 10\nvalue = [4, 6]"] ;
738 -> 739 ;
740 [label="gini = 0.375\nsamples = 12\nvalue = [9, 3]"] ;
738 -> 740 ;
741 [label="gini = 0.0\nsamples = 2\nvalue = [0, 2]"] ;
737 -> 741 ;
742 [label="gini = 0.0\nsamples = 5\nvalue = [5, 0]"] ;
724 -> 742 ;
743 [label="gini = 0.0\nsamples = 5\nvalue = [5, 0]"] ;
723 -> 743 ;
744 [label="gini = 0.0\nsamples = 2\nvalue = [0, 2]"] ;
722 -> 744 ;
745 [label="annee <= 1998.5\ngini = 0.364\nsamples = 46\nvalue = [35, 11]"] ;
701 -> 745 ;
746 [label="annee <= 1993.5\ngini = 0.5\nsamples = 12\nvalue = [6, 6]"] ;
745 -> 746 ;
747 [label="gini = 0.0\nsamples = 2\nvalue = [2, 0]"] ;
746 -> 747 ;
748 [label="budget <= 35500000.0\ngini = 0.48\nsamples = 10\nvalue = [4, 6]"] ;
746 -> 748 ;
749 [label="Music <= 0.5\ngini = 0.32\nsamples = 5\nvalue = [1, 4]"] ;
748 -> 749 ;
750 [label="gini = 0.0\nsamples = 4\nvalue = [0, 4]"] ;
749 -> 750 ;
751 [label="gini = 0.0\nsamples = 1\nvalue = [1, 0]"] ;
749 -> 751 ;
752 [label="Duree <= 120.0\ngini = 0.48\nsamples = 5\nvalue = [3, 2]"] ;
748 -> 752 ;
753 [label="gini = 0.0\nsamples = 2\nvalue = [2, 0]"] ;
752 -> 753 ;
754 [label="budget <= 86500000.0\ngini = 0.444\nsamples = 3\nvalue = [1, 2]"] ;
752 -> 754 ;
755 [label="gini = 0.0\nsamples = 2\nvalue = [0, 2]"] ;
754 -> 755 ;
756 [label="gini = 0.0\nsamples = 1\nvalue = [1, 0]"] ;
754 -> 756 ;
757 [label="Duree <= 127.5\ngini = 0.251\nsamples = 34\nvalue = [29, 5]"] ;
745 -> 757 ;
758 [label="Musical <= 0.5\ngini = 0.175\nsamples = 31\nvalue = [28, 3]"] ;
757 -> 758 ;
759 [label="budget <= 140000000.0\ngini = 0.124\nsamples = 30\nvalue = [28, 2]"] ;
758 -> 759 ;
760 [label="annee <= 2004.5\ngini = 0.067\nsamples = 29\nvalue = [28, 1]"] ;
759 -> 760 ;
761 [label="gini = 0.0\nsamples = 21\nvalue = [21, 0]"] ;
760 -> 761 ;
762 [label="Romance <= 0.5\ngini = 0.219\nsamples = 8\nvalue = [7, 1]"] ;
760 -> 762 ;
763 [label="gini = 0.0\nsamples = 6\nvalue = [6, 0]"] ;
762 -> 763 ;
764 [label="Duree <= 122.0\ngini = 0.5\nsamples = 2\nvalue = [1, 1]"] ;
762 -> 764 ;
765 [label="gini = 0.0\nsamples = 1\nvalue = [0, 1]"] ;
764 -> 765 ;
766 [label="gini = 0.0\nsamples = 1\nvalue = [1, 0]"] ;
764 -> 766 ;
767 [label="gini = 0.0\nsamples = 1\nvalue = [0, 1]"] ;
759 -> 767 ;
768 [label="gini = 0.0\nsamples = 1\nvalue = [0, 1]"] ;
758 -> 768 ;
769 [label="Duree <= 133.5\ngini = 0.444\nsamples = 3\nvalue = [1, 2]"] ;
757 -> 769 ;
770 [label="gini = 0.0\nsamples = 2\nvalue = [0, 2]"] ;
769 -> 770 ;
771 [label="gini = 0.0\nsamples = 1\nvalue = [1, 0]"] ;
769 -> 771 ;
772 [label="Action <= 0.5\ngini = 0.497\nsamples = 156\nvalue = [72, 84]"] ;
700 -> 772 ;
773 [label="annee <= 2007.5\ngini = 0.465\nsamples = 57\nvalue = [36, 21]"] ;
772 -> 773 ;
774 [label="Duree <= 116.5\ngini = 0.444\nsamples = 12\nvalue = [4, 8]"] ;
773 -> 774 ;
775 [label="Romance <= 0.5\ngini = 0.5\nsamples = 8\nvalue = [4, 4]"] ;
774 -> 775 ;
776 [label="Adventure <= 0.5\ngini = 0.444\nsamples = 6\nvalue = [2, 4]"] ;
775 -> 776 ;
777 [label="gini = 0.0\nsamples = 4\nvalue = [0, 4]"] ;
776 -> 777 ;
778 [label="gini = 0.0\nsamples = 2\nvalue = [2, 0]"] ;
776 -> 778 ;
779 [label="gini = 0.0\nsamples = 2\nvalue = [2, 0]"] ;
775 -> 779 ;
780 [label="gini = 0.0\nsamples = 4\nvalue = [0, 4]"] ;
774 -> 780 ;
781 [label="Duree <= 119.5\ngini = 0.411\nsamples = 45\nvalue = [32, 13]"] ;
773 -> 781 ;
782 [label="Music <= 0.5\ngini = 0.285\nsamples = 29\nvalue = [24, 5]"] ;
781 -> 782 ;
783 [label="Sci-Fi <= 0.5\ngini = 0.198\nsamples = 27\nvalue = [24, 3]"] ;
782 -> 783 ;
784 [label="annee <= 2011.5\ngini = 0.147\nsamples = 25\nvalue = [23, 2]"] ;
783 -> 784 ;
785 [label="gini = 0.0\nsamples = 13\nvalue = [13, 0]"] ;
784 -> 785 ;
786 [label="annee <= 2012.5\ngini = 0.278\nsamples = 12\nvalue = [10, 2]"] ;
784 -> 786 ;
787 [label="budget <= 60000000.0\ngini = 0.5\nsamples = 4\nvalue = [2, 2]"] ;
786 -> 787 ;
788 [label="gini = 0.0\nsamples = 2\nvalue = [0, 2]"] ;
787 -> 788 ;
789 [label="gini = 0.0\nsamples = 2\nvalue = [2, 0]"] ;
787 -> 789 ;
790 [label="gini = 0.0\nsamples = 8\nvalue = [8, 0]"] ;
786 -> 790 ;
791 [label="Duree <= 115.5\ngini = 0.5\nsamples = 2\nvalue = [1, 1]"] ;
783 -> 791 ;
792 [label="gini = 0.0\nsamples = 1\nvalue = [0, 1]"] ;
791 -> 792 ;
793 [label="gini = 0.0\nsamples = 1\nvalue = [1, 0]"] ;
791 -> 793 ;
794 [label="gini = 0.0\nsamples = 2\nvalue = [0, 2]"] ;
782 -> 794 ;
795 [label="Duree <= 124.5\ngini = 0.5\nsamples = 16\nvalue = [8, 8]"] ;
781 -> 795 ;
796 [label="Crime <= 0.5\ngini = 0.278\nsamples = 6\nvalue = [1, 5]"] ;
795 -> 796 ;
797 [label="gini = 0.0\nsamples = 5\nvalue = [0, 5]"] ;
796 -> 797 ;
798 [label="gini = 0.0\nsamples = 1\nvalue = [1, 0]"] ;
796 -> 798 ;
799 [label="annee <= 2014.5\ngini = 0.42\nsamples = 10\nvalue = [7, 3]"] ;
795 -> 799 ;
800 [label="Mystery <= 0.5\ngini = 0.346\nsamples = 9\nvalue = [7, 2]"] ;
799 -> 800 ;
801 [label="annee <= 2011.5\ngini = 0.219\nsamples = 8\nvalue = [7, 1]"] ;
800 -> 801 ;
802 [label="annee <= 2010.5\ngini = 0.5\nsamples = 2\nvalue = [1, 1]"] ;
801 -> 802 ;
803 [label="gini = 0.0\nsamples = 1\nvalue = [1, 0]"] ;
802 -> 803 ;
804 [label="gini = 0.0\nsamples = 1\nvalue = [0, 1]"] ;
802 -> 804 ;
805 [label="gini = 0.0\nsamples = 6\nvalue = [6, 0]"] ;
801 -> 805 ;
806 [label="gini = 0.0\nsamples = 1\nvalue = [0, 1]"] ;
800 -> 806 ;
807 [label="gini = 0.0\nsamples = 1\nvalue = [0, 1]"] ;
799 -> 807 ;
808 [label="Romance <= 0.5\ngini = 0.463\nsamples = 99\nvalue = [36, 63]"] ;
772 -> 808 ;
809 [label="Thriller <= 0.5\ngini = 0.447\nsamples = 92\nvalue = [31, 61]"] ;
808 -> 809 ;
810 [label="annee <= 2008.5\ngini = 0.363\nsamples = 42\nvalue = [10, 32]"] ;
809 -> 810 ;
811 [label="budget <= 145000000.0\ngini = 0.496\nsamples = 11\nvalue = [5, 6]"] ;
810 -> 811 ;
812 [label="Sport <= 0.5\ngini = 0.444\nsamples = 9\nvalue = [3, 6]"] ;
811 -> 812 ;
813 [label="Duree <= 116.0\ngini = 0.375\nsamples = 8\nvalue = [2, 6]"] ;
812 -> 813 ;
814 [label="annee <= 2007.0\ngini = 0.444\nsamples = 3\nvalue = [2, 1]"] ;
813 -> 814 ;
815 [label="gini = 0.0\nsamples = 1\nvalue = [0, 1]"] ;
814 -> 815 ;
816 [label="gini = 0.0\nsamples = 2\nvalue = [2, 0]"] ;
814 -> 816 ;
817 [label="gini = 0.0\nsamples = 5\nvalue = [0, 5]"] ;
813 -> 817 ;
818 [label="gini = 0.0\nsamples = 1\nvalue = [1, 0]"] ;
812 -> 818 ;
819 [label="gini = 0.0\nsamples = 2\nvalue = [2, 0]"] ;
811 -> 819 ;
820 [label="annee <= 2014.5\ngini = 0.271\nsamples = 31\nvalue = [5, 26]"] ;
810 -> 820 ;
821 [label="budget <= 80000000.0\ngini = 0.204\nsamples = 26\nvalue = [3, 23]"] ;
820 -> 821 ;
822 [label="budget <= 60000000.0\ngini = 0.444\nsamples = 9\nvalue = [3, 6]"] ;
821 -> 822 ;
823 [label="budget <= 34500000.0\ngini = 0.245\nsamples = 7\nvalue = [1, 6]"] ;
822 -> 823 ;
824 [label="annee <= 2010.5\ngini = 0.444\nsamples = 3\nvalue = [1, 2]"] ;
823 -> 824 ;
825 [label="gini = 0.0\nsamples = 2\nvalue = [0, 2]"] ;
824 -> 825 ;
826 [label="gini = 0.0\nsamples = 1\nvalue = [1, 0]"] ;
824 -> 826 ;
827 [label="gini = 0.0\nsamples = 4\nvalue = [0, 4]"] ;
823 -> 827 ;
828 [label="gini = 0.0\nsamples = 2\nvalue = [2, 0]"] ;
822 -> 828 ;
829 [label="gini = 0.0\nsamples = 17\nvalue = [0, 17]"] ;
821 -> 829 ;
830 [label="budget <= 153000000.0\ngini = 0.48\nsamples = 5\nvalue = [2, 3]"] ;
820 -> 830 ;
831 [label="gini = 0.0\nsamples = 3\nvalue = [0, 3]"] ;
830 -> 831 ;
832 [label="gini = 0.0\nsamples = 2\nvalue = [2, 0]"] ;
830 -> 832 ;
833 [label="annee <= 2014.5\ngini = 0.487\nsamples = 50\nvalue = [21, 29]"] ;
809 -> 833 ;
834 [label="Sci-Fi <= 0.5\ngini = 0.499\nsamples = 44\nvalue = [21, 23]"] ;
833 -> 834 ;
835 [label="Fantasy <= 0.5\ngini = 0.452\nsamples = 29\nvalue = [10, 19]"] ;
834 -> 835 ;
836 [label="budget <= 49000000.0\ngini = 0.417\nsamples = 27\nvalue = [8, 19]"] ;
835 -> 836 ;
837 [label="Duree <= 114.0\ngini = 0.48\nsamples = 5\nvalue = [3, 2]"] ;
836 -> 837 ;
838 [label="gini = 0.0\nsamples = 2\nvalue = [0, 2]"] ;
837 -> 838 ;
839 [label="gini = 0.0\nsamples = 3\nvalue = [3, 0]"] ;
837 -> 839 ;
840 [label="Duree <= 133.5\ngini = 0.351\nsamples = 22\nvalue = [5, 17]"] ;
836 -> 840 ;
841 [label="Crime <= 0.5\ngini = 0.308\nsamples = 21\nvalue = [4, 17]"] ;
840 -> 841 ;
842 [label="gini = 0.48\nsamples = 10\nvalue = [4, 6]"] ;
841 -> 842 ;
843 [label="gini = 0.0\nsamples = 11\nvalue = [0, 11]"] ;
841 -> 843 ;
844 [label="gini = 0.0\nsamples = 1\nvalue = [1, 0]"] ;
840 -> 844 ;
845 [label="gini = 0.0\nsamples = 2\nvalue = [2, 0]"] ;
835 -> 845 ;
846 [label="budget <= 36000000.0\ngini = 0.391\nsamples = 15\nvalue = [11, 4]"] ;
834 -> 846 ;
847 [label="annee <= 2011.0\ngini = 0.444\nsamples = 3\nvalue = [1, 2]"] ;
846 -> 847 ;
848 [label="gini = 0.0\nsamples = 1\nvalue = [1, 0]"] ;
847 -> 848 ;
849 [label="gini = 0.0\nsamples = 2\nvalue = [0, 2]"] ;
847 -> 849 ;
850 [label="Horror <= 0.5\ngini = 0.278\nsamples = 12\nvalue = [10, 2]"] ;
846 -> 850 ;
851 [label="annee <= 2007.5\ngini = 0.165\nsamples = 11\nvalue = [10, 1]"] ;
850 -> 851 ;
852 [label="gini = 0.0\nsamples = 1\nvalue = [0, 1]"] ;
851 -> 852 ;
853 [label="gini = 0.0\nsamples = 10\nvalue = [10, 0]"] ;
851 -> 853 ;
854 [label="gini = 0.0\nsamples = 1\nvalue = [0, 1]"] ;
850 -> 854 ;
855 [label="gini = 0.0\nsamples = 6\nvalue = [0, 6]"] ;
833 -> 855 ;
856 [label="Fantasy <= 0.5\ngini = 0.408\nsamples = 7\nvalue = [5, 2]"] ;
808 -> 856 ;
857 [label="gini = 0.0\nsamples = 4\nvalue = [4, 0]"] ;
856 -> 857 ;
858 [label="Mystery <= 0.5\ngini = 0.444\nsamples = 3\nvalue = [1, 2]"] ;
856 -> 858 ;
859 [label="gini = 0.0\nsamples = 2\nvalue = [0, 2]"] ;
858 -> 859 ;
860 [label="gini = 0.0\nsamples = 1\nvalue = [1, 0]"] ;
858 -> 860 ;
861 [label="Sci-Fi <= 0.5\ngini = 0.352\nsamples = 114\nvalue = [26, 88]"] ;
641 -> 861 ;
862 [label="Sport <= 0.5\ngini = 0.248\nsamples = 69\nvalue = [10, 59]"] ;
861 -> 862 ;
863 [label="Duree <= 156.5\ngini = 0.23\nsamples = 68\nvalue = [9, 59]"] ;
862 -> 863 ;
864 [label="Duree <= 145.0\ngini = 0.305\nsamples = 48\nvalue = [9, 39]"] ;
863 -> 864 ;
865 [label="annee <= 2012.5\ngini = 0.128\nsamples = 29\nvalue = [2, 27]"] ;
864 -> 865 ;
866 [label="gini = 0.0\nsamples = 26\nvalue = [0, 26]"] ;
865 -> 866 ;
867 [label="budget <= 120000000.0\ngini = 0.444\nsamples = 3\nvalue = [2, 1]"] ;
865 -> 867 ;
868 [label="gini = 0.0\nsamples = 2\nvalue = [2, 0]"] ;
867 -> 868 ;
869 [label="gini = 0.0\nsamples = 1\nvalue = [0, 1]"] ;
867 -> 869 ;
870 [label="Western <= 0.5\ngini = 0.465\nsamples = 19\nvalue = [7, 12]"] ;
864 -> 870 ;
871 [label="annee <= 2007.5\ngini = 0.415\nsamples = 17\nvalue = [5, 12]"] ;
870 -> 871 ;
872 [label="annee <= 2002.5\ngini = 0.5\nsamples = 10\nvalue = [5, 5]"] ;
871 -> 872 ;
873 [label="gini = 0.0\nsamples = 3\nvalue = [0, 3]"] ;
872 -> 873 ;
874 [label="Duree <= 151.5\ngini = 0.408\nsamples = 7\nvalue = [5, 2]"] ;
872 -> 874 ;
875 [label="Adventure <= 0.5\ngini = 0.48\nsamples = 5\nvalue = [3, 2]"] ;
874 -> 875 ;
876 [label="Crime <= 0.5\ngini = 0.375\nsamples = 4\nvalue = [3, 1]"] ;
875 -> 876 ;
877 [label="gini = 0.0\nsamples = 2\nvalue = [2, 0]"] ;
876 -> 877 ;
878 [label="annee <= 2004.0\ngini = 0.5\nsamples = 2\nvalue = [1, 1]"] ;
876 -> 878 ;
879 [label="gini = 0.0\nsamples = 1\nvalue = [1, 0]"] ;
878 -> 879 ;
880 [label="gini = 0.0\nsamples = 1\nvalue = [0, 1]"] ;
878 -> 880 ;
881 [label="gini = 0.0\nsamples = 1\nvalue = [0, 1]"] ;
875 -> 881 ;
882 [label="gini = 0.0\nsamples = 2\nvalue = [2, 0]"] ;
874 -> 882 ;
883 [label="gini = 0.0\nsamples = 7\nvalue = [0, 7]"] ;
871 -> 883 ;
884 [label="gini = 0.0\nsamples = 2\nvalue = [2, 0]"] ;
870 -> 884 ;
885 [label="gini = 0.0\nsamples = 20\nvalue = [0, 20]"] ;
863 -> 885 ;
886 [label="gini = 0.0\nsamples = 1\nvalue = [1, 0]"] ;
862 -> 886 ;
887 [label="budget <= 65500000.0\ngini = 0.458\nsamples = 45\nvalue = [16, 29]"] ;
861 -> 887 ;
888 [label="annee <= 1986.5\ngini = 0.486\nsamples = 12\nvalue = [7, 5]"] ;
887 -> 888 ;
889 [label="gini = 0.0\nsamples = 2\nvalue = [0, 2]"] ;
888 -> 889 ;
890 [label="Musical <= 0.5\ngini = 0.42\nsamples = 10\nvalue = [7, 3]"] ;
888 -> 890 ;
891 [label="Duree <= 171.0\ngini = 0.346\nsamples = 9\nvalue = [7, 2]"] ;
890 -> 891 ;
892 [label="Duree <= 137.5\ngini = 0.219\nsamples = 8\nvalue = [7, 1]"] ;
891 -> 892 ;
893 [label="Duree <= 135.5\ngini = 0.5\nsamples = 2\nvalue = [1, 1]"] ;
892 -> 893 ;
894 [label="gini = 0.0\nsamples = 1\nvalue = [1, 0]"] ;
893 -> 894 ;
895 [label="gini = 0.0\nsamples = 1\nvalue = [0, 1]"] ;
893 -> 895 ;
896 [label="gini = 0.0\nsamples = 6\nvalue = [6, 0]"] ;
892 -> 896 ;
897 [label="gini = 0.0\nsamples = 1\nvalue = [0, 1]"] ;
891 -> 897 ;
898 [label="gini = 0.0\nsamples = 1\nvalue = [0, 1]"] ;
890 -> 898 ;
899 [label="budget <= 172500000.0\ngini = 0.397\nsamples = 33\nvalue = [9, 24]"] ;
887 -> 899 ;
900 [label="annee <= 2004.0\ngini = 0.255\nsamples = 20\nvalue = [3, 17]"] ;
899 -> 900 ;
901 [label="budget <= 108500000.0\ngini = 0.42\nsamples = 10\nvalue = [3, 7]"] ;
900 -> 901 ;
902 [label="gini = 0.0\nsamples = 5\nvalue = [0, 5]"] ;
901 -> 902 ;
903 [label="budget <= 138500000.0\ngini = 0.48\nsamples = 5\nvalue = [3, 2]"] ;
901 -> 903 ;
904 [label="gini = 0.0\nsamples = 3\nvalue = [3, 0]"] ;
903 -> 904 ;
905 [label="gini = 0.0\nsamples = 2\nvalue = [0, 2]"] ;
903 -> 905 ;
906 [label="gini = 0.0\nsamples = 10\nvalue = [0, 10]"] ;
900 -> 906 ;
907 [label="annee <= 2011.5\ngini = 0.497\nsamples = 13\nvalue = [6, 7]"] ;
899 -> 907 ;
908 [label="Duree <= 177.0\ngini = 0.278\nsamples = 6\nvalue = [5, 1]"] ;
907 -> 908 ;
909 [label="gini = 0.0\nsamples = 5\nvalue = [5, 0]"] ;
908 -> 909 ;
910 [label="gini = 0.0\nsamples = 1\nvalue = [0, 1]"] ;
908 -> 910 ;
911 [label="Duree <= 157.0\ngini = 0.245\nsamples = 7\nvalue = [1, 6]"] ;
907 -> 911 ;
912 [label="gini = 0.0\nsamples = 3\nvalue = [0, 3]"] ;
911 -> 912 ;
913 [label="Duree <= 169.0\ngini = 0.375\nsamples = 4\nvalue = [1, 3]"] ;
911 -> 913 ;
914 [label="gini = 0.0\nsamples = 1\nvalue = [1, 0]"] ;
913 -> 914 ;
915 [label="gini = 0.0\nsamples = 3\nvalue = [0, 3]"] ;
913 -> 915 ;
916 [label="budget <= 15660000.0\ngini = 0.411\nsamples = 2269\nvalue = [655, 1614]"] ;
0 -> 916 [labeldistance=2.5, labelangle=-45, headlabel="False"] ;
917 [label="Duree <= 104.5\ngini = 0.283\nsamples = 1113\nvalue = [190, 923]"] ;
916 -> 917 ;
918 [label="budget <= 2750000.0\ngini = 0.387\nsamples = 480\nvalue = [126, 354]"] ;
917 -> 918 ;
919 [label="annee <= 2004.5\ngini = 0.209\nsamples = 177\nvalue = [21, 156]"] ;
918 -> 919 ;
920 [label="Music <= 0.5\ngini = 0.069\nsamples = 112\nvalue = [4, 108]"] ;
919 -> 920 ;
921 [label="Biography <= 0.5\ngini = 0.053\nsamples = 110\nvalue = [3, 107]"] ;
920 -> 921 ;
922 [label="budget <= 1140000.0\ngini = 0.037\nsamples = 106\nvalue = [2, 104]"] ;
921 -> 922 ;
923 [label="gini = 0.0\nsamples = 72\nvalue = [0, 72]"] ;
922 -> 923 ;
924 [label="budget <= 1225000.0\ngini = 0.111\nsamples = 34\nvalue = [2, 32]"] ;
922 -> 924 ;
925 [label="Duree <= 92.0\ngini = 0.444\nsamples = 3\nvalue = [1, 2]"] ;
924 -> 925 ;
926 [label="gini = 0.0\nsamples = 1\nvalue = [1, 0]"] ;
925 -> 926 ;
927 [label="gini = 0.0\nsamples = 2\nvalue = [0, 2]"] ;
925 -> 927 ;
928 [label="Thriller <= 0.5\ngini = 0.062\nsamples = 31\nvalue = [1, 30]"] ;
924 -> 928 ;
929 [label="gini = 0.0\nsamples = 25\nvalue = [0, 25]"] ;
928 -> 929 ;
930 [label="annee <= 1982.0\ngini = 0.278\nsamples = 6\nvalue = [1, 5]"] ;
928 -> 930 ;
931 [label="gini = 0.0\nsamples = 5\nvalue = [0, 5]"] ;
930 -> 931 ;
932 [label="gini = 0.0\nsamples = 1\nvalue = [1, 0]"] ;
930 -> 932 ;
933 [label="Horror <= 0.5\ngini = 0.375\nsamples = 4\nvalue = [1, 3]"] ;
921 -> 933 ;
934 [label="gini = 0.0\nsamples = 3\nvalue = [0, 3]"] ;
933 -> 934 ;
935 [label="gini = 0.0\nsamples = 1\nvalue = [1, 0]"] ;
933 -> 935 ;
936 [label="budget <= 1415000.0\ngini = 0.5\nsamples = 2\nvalue = [1, 1]"] ;
920 -> 936 ;
937 [label="gini = 0.0\nsamples = 1\nvalue = [0, 1]"] ;
936 -> 937 ;
938 [label="gini = 0.0\nsamples = 1\nvalue = [1, 0]"] ;
936 -> 938 ;
939 [label="Horror <= 0.5\ngini = 0.386\nsamples = 65\nvalue = [17, 48]"] ;
919 -> 939 ;
940 [label="Action <= 0.5\ngini = 0.306\nsamples = 53\nvalue = [10, 43]"] ;
939 -> 940 ;
941 [label="Duree <= 78.5\ngini = 0.286\nsamples = 52\nvalue = [9, 43]"] ;
940 -> 941 ;
942 [label="gini = 0.0\nsamples = 1\nvalue = [1, 0]"] ;
941 -> 942 ;
943 [label="Thriller <= 0.5\ngini = 0.265\nsamples = 51\nvalue = [8, 43]"] ;
941 -> 943 ;
944 [label="Duree <= 89.5\ngini = 0.206\nsamples = 43\nvalue = [5, 38]"] ;
943 -> 944 ;
945 [label="gini = 0.0\nsamples = 11\nvalue = [0, 11]"] ;
944 -> 945 ;
946 [label="budget <= 2317500.0\ngini = 0.264\nsamples = 32\nvalue = [5, 27]"] ;
944 -> 946 ;
947 [label="Duree <= 94.5\ngini = 0.231\nsamples = 30\nvalue = [4, 26]"] ;
946 -> 947 ;
948 [label="budget <= 487500.0\ngini = 0.397\nsamples = 11\nvalue = [3, 8]"] ;
947 -> 948 ;
949 [label="gini = 0.0\nsamples = 4\nvalue = [0, 4]"] ;
948 -> 949 ;
950 [label="budget <= 1780000.0\ngini = 0.49\nsamples = 7\nvalue = [3, 4]"] ;
948 -> 950 ;
951 [label="Animation <= 0.5\ngini = 0.48\nsamples = 5\nvalue = [3, 2]"] ;
950 -> 951 ;
952 [label="annee <= 2006.0\ngini = 0.375\nsamples = 4\nvalue = [3, 1]"] ;
951 -> 952 ;
953 [label="gini = 0.5\nsamples = 2\nvalue = [1, 1]"] ;
952 -> 953 ;
954 [label="gini = 0.0\nsamples = 2\nvalue = [2, 0]"] ;
952 -> 954 ;
955 [label="gini = 0.0\nsamples = 1\nvalue = [0, 1]"] ;
951 -> 955 ;
956 [label="gini = 0.0\nsamples = 2\nvalue = [0, 2]"] ;
950 -> 956 ;
957 [label="budget <= 124300.0\ngini = 0.1\nsamples = 19\nvalue = [1, 18]"] ;
947 -> 957 ;
958 [label="Duree <= 97.0\ngini = 0.5\nsamples = 2\nvalue = [1, 1]"] ;
957 -> 958 ;
959 [label="gini = 0.0\nsamples = 1\nvalue = [0, 1]"] ;
958 -> 959 ;
960 [label="gini = 0.0\nsamples = 1\nvalue = [1, 0]"] ;
958 -> 960 ;
961 [label="gini = 0.0\nsamples = 17\nvalue = [0, 17]"] ;
957 -> 961 ;
962 [label="annee <= 2012.0\ngini = 0.5\nsamples = 2\nvalue = [1, 1]"] ;
946 -> 962 ;
963 [label="gini = 0.0\nsamples = 1\nvalue = [1, 0]"] ;
962 -> 963 ;
964 [label="gini = 0.0\nsamples = 1\nvalue = [0, 1]"] ;
962 -> 964 ;
965 [label="budget <= 925000.0\ngini = 0.469\nsamples = 8\nvalue = [3, 5]"] ;
943 -> 965 ;
966 [label="gini = 0.0\nsamples = 3\nvalue = [3, 0]"] ;
965 -> 966 ;
967 [label="gini = 0.0\nsamples = 5\nvalue = [0, 5]"] ;
965 -> 967 ;
968 [label="gini = 0.0\nsamples = 1\nvalue = [1, 0]"] ;
940 -> 968 ;
969 [label="Duree <= 100.5\ngini = 0.486\nsamples = 12\nvalue = [7, 5]"] ;
939 -> 969 ;
970 [label="budget <= 1825000.0\ngini = 0.42\nsamples = 10\nvalue = [7, 3]"] ;
969 -> 970 ;
971 [label="Crime <= 0.5\ngini = 0.245\nsamples = 7\nvalue = [6, 1]"] ;
970 -> 971 ;
972 [label="gini = 0.0\nsamples = 6\nvalue = [6, 0]"] ;
971 -> 972 ;
973 [label="gini = 0.0\nsamples = 1\nvalue = [0, 1]"] ;
971 -> 973 ;
974 [label="Duree <= 90.0\ngini = 0.444\nsamples = 3\nvalue = [1, 2]"] ;
970 -> 974 ;
975 [label="gini = 0.0\nsamples = 1\nvalue = [1, 0]"] ;
974 -> 975 ;
976 [label="gini = 0.0\nsamples = 2\nvalue = [0, 2]"] ;
974 -> 976 ;
977 [label="gini = 0.0\nsamples = 2\nvalue = [0, 2]"] ;
969 -> 977 ;
978 [label="Thriller <= 0.5\ngini = 0.453\nsamples = 303\nvalue = [105, 198]"] ;
918 -> 978 ;
979 [label="Animation <= 0.5\ngini = 0.411\nsamples = 218\nvalue = [63, 155]"] ;
978 -> 979 ;
980 [label="Adventure <= 0.5\ngini = 0.42\nsamples = 210\nvalue = [63, 147]"] ;
979 -> 980 ;
981 [label="annee <= 2009.5\ngini = 0.408\nsamples = 196\nvalue = [56, 140]"] ;
980 -> 981 ;
982 [label="Comedy <= 0.5\ngini = 0.366\nsamples = 137\nvalue = [33, 104]"] ;
981 -> 982 ;
983 [label="Music <= 0.5\ngini = 0.278\nsamples = 66\nvalue = [11, 55]"] ;
982 -> 983 ;
984 [label="budget <= 5907000.0\ngini = 0.231\nsamples = 60\nvalue = [8, 52]"] ;
983 -> 984 ;
985 [label="gini = 0.0\nsamples = 20\nvalue = [0, 20]"] ;
984 -> 985 ;
986 [label="annee <= 2006.5\ngini = 0.32\nsamples = 40\nvalue = [8, 32]"] ;
984 -> 986 ;
987 [label="annee <= 2000.5\ngini = 0.391\nsamples = 30\nvalue = [8, 22]"] ;
986 -> 987 ;
988 [label="Duree <= 96.0\ngini = 0.198\nsamples = 18\nvalue = [2, 16]"] ;
987 -> 988 ;
989 [label="annee <= 1984.0\ngini = 0.408\nsamples = 7\nvalue = [2, 5]"] ;
988 -> 989 ;
990 [label="gini = 0.0\nsamples = 3\nvalue = [0, 3]"] ;
989 -> 990 ;
991 [label="annee <= 1997.5\ngini = 0.5\nsamples = 4\nvalue = [2, 2]"] ;
989 -> 991 ;
992 [label="gini = 0.0\nsamples = 2\nvalue = [2, 0]"] ;
991 -> 992 ;
993 [label="gini = 0.0\nsamples = 2\nvalue = [0, 2]"] ;
991 -> 993 ;
994 [label="gini = 0.0\nsamples = 11\nvalue = [0, 11]"] ;
988 -> 994 ;
995 [label="budget <= 10500000.0\ngini = 0.5\nsamples = 12\nvalue = [6, 6]"] ;
987 -> 995 ;
996 [label="Romance <= 0.5\ngini = 0.444\nsamples = 9\nvalue = [6, 3]"] ;
995 -> 996 ;
997 [label="Duree <= 91.0\ngini = 0.375\nsamples = 8\nvalue = [6, 2]"] ;
996 -> 997 ;
998 [label="gini = 0.0\nsamples = 1\nvalue = [0, 1]"] ;
997 -> 998 ;
999 [label="gini = 0.245\nsamples = 7\nvalue = [6, 1]"] ;
997 -> 999 ;
1000 [label="gini = 0.0\nsamples = 1\nvalue = [0, 1]"] ;
996 -> 1000 ;
1001 [label="gini = 0.0\nsamples = 3\nvalue = [0, 3]"] ;
995 -> 1001 ;
1002 [label="gini = 0.0\nsamples = 10\nvalue = [0, 10]"] ;
986 -> 1002 ;
1003 [label="Duree <= 96.0\ngini = 0.5\nsamples = 6\nvalue = [3, 3]"] ;
983 -> 1003 ;
1004 [label="gini = 0.0\nsamples = 2\nvalue = [2, 0]"] ;
1003 -> 1004 ;
1005 [label="budget <= 11500000.0\ngini = 0.375\nsamples = 4\nvalue = [1, 3]"] ;
1003 -> 1005 ;
1006 [label="gini = 0.0\nsamples = 3\nvalue = [0, 3]"] ;
1005 -> 1006 ;
1007 [label="gini = 0.0\nsamples = 1\nvalue = [1, 0]"] ;
1005 -> 1007 ;
1008 [label="Crime <= 0.5\ngini = 0.428\nsamples = 71\nvalue = [22, 49]"] ;
982 -> 1008 ;
1009 [label="Duree <= 88.5\ngini = 0.461\nsamples = 61\nvalue = [22, 39]"] ;
1008 -> 1009 ;
1010 [label="gini = 0.0\nsamples = 2\nvalue = [2, 0]"] ;
1009 -> 1010 ;
1011 [label="annee <= 2003.0\ngini = 0.448\nsamples = 59\nvalue = [20, 39]"] ;
1009 -> 1011 ;
1012 [label="Sport <= 0.5\ngini = 0.493\nsamples = 34\nvalue = [15, 19]"] ;
1011 -> 1012 ;
1013 [label="annee <= 1998.5\ngini = 0.475\nsamples = 31\nvalue = [12, 19]"] ;
1012 -> 1013 ;
1014 [label="Duree <= 101.0\ngini = 0.36\nsamples = 17\nvalue = [4, 13]"] ;
1013 -> 1014 ;
1015 [label="budget <= 4000000.0\ngini = 0.142\nsamples = 13\nvalue = [1, 12]"] ;
1014 -> 1015 ;
1016 [label="gini = 0.375\nsamples = 4\nvalue = [1, 3]"] ;
1015 -> 1016 ;
1017 [label="gini = 0.0\nsamples = 9\nvalue = [0, 9]"] ;
1015 -> 1017 ;
1018 [label="budget <= 13000000.0\ngini = 0.375\nsamples = 4\nvalue = [3, 1]"] ;
1014 -> 1018 ;
1019 [label="gini = 0.0\nsamples = 3\nvalue = [3, 0]"] ;
1018 -> 1019 ;
1020 [label="gini = 0.0\nsamples = 1\nvalue = [0, 1]"] ;
1018 -> 1020 ;
1021 [label="budget <= 4500000.0\ngini = 0.49\nsamples = 14\nvalue = [8, 6]"] ;
1013 -> 1021 ;
1022 [label="gini = 0.0\nsamples = 2\nvalue = [0, 2]"] ;
1021 -> 1022 ;
1023 [label="Romance <= 0.5\ngini = 0.444\nsamples = 12\nvalue = [8, 4]"] ;
1021 -> 1023 ;
1024 [label="gini = 0.48\nsamples = 5\nvalue = [2, 3]"] ;
1023 -> 1024 ;
1025 [label="gini = 0.245\nsamples = 7\nvalue = [6, 1]"] ;
1023 -> 1025 ;
1026 [label="gini = 0.0\nsamples = 3\nvalue = [3, 0]"] ;
1012 -> 1026 ;
1027 [label="budget <= 13350000.0\ngini = 0.32\nsamples = 25\nvalue = [5, 20]"] ;
1011 -> 1027 ;
1028 [label="budget <= 3025500.0\ngini = 0.227\nsamples = 23\nvalue = [3, 20]"] ;
1027 -> 1028 ;
1029 [label="gini = 0.0\nsamples = 1\nvalue = [1, 0]"] ;
1028 -> 1029 ;
1030 [label="Duree <= 96.5\ngini = 0.165\nsamples = 22\nvalue = [2, 20]"] ;
1028 -> 1030 ;
1031 [label="budget <= 9500000.0\ngini = 0.278\nsamples = 12\nvalue = [2, 10]"] ;
1030 -> 1031 ;
1032 [label="gini = 0.165\nsamples = 11\nvalue = [1, 10]"] ;
1031 -> 1032 ;
1033 [label="gini = 0.0\nsamples = 1\nvalue = [1, 0]"] ;
1031 -> 1033 ;
1034 [label="gini = 0.0\nsamples = 10\nvalue = [0, 10]"] ;
1030 -> 1034 ;
1035 [label="gini = 0.0\nsamples = 2\nvalue = [2, 0]"] ;
1027 -> 1035 ;
1036 [label="gini = 0.0\nsamples = 10\nvalue = [0, 10]"] ;
1008 -> 1036 ;
1037 [label="Duree <= 97.5\ngini = 0.476\nsamples = 59\nvalue = [23, 36]"] ;
981 -> 1037 ;
1038 [label="Duree <= 96.5\ngini = 0.497\nsamples = 28\nvalue = [15, 13]"] ;
1037 -> 1038 ;
1039 [label="annee <= 2013.5\ngini = 0.496\nsamples = 22\nvalue = [10, 12]"] ;
1038 -> 1039 ;
1040 [label="Biography <= 0.5\ngini = 0.499\nsamples = 19\nvalue = [10, 9]"] ;
1039 -> 1040 ;
1041 [label="budget <= 13000000.0\ngini = 0.498\nsamples = 17\nvalue = [8, 9]"] ;
1040 -> 1041 ;
1042 [label="budget <= 6815000.0\ngini = 0.498\nsamples = 15\nvalue = [8, 7]"] ;
1041 -> 1042 ;
1043 [label="Duree <= 90.5\ngini = 0.48\nsamples = 10\nvalue = [4, 6]"] ;
1042 -> 1043 ;
1044 [label="Romance <= 0.5\ngini = 0.375\nsamples = 4\nvalue = [3, 1]"] ;
1043 -> 1044 ;
1045 [label="gini = 0.0\nsamples = 3\nvalue = [3, 0]"] ;
1044 -> 1045 ;
1046 [label="gini = 0.0\nsamples = 1\nvalue = [0, 1]"] ;
1044 -> 1046 ;
1047 [label="annee <= 2011.5\ngini = 0.278\nsamples = 6\nvalue = [1, 5]"] ;
1043 -> 1047 ;
1048 [label="gini = 0.0\nsamples = 5\nvalue = [0, 5]"] ;
1047 -> 1048 ;
1049 [label="gini = 0.0\nsamples = 1\nvalue = [1, 0]"] ;
1047 -> 1049 ;
1050 [label="annee <= 2012.5\ngini = 0.32\nsamples = 5\nvalue = [4, 1]"] ;
1042 -> 1050 ;
1051 [label="gini = 0.0\nsamples = 4\nvalue = [4, 0]"] ;
1050 -> 1051 ;
1052 [label="gini = 0.0\nsamples = 1\nvalue = [0, 1]"] ;
1050 -> 1052 ;
1053 [label="gini = 0.0\nsamples = 2\nvalue = [0, 2]"] ;
1041 -> 1053 ;
1054 [label="gini = 0.0\nsamples = 2\nvalue = [2, 0]"] ;
1040 -> 1054 ;
1055 [label="gini = 0.0\nsamples = 3\nvalue = [0, 3]"] ;
1039 -> 1055 ;
1056 [label="Crime <= 0.5\ngini = 0.278\nsamples = 6\nvalue = [5, 1]"] ;
1038 -> 1056 ;
1057 [label="gini = 0.0\nsamples = 5\nvalue = [5, 0]"] ;
1056 -> 1057 ;
1058 [label="gini = 0.0\nsamples = 1\nvalue = [0, 1]"] ;
1056 -> 1058 ;
1059 [label="annee <= 2013.5\ngini = 0.383\nsamples = 31\nvalue = [8, 23]"] ;
1037 -> 1059 ;
1060 [label="History <= 0.5\ngini = 0.269\nsamples = 25\nvalue = [4, 21]"] ;
1059 -> 1060 ;
1061 [label="annee <= 2011.5\ngini = 0.219\nsamples = 24\nvalue = [3, 21]"] ;
1060 -> 1061 ;
1062 [label="budget <= 12250000.0\ngini = 0.32\nsamples = 15\nvalue = [3, 12]"] ;
1061 -> 1062 ;
1063 [label="Duree <= 101.5\ngini = 0.42\nsamples = 10\nvalue = [3, 7]"] ;
1062 -> 1063 ;
1064 [label="budget <= 7500000.0\ngini = 0.245\nsamples = 7\nvalue = [1, 6]"] ;
1063 -> 1064 ;
1065 [label="budget <= 6750000.0\ngini = 0.444\nsamples = 3\nvalue = [1, 2]"] ;
1064 -> 1065 ;
1066 [label="gini = 0.0\nsamples = 2\nvalue = [0, 2]"] ;
1065 -> 1066 ;
1067 [label="gini = 0.0\nsamples = 1\nvalue = [1, 0]"] ;
1065 -> 1067 ;
1068 [label="gini = 0.0\nsamples = 4\nvalue = [0, 4]"] ;
1064 -> 1068 ;
1069 [label="Comedy <= 0.5\ngini = 0.444\nsamples = 3\nvalue = [2, 1]"] ;
1063 -> 1069 ;
1070 [label="gini = 0.0\nsamples = 1\nvalue = [1, 0]"] ;
1069 -> 1070 ;
1071 [label="budget <= 9085000.0\ngini = 0.5\nsamples = 2\nvalue = [1, 1]"] ;
1069 -> 1071 ;
1072 [label="gini = 0.0\nsamples = 1\nvalue = [1, 0]"] ;
1071 -> 1072 ;
1073 [label="gini = 0.0\nsamples = 1\nvalue = [0, 1]"] ;
1071 -> 1073 ;
1074 [label="gini = 0.0\nsamples = 5\nvalue = [0, 5]"] ;
1062 -> 1074 ;
1075 [label="gini = 0.0\nsamples = 9\nvalue = [0, 9]"] ;
1061 -> 1075 ;
1076 [label="gini = 0.0\nsamples = 1\nvalue = [1, 0]"] ;
1060 -> 1076 ;
1077 [label="budget <= 12625000.0\ngini = 0.444\nsamples = 6\nvalue = [4, 2]"] ;
1059 -> 1077 ;
1078 [label="budget <= 5550000.0\ngini = 0.32\nsamples = 5\nvalue = [4, 1]"] ;
1077 -> 1078 ;
1079 [label="Horror <= 0.5\ngini = 0.5\nsamples = 2\nvalue = [1, 1]"] ;
1078 -> 1079 ;
1080 [label="gini = 0.0\nsamples = 1\nvalue = [0, 1]"] ;
1079 -> 1080 ;
1081 [label="gini = 0.0\nsamples = 1\nvalue = [1, 0]"] ;
1079 -> 1081 ;
1082 [label="gini = 0.0\nsamples = 3\nvalue = [3, 0]"] ;
1078 -> 1082 ;
1083 [label="gini = 0.0\nsamples = 1\nvalue = [0, 1]"] ;
1077 -> 1083 ;
1084 [label="Duree <= 101.5\ngini = 0.5\nsamples = 14\nvalue = [7, 7]"] ;
980 -> 1084 ;
1085 [label="Fantasy <= 0.5\ngini = 0.42\nsamples = 10\nvalue = [3, 7]"] ;
1084 -> 1085 ;
1086 [label="Family <= 0.5\ngini = 0.245\nsamples = 7\nvalue = [1, 6]"] ;
1085 -> 1086 ;
1087 [label="gini = 0.0\nsamples = 5\nvalue = [0, 5]"] ;
1086 -> 1087 ;
1088 [label="Action <= 0.5\ngini = 0.5\nsamples = 2\nvalue = [1, 1]"] ;
1086 -> 1088 ;
1089 [label="gini = 0.0\nsamples = 1\nvalue = [1, 0]"] ;
1088 -> 1089 ;
1090 [label="gini = 0.0\nsamples = 1\nvalue = [0, 1]"] ;
1088 -> 1090 ;
1091 [label="budget <= 5060000.0\ngini = 0.444\nsamples = 3\nvalue = [2, 1]"] ;
1085 -> 1091 ;
1092 [label="gini = 0.0\nsamples = 1\nvalue = [0, 1]"] ;
1091 -> 1092 ;
1093 [label="gini = 0.0\nsamples = 2\nvalue = [2, 0]"] ;
1091 -> 1093 ;
1094 [label="gini = 0.0\nsamples = 4\nvalue = [4, 0]"] ;
1084 -> 1094 ;
1095 [label="gini = 0.0\nsamples = 8\nvalue = [0, 8]"] ;
979 -> 1095 ;
1096 [label="annee <= 2005.5\ngini = 0.5\nsamples = 85\nvalue = [42, 43]"] ;
978 -> 1096 ;
1097 [label="Duree <= 95.5\ngini = 0.457\nsamples = 48\nvalue = [17, 31]"] ;
1096 -> 1097 ;
1098 [label="annee <= 1987.5\ngini = 0.496\nsamples = 22\nvalue = [12, 10]"] ;
1097 -> 1098 ;
1099 [label="gini = 0.0\nsamples = 4\nvalue = [0, 4]"] ;
1098 -> 1099 ;
1100 [label="Duree <= 83.0\ngini = 0.444\nsamples = 18\nvalue = [12, 6]"] ;
1098 -> 1100 ;
1101 [label="gini = 0.0\nsamples = 2\nvalue = [0, 2]"] ;
1100 -> 1101 ;
1102 [label="budget <= 5500000.0\ngini = 0.375\nsamples = 16\nvalue = [12, 4]"] ;
1100 -> 1102 ;
1103 [label="annee <= 2001.5\ngini = 0.5\nsamples = 6\nvalue = [3, 3]"] ;
1102 -> 1103 ;
1104 [label="Action <= 0.5\ngini = 0.375\nsamples = 4\nvalue = [3, 1]"] ;
1103 -> 1104 ;
1105 [label="gini = 0.0\nsamples = 3\nvalue = [3, 0]"] ;
1104 -> 1105 ;
1106 [label="gini = 0.0\nsamples = 1\nvalue = [0, 1]"] ;
1104 -> 1106 ;
1107 [label="gini = 0.0\nsamples = 2\nvalue = [0, 2]"] ;
1103 -> 1107 ;
1108 [label="Mystery <= 0.5\ngini = 0.18\nsamples = 10\nvalue = [9, 1]"] ;
1102 -> 1108 ;
1109 [label="gini = 0.0\nsamples = 8\nvalue = [8, 0]"] ;
1108 -> 1109 ;
1110 [label="Horror <= 0.5\ngini = 0.5\nsamples = 2\nvalue = [1, 1]"] ;
1108 -> 1110 ;
1111 [label="gini = 0.0\nsamples = 1\nvalue = [0, 1]"] ;
1110 -> 1111 ;
1112 [label="gini = 0.0\nsamples = 1\nvalue = [1, 0]"] ;
1110 -> 1112 ;
1113 [label="Horror <= 0.5\ngini = 0.311\nsamples = 26\nvalue = [5, 21]"] ;
1097 -> 1113 ;
1114 [label="budget <= 2945000.0\ngini = 0.219\nsamples = 24\nvalue = [3, 21]"] ;
1113 -> 1114 ;
1115 [label="gini = 0.0\nsamples = 1\nvalue = [1, 0]"] ;
1114 -> 1115 ;
1116 [label="Biography <= 0.5\ngini = 0.159\nsamples = 23\nvalue = [2, 21]"] ;
1114 -> 1116 ;
1117 [label="Action <= 0.5\ngini = 0.087\nsamples = 22\nvalue = [1, 21]"] ;
1116 -> 1117 ;
1118 [label="gini = 0.0\nsamples = 19\nvalue = [0, 19]"] ;
1117 -> 1118 ;
1119 [label="budget <= 9250000.0\ngini = 0.444\nsamples = 3\nvalue = [1, 2]"] ;
1117 -> 1119 ;
1120 [label="gini = 0.0\nsamples = 2\nvalue = [0, 2]"] ;
1119 -> 1120 ;
1121 [label="gini = 0.0\nsamples = 1\nvalue = [1, 0]"] ;
1119 -> 1121 ;
1122 [label="gini = 0.0\nsamples = 1\nvalue = [1, 0]"] ;
1116 -> 1122 ;
1123 [label="gini = 0.0\nsamples = 2\nvalue = [2, 0]"] ;
1113 -> 1123 ;
1124 [label="Horror <= 0.5\ngini = 0.438\nsamples = 37\nvalue = [25, 12]"] ;
1096 -> 1124 ;
1125 [label="Duree <= 94.5\ngini = 0.488\nsamples = 26\nvalue = [15, 11]"] ;
1124 -> 1125 ;
1126 [label="Crime <= 0.5\ngini = 0.375\nsamples = 12\nvalue = [9, 3]"] ;
1125 -> 1126 ;
1127 [label="Mystery <= 0.5\ngini = 0.48\nsamples = 5\nvalue = [2, 3]"] ;
1126 -> 1127 ;
1128 [label="gini = 0.0\nsamples = 3\nvalue = [0, 3]"] ;
1127 -> 1128 ;
1129 [label="gini = 0.0\nsamples = 2\nvalue = [2, 0]"] ;
1127 -> 1129 ;
1130 [label="gini = 0.0\nsamples = 7\nvalue = [7, 0]"] ;
1126 -> 1130 ;
1131 [label="Duree <= 102.5\ngini = 0.49\nsamples = 14\nvalue = [6, 8]"] ;
1125 -> 1131 ;
1132 [label="Fantasy <= 0.5\ngini = 0.444\nsamples = 12\nvalue = [4, 8]"] ;
1131 -> 1132 ;
1133 [label="annee <= 2011.5\ngini = 0.397\nsamples = 11\nvalue = [3, 8]"] ;
1132 -> 1133 ;
1134 [label="Mystery <= 0.5\ngini = 0.219\nsamples = 8\nvalue = [1, 7]"] ;
1133 -> 1134 ;
1135 [label="gini = 0.0\nsamples = 6\nvalue = [0, 6]"] ;
1134 -> 1135 ;
1136 [label="annee <= 2009.5\ngini = 0.5\nsamples = 2\nvalue = [1, 1]"] ;
1134 -> 1136 ;
1137 [label="gini = 0.0\nsamples = 1\nvalue = [1, 0]"] ;
1136 -> 1137 ;
1138 [label="gini = 0.0\nsamples = 1\nvalue = [0, 1]"] ;
1136 -> 1138 ;
1139 [label="Duree <= 98.0\ngini = 0.444\nsamples = 3\nvalue = [2, 1]"] ;
1133 -> 1139 ;
1140 [label="gini = 0.0\nsamples = 2\nvalue = [2, 0]"] ;
1139 -> 1140 ;
1141 [label="gini = 0.0\nsamples = 1\nvalue = [0, 1]"] ;
1139 -> 1141 ;
1142 [label="gini = 0.0\nsamples = 1\nvalue = [1, 0]"] ;
1132 -> 1142 ;
1143 [label="gini = 0.0\nsamples = 2\nvalue = [2, 0]"] ;
1131 -> 1143 ;
1144 [label="Duree <= 101.5\ngini = 0.165\nsamples = 11\nvalue = [10, 1]"] ;
1124 -> 1144 ;
1145 [label="gini = 0.0\nsamples = 8\nvalue = [8, 0]"] ;
1144 -> 1145 ;
1146 [label="budget <= 4750000.0\ngini = 0.444\nsamples = 3\nvalue = [2, 1]"] ;
1144 -> 1146 ;
1147 [label="gini = 0.0\nsamples = 2\nvalue = [2, 0]"] ;
1146 -> 1147 ;
1148 [label="gini = 0.0\nsamples = 1\nvalue = [0, 1]"] ;
1146 -> 1148 ;
1149 [label="budget <= 11158052.5\ngini = 0.182\nsamples = 633\nvalue = [64, 569]"] ;
917 -> 1149 ;
1150 [label="Animation <= 0.5\ngini = 0.104\nsamples = 456\nvalue = [25, 431]"] ;
1149 -> 1150 ;
1151 [label="budget <= 17805.0\ngini = 0.1\nsamples = 455\nvalue = [24, 431]"] ;
1150 -> 1151 ;
1152 [label="gini = 0.0\nsamples = 1\nvalue = [1, 0]"] ;
1151 -> 1152 ;
1153 [label="Sci-Fi <= 0.5\ngini = 0.096\nsamples = 454\nvalue = [23, 431]"] ;
1151 -> 1153 ;
1154 [label="budget <= 4570000.0\ngini = 0.084\nsamples = 435\nvalue = [19, 416]"] ;
1153 -> 1154 ;
1155 [label="annee <= 2011.5\ngini = 0.026\nsamples = 224\nvalue = [3, 221]"] ;
1154 -> 1155 ;
1156 [label="budget <= 517750.0\ngini = 0.009\nsamples = 211\nvalue = [1, 210]"] ;
1155 -> 1156 ;
1157 [label="annee <= 2007.0\ngini = 0.117\nsamples = 16\nvalue = [1, 15]"] ;
1156 -> 1157 ;
1158 [label="gini = 0.0\nsamples = 14\nvalue = [0, 14]"] ;
1157 -> 1158 ;
1159 [label="Romance <= 0.5\ngini = 0.5\nsamples = 2\nvalue = [1, 1]"] ;
1157 -> 1159 ;
1160 [label="gini = 0.0\nsamples = 1\nvalue = [0, 1]"] ;
1159 -> 1160 ;
1161 [label="gini = 0.0\nsamples = 1\nvalue = [1, 0]"] ;
1159 -> 1161 ;
1162 [label="gini = 0.0\nsamples = 195\nvalue = [0, 195]"] ;
1156 -> 1162 ;
1163 [label="Duree <= 114.0\ngini = 0.26\nsamples = 13\nvalue = [2, 11]"] ;
1155 -> 1163 ;
1164 [label="budget <= 3180000.0\ngini = 0.5\nsamples = 4\nvalue = [2, 2]"] ;
1163 -> 1164 ;
1165 [label="gini = 0.0\nsamples = 2\nvalue = [2, 0]"] ;
1164 -> 1165 ;
1166 [label="gini = 0.0\nsamples = 2\nvalue = [0, 2]"] ;
1164 -> 1166 ;
1167 [label="gini = 0.0\nsamples = 9\nvalue = [0, 9]"] ;
1163 -> 1167 ;
1168 [label="budget <= 4614391.5\ngini = 0.14\nsamples = 211\nvalue = [16, 195]"] ;
1154 -> 1168 ;
1169 [label="gini = 0.0\nsamples = 1\nvalue = [1, 0]"] ;
1168 -> 1169 ;
1170 [label="Romance <= 0.5\ngini = 0.133\nsamples = 210\nvalue = [15, 195]"] ;
1168 -> 1170 ;
1171 [label="Sport <= 0.5\ngini = 0.089\nsamples = 150\nvalue = [7, 143]"] ;
1170 -> 1171 ;
1172 [label="Duree <= 105.5\ngini = 0.068\nsamples = 142\nvalue = [5, 137]"] ;
1171 -> 1172 ;
1173 [label="budget <= 8500000.0\ngini = 0.32\nsamples = 5\nvalue = [1, 4]"] ;
1172 -> 1173 ;
1174 [label="gini = 0.0\nsamples = 3\nvalue = [0, 3]"] ;
1173 -> 1174 ;
1175 [label="Music <= 0.5\ngini = 0.5\nsamples = 2\nvalue = [1, 1]"] ;
1173 -> 1175 ;
1176 [label="gini = 0.0\nsamples = 1\nvalue = [1, 0]"] ;
1175 -> 1176 ;
1177 [label="gini = 0.0\nsamples = 1\nvalue = [0, 1]"] ;
1175 -> 1177 ;
1178 [label="Action <= 0.5\ngini = 0.057\nsamples = 137\nvalue = [4, 133]"] ;
1172 -> 1178 ;
1179 [label="Mystery <= 0.5\ngini = 0.033\nsamples = 120\nvalue = [2, 118]"] ;
1178 -> 1179 ;
1180 [label="annee <= 2011.5\ngini = 0.019\nsamples = 105\nvalue = [1, 104]"] ;
1179 -> 1180 ;
1181 [label="gini = 0.0\nsamples = 90\nvalue = [0, 90]"] ;
1180 -> 1181 ;
1182 [label="annee <= 2012.5\ngini = 0.124\nsamples = 15\nvalue = [1, 14]"] ;
1180 -> 1182 ;
1183 [label="gini = 0.32\nsamples = 5\nvalue = [1, 4]"] ;
1182 -> 1183 ;
1184 [label="gini = 0.0\nsamples = 10\nvalue = [0, 10]"] ;
1182 -> 1184 ;
1185 [label="budget <= 7697540.0\ngini = 0.124\nsamples = 15\nvalue = [1, 14]"] ;
1179 -> 1185 ;
1186 [label="gini = 0.0\nsamples = 10\nvalue = [0, 10]"] ;
1185 -> 1186 ;
1187 [label="budget <= 8520000.0\ngini = 0.32\nsamples = 5\nvalue = [1, 4]"] ;
1185 -> 1187 ;
1188 [label="gini = 0.0\nsamples = 1\nvalue = [1, 0]"] ;
1187 -> 1188 ;
1189 [label="gini = 0.0\nsamples = 4\nvalue = [0, 4]"] ;
1187 -> 1189 ;
1190 [label="Comedy <= 0.5\ngini = 0.208\nsamples = 17\nvalue = [2, 15]"] ;
1178 -> 1190 ;
1191 [label="budget <= 5350000.0\ngini = 0.117\nsamples = 16\nvalue = [1, 15]"] ;
1190 -> 1191 ;
1192 [label="annee <= 1975.0\ngini = 0.5\nsamples = 2\nvalue = [1, 1]"] ;
1191 -> 1192 ;
1193 [label="gini = 0.0\nsamples = 1\nvalue = [0, 1]"] ;
1192 -> 1193 ;
1194 [label="gini = 0.0\nsamples = 1\nvalue = [1, 0]"] ;
1192 -> 1194 ;
1195 [label="gini = 0.0\nsamples = 14\nvalue = [0, 14]"] ;
1191 -> 1195 ;
1196 [label="gini = 0.0\nsamples = 1\nvalue = [1, 0]"] ;
1190 -> 1196 ;
1197 [label="annee <= 1989.0\ngini = 0.375\nsamples = 8\nvalue = [2, 6]"] ;
1171 -> 1197 ;
1198 [label="gini = 0.0\nsamples = 5\nvalue = [0, 5]"] ;
1197 -> 1198 ;
1199 [label="annee <= 2007.5\ngini = 0.444\nsamples = 3\nvalue = [2, 1]"] ;
1197 -> 1199 ;
1200 [label="gini = 0.0\nsamples = 2\nvalue = [2, 0]"] ;
1199 -> 1200 ;
1201 [label="gini = 0.0\nsamples = 1\nvalue = [0, 1]"] ;
1199 -> 1201 ;
1202 [label="Duree <= 117.5\ngini = 0.231\nsamples = 60\nvalue = [8, 52]"] ;
1170 -> 1202 ;
1203 [label="Duree <= 115.5\ngini = 0.363\nsamples = 21\nvalue = [5, 16]"] ;
1202 -> 1203 ;
1204 [label="budget <= 7500000.0\ngini = 0.266\nsamples = 19\nvalue = [3, 16]"] ;
1203 -> 1204 ;
1205 [label="gini = 0.0\nsamples = 12\nvalue = [0, 12]"] ;
1204 -> 1205 ;
1206 [label="annee <= 2011.0\ngini = 0.49\nsamples = 7\nvalue = [3, 4]"] ;
1204 -> 1206 ;
1207 [label="Comedy <= 0.5\ngini = 0.48\nsamples = 5\nvalue = [3, 2]"] ;
1206 -> 1207 ;
1208 [label="gini = 0.0\nsamples = 2\nvalue = [2, 0]"] ;
1207 -> 1208 ;
1209 [label="Family <= 0.5\ngini = 0.444\nsamples = 3\nvalue = [1, 2]"] ;
1207 -> 1209 ;
1210 [label="gini = 0.0\nsamples = 2\nvalue = [0, 2]"] ;
1209 -> 1210 ;
1211 [label="gini = 0.0\nsamples = 1\nvalue = [1, 0]"] ;
1209 -> 1211 ;
1212 [label="gini = 0.0\nsamples = 2\nvalue = [0, 2]"] ;
1206 -> 1212 ;
1213 [label="gini = 0.0\nsamples = 2\nvalue = [2, 0]"] ;
1203 -> 1213 ;
1214 [label="War <= 0.5\ngini = 0.142\nsamples = 39\nvalue = [3, 36]"] ;
1202 -> 1214 ;
1215 [label="Comedy <= 0.5\ngini = 0.105\nsamples = 36\nvalue = [2, 34]"] ;
1214 -> 1215 ;
1216 [label="annee <= 1978.0\ngini = 0.062\nsamples = 31\nvalue = [1, 30]"] ;
1215 -> 1216 ;
1217 [label="annee <= 1973.0\ngini = 0.18\nsamples = 10\nvalue = [1, 9]"] ;
1216 -> 1217 ;
1218 [label="gini = 0.0\nsamples = 9\nvalue = [0, 9]"] ;
1217 -> 1218 ;
1219 [label="gini = 0.0\nsamples = 1\nvalue = [1, 0]"] ;
1217 -> 1219 ;
1220 [label="gini = 0.0\nsamples = 21\nvalue = [0, 21]"] ;
1216 -> 1220 ;
1221 [label="Musical <= 0.5\ngini = 0.32\nsamples = 5\nvalue = [1, 4]"] ;
1215 -> 1221 ;
1222 [label="gini = 0.0\nsamples = 4\nvalue = [0, 4]"] ;
1221 -> 1222 ;
1223 [label="gini = 0.0\nsamples = 1\nvalue = [1, 0]"] ;
1221 -> 1223 ;
1224 [label="Duree <= 132.0\ngini = 0.444\nsamples = 3\nvalue = [1, 2]"] ;
1214 -> 1224 ;
1225 [label="gini = 0.0\nsamples = 1\nvalue = [1, 0]"] ;
1224 -> 1225 ;
1226 [label="gini = 0.0\nsamples = 2\nvalue = [0, 2]"] ;
1224 -> 1226 ;
1227 [label="Duree <= 112.5\ngini = 0.332\nsamples = 19\nvalue = [4, 15]"] ;
1153 -> 1227 ;
1228 [label="Action <= 0.5\ngini = 0.5\nsamples = 6\nvalue = [3, 3]"] ;
1227 -> 1228 ;
1229 [label="annee <= 1970.0\ngini = 0.375\nsamples = 4\nvalue = [3, 1]"] ;
1228 -> 1229 ;
1230 [label="gini = 0.0\nsamples = 1\nvalue = [0, 1]"] ;
1229 -> 1230 ;
1231 [label="gini = 0.0\nsamples = 3\nvalue = [3, 0]"] ;
1229 -> 1231 ;
1232 [label="gini = 0.0\nsamples = 2\nvalue = [0, 2]"] ;
1228 -> 1232 ;
1233 [label="budget <= 8200000.0\ngini = 0.142\nsamples = 13\nvalue = [1, 12]"] ;
1227 -> 1233 ;
1234 [label="gini = 0.0\nsamples = 11\nvalue = [0, 11]"] ;
1233 -> 1234 ;
1235 [label="Duree <= 135.5\ngini = 0.5\nsamples = 2\nvalue = [1, 1]"] ;
1233 -> 1235 ;
1236 [label="gini = 0.0\nsamples = 1\nvalue = [0, 1]"] ;
1235 -> 1236 ;
1237 [label="gini = 0.0\nsamples = 1\nvalue = [1, 0]"] ;
1235 -> 1237 ;
1238 [label="gini = 0.0\nsamples = 1\nvalue = [1, 0]"] ;
1150 -> 1238 ;
1239 [label="annee <= 2009.5\ngini = 0.344\nsamples = 177\nvalue = [39, 138]"] ;
1149 -> 1239 ;
1240 [label="Comedy <= 0.5\ngini = 0.263\nsamples = 135\nvalue = [21, 114]"] ;
1239 -> 1240 ;
1241 [label="Horror <= 0.5\ngini = 0.194\nsamples = 110\nvalue = [12, 98]"] ;
1240 -> 1241 ;
1242 [label="budget <= 11250000.0\ngini = 0.181\nsamples = 109\nvalue = [11, 98]"] ;
1241 -> 1242 ;
1243 [label="gini = 0.0\nsamples = 1\nvalue = [1, 0]"] ;
1242 -> 1243 ;
1244 [label="Music <= 0.5\ngini = 0.168\nsamples = 108\nvalue = [10, 98]"] ;
1242 -> 1244 ;
1245 [label="Duree <= 111.5\ngini = 0.129\nsamples = 101\nvalue = [7, 94]"] ;
1244 -> 1245 ;
1246 [label="annee <= 2001.0\ngini = 0.351\nsamples = 22\nvalue = [5, 17]"] ;
1245 -> 1246 ;
1247 [label="annee <= 1996.0\ngini = 0.494\nsamples = 9\nvalue = [4, 5]"] ;
1246 -> 1247 ;
1248 [label="budget <= 12500000.0\ngini = 0.408\nsamples = 7\nvalue = [2, 5]"] ;
1247 -> 1248 ;
1249 [label="annee <= 1992.5\ngini = 0.444\nsamples = 3\nvalue = [2, 1]"] ;
1248 -> 1249 ;
