digraph Tree {
node [shape=box] ;
0 [label="Drama <= 0.5\ngini = 0.491\nsamples = 4587\nvalue = [1985, 2602]"] ;
1 [label="annee <= 1984.5\ngini = 0.489\nsamples = 2318\nvalue = [1330, 988]"] ;
0 -> 1 [labeldistance=2.5, labelangle=45, headlabel="True"] ;
2 [label="annee <= 1976.5\ngini = 0.328\nsamples = 319\nvalue = [66, 253]"] ;
1 -> 2 ;
3 [label="budget <= 95000.0\ngini = 0.169\nsamples = 183\nvalue = [17, 166]"] ;
2 -> 3 ;
4 [label="annee <= 1958.5\ngini = 0.497\nsamples = 13\nvalue = [6, 7]"] ;
3 -> 4 ;
5 [label="gini = 0.0\nsamples = 5\nvalue = [0, 5]"] ;
4 -> 5 ;
6 [label="Thriller <= 0.5\ngini = 0.375\nsamples = 8\nvalue = [6, 2]"] ;
4 -> 6 ;
7 [label="annee <= 1973.0\ngini = 0.245\nsamples = 7\nvalue = [6, 1]"] ;
6 -> 7 ;
8 [label="gini = 0.0\nsamples = 5\nvalue = [5, 0]"] ;
7 -> 8 ;
9 [label="budget <= 71766.0\ngini = 0.5\nsamples = 2\nvalue = [1, 1]"] ;
7 -> 9 ;
10 [label="gini = 0.0\nsamples = 1\nvalue = [1, 0]"] ;
9 -> 10 ;
11 [label="gini = 0.0\nsamples = 1\nvalue = [0, 1]"] ;
9 -> 11 ;
12 [label="gini = 0.0\nsamples = 1\nvalue = [0, 1]"] ;
6 -> 12 ;
13 [label="Sci-Fi <= 0.5\ngini = 0.121\nsamples = 170\nvalue = [11, 159]"] ;
3 -> 13 ;
14 [label="budget <= 22000000.0\ngini = 0.054\nsamples = 145\nvalue = [4, 141]"] ;
13 -> 14 ;
15 [label="budget <= 11000000.0\ngini = 0.041\nsamples = 144\nvalue = [3, 141]"] ;
14 -> 15 ;
16 [label="annee <= 1965.5\ngini = 0.029\nsamples = 137\nvalue = [2, 135]"] ;
15 -> 16 ;
17 [label="gini = 0.0\nsamples = 77\nvalue = [0, 77]"] ;
16 -> 17 ;
18 [label="annee <= 1966.5\ngini = 0.064\nsamples = 60\nvalue = [2, 58]"] ;
16 -> 18 ;
19 [label="Family <= 0.5\ngini = 0.375\nsamples = 4\nvalue = [1, 3]"] ;
18 -> 19 ;
20 [label="gini = 0.0\nsamples = 3\nvalue = [0, 3]"] ;
19 -> 20 ;
21 [label="gini = 0.0\nsamples = 1\nvalue = [1, 0]"] ;
19 -> 21 ;
22 [label="Duree <= 123.5\ngini = 0.035\nsamples = 56\nvalue = [1, 55]"] ;
18 -> 22 ;
23 [label="gini = 0.0\nsamples = 45\nvalue = [0, 45]"] ;
22 -> 23 ;
24 [label="Thriller <= 0.5\ngini = 0.165\nsamples = 11\nvalue = [1, 10]"] ;
22 -> 24 ;
25 [label="gini = 0.0\nsamples = 9\nvalue = [0, 9]"] ;
24 -> 25 ;
26 [label="budget <= 5500000.0\ngini = 0.5\nsamples = 2\nvalue = [1, 1]"] ;
24 -> 26 ;
27 [label="gini = 0.0\nsamples = 1\nvalue = [1, 0]"] ;
26 -> 27 ;
28 [label="gini = 0.0\nsamples = 1\nvalue = [0, 1]"] ;
26 -> 28 ;
29 [label="budget <= 12500000.0\ngini = 0.245\nsamples = 7\nvalue = [1, 6]"] ;
15 -> 29 ;
30 [label="Sport <= 0.5\ngini = 0.5\nsamples = 2\nvalue = [1, 1]"] ;
29 -> 30 ;
31 [label="gini = 0.0\nsamples = 1\nvalue = [1, 0]"] ;
30 -> 31 ;
32 [label="gini = 0.0\nsamples = 1\nvalue = [0, 1]"] ;
30 -> 32 ;
33 [label="gini = 0.0\nsamples = 5\nvalue = [0, 5]"] ;
29 -> 33 ;
34 [label="gini = 0.0\nsamples = 1\nvalue = [1, 0]"] ;
14 -> 34 ;
35 [label="Action <= 0.5\ngini = 0.403\nsamples = 25\nvalue = [7, 18]"] ;
13 -> 35 ;
36 [label="budget <= 265500.0\ngini = 0.208\nsamples = 17\nvalue = [2, 15]"] ;
35 -> 36 ;
37 [label="Thriller <= 0.5\ngini = 0.5\nsamples = 2\nvalue = [1, 1]"] ;
36 -> 37 ;
38 [label="gini = 0.0\nsamples = 1\nvalue = [0, 1]"] ;
37 -> 38 ;
39 [label="gini = 0.0\nsamples = 1\nvalue = [1, 0]"] ;
37 -> 39 ;
40 [label="Comedy <= 0.5\ngini = 0.124\nsamples = 15\nvalue = [1, 14]"] ;
36 -> 40 ;
41 [label="gini = 0.0\nsamples = 12\nvalue = [0, 12]"] ;
40 -> 41 ;
42 [label="Duree <= 94.0\ngini = 0.444\nsamples = 3\nvalue = [1, 2]"] ;
40 -> 42 ;
43 [label="gini = 0.0\nsamples = 2\nvalue = [0, 2]"] ;
42 -> 43 ;
44 [label="gini = 0.0\nsamples = 1\nvalue = [1, 0]"] ;
42 -> 44 ;
45 [label="annee <= 1963.0\ngini = 0.469\nsamples = 8\nvalue = [5, 3]"] ;
35 -> 45 ;
46 [label="gini = 0.0\nsamples = 2\nvalue = [0, 2]"] ;
45 -> 46 ;
47 [label="Romance <= 0.5\ngini = 0.278\nsamples = 6\nvalue = [5, 1]"] ;
45 -> 47 ;
48 [label="gini = 0.0\nsamples = 5\nvalue = [5, 0]"] ;
47 -> 48 ;
49 [label="gini = 0.0\nsamples = 1\nvalue = [0, 1]"] ;
47 -> 49 ;
50 [label="budget <= 33250000.0\ngini = 0.461\nsamples = 136\nvalue = [49, 87]"] ;
2 -> 50 ;
51 [label="Horror <= 0.5\ngini = 0.443\nsamples = 127\nvalue = [42, 85]"] ;
50 -> 51 ;
52 [label="Sci-Fi <= 0.5\ngini = 0.362\nsamples = 80\nvalue = [19, 61]"] ;
51 -> 52 ;
53 [label="Fantasy <= 0.5\ngini = 0.419\nsamples = 57\nvalue = [17, 40]"] ;
52 -> 53 ;
54 [label="budget <= 1390000.0\ngini = 0.351\nsamples = 44\nvalue = [10, 34]"] ;
53 -> 54 ;
55 [label="gini = 0.0\nsamples = 2\nvalue = [2, 0]"] ;
54 -> 55 ;
56 [label="Action <= 0.5\ngini = 0.308\nsamples = 42\nvalue = [8, 34]"] ;
54 -> 56 ;
57 [label="War <= 0.5\ngini = 0.191\nsamples = 28\nvalue = [3, 25]"] ;
56 -> 57 ;
58 [label="budget <= 13500000.0\ngini = 0.142\nsamples = 26\nvalue = [2, 24]"] ;
57 -> 58 ;
59 [label="budget <= 4250000.0\ngini = 0.083\nsamples = 23\nvalue = [1, 22]"] ;
58 -> 59 ;
60 [label="annee <= 1980.5\ngini = 0.18\nsamples = 10\nvalue = [1, 9]"] ;
59 -> 60 ;
61 [label="gini = 0.0\nsamples = 5\nvalue = [0, 5]"] ;
60 -> 61 ;
62 [label="annee <= 1982.0\ngini = 0.32\nsamples = 5\nvalue = [1, 4]"] ;
60 -> 62 ;
63 [label="gini = 0.0\nsamples = 1\nvalue = [1, 0]"] ;
62 -> 63 ;
64 [label="gini = 0.0\nsamples = 4\nvalue = [0, 4]"] ;
62 -> 64 ;
65 [label="gini = 0.0\nsamples = 13\nvalue = [0, 13]"] ;
59 -> 65 ;
66 [label="Duree <= 91.5\ngini = 0.444\nsamples = 3\nvalue = [1, 2]"] ;
58 -> 66 ;
67 [label="gini = 0.0\nsamples = 1\nvalue = [1, 0]"] ;
66 -> 67 ;
68 [label="gini = 0.0\nsamples = 2\nvalue = [0, 2]"] ;
66 -> 68 ;
69 [label="annee <= 1980.5\ngini = 0.5\nsamples = 2\nvalue = [1, 1]"] ;
57 -> 69 ;
70 [label="gini = 0.0\nsamples = 1\nvalue = [1, 0]"] ;
69 -> 70 ;
71 [label="gini = 0.0\nsamples = 1\nvalue = [0, 1]"] ;
69 -> 71 ;
72 [label="Duree <= 102.0\ngini = 0.459\nsamples = 14\nvalue = [5, 9]"] ;
56 -> 72 ;
73 [label="budget <= 11500000.0\ngini = 0.32\nsamples = 5\nvalue = [4, 1]"] ;
72 -> 73 ;
74 [label="gini = 0.0\nsamples = 3\nvalue = [3, 0]"] ;
73 -> 74 ;
75 [label="budget <= 16000000.0\ngini = 0.5\nsamples = 2\nvalue = [1, 1]"] ;
73 -> 75 ;
76 [label="gini = 0.0\nsamples = 1\nvalue = [0, 1]"] ;
75 -> 76 ;
77 [label="gini = 0.0\nsamples = 1\nvalue = [1, 0]"] ;
75 -> 77 ;
78 [label="budget <= 7600000.0\ngini = 0.198\nsamples = 9\nvalue = [1, 8]"] ;
72 -> 78 ;
79 [label="Duree <= 122.0\ngini = 0.5\nsamples = 2\nvalue = [1, 1]"] ;
78 -> 79 ;
80 [label="gini = 0.0\nsamples = 1\nvalue = [1, 0]"] ;
79 -> 80 ;
81 [label="gini = 0.0\nsamples = 1\nvalue = [0, 1]"] ;
79 -> 81 ;
82 [label="gini = 0.0\nsamples = 7\nvalue = [0, 7]"] ;
78 -> 82 ;
83 [label="Musical <= 0.5\ngini = 0.497\nsamples = 13\nvalue = [7, 6]"] ;
53 -> 83 ;
84 [label="annee <= 1982.5\ngini = 0.48\nsamples = 10\nvalue = [4, 6]"] ;
83 -> 84 ;
85 [label="Duree <= 130.5\ngini = 0.278\nsamples = 6\nvalue = [1, 5]"] ;
84 -> 85 ;
86 [label="gini = 0.0\nsamples = 5\nvalue = [0, 5]"] ;
85 -> 86 ;
87 [label="gini = 0.0\nsamples = 1\nvalue = [1, 0]"] ;
85 -> 87 ;
88 [label="budget <= 29500000.0\ngini = 0.375\nsamples = 4\nvalue = [3, 1]"] ;
84 -> 88 ;
89 [label="gini = 0.0\nsamples = 3\nvalue = [3, 0]"] ;
88 -> 89 ;
90 [label="gini = 0.0\nsamples = 1\nvalue = [0, 1]"] ;
88 -> 90 ;
91 [label="gini = 0.0\nsamples = 3\nvalue = [3, 0]"] ;
83 -> 91 ;
92 [label="budget <= 19000000.0\ngini = 0.159\nsamples = 23\nvalue = [2, 21]"] ;
52 -> 92 ;
93 [label="gini = 0.0\nsamples = 17\nvalue = [0, 17]"] ;
92 -> 93 ;
94 [label="budget <= 24500000.0\ngini = 0.444\nsamples = 6\nvalue = [2, 4]"] ;
92 -> 94 ;
95 [label="gini = 0.0\nsamples = 2\nvalue = [2, 0]"] ;
94 -> 95 ;
96 [label="gini = 0.0\nsamples = 4\nvalue = [0, 4]"] ;
94 -> 96 ;
97 [label="Thriller <= 0.5\ngini = 0.5\nsamples = 47\nvalue = [23, 24]"] ;
51 -> 97 ;
98 [label="Duree <= 108.0\ngini = 0.482\nsamples = 37\nvalue = [15, 22]"] ;
97 -> 98 ;
99 [label="budget <= 900000.0\ngini = 0.5\nsamples = 30\nvalue = [15, 15]"] ;
98 -> 99 ;
100 [label="budget <= 437500.0\ngini = 0.444\nsamples = 15\nvalue = [10, 5]"] ;
99 -> 100 ;
101 [label="Duree <= 87.0\ngini = 0.494\nsamples = 9\nvalue = [4, 5]"] ;
100 -> 101 ;
102 [label="budget <= 375000.0\ngini = 0.32\nsamples = 5\nvalue = [4, 1]"] ;
101 -> 102 ;
103 [label="gini = 0.0\nsamples = 4\nvalue = [4, 0]"] ;
102 -> 103 ;
104 [label="gini = 0.0\nsamples = 1\nvalue = [0, 1]"] ;
102 -> 104 ;
105 [label="gini = 0.0\nsamples = 4\nvalue = [0, 4]"] ;
101 -> 105 ;
106 [label="gini = 0.0\nsamples = 6\nvalue = [6, 0]"] ;
100 -> 106 ;
107 [label="budget <= 2250000.0\ngini = 0.444\nsamples = 15\nvalue = [5, 10]"] ;
99 -> 107 ;
108 [label="gini = 0.0\nsamples = 5\nvalue = [0, 5]"] ;
107 -> 108 ;
109 [label="budget <= 2890000.0\ngini = 0.5\nsamples = 10\nvalue = [5, 5]"] ;
107 -> 109 ;
110 [label="gini = 0.0\nsamples = 2\nvalue = [2, 0]"] ;
109 -> 110 ;
111 [label="budget <= 6440000.0\ngini = 0.469\nsamples = 8\nvalue = [3, 5]"] ;
109 -> 111 ;
112 [label="gini = 0.0\nsamples = 3\nvalue = [0, 3]"] ;
111 -> 112 ;
113 [label="Comedy <= 0.5\ngini = 0.48\nsamples = 5\nvalue = [3, 2]"] ;
111 -> 113 ;
114 [label="gini = 0.0\nsamples = 3\nvalue = [3, 0]"] ;
113 -> 114 ;
115 [label="gini = 0.0\nsamples = 2\nvalue = [0, 2]"] ;
113 -> 115 ;
116 [label="gini = 0.0\nsamples = 7\nvalue = [0, 7]"] ;
98 -> 116 ;
117 [label="budget <= 775000.0\ngini = 0.32\nsamples = 10\nvalue = [8, 2]"] ;
97 -> 117 ;
118 [label="gini = 0.0\nsamples = 1\nvalue = [0, 1]"] ;
117 -> 118 ;
119 [label="Sci-Fi <= 0.5\ngini = 0.198\nsamples = 9\nvalue = [8, 1]"] ;
117 -> 119 ;
120 [label="gini = 0.0\nsamples = 7\nvalue = [7, 0]"] ;
119 -> 120 ;
121 [label="Duree <= 102.0\ngini = 0.5\nsamples = 2\nvalue = [1, 1]"] ;
119 -> 121 ;
122 [label="gini = 0.0\nsamples = 1\nvalue = [1, 0]"] ;
121 -> 122 ;
123 [label="gini = 0.0\nsamples = 1\nvalue = [0, 1]"] ;
121 -> 123 ;
124 [label="budget <= 39500000.0\ngini = 0.346\nsamples = 9\nvalue = [7, 2]"] ;
50 -> 124 ;
125 [label="gini = 0.0\nsamples = 7\nvalue = [7, 0]"] ;
124 -> 125 ;
126 [label="gini = 0.0\nsamples = 2\nvalue = [0, 2]"] ;
124 -> 126 ;
127 [label="Duree <= 110.5\ngini = 0.465\nsamples = 1999\nvalue = [1264, 735]"] ;
1 -> 127 ;
128 [label="Animation <= 0.5\ngini = 0.418\nsamples = 1487\nvalue = [1045, 442]"] ;
127 -> 128 ;
129 [label="budget <= 6160000.0\ngini = 0.384\nsamples = 1335\nvalue = [989, 346]"] ;
128 -> 129 ;
130 [label="Horror <= 0.5\ngini = 0.494\nsamples = 222\nvalue = [123, 99]"] ;
129 -> 130 ;
131 [label="annee <= 2003.5\ngini = 0.478\nsamples = 104\nvalue = [41, 63]"] ;
130 -> 131 ;
132 [label="Sport <= 0.5\ngini = 0.343\nsamples = 41\nvalue = [9, 32]"] ;
131 -> 132 ;
133 [label="Duree <= 86.5\ngini = 0.32\nsamples = 40\nvalue = [8, 32]"] ;
132 -> 133 ;
134 [label="Action <= 0.5\ngini = 0.48\nsamples = 5\nvalue = [2, 3]"] ;
133 -> 134 ;
135 [label="gini = 0.0\nsamples = 3\nvalue = [0, 3]"] ;
134 -> 135 ;
136 [label="gini = 0.0\nsamples = 2\nvalue = [2, 0]"] ;
134 -> 136 ;
137 [label="Comedy <= 0.5\ngini = 0.284\nsamples = 35\nvalue = [6, 29]"] ;
133 -> 137 ;
138 [label="gini = 0.0\nsamples = 7\nvalue = [0, 7]"] ;
137 -> 138 ;
139 [label="budget <= 3433000.0\ngini = 0.337\nsamples = 28\nvalue = [6, 22]"] ;
137 -> 139 ;
140 [label="budget <= 450000.0\ngini = 0.231\nsamples = 15\nvalue = [2, 13]"] ;
139 -> 140 ;
141 [label="couleur <= 1.5\ngini = 0.5\nsamples = 2\nvalue = [1, 1]"] ;
140 -> 141 ;
142 [label="gini = 0.0\nsamples = 1\nvalue = [0, 1]"] ;
141 -> 142 ;
143 [label="gini = 0.0\nsamples = 1\nvalue = [1, 0]"] ;
141 -> 143 ;
144 [label="budget <= 1100000.0\ngini = 0.142\nsamples = 13\nvalue = [1, 12]"] ;
140 -> 144 ;
145 [label="annee <= 1995.5\ngini = 0.32\nsamples = 5\nvalue = [1, 4]"] ;
144 -> 145 ;
146 [label="gini = 0.0\nsamples = 3\nvalue = [0, 3]"] ;
145 -> 146 ;
147 [label="annee <= 1999.5\ngini = 0.5\nsamples = 2\nvalue = [1, 1]"] ;
145 -> 147 ;
148 [label="gini = 0.0\nsamples = 1\nvalue = [1, 0]"] ;
147 -> 148 ;
149 [label="gini = 0.0\nsamples = 1\nvalue = [0, 1]"] ;
147 -> 149 ;
150 [label="gini = 0.0\nsamples = 8\nvalue = [0, 8]"] ;
144 -> 150 ;
151 [label="Thriller <= 0.5\ngini = 0.426\nsamples = 13\nvalue = [4, 9]"] ;
139 -> 151 ;
152 [label="Romance <= 0.5\ngini = 0.375\nsamples = 12\nvalue = [3, 9]"] ;
151 -> 152 ;
153 [label="Duree <= 104.0\ngini = 0.219\nsamples = 8\nvalue = [1, 7]"] ;
152 -> 153 ;
154 [label="gini = 0.0\nsamples = 6\nvalue = [0, 6]"] ;
153 -> 154 ;
155 [label="Crime <= 0.5\ngini = 0.5\nsamples = 2\nvalue = [1, 1]"] ;
153 -> 155 ;
156 [label="gini = 0.0\nsamples = 1\nvalue = [1, 0]"] ;
155 -> 156 ;
157 [label="gini = 0.0\nsamples = 1\nvalue = [0, 1]"] ;
155 -> 157 ;
158 [label="budget <= 5500000.0\ngini = 0.5\nsamples = 4\nvalue = [2, 2]"] ;
152 -> 158 ;
159 [label="gini = 0.0\nsamples = 2\nvalue = [0, 2]"] ;
158 -> 159 ;
160 [label="gini = 0.0\nsamples = 2\nvalue = [2, 0]"] ;
158 -> 160 ;
161 [label="gini = 0.0\nsamples = 1\nvalue = [1, 0]"] ;
151 -> 161 ;
162 [label="gini = 0.0\nsamples = 1\nvalue = [1, 0]"] ;
132 -> 162 ;
163 [label="budget <= 2950000.0\ngini = 0.5\nsamples = 63\nvalue = [32, 31]"] ;
131 -> 163 ;
164 [label="budget <= 2250000.0\ngini = 0.436\nsamples = 28\nvalue = [9, 19]"] ;
163 -> 164 ;
165 [label="Comedy <= 0.5\ngini = 0.476\nsamples = 23\nvalue = [9, 14]"] ;
164 -> 165 ;
166 [label="Mystery <= 0.5\ngini = 0.198\nsamples = 9\nvalue = [1, 8]"] ;
165 -> 166 ;
167 [label="gini = 0.0\nsamples = 8\nvalue = [0, 8]"] ;
166 -> 167 ;
168 [label="gini = 0.0\nsamples = 1\nvalue = [1, 0]"] ;
166 -> 168 ;
169 [label="Crime <= 0.5\ngini = 0.49\nsamples = 14\nvalue = [8, 6]"] ;
165 -> 169 ;
170 [label="Short <= 0.5\ngini = 0.444\nsamples = 12\nvalue = [8, 4]"] ;
169 -> 170 ;
171 [label="annee <= 2005.5\ngini = 0.397\nsamples = 11\nvalue = [8, 3]"] ;
170 -> 171 ;
172 [label="gini = 0.0\nsamples = 1\nvalue = [0, 1]"] ;
171 -> 172 ;
173 [label="Duree <= 105.0\ngini = 0.32\nsamples = 10\nvalue = [8, 2]"] ;
171 -> 173 ;
174 [label="Documentary <= 0.5\ngini = 0.198\nsamples = 9\nvalue = [8, 1]"] ;
173 -> 174 ;
175 [label="gini = 0.0\nsamples = 7\nvalue = [7, 0]"] ;
174 -> 175 ;
176 [label="Duree <= 92.0\ngini = 0.5\nsamples = 2\nvalue = [1, 1]"] ;
174 -> 176 ;
177 [label="gini = 0.0\nsamples = 1\nvalue = [0, 1]"] ;
176 -> 177 ;
178 [label="gini = 0.0\nsamples = 1\nvalue = [1, 0]"] ;
176 -> 178 ;
179 [label="gini = 0.0\nsamples = 1\nvalue = [0, 1]"] ;
173 -> 179 ;
180 [label="gini = 0.0\nsamples = 1\nvalue = [0, 1]"] ;
170 -> 180 ;
181 [label="gini = 0.0\nsamples = 2\nvalue = [0, 2]"] ;
169 -> 181 ;
182 [label="gini = 0.0\nsamples = 5\nvalue = [0, 5]"] ;
164 -> 182 ;
183 [label="Duree <= 93.5\ngini = 0.451\nsamples = 35\nvalue = [23, 12]"] ;
163 -> 183 ;
184 [label="Adventure <= 0.5\ngini = 0.124\nsamples = 15\nvalue = [14, 1]"] ;
183 -> 184 ;
185 [label="gini = 0.0\nsamples = 13\nvalue = [13, 0]"] ;
184 -> 185 ;
186 [label="budget <= 4750000.0\ngini = 0.5\nsamples = 2\nvalue = [1, 1]"] ;
184 -> 186 ;
187 [label="gini = 0.0\nsamples = 1\nvalue = [1, 0]"] ;
186 -> 187 ;
188 [label="gini = 0.0\nsamples = 1\nvalue = [0, 1]"] ;
186 -> 188 ;
189 [label="Action <= 0.5\ngini = 0.495\nsamples = 20\nvalue = [9, 11]"] ;
183 -> 189 ;
190 [label="Sci-Fi <= 0.5\ngini = 0.391\nsamples = 15\nvalue = [4, 11]"] ;
189 -> 190 ;
191 [label="annee <= 2009.5\ngini = 0.26\nsamples = 13\nvalue = [2, 11]"] ;
190 -> 191 ;
192 [label="annee <= 2006.5\ngini = 0.48\nsamples = 5\nvalue = [2, 3]"] ;
191 -> 192 ;
193 [label="gini = 0.0\nsamples = 3\nvalue = [0, 3]"] ;
192 -> 193 ;
194 [label="gini = 0.0\nsamples = 2\nvalue = [2, 0]"] ;
192 -> 194 ;
195 [label="gini = 0.0\nsamples = 8\nvalue = [0, 8]"] ;
191 -> 195 ;
196 [label="gini = 0.0\nsamples = 2\nvalue = [2, 0]"] ;
190 -> 196 ;
197 [label="gini = 0.0\nsamples = 5\nvalue = [5, 0]"] ;
189 -> 197 ;
198 [label="annee <= 2008.5\ngini = 0.424\nsamples = 118\nvalue = [82, 36]"] ;
130 -> 198 ;
199 [label="Thriller <= 0.5\ngini = 0.486\nsamples = 72\nvalue = [42, 30]"] ;
198 -> 199 ;
200 [label="Duree <= 101.5\ngini = 0.5\nsamples = 49\nvalue = [24, 25]"] ;
199 -> 200 ;
201 [label="annee <= 1987.5\ngini = 0.485\nsamples = 41\nvalue = [24, 17]"] ;
200 -> 201 ;
202 [label="Duree <= 88.5\ngini = 0.444\nsamples = 12\nvalue = [4, 8]"] ;
201 -> 202 ;
203 [label="budget <= 2850000.0\ngini = 0.219\nsamples = 8\nvalue = [1, 7]"] ;
202 -> 203 ;
204 [label="budget <= 2000000.0\ngini = 0.444\nsamples = 3\nvalue = [1, 2]"] ;
203 -> 204 ;
205 [label="gini = 0.0\nsamples = 2\nvalue = [0, 2]"] ;
204 -> 205 ;
206 [label="gini = 0.0\nsamples = 1\nvalue = [1, 0]"] ;
204 -> 206 ;
207 [label="gini = 0.0\nsamples = 5\nvalue = [0, 5]"] ;
203 -> 207 ;
208 [label="Sci-Fi <= 0.5\ngini = 0.375\nsamples = 4\nvalue = [3, 1]"] ;
202 -> 208 ;
209 [label="gini = 0.0\nsamples = 3\nvalue = [3, 0]"] ;
208 -> 209 ;
210 [label="gini = 0.0\nsamples = 1\nvalue = [0, 1]"] ;
208 -> 210 ;
211 [label="budget <= 5177500.0\ngini = 0.428\nsamples = 29\nvalue = [20, 9]"] ;
201 -> 211 ;
212 [label="budget <= 1100000.0\ngini = 0.384\nsamples = 27\nvalue = [20, 7]"] ;
211 -> 212 ;
213 [label="gini = 0.0\nsamples = 7\nvalue = [7, 0]"] ;
212 -> 213 ;
214 [label="Duree <= 88.5\ngini = 0.455\nsamples = 20\nvalue = [13, 7]"] ;
212 -> 214 ;
215 [label="gini = 0.0\nsamples = 4\nvalue = [4, 0]"] ;
214 -> 215 ;
216 [label="budget <= 4400000.0\ngini = 0.492\nsamples = 16\nvalue = [9, 7]"] ;
214 -> 216 ;
217 [label="budget <= 2243000.0\ngini = 0.486\nsamples = 12\nvalue = [5, 7]"] ;
216 -> 217 ;
218 [label="Comedy <= 0.5\ngini = 0.469\nsamples = 8\nvalue = [5, 3]"] ;
217 -> 218 ;
219 [label="annee <= 1999.5\ngini = 0.48\nsamples = 5\nvalue = [2, 3]"] ;
218 -> 219 ;
220 [label="gini = 0.0\nsamples = 2\nvalue = [0, 2]"] ;
219 -> 220 ;
221 [label="Duree <= 94.0\ngini = 0.444\nsamples = 3\nvalue = [2, 1]"] ;
219 -> 221 ;
222 [label="gini = 0.0\nsamples = 1\nvalue = [0, 1]"] ;
221 -> 222 ;
223 [label="gini = 0.0\nsamples = 2\nvalue = [2, 0]"] ;
221 -> 223 ;
224 [label="gini = 0.0\nsamples = 3\nvalue = [3, 0]"] ;
218 -> 224 ;
225 [label="gini = 0.0\nsamples = 4\nvalue = [0, 4]"] ;
217 -> 225 ;
226 [label="gini = 0.0\nsamples = 4\nvalue = [4, 0]"] ;
216 -> 226 ;
227 [label="gini = 0.0\nsamples = 2\nvalue = [0, 2]"] ;
211 -> 227 ;
228 [label="gini = 0.0\nsamples = 8\nvalue = [0, 8]"] ;
200 -> 228 ;
229 [label="annee <= 2006.5\ngini = 0.34\nsamples = 23\nvalue = [18, 5]"] ;
199 -> 229 ;
230 [label="Crime <= 0.5\ngini = 0.198\nsamples = 18\nvalue = [16, 2]"] ;
229 -> 230 ;
231 [label="Duree <= 86.5\ngini = 0.111\nsamples = 17\nvalue = [16, 1]"] ;
230 -> 231 ;
232 [label="budget <= 3850000.0\ngini = 0.32\nsamples = 5\nvalue = [4, 1]"] ;
231 -> 232 ;
233 [label="gini = 0.0\nsamples = 4\nvalue = [4, 0]"] ;
232 -> 233 ;
234 [label="gini = 0.0\nsamples = 1\nvalue = [0, 1]"] ;
232 -> 234 ;
235 [label="gini = 0.0\nsamples = 12\nvalue = [12, 0]"] ;
231 -> 235 ;
236 [label="gini = 0.0\nsamples = 1\nvalue = [0, 1]"] ;
230 -> 236 ;
237 [label="Duree <= 97.5\ngini = 0.48\nsamples = 5\nvalue = [2, 3]"] ;
229 -> 237 ;
238 [label="gini = 0.0\nsamples = 3\nvalue = [0, 3]"] ;
237 -> 238 ;
239 [label="gini = 0.0\nsamples = 2\nvalue = [2, 0]"] ;
237 -> 239 ;
240 [label="Duree <= 105.5\ngini = 0.227\nsamples = 46\nvalue = [40, 6]"] ;
198 -> 240 ;
241 [label="Adventure <= 0.5\ngini = 0.169\nsamples = 43\nvalue = [39, 4]"] ;
240 -> 241 ;
242 [label="Action <= 0.5\ngini = 0.133\nsamples = 42\nvalue = [39, 3]"] ;
241 -> 242 ;
243 [label="budget <= 5300000.0\ngini = 0.095\nsamples = 40\nvalue = [38, 2]"] ;
242 -> 243 ;
244 [label="Mystery <= 0.5\ngini = 0.054\nsamples = 36\nvalue = [35, 1]"] ;
243 -> 244 ;
245 [label="gini = 0.0\nsamples = 30\nvalue = [30, 0]"] ;
244 -> 245 ;
246 [label="Duree <= 96.0\ngini = 0.278\nsamples = 6\nvalue = [5, 1]"] ;
244 -> 246 ;
247 [label="gini = 0.0\nsamples = 5\nvalue = [5, 0]"] ;
246 -> 247 ;
248 [label="gini = 0.0\nsamples = 1\nvalue = [0, 1]"] ;
246 -> 248 ;
249 [label="Duree <= 87.0\ngini = 0.375\nsamples = 4\nvalue = [3, 1]"] ;
243 -> 249 ;
250 [label="gini = 0.0\nsamples = 1\nvalue = [0, 1]"] ;
249 -> 250 ;
251 [label="gini = 0.0\nsamples = 3\nvalue = [3, 0]"] ;
249 -> 251 ;
252 [label="Crime <= 0.5\ngini = 0.5\nsamples = 2\nvalue = [1, 1]"] ;
242 -> 252 ;
253 [label="gini = 0.0\nsamples = 1\nvalue = [0, 1]"] ;
252 -> 253 ;
254 [label="gini = 0.0\nsamples = 1\nvalue = [1, 0]"] ;
252 -> 254 ;
255 [label="gini = 0.0\nsamples = 1\nvalue = [0, 1]"] ;
241 -> 255 ;
256 [label="annee <= 2011.5\ngini = 0.444\nsamples = 3\nvalue = [1, 2]"] ;
240 -> 256 ;
257 [label="gini = 0.0\nsamples = 1\nvalue = [1, 0]"] ;
256 -> 257 ;
258 [label="gini = 0.0\nsamples = 2\nvalue = [0, 2]"] ;
256 -> 258 ;
259 [label="annee <= 1991.5\ngini = 0.345\nsamples = 1113\nvalue = [866, 247]"] ;
129 -> 259 ;
260 [label="budget <= 27400000.0\ngini = 0.478\nsamples = 124\nvalue = [75, 49]"] ;
259 -> 260 ;
261 [label="budget <= 8750000.0\ngini = 0.494\nsamples = 99\nvalue = [55, 44]"] ;
260 -> 261 ;
262 [label="Duree <= 107.0\ngini = 0.32\nsamples = 15\nvalue = [12, 3]"] ;
261 -> 262 ;
263 [label="Fantasy <= 0.5\ngini = 0.142\nsamples = 13\nvalue = [12, 1]"] ;
262 -> 263 ;
264 [label="gini = 0.0\nsamples = 11\nvalue = [11, 0]"] ;
263 -> 264 ;
265 [label="budget <= 7250000.0\ngini = 0.5\nsamples = 2\nvalue = [1, 1]"] ;
263 -> 265 ;
266 [label="gini = 0.0\nsamples = 1\nvalue = [1, 0]"] ;
265 -> 266 ;
267 [label="gini = 0.0\nsamples = 1\nvalue = [0, 1]"] ;
265 -> 267 ;
268 [label="gini = 0.0\nsamples = 2\nvalue = [0, 2]"] ;
262 -> 268 ;
269 [label="budget <= 25500000.0\ngini = 0.5\nsamples = 84\nvalue = [43, 41]"] ;
261 -> 269 ;
270 [label="budget <= 16950000.0\ngini = 0.498\nsamples = 81\nvalue = [43, 38]"] ;
269 -> 270 ;
271 [label="Adventure <= 0.5\ngini = 0.494\nsamples = 47\nvalue = [21, 26]"] ;
270 -> 271 ;
272 [label="Duree <= 101.0\ngini = 0.5\nsamples = 37\nvalue = [19, 18]"] ;
271 -> 272 ;
273 [label="budget <= 10750000.0\ngini = 0.473\nsamples = 26\nvalue = [16, 10]"] ;
272 -> 273 ;
274 [label="gini = 0.0\nsamples = 7\nvalue = [7, 0]"] ;
273 -> 274 ;
275 [label="Comedy <= 0.5\ngini = 0.499\nsamples = 19\nvalue = [9, 10]"] ;
273 -> 275 ;
276 [label="annee <= 1987.5\ngini = 0.32\nsamples = 5\nvalue = [4, 1]"] ;
275 -> 276 ;
277 [label="gini = 0.0\nsamples = 1\nvalue = [0, 1]"] ;
276 -> 277 ;
278 [label="gini = 0.0\nsamples = 4\nvalue = [4, 0]"] ;
276 -> 278 ;
279 [label="Fantasy <= 0.5\ngini = 0.459\nsamples = 14\nvalue = [5, 9]"] ;
275 -> 279 ;
280 [label="Romance <= 0.5\ngini = 0.496\nsamples = 11\nvalue = [5, 6]"] ;
279 -> 280 ;
281 [label="Thriller <= 0.5\ngini = 0.444\nsamples = 9\nvalue = [3, 6]"] ;
280 -> 281 ;
282 [label="Family <= 0.5\ngini = 0.278\nsamples = 6\nvalue = [1, 5]"] ;
281 -> 282 ;
283 [label="gini = 0.0\nsamples = 5\nvalue = [0, 5]"] ;
282 -> 283 ;
284 [label="gini = 0.0\nsamples = 1\nvalue = [1, 0]"] ;
282 -> 284 ;
285 [label="Mystery <= 0.5\ngini = 0.444\nsamples = 3\nvalue = [2, 1]"] ;
281 -> 285 ;
286 [label="gini = 0.0\nsamples = 2\nvalue = [2, 0]"] ;
285 -> 286 ;
287 [label="gini = 0.0\nsamples = 1\nvalue = [0, 1]"] ;
285 -> 287 ;
288 [label="gini = 0.0\nsamples = 2\nvalue = [2, 0]"] ;
280 -> 288 ;
289 [label="gini = 0.0\nsamples = 3\nvalue = [0, 3]"] ;
279 -> 289 ;
290 [label="budget <= 13000000.0\ngini = 0.397\nsamples = 11\nvalue = [3, 8]"] ;
272 -> 290 ;
291 [label="gini = 0.0\nsamples = 5\nvalue = [0, 5]"] ;
290 -> 291 ;
292 [label="Sci-Fi <= 0.5\ngini = 0.5\nsamples = 6\nvalue = [3, 3]"] ;
290 -> 292 ;
293 [label="Family <= 0.5\ngini = 0.375\nsamples = 4\nvalue = [3, 1]"] ;
292 -> 293 ;
294 [label="gini = 0.0\nsamples = 3\nvalue = [3, 0]"] ;
293 -> 294 ;
295 [label="gini = 0.0\nsamples = 1\nvalue = [0, 1]"] ;
293 -> 295 ;
296 [label="gini = 0.0\nsamples = 2\nvalue = [0, 2]"] ;
292 -> 296 ;
297 [label="Duree <= 102.5\ngini = 0.32\nsamples = 10\nvalue = [2, 8]"] ;
271 -> 297 ;
298 [label="gini = 0.0\nsamples = 7\nvalue = [0, 7]"] ;
297 -> 298 ;
299 [label="budget <= 14162000.0\ngini = 0.444\nsamples = 3\nvalue = [2, 1]"] ;
297 -> 299 ;
300 [label="gini = 0.0\nsamples = 2\nvalue = [2, 0]"] ;
299 -> 300 ;
301 [label="gini = 0.0\nsamples = 1\nvalue = [0, 1]"] ;
299 -> 301 ;
302 [label="Musical <= 0.5\ngini = 0.457\nsamples = 34\nvalue = [22, 12]"] ;
270 -> 302 ;
303 [label="Duree <= 106.5\ngini = 0.43\nsamples = 32\nvalue = [22, 10]"] ;
302 -> 303 ;
304 [label="Duree <= 86.5\ngini = 0.355\nsamples = 26\nvalue = [20, 6]"] ;
303 -> 304 ;
305 [label="gini = 0.0\nsamples = 1\nvalue = [0, 1]"] ;
304 -> 305 ;
306 [label="Comedy <= 0.5\ngini = 0.32\nsamples = 25\nvalue = [20, 5]"] ;
304 -> 306 ;
307 [label="gini = 0.0\nsamples = 7\nvalue = [7, 0]"] ;
306 -> 307 ;
308 [label="Thriller <= 0.5\ngini = 0.401\nsamples = 18\nvalue = [13, 5]"] ;
306 -> 308 ;
309 [label="Duree <= 100.5\ngini = 0.36\nsamples = 17\nvalue = [13, 4]"] ;
308 -> 309 ;
310 [label="annee <= 1988.5\ngini = 0.48\nsamples = 10\nvalue = [6, 4]"] ;
309 -> 310 ;
311 [label="Mystery <= 0.5\ngini = 0.49\nsamples = 7\nvalue = [3, 4]"] ;
310 -> 311 ;
312 [label="budget <= 21350000.0\ngini = 0.444\nsamples = 6\nvalue = [2, 4]"] ;
311 -> 312 ;
313 [label="Family <= 0.5\ngini = 0.444\nsamples = 3\nvalue = [2, 1]"] ;
312 -> 313 ;
314 [label="gini = 0.0\nsamples = 2\nvalue = [2, 0]"] ;
313 -> 314 ;
315 [label="gini = 0.0\nsamples = 1\nvalue = [0, 1]"] ;
313 -> 315 ;
316 [label="gini = 0.0\nsamples = 3\nvalue = [0, 3]"] ;
312 -> 316 ;
317 [label="gini = 0.0\nsamples = 1\nvalue = [1, 0]"] ;
311 -> 317 ;
318 [label="gini = 0.0\nsamples = 3\nvalue = [3, 0]"] ;
310 -> 318 ;
319 [label="gini = 0.0\nsamples = 7\nvalue = [7, 0]"] ;
309 -> 319 ;
320 [label="gini = 0.0\nsamples = 1\nvalue = [0, 1]"] ;
308 -> 320 ;
321 [label="annee <= 1985.5\ngini = 0.444\nsamples = 6\nvalue = [2, 4]"] ;
303 -> 321 ;
322 [label="gini = 0.0\nsamples = 3\nvalue = [0, 3]"] ;
321 -> 322 ;
323 [label="Thriller <= 0.5\ngini = 0.444\nsamples = 3\nvalue = [2, 1]"] ;
321 -> 323 ;
324 [label="gini = 0.0\nsamples = 2\nvalue = [2, 0]"] ;
323 -> 324 ;
325 [label="gini = 0.0\nsamples = 1\nvalue = [0, 1]"] ;
323 -> 325 ;
326 [label="gini = 0.0\nsamples = 2\nvalue = [0, 2]"] ;
302 -> 326 ;
327 [label="gini = 0.0\nsamples = 3\nvalue = [0, 3]"] ;
269 -> 327 ;
328 [label="annee <= 1990.5\ngini = 0.32\nsamples = 25\nvalue = [20, 5]"] ;
260 -> 328 ;
329 [label="Duree <= 107.5\ngini = 0.117\nsamples = 16\nvalue = [15, 1]"] ;
328 -> 329 ;
330 [label="gini = 0.0\nsamples = 13\nvalue = [13, 0]"] ;
329 -> 330 ;
331 [label="budget <= 38500000.0\ngini = 0.444\nsamples = 3\nvalue = [2, 1]"] ;
329 -> 331 ;
332 [label="gini = 0.0\nsamples = 2\nvalue = [2, 0]"] ;
331 -> 332 ;
333 [label="gini = 0.0\nsamples = 1\nvalue = [0, 1]"] ;
331 -> 333 ;
334 [label="Duree <= 99.5\ngini = 0.494\nsamples = 9\nvalue = [5, 4]"] ;
328 -> 334 ;
335 [label="budget <= 39000000.0\ngini = 0.375\nsamples = 4\nvalue = [1, 3]"] ;
334 -> 335 ;
336 [label="gini = 0.0\nsamples = 3\nvalue = [0, 3]"] ;
335 -> 336 ;
337 [label="gini = 0.0\nsamples = 1\nvalue = [1, 0]"] ;
335 -> 337 ;
338 [label="Duree <= 109.5\ngini = 0.32\nsamples = 5\nvalue = [4, 1]"] ;
334 -> 338 ;
339 [label="gini = 0.0\nsamples = 4\nvalue = [4, 0]"] ;
338 -> 339 ;
340 [label="gini = 0.0\nsamples = 1\nvalue = [0, 1]"] ;
338 -> 340 ;
341 [label="Duree <= 101.5\ngini = 0.32\nsamples = 989\nvalue = [791, 198]"] ;
259 -> 341 ;
342 [label="budget <= 33950000.0\ngini = 0.28\nsamples = 702\nvalue = [584, 118]"] ;
341 -> 342 ;
343 [label="Documentary <= 0.5\ngini = 0.334\nsamples = 453\nvalue = [357, 96]"] ;
342 -> 343 ;
344 [label="annee <= 1999.5\ngini = 0.326\nsamples = 448\nvalue = [356, 92]"] ;
343 -> 344 ;
345 [label="Duree <= 91.5\ngini = 0.421\nsamples = 116\nvalue = [81, 35]"] ;
344 -> 345 ;
346 [label="budget <= 12500000.0\ngini = 0.268\nsamples = 44\nvalue = [37, 7]"] ;
345 -> 346 ;
347 [label="annee <= 1996.5\ngini = 0.444\nsamples = 15\nvalue = [10, 5]"] ;
346 -> 347 ;
348 [label="Duree <= 78.5\ngini = 0.298\nsamples = 11\nvalue = [9, 2]"] ;
347 -> 348 ;
349 [label="gini = 0.0\nsamples = 1\nvalue = [0, 1]"] ;
348 -> 349 ;
350 [label="Thriller <= 0.5\ngini = 0.18\nsamples = 10\nvalue = [9, 1]"] ;
348 -> 350 ;
351 [label="gini = 0.0\nsamples = 8\nvalue = [8, 0]"] ;
350 -> 351 ;
352 [label="Duree <= 86.5\ngini = 0.5\nsamples = 2\nvalue = [1, 1]"] ;
350 -> 352 ;
353 [label="gini = 0.0\nsamples = 1\nvalue = [1, 0]"] ;
352 -> 353 ;
354 [label="gini = 0.0\nsamples = 1\nvalue = [0, 1]"] ;
352 -> 354 ;
355 [label="Duree <= 86.5\ngini = 0.375\nsamples = 4\nvalue = [1, 3]"] ;
347 -> 355 ;
356 [label="gini = 0.0\nsamples = 2\nvalue = [0, 2]"] ;
355 -> 356 ;
357 [label="Duree <= 88.0\ngini = 0.5\nsamples = 2\nvalue = [1, 1]"] ;
355 -> 357 ;
358 [label="gini = 0.0\nsamples = 1\nvalue = [1, 0]"] ;
357 -> 358 ;
359 [label="gini = 0.0\nsamples = 1\nvalue = [0, 1]"] ;
357 -> 359 ;
360 [label="Duree <= 75.5\ngini = 0.128\nsamples = 29\nvalue = [27, 2]"] ;
346 -> 360 ;
361 [label="Duree <= 73.5\ngini = 0.5\nsamples = 2\nvalue = [1, 1]"] ;
360 -> 361 ;
362 [label="gini = 0.0\nsamples = 1\nvalue = [1, 0]"] ;
361 -> 362 ;
363 [label="gini = 0.0\nsamples = 1\nvalue = [0, 1]"] ;
361 -> 363 ;
364 [label="Duree <= 88.5\ngini = 0.071\nsamples = 27\nvalue = [26, 1]"] ;
360 -> 364 ;
365 [label="gini = 0.0\nsamples = 20\nvalue = [20, 0]"] ;
364 -> 365 ;
366 [label="Duree <= 89.5\ngini = 0.245\nsamples = 7\nvalue = [6, 1]"] ;
364 -> 366 ;
367 [label="Family <= 0.5\ngini = 0.444\nsamples = 3\nvalue = [2, 1]"] ;
366 -> 367 ;
368 [label="gini = 0.0\nsamples = 1\nvalue = [0, 1]"] ;
367 -> 368 ;
369 [label="gini = 0.0\nsamples = 2\nvalue = [2, 0]"] ;
367 -> 369 ;
370 [label="gini = 0.0\nsamples = 4\nvalue = [4, 0]"] ;
366 -> 370 ;
371 [label="budget <= 16500000.0\ngini = 0.475\nsamples = 72\nvalue = [44, 28]"] ;
345 -> 371 ;
372 [label="budget <= 10500000.0\ngini = 0.495\nsamples = 31\nvalue = [14, 17]"] ;
371 -> 372 ;
373 [label="budget <= 8250000.0\ngini = 0.397\nsamples = 11\nvalue = [8, 3]"] ;
372 -> 373 ;
374 [label="annee <= 1993.0\ngini = 0.48\nsamples = 5\nvalue = [2, 3]"] ;
373 -> 374 ;
375 [label="gini = 0.0\nsamples = 2\nvalue = [2, 0]"] ;
374 -> 375 ;
376 [label="gini = 0.0\nsamples = 3\nvalue = [0, 3]"] ;
374 -> 376 ;
377 [label="gini = 0.0\nsamples = 6\nvalue = [6, 0]"] ;
373 -> 377 ;
378 [label="Romance <= 0.5\ngini = 0.42\nsamples = 20\nvalue = [6, 14]"] ;
372 -> 378 ;
379 [label="annee <= 1994.5\ngini = 0.48\nsamples = 15\nvalue = [6, 9]"] ;
378 -> 379 ;
380 [label="gini = 0.0\nsamples = 3\nvalue = [0, 3]"] ;
379 -> 380 ;
381 [label="budget <= 12500000.0\ngini = 0.5\nsamples = 12\nvalue = [6, 6]"] ;
379 -> 381 ;
382 [label="gini = 0.0\nsamples = 3\nvalue = [0, 3]"] ;
381 -> 382 ;
383 [label="Music <= 0.5\ngini = 0.444\nsamples = 9\nvalue = [6, 3]"] ;
381 -> 383 ;
384 [label="Duree <= 93.0\ngini = 0.375\nsamples = 8\nvalue = [6, 2]"] ;
383 -> 384 ;
385 [label="gini = 0.0\nsamples = 1\nvalue = [0, 1]"] ;
384 -> 385 ;
386 [label="budget <= 15500000.0\ngini = 0.245\nsamples = 7\nvalue = [6, 1]"] ;
384 -> 386 ;
387 [label="gini = 0.0\nsamples = 6\nvalue = [6, 0]"] ;
386 -> 387 ;
388 [label="gini = 0.0\nsamples = 1\nvalue = [0, 1]"] ;
386 -> 388 ;
389 [label="gini = 0.0\nsamples = 1\nvalue = [0, 1]"] ;
383 -> 389 ;
390 [label="gini = 0.0\nsamples = 5\nvalue = [0, 5]"] ;
378 -> 390 ;
391 [label="Comedy <= 0.5\ngini = 0.393\nsamples = 41\nvalue = [30, 11]"] ;
371 -> 391 ;
392 [label="gini = 0.0\nsamples = 12\nvalue = [12, 0]"] ;
391 -> 392 ;
393 [label="budget <= 32000000.0\ngini = 0.471\nsamples = 29\nvalue = [18, 11]"] ;
391 -> 393 ;
394 [label="Duree <= 93.5\ngini = 0.444\nsamples = 27\nvalue = [18, 9]"] ;
393 -> 394 ;
395 [label="gini = 0.0\nsamples = 6\nvalue = [6, 0]"] ;
394 -> 395 ;
396 [label="Duree <= 95.5\ngini = 0.49\nsamples = 21\nvalue = [12, 9]"] ;
394 -> 396 ;
397 [label="gini = 0.0\nsamples = 3\nvalue = [0, 3]"] ;
396 -> 397 ;
398 [label="annee <= 1992.5\ngini = 0.444\nsamples = 18\nvalue = [12, 6]"] ;
396 -> 398 ;
399 [label="gini = 0.0\nsamples = 3\nvalue = [3, 0]"] ;
398 -> 399 ;
400 [label="annee <= 1998.0\ngini = 0.48\nsamples = 15\nvalue = [9, 6]"] ;
398 -> 400 ;
401 [label="Action <= 0.5\ngini = 0.5\nsamples = 12\nvalue = [6, 6]"] ;
400 -> 401 ;
402 [label="Duree <= 99.0\ngini = 0.469\nsamples = 8\nvalue = [3, 5]"] ;
401 -> 402 ;
403 [label="gini = 0.0\nsamples = 3\nvalue = [0, 3]"] ;
402 -> 403 ;
404 [label="Duree <= 100.5\ngini = 0.48\nsamples = 5\nvalue = [3, 2]"] ;
402 -> 404 ;
405 [label="gini = 0.0\nsamples = 2\nvalue = [2, 0]"] ;
404 -> 405 ;
406 [label="Romance <= 0.5\ngini = 0.444\nsamples = 3\nvalue = [1, 2]"] ;
404 -> 406 ;
407 [label="gini = 0.0\nsamples = 1\nvalue = [1, 0]"] ;
406 -> 407 ;
408 [label="gini = 0.0\nsamples = 2\nvalue = [0, 2]"] ;
406 -> 408 ;
409 [label="budget <= 22500000.0\ngini = 0.375\nsamples = 4\nvalue = [3, 1]"] ;
401 -> 409 ;
410 [label="gini = 0.0\nsamples = 2\nvalue = [2, 0]"] ;
409 -> 410 ;
411 [label="Duree <= 97.5\ngini = 0.5\nsamples = 2\nvalue = [1, 1]"] ;
409 -> 411 ;
412 [label="gini = 0.0\nsamples = 1\nvalue = [1, 0]"] ;
411 -> 412 ;
413 [label="gini = 0.0\nsamples = 1\nvalue = [0, 1]"] ;
411 -> 413 ;
414 [label="gini = 0.0\nsamples = 3\nvalue = [3, 0]"] ;
400 -> 414 ;
415 [label="gini = 0.0\nsamples = 2\nvalue = [0, 2]"] ;
393 -> 415 ;
416 [label="Horror <= 0.5\ngini = 0.284\nsamples = 332\nvalue = [275, 57]"] ;
344 -> 416 ;
417 [label="Duree <= 100.5\ngini = 0.331\nsamples = 239\nvalue = [189, 50]"] ;
416 -> 417 ;
418 [label="Mystery <= 0.5\ngini = 0.317\nsamples = 228\nvalue = [183, 45]"] ;
417 -> 418 ;
419 [label="Crime <= 0.5\ngini = 0.299\nsamples = 213\nvalue = [174, 39]"] ;
418 -> 419 ;
420 [label="Duree <= 82.5\ngini = 0.26\nsamples = 163\nvalue = [138, 25]"] ;
419 -> 420 ;
421 [label="annee <= 2008.0\ngini = 0.463\nsamples = 11\nvalue = [7, 4]"] ;
420 -> 421 ;
422 [label="Comedy <= 0.5\ngini = 0.5\nsamples = 8\nvalue = [4, 4]"] ;
421 -> 422 ;
423 [label="gini = 0.0\nsamples = 2\nvalue = [0, 2]"] ;
422 -> 423 ;
424 [label="Duree <= 81.0\ngini = 0.444\nsamples = 6\nvalue = [4, 2]"] ;
422 -> 424 ;
425 [label="gini = 0.0\nsamples = 3\nvalue = [3, 0]"] ;
424 -> 425 ;
426 [label="Action <= 0.5\ngini = 0.444\nsamples = 3\nvalue = [1, 2]"] ;
424 -> 426 ;
427 [label="gini = 0.0\nsamples = 2\nvalue = [0, 2]"] ;
426 -> 427 ;
428 [label="gini = 0.0\nsamples = 1\nvalue = [1, 0]"] ;
426 -> 428 ;
429 [label="gini = 0.0\nsamples = 3\nvalue = [3, 0]"] ;
421 -> 429 ;
430 [label="annee <= 2002.5\ngini = 0.238\nsamples = 152\nvalue = [131, 21]"] ;
420 -> 430 ;
431 [label="budget <= 27000000.0\ngini = 0.102\nsamples = 37\nvalue = [35, 2]"] ;
430 -> 431 ;
432 [label="Duree <= 84.5\ngini = 0.059\nsamples = 33\nvalue = [32, 1]"] ;
431 -> 432 ;
433 [label="budget <= 14586050.0\ngini = 0.32\nsamples = 5\nvalue = [4, 1]"] ;
432 -> 433 ;
434 [label="gini = 0.0\nsamples = 3\nvalue = [3, 0]"] ;
433 -> 434 ;
435 [label="budget <= 19086050.0\ngini = 0.5\nsamples = 2\nvalue = [1, 1]"] ;
433 -> 435 ;
436 [label="gini = 0.0\nsamples = 1\nvalue = [0, 1]"] ;
435 -> 436 ;
437 [label="gini = 0.0\nsamples = 1\nvalue = [1, 0]"] ;
435 -> 437 ;
438 [label="gini = 0.0\nsamples = 28\nvalue = [28, 0]"] ;
432 -> 438 ;
439 [label="budget <= 28500000.0\ngini = 0.375\nsamples = 4\nvalue = [3, 1]"] ;
431 -> 439 ;
440 [label="gini = 0.0\nsamples = 1\nvalue = [0, 1]"] ;
439 -> 440 ;
441 [label="gini = 0.0\nsamples = 3\nvalue = [3, 0]"] ;
439 -> 441 ;
442 [label="Duree <= 87.5\ngini = 0.276\nsamples = 115\nvalue = [96, 19]"] ;
430 -> 442 ;
443 [label="gini = 0.0\nsamples = 14\nvalue = [14, 0]"] ;
442 -> 443 ;
444 [label="Duree <= 88.5\ngini = 0.305\nsamples = 101\nvalue = [82, 19]"] ;
442 -> 444 ;
445 [label="budget <= 14000000.0\ngini = 0.49\nsamples = 7\nvalue = [3, 4]"] ;
444 -> 445 ;
446 [label="gini = 0.0\nsamples = 3\nvalue = [0, 3]"] ;
445 -> 446 ;
447 [label="annee <= 2004.5\ngini = 0.375\nsamples = 4\nvalue = [3, 1]"] ;
445 -> 447 ;
448 [label="gini = 0.0\nsamples = 1\nvalue = [0, 1]"] ;
447 -> 448 ;
449 [label="gini = 0.0\nsamples = 3\nvalue = [3, 0]"] ;
447 -> 449 ;
450 [label="Duree <= 91.5\ngini = 0.268\nsamples = 94\nvalue = [79, 15]"] ;
444 -> 450 ;
451 [label="budget <= 9302500.0\ngini = 0.091\nsamples = 21\nvalue = [20, 1]"] ;
450 -> 451 ;
452 [label="budget <= 8650000.0\ngini = 0.5\nsamples = 2\nvalue = [1, 1]"] ;
451 -> 452 ;
453 [label="gini = 0.0\nsamples = 1\nvalue = [1, 0]"] ;
452 -> 453 ;
454 [label="gini = 0.0\nsamples = 1\nvalue = [0, 1]"] ;
452 -> 454 ;
455 [label="gini = 0.0\nsamples = 19\nvalue = [19, 0]"] ;
451 -> 455 ;
456 [label="budget <= 32500000.0\ngini = 0.31\nsamples = 73\nvalue = [59, 14]"] ;
450 -> 456 ;
457 [label="budget <= 27000000.0\ngini = 0.296\nsamples = 72\nvalue = [59, 13]"] ;
456 -> 457 ;
458 [label="budget <= 24500000.0\ngini = 0.339\nsamples = 60\nvalue = [47, 13]"] ;
457 -> 458 ;
459 [label="Duree <= 92.5\ngini = 0.273\nsamples = 49\nvalue = [41, 8]"] ;
458 -> 459 ;
460 [label="Romance <= 0.5\ngini = 0.49\nsamples = 7\nvalue = [4, 3]"] ;
459 -> 460 ;
461 [label="Sport <= 0.5\ngini = 0.32\nsamples = 5\nvalue = [4, 1]"] ;
460 -> 461 ;
462 [label="gini = 0.0\nsamples = 4\nvalue = [4, 0]"] ;
461 -> 462 ;
463 [label="gini = 0.0\nsamples = 1\nvalue = [0, 1]"] ;
461 -> 463 ;
464 [label="gini = 0.0\nsamples = 2\nvalue = [0, 2]"] ;
460 -> 464 ;
465 [label="Duree <= 96.0\ngini = 0.21\nsamples = 42\nvalue = [37, 5]"] ;
459 -> 465 ;
466 [label="gini = 0.0\nsamples = 18\nvalue = [18, 0]"] ;
465 -> 466 ;
467 [label="budget <= 20500000.0\ngini = 0.33\nsamples = 24\nvalue = [19, 5]"] ;
465 -> 467 ;
468 [label="budget <= 17500000.0\ngini = 0.287\nsamples = 23\nvalue = [19, 4]"] ;
467 -> 468 ;
469 [label="gini = 0.36\nsamples = 17\nvalue = [13, 4]"] ;
468 -> 469 ;
470 [label="gini = 0.0\nsamples = 6\nvalue = [6, 0]"] ;
468 -> 470 ;
471 [label="gini = 0.0\nsamples = 1\nvalue = [0, 1]"] ;
467 -> 471 ;
472 [label="Duree <= 98.5\ngini = 0.496\nsamples = 11\nvalue = [6, 5]"] ;
458 -> 472 ;
473 [label="annee <= 2003.5\ngini = 0.469\nsamples = 8\nvalue = [3, 5]"] ;
472 -> 473 ;
474 [label="gini = 0.0\nsamples = 1\nvalue = [1, 0]"] ;
473 -> 474 ;
475 [label="War <= 0.5\ngini = 0.408\nsamples = 7\nvalue = [2, 5]"] ;
473 -> 475 ;
476 [label="Romance <= 0.5\ngini = 0.278\nsamples = 6\nvalue = [1, 5]"] ;
475 -> 476 ;
477 [label="gini = 0.0\nsamples = 5\nvalue = [0, 5]"] ;
476 -> 477 ;
478 [label="gini = 0.0\nsamples = 1\nvalue = [1, 0]"] ;
476 -> 478 ;
479 [label="gini = 0.0\nsamples = 1\nvalue = [1, 0]"] ;
475 -> 479 ;
480 [label="gini = 0.0\nsamples = 3\nvalue = [3, 0]"] ;
472 -> 480 ;
481 [label="gini = 0.0\nsamples = 12\nvalue = [12, 0]"] ;
457 -> 481 ;
482 [label="gini = 0.0\nsamples = 1\nvalue = [0, 1]"] ;
456 -> 482 ;
483 [label="budget <= 24500000.0\ngini = 0.403\nsamples = 50\nvalue = [36, 14]"] ;
419 -> 483 ;
484 [label="annee <= 2006.5\ngini = 0.461\nsamples = 36\nvalue = [23, 13]"] ;
483 -> 484 ;
485 [label="budget <= 13280000.0\ngini = 0.499\nsamples = 19\nvalue = [10, 9]"] ;
484 -> 485 ;
486 [label="annee <= 2005.0\ngini = 0.32\nsamples = 10\nvalue = [8, 2]"] ;
485 -> 486 ;
487 [label="gini = 0.0\nsamples = 8\nvalue = [8, 0]"] ;
486 -> 487 ;
488 [label="gini = 0.0\nsamples = 2\nvalue = [0, 2]"] ;
486 -> 488 ;
489 [label="Romance <= 0.5\ngini = 0.346\nsamples = 9\nvalue = [2, 7]"] ;
485 -> 489 ;
490 [label="Duree <= 89.0\ngini = 0.219\nsamples = 8\nvalue = [1, 7]"] ;
489 -> 490 ;
491 [label="Action <= 0.5\ngini = 0.5\nsamples = 2\nvalue = [1, 1]"] ;
490 -> 491 ;
492 [label="gini = 0.0\nsamples = 1\nvalue = [1, 0]"] ;
491 -> 492 ;
493 [label="gini = 0.0\nsamples = 1\nvalue = [0, 1]"] ;
491 -> 493 ;
494 [label="gini = 0.0\nsamples = 6\nvalue = [0, 6]"] ;
490 -> 494 ;
495 [label="gini = 0.0\nsamples = 1\nvalue = [1, 0]"] ;
489 -> 495 ;
496 [label="budget <= 17000000.0\ngini = 0.36\nsamples = 17\nvalue = [13, 4]"] ;
484 -> 496 ;
497 [label="budget <= 15500000.0\ngini = 0.444\nsamples = 12\nvalue = [8, 4]"] ;
496 -> 497 ;
498 [label="budget <= 13100000.0\ngini = 0.397\nsamples = 11\nvalue = [8, 3]"] ;
497 -> 498 ;
499 [label="annee <= 2009.5\ngini = 0.469\nsamples = 8\nvalue = [5, 3]"] ;
498 -> 499 ;
500 [label="gini = 0.0\nsamples = 3\nvalue = [3, 0]"] ;
499 -> 500 ;
501 [label="annee <= 2012.5\ngini = 0.48\nsamples = 5\nvalue = [2, 3]"] ;
499 -> 501 ;
502 [label="gini = 0.0\nsamples = 2\nvalue = [0, 2]"] ;
501 -> 502 ;
503 [label="budget <= 12500000.0\ngini = 0.444\nsamples = 3\nvalue = [2, 1]"] ;
501 -> 503 ;
504 [label="gini = 0.0\nsamples = 2\nvalue = [2, 0]"] ;
503 -> 504 ;
505 [label="gini = 0.0\nsamples = 1\nvalue = [0, 1]"] ;
503 -> 505 ;
506 [label="gini = 0.0\nsamples = 3\nvalue = [3, 0]"] ;
498 -> 506 ;
507 [label="gini = 0.0\nsamples = 1\nvalue = [0, 1]"] ;
497 -> 507 ;
508 [label="gini = 0.0\nsamples = 5\nvalue = [5, 0]"] ;
496 -> 508 ;
509 [label="budget <= 30503600.0\ngini = 0.133\nsamples = 14\nvalue = [13, 1]"] ;
483 -> 509 ;
510 [label="gini = 0.0\nsamples = 10\nvalue = [10, 0]"] ;
509 -> 510 ;
511 [label="Action <= 0.5\ngini = 0.375\nsamples = 4\nvalue = [3, 1]"] ;
509 -> 511 ;
512 [label="gini = 0.0\nsamples = 1\nvalue = [0, 1]"] ;
511 -> 512 ;
513 [label="gini = 0.0\nsamples = 3\nvalue = [3, 0]"] ;
511 -> 513 ;
514 [label="budget <= 26420000.0\ngini = 0.48\nsamples = 15\nvalue = [9, 6]"] ;
418 -> 514 ;
515 [label="budget <= 8050000.0\ngini = 0.375\nsamples = 12\nvalue = [9, 3]"] ;
514 -> 515 ;
516 [label="gini = 0.0\nsamples = 1\nvalue = [0, 1]"] ;
515 -> 516 ;
517 [label="Duree <= 96.5\ngini = 0.298\nsamples = 11\nvalue = [9, 2]"] ;
515 -> 517 ;
518 [label="gini = 0.0\nsamples = 6\nvalue = [6, 0]"] ;
517 -> 518 ;
519 [label="Crime <= 0.5\ngini = 0.48\nsamples = 5\nvalue = [3, 2]"] ;
517 -> 519 ;
520 [label="Sci-Fi <= 0.5\ngini = 0.444\nsamples = 3\nvalue = [1, 2]"] ;
519 -> 520 ;
521 [label="gini = 0.0\nsamples = 2\nvalue = [0, 2]"] ;
520 -> 521 ;
522 [label="gini = 0.0\nsamples = 1\nvalue = [1, 0]"] ;
520 -> 522 ;
523 [label="gini = 0.0\nsamples = 2\nvalue = [2, 0]"] ;
519 -> 523 ;
524 [label="gini = 0.0\nsamples = 3\nvalue = [0, 3]"] ;
514 -> 524 ;
525 [label="annee <= 2006.0\ngini = 0.496\nsamples = 11\nvalue = [6, 5]"] ;
417 -> 525 ;
526 [label="gini = 0.0\nsamples = 4\nvalue = [4, 0]"] ;
525 -> 526 ;
527 [label="budget <= 16780000.0\ngini = 0.408\nsamples = 7\nvalue = [2, 5]"] ;
525 -> 527 ;
528 [label="Action <= 0.5\ngini = 0.444\nsamples = 3\nvalue = [2, 1]"] ;
527 -> 528 ;
529 [label="gini = 0.0\nsamples = 1\nvalue = [0, 1]"] ;
528 -> 529 ;
530 [label="gini = 0.0\nsamples = 2\nvalue = [2, 0]"] ;
528 -> 530 ;
531 [label="gini = 0.0\nsamples = 4\nvalue = [0, 4]"] ;
527 -> 531 ;
532 [label="budget <= 21991000.0\ngini = 0.139\nsamples = 93\nvalue = [86, 7]"] ;
416 -> 532 ;
533 [label="Comedy <= 0.5\ngini = 0.029\nsamples = 69\nvalue = [68, 1]"] ;
532 -> 533 ;
534 [label="gini = 0.0\nsamples = 64\nvalue = [64, 0]"] ;
533 -> 534 ;
535 [label="budget <= 8825000.0\ngini = 0.32\nsamples = 5\nvalue = [4, 1]"] ;
533 -> 535 ;
536 [label="gini = 0.0\nsamples = 1\nvalue = [0, 1]"] ;
535 -> 536 ;
537 [label="gini = 0.0\nsamples = 4\nvalue = [4, 0]"] ;
535 -> 537 ;
538 [label="Thriller <= 0.5\ngini = 0.375\nsamples = 24\nvalue = [18, 6]"] ;
532 -> 538 ;
539 [label="budget <= 23800000.0\ngini = 0.496\nsamples = 11\nvalue = [6, 5]"] ;
538 -> 539 ;
540 [label="gini = 0.0\nsamples = 2\nvalue = [0, 2]"] ;
539 -> 540 ;
541 [label="budget <= 29000000.0\ngini = 0.444\nsamples = 9\nvalue = [6, 3]"] ;
539 -> 541 ;
542 [label="Duree <= 86.0\ngini = 0.245\nsamples = 7\nvalue = [6, 1]"] ;
541 -> 542 ;
543 [label="gini = 0.0\nsamples = 1\nvalue = [0, 1]"] ;
542 -> 543 ;
544 [label="gini = 0.0\nsamples = 6\nvalue = [6, 0]"] ;
542 -> 544 ;
545 [label="gini = 0.0\nsamples = 2\nvalue = [0, 2]"] ;
541 -> 545 ;
546 [label="annee <= 2011.5\ngini = 0.142\nsamples = 13\nvalue = [12, 1]"] ;
538 -> 546 ;
547 [label="gini = 0.0\nsamples = 11\nvalue = [11, 0]"] ;
546 -> 547 ;
548 [label="Action <= 0.5\ngini = 0.5\nsamples = 2\nvalue = [1, 1]"] ;
546 -> 548 ;
549 [label="gini = 0.0\nsamples = 1\nvalue = [0, 1]"] ;
548 -> 549 ;
550 [label="gini = 0.0\nsamples = 1\nvalue = [1, 0]"] ;
548 -> 550 ;
551 [label="Music <= 0.5\ngini = 0.32\nsamples = 5\nvalue = [1, 4]"] ;
343 -> 551 ;
552 [label="gini = 0.0\nsamples = 4\nvalue = [0, 4]"] ;
551 -> 552 ;
553 [label="gini = 0.0\nsamples = 1\nvalue = [1, 0]"] ;
551 -> 553 ;
554 [label="budget <= 177500000.0\ngini = 0.161\nsamples = 249\nvalue = [227, 22]"] ;
342 -> 554 ;
555 [label="Duree <= 99.5\ngini = 0.155\nsamples = 248\nvalue = [227, 21]"] ;
554 -> 555 ;
556 [label="Duree <= 94.5\ngini = 0.188\nsamples = 200\nvalue = [179, 21]"] ;
555 -> 556 ;
557 [label="Duree <= 86.5\ngini = 0.114\nsamples = 115\nvalue = [108, 7]"] ;
556 -> 557 ;
558 [label="Duree <= 85.5\ngini = 0.269\nsamples = 25\nvalue = [21, 4]"] ;
557 -> 558 ;
559 [label="Duree <= 84.5\ngini = 0.1\nsamples = 19\nvalue = [18, 1]"] ;
558 -> 559 ;
560 [label="gini = 0.0\nsamples = 14\nvalue = [14, 0]"] ;
559 -> 560 ;
561 [label="Adventure <= 0.5\ngini = 0.32\nsamples = 5\nvalue = [4, 1]"] ;
559 -> 561 ;
562 [label="gini = 0.0\nsamples = 3\nvalue = [3, 0]"] ;
561 -> 562 ;
563 [label="annee <= 2006.0\ngini = 0.5\nsamples = 2\nvalue = [1, 1]"] ;
561 -> 563 ;
564 [label="gini = 0.0\nsamples = 1\nvalue = [0, 1]"] ;
563 -> 564 ;
565 [label="gini = 0.0\nsamples = 1\nvalue = [1, 0]"] ;
563 -> 565 ;
566 [label="Adventure <= 0.5\ngini = 0.5\nsamples = 6\nvalue = [3, 3]"] ;
558 -> 566 ;
567 [label="Comedy <= 0.5\ngini = 0.375\nsamples = 4\nvalue = [1, 3]"] ;
566 -> 567 ;
568 [label="gini = 0.0\nsamples = 1\nvalue = [1, 0]"] ;
567 -> 568 ;
569 [label="gini = 0.0\nsamples = 3\nvalue = [0, 3]"] ;
567 -> 569 ;
570 [label="gini = 0.0\nsamples = 2\nvalue = [2, 0]"] ;
566 -> 570 ;
571 [label="annee <= 2008.5\ngini = 0.064\nsamples = 90\nvalue = [87, 3]"] ;
557 -> 571 ;
572 [label="gini = 0.0\nsamples = 64\nvalue = [64, 0]"] ;
571 -> 572 ;
573 [label="Comedy <= 0.5\ngini = 0.204\nsamples = 26\nvalue = [23, 3]"] ;
571 -> 573 ;
574 [label="Action <= 0.5\ngini = 0.355\nsamples = 13\nvalue = [10, 3]"] ;
573 -> 574 ;
575 [label="gini = 0.0\nsamples = 1\nvalue = [0, 1]"] ;
574 -> 575 ;
576 [label="Adventure <= 0.5\ngini = 0.278\nsamples = 12\nvalue = [10, 2]"] ;
574 -> 576 ;
577 [label="Duree <= 92.5\ngini = 0.165\nsamples = 11\nvalue = [10, 1]"] ;
576 -> 577 ;
578 [label="gini = 0.0\nsamples = 9\nvalue = [9, 0]"] ;
577 -> 578 ;
579 [label="annee <= 2011.5\ngini = 0.5\nsamples = 2\nvalue = [1, 1]"] ;
577 -> 579 ;
580 [label="gini = 0.0\nsamples = 1\nvalue = [0, 1]"] ;
579 -> 580 ;
581 [label="gini = 0.0\nsamples = 1\nvalue = [1, 0]"] ;
579 -> 581 ;
582 [label="gini = 0.0\nsamples = 1\nvalue = [0, 1]"] ;
576 -> 582 ;
583 [label="gini = 0.0\nsamples = 13\nvalue = [13, 0]"] ;
573 -> 583 ;
584 [label="War <= 0.5\ngini = 0.275\nsamples = 85\nvalue = [71, 14]"] ;
556 -> 584 ;
585 [label="Action <= 0.5\ngini = 0.262\nsamples = 84\nvalue = [71, 13]"] ;
584 -> 585 ;
586 [label="Duree <= 97.0\ngini = 0.359\nsamples = 47\nvalue = [36, 11]"] ;
585 -> 586 ;
587 [label="annee <= 2003.5\ngini = 0.463\nsamples = 22\nvalue = [14, 8]"] ;
586 -> 587 ;
588 [label="Horror <= 0.5\ngini = 0.198\nsamples = 9\nvalue = [8, 1]"] ;
587 -> 588 ;
589 [label="gini = 0.0\nsamples = 7\nvalue = [7, 0]"] ;
588 -> 589 ;
590 [label="Crime <= 0.5\ngini = 0.5\nsamples = 2\nvalue = [1, 1]"] ;
588 -> 590 ;
591 [label="gini = 0.0\nsamples = 1\nvalue = [0, 1]"] ;
590 -> 591 ;
592 [label="gini = 0.0\nsamples = 1\nvalue = [1, 0]"] ;
590 -> 592 ;
593 [label="Romance <= 0.5\ngini = 0.497\nsamples = 13\nvalue = [6, 7]"] ;
587 -> 593 ;
594 [label="Fantasy <= 0.5\ngini = 0.375\nsamples = 8\nvalue = [2, 6]"] ;
593 -> 594 ;
595 [label="gini = 0.0\nsamples = 5\nvalue = [0, 5]"] ;
594 -> 595 ;
596 [label="Comedy <= 0.5\ngini = 0.444\nsamples = 3\nvalue = [2, 1]"] ;
594 -> 596 ;
597 [label="gini = 0.0\nsamples = 1\nvalue = [0, 1]"] ;
596 -> 597 ;
598 [label="gini = 0.0\nsamples = 2\nvalue = [2, 0]"] ;
596 -> 598 ;
599 [label="budget <= 54000000.0\ngini = 0.32\nsamples = 5\nvalue = [4, 1]"] ;
593 -> 599 ;
600 [label="gini = 0.0\nsamples = 4\nvalue = [4, 0]"] ;
599 -> 600 ;
601 [label="gini = 0.0\nsamples = 1\nvalue = [0, 1]"] ;
599 -> 601 ;
602 [label="annee <= 2012.5\ngini = 0.211\nsamples = 25\nvalue = [22, 3]"] ;
586 -> 602 ;
603 [label="budget <= 70000000.0\ngini = 0.159\nsamples = 23\nvalue = [21, 2]"] ;
602 -> 603 ;
604 [label="gini = 0.0\nsamples = 17\nvalue = [17, 0]"] ;
603 -> 604 ;
605 [label="annee <= 2005.5\ngini = 0.444\nsamples = 6\nvalue = [4, 2]"] ;
603 -> 605 ;
606 [label="Duree <= 98.5\ngini = 0.444\nsamples = 3\nvalue = [1, 2]"] ;
605 -> 606 ;
607 [label="Sci-Fi <= 0.5\ngini = 0.5\nsamples = 2\nvalue = [1, 1]"] ;
606 -> 607 ;
608 [label="gini = 0.0\nsamples = 1\nvalue = [1, 0]"] ;
607 -> 608 ;
609 [label="gini = 0.0\nsamples = 1\nvalue = [0, 1]"] ;
607 -> 609 ;
610 [label="gini = 0.0\nsamples = 1\nvalue = [0, 1]"] ;
606 -> 610 ;
611 [label="gini = 0.0\nsamples = 3\nvalue = [3, 0]"] ;
605 -> 611 ;
612 [label="Horror <= 0.5\ngini = 0.5\nsamples = 2\nvalue = [1, 1]"] ;
602 -> 612 ;
613 [label="gini = 0.0\nsamples = 1\nvalue = [1, 0]"] ;
612 -> 613 ;
614 [label="gini = 0.0\nsamples = 1\nvalue = [0, 1]"] ;
612 -> 614 ;
615 [label="budget <= 36500000.0\ngini = 0.102\nsamples = 37\nvalue = [35, 2]"] ;
585 -> 615 ;
616 [label="Duree <= 95.5\ngini = 0.5\nsamples = 2\nvalue = [1, 1]"] ;
615 -> 616 ;
617 [label="gini = 0.0\nsamples = 1\nvalue = [0, 1]"] ;
616 -> 617 ;
618 [label="gini = 0.0\nsamples = 1\nvalue = [1, 0]"] ;
616 -> 618 ;
619 [label="budget <= 92500000.0\ngini = 0.056\nsamples = 35\nvalue = [34, 1]"] ;
615 -> 619 ;
620 [label="gini = 0.0\nsamples = 31\nvalue = [31, 0]"] ;
619 -> 620 ;
621 [label="Thriller <= 0.5\ngini = 0.375\nsamples = 4\nvalue = [3, 1]"] ;
619 -> 621 ;
622 [label="gini = 0.0\nsamples = 3\nvalue = [3, 0]"] ;
621 -> 622 ;
623 [label="gini = 0.0\nsamples = 1\nvalue = [0, 1]"] ;
621 -> 623 ;
624 [label="gini = 0.0\nsamples = 1\nvalue = [0, 1]"] ;
584 -> 624 ;
625 [label="gini = 0.0\nsamples = 48\nvalue = [48, 0]"] ;
555 -> 625 ;
626 [label="gini = 0.0\nsamples = 1\nvalue = [0, 1]"] ;
554 -> 626 ;
627 [label="budget <= 6950000.0\ngini = 0.402\nsamples = 287\nvalue = [207, 80]"] ;
341 -> 627 ;
628 [label="gini = 0.0\nsamples = 2\nvalue = [0, 2]"] ;
627 -> 628 ;
629 [label="budget <= 205000000.0\ngini = 0.398\nsamples = 285\nvalue = [207, 78]"] ;
627 -> 629 ;
630 [label="Crime <= 0.5\ngini = 0.393\nsamples = 283\nvalue = [207, 76]"] ;
629 -> 630 ;
631 [label="History <= 0.5\ngini = 0.366\nsamples = 224\nvalue = [170, 54]"] ;
630 -> 631 ;
632 [label="Musical <= 0.5\ngini = 0.362\nsamples = 223\nvalue = [170, 53]"] ;
631 -> 632 ;
633 [label="Duree <= 103.5\ngini = 0.356\nsamples = 220\nvalue = [169, 51]"] ;
632 -> 633 ;
634 [label="Adventure <= 0.5\ngini = 0.21\nsamples = 42\nvalue = [37, 5]"] ;
633 -> 634 ;
635 [label="annee <= 2012.5\ngini = 0.121\nsamples = 31\nvalue = [29, 2]"] ;
634 -> 635 ;
636 [label="annee <= 1996.5\ngini = 0.067\nsamples = 29\nvalue = [28, 1]"] ;
635 -> 636 ;
637 [label="budget <= 35500000.0\ngini = 0.32\nsamples = 5\nvalue = [4, 1]"] ;
636 -> 637 ;
638 [label="gini = 0.0\nsamples = 4\nvalue = [4, 0]"] ;
637 -> 638 ;
639 [label="gini = 0.0\nsamples = 1\nvalue = [0, 1]"] ;
637 -> 639 ;
640 [label="gini = 0.0\nsamples = 24\nvalue = [24, 0]"] ;
636 -> 640 ;
641 [label="Duree <= 102.5\ngini = 0.5\nsamples = 2\nvalue = [1, 1]"] ;
635 -> 641 ;
642 [label="gini = 0.0\nsamples = 1\nvalue = [0, 1]"] ;
641 -> 642 ;
643 [label="gini = 0.0\nsamples = 1\nvalue = [1, 0]"] ;
641 -> 643 ;
644 [label="budget <= 25000000.0\ngini = 0.397\nsamples = 11\nvalue = [8, 3]"] ;
634 -> 644 ;
645 [label="gini = 0.0\nsamples = 1\nvalue = [0, 1]"] ;
644 -> 645 ;
646 [label="Fantasy <= 0.5\ngini = 0.32\nsamples = 10\nvalue = [8, 2]"] ;
644 -> 646 ;
647 [label="annee <= 1998.5\ngini = 0.444\nsamples = 6\nvalue = [4, 2]"] ;
646 -> 647 ;
648 [label="gini = 0.0\nsamples = 3\nvalue = [3, 0]"] ;
647 -> 648 ;
649 [label="budget <= 96000000.0\ngini = 0.444\nsamples = 3\nvalue = [1, 2]"] ;
647 -> 649 ;
650 [label="gini = 0.0\nsamples = 2\nvalue = [0, 2]"] ;
649 -> 650 ;
651 [label="gini = 0.0\nsamples = 1\nvalue = [1, 0]"] ;
649 -> 651 ;
652 [label="gini = 0.0\nsamples = 4\nvalue = [4, 0]"] ;
646 -> 652 ;
653 [label="Duree <= 104.5\ngini = 0.383\nsamples = 178\nvalue = [132, 46]"] ;
633 -> 653 ;
654 [label="budget <= 62500000.0\ngini = 0.475\nsamples = 31\nvalue = [19, 12]"] ;
653 -> 654 ;
655 [label="budget <= 41500000.0\ngini = 0.426\nsamples = 26\nvalue = [18, 8]"] ;
654 -> 655 ;
656 [label="Adventure <= 0.5\ngini = 0.492\nsamples = 16\nvalue = [9, 7]"] ;
655 -> 656 ;
657 [label="Sci-Fi <= 0.5\ngini = 0.459\nsamples = 14\nvalue = [9, 5]"] ;
656 -> 657 ;
658 [label="annee <= 2002.0\ngini = 0.5\nsamples = 10\nvalue = [5, 5]"] ;
657 -> 658 ;
659 [label="gini = 0.0\nsamples = 3\nvalue = [0, 3]"] ;
658 -> 659 ;
660 [label="annee <= 2014.5\ngini = 0.408\nsamples = 7\nvalue = [5, 2]"] ;
658 -> 660 ;
661 [label="Fantasy <= 0.5\ngini = 0.278\nsamples = 6\nvalue = [5, 1]"] ;
660 -> 661 ;
662 [label="gini = 0.0\nsamples = 4\nvalue = [4, 0]"] ;
661 -> 662 ;
663 [label="budget <= 13500000.0\ngini = 0.5\nsamples = 2\nvalue = [1, 1]"] ;
661 -> 663 ;
664 [label="gini = 0.0\nsamples = 1\nvalue = [1, 0]"] ;
663 -> 664 ;
665 [label="gini = 0.0\nsamples = 1\nvalue = [0, 1]"] ;
663 -> 665 ;
666 [label="gini = 0.0\nsamples = 1\nvalue = [0, 1]"] ;
660 -> 666 ;
667 [label="gini = 0.0\nsamples = 4\nvalue = [4, 0]"] ;
657 -> 667 ;
668 [label="gini = 0.0\nsamples = 2\nvalue = [0, 2]"] ;
656 -> 668 ;
669 [label="Romance <= 0.5\ngini = 0.18\nsamples = 10\nvalue = [9, 1]"] ;
655 -> 669 ;
670 [label="gini = 0.0\nsamples = 8\nvalue = [8, 0]"] ;
669 -> 670 ;
671 [label="Fantasy <= 0.5\ngini = 0.5\nsamples = 2\nvalue = [1, 1]"] ;
669 -> 671 ;
672 [label="gini = 0.0\nsamples = 1\nvalue = [1, 0]"] ;
671 -> 672 ;
673 [label="gini = 0.0\nsamples = 1\nvalue = [0, 1]"] ;
671 -> 673 ;
674 [label="budget <= 92500000.0\ngini = 0.32\nsamples = 5\nvalue = [1, 4]"] ;
654 -> 674 ;
675 [label="gini = 0.0\nsamples = 4\nvalue = [0, 4]"] ;
674 -> 675 ;
676 [label="gini = 0.0\nsamples = 1\nvalue = [1, 0]"] ;
674 -> 676 ;
677 [label="budget <= 21000000.0\ngini = 0.356\nsamples = 147\nvalue = [113, 34]"] ;
653 -> 677 ;
678 [label="annee <= 1993.5\ngini = 0.198\nsamples = 36\nvalue = [32, 4]"] ;
677 -> 678 ;
679 [label="gini = 0.0\nsamples = 1\nvalue = [0, 1]"] ;
678 -> 679 ;
680 [label="Romance <= 0.5\ngini = 0.157\nsamples = 35\nvalue = [32, 3]"] ;
678 -> 680 ;
681 [label="gini = 0.0\nsamples = 26\nvalue = [26, 0]"] ;
680 -> 681 ;
682 [label="budget <= 13610500.0\ngini = 0.444\nsamples = 9\nvalue = [6, 3]"] ;
680 -> 682 ;
683 [label="gini = 0.0\nsamples = 3\nvalue = [0, 3]"] ;
682 -> 683 ;
684 [label="gini = 0.0\nsamples = 6\nvalue = [6, 0]"] ;
682 -> 684 ;
685 [label="annee <= 1997.5\ngini = 0.394\nsamples = 111\nvalue = [81, 30]"] ;
677 -> 685 ;
686 [label="budget <= 75000000.0\ngini = 0.124\nsamples = 15\nvalue = [14, 1]"] ;
685 -> 686 ;
687 [label="gini = 0.0\nsamples = 13\nvalue = [13, 0]"] ;
686 -> 687 ;
688 [label="budget <= 98000000.0\ngini = 0.5\nsamples = 2\nvalue = [1, 1]"] ;
686 -> 688 ;
689 [label="gini = 0.0\nsamples = 1\nvalue = [0, 1]"] ;
688 -> 689 ;
690 [label="gini = 0.0\nsamples = 1\nvalue = [1, 0]"] ;
688 -> 690 ;
691 [label="budget <= 23500000.0\ngini = 0.422\nsamples = 96\nvalue = [67, 29]"] ;
685 -> 691 ;
692 [label="Duree <= 109.5\ngini = 0.375\nsamples = 4\nvalue = [1, 3]"] ;
691 -> 692 ;
693 [label="gini = 0.0\nsamples = 3\nvalue = [0, 3]"] ;
692 -> 693 ;
694 [label="gini = 0.0\nsamples = 1\nvalue = [1, 0]"] ;
692 -> 694 ;
695 [label="budget <= 57500000.0\ngini = 0.405\nsamples = 92\nvalue = [66, 26]"] ;
691 -> 695 ;
696 [label="Sci-Fi <= 0.5\ngini = 0.452\nsamples = 58\nvalue = [38, 20]"] ;
695 -> 696 ;
697 [label="budget <= 54500000.0\ngini = 0.363\nsamples = 42\nvalue = [32, 10]"] ;
696 -> 697 ;
698 [label="Music <= 0.5\ngini = 0.32\nsamples = 40\nvalue = [32, 8]"] ;
697 -> 698 ;
699 [label="annee <= 2012.5\ngini = 0.295\nsamples = 39\nvalue = [32, 7]"] ;
698 -> 699 ;
700 [label="annee <= 1998.5\ngini = 0.213\nsamples = 33\nvalue = [29, 4]"] ;
699 -> 700 ;
701 [label="gini = 0.0\nsamples = 1\nvalue = [0, 1]"] ;
700 -> 701 ;
702 [label="annee <= 2008.5\ngini = 0.17\nsamples = 32\nvalue = [29, 3]"] ;
700 -> 702 ;
703 [label="gini = 0.0\nsamples = 16\nvalue = [16, 0]"] ;
702 -> 703 ;
704 [label="annee <= 2009.5\ngini = 0.305\nsamples = 16\nvalue = [13, 3]"] ;
702 -> 704 ;
705 [label="Thriller <= 0.5\ngini = 0.5\nsamples = 4\nvalue = [2, 2]"] ;
704 -> 705 ;
706 [label="gini = 0.0\nsamples = 2\nvalue = [0, 2]"] ;
705 -> 706 ;
707 [label="gini = 0.0\nsamples = 2\nvalue = [2, 0]"] ;
705 -> 707 ;
708 [label="Romance <= 0.5\ngini = 0.153\nsamples = 12\nvalue = [11, 1]"] ;
704 -> 708 ;
709 [label="gini = 0.0\nsamples = 7\nvalue = [7, 0]"] ;
708 -> 709 ;
710 [label="gini = 0.32\nsamples = 5\nvalue = [4, 1]"] ;
708 -> 710 ;
711 [label="Duree <= 108.0\ngini = 0.5\nsamples = 6\nvalue = [3, 3]"] ;
699 -> 711 ;
712 [label="Romance <= 0.5\ngini = 0.375\nsamples = 4\nvalue = [1, 3]"] ;
711 -> 712 ;
713 [label="gini = 0.0\nsamples = 3\nvalue = [0, 3]"] ;
712 -> 713 ;
714 [label="gini = 0.0\nsamples = 1\nvalue = [1, 0]"] ;
712 -> 714 ;
715 [label="gini = 0.0\nsamples = 2\nvalue = [2, 0]"] ;
711 -> 715 ;
716 [label="gini = 0.0\nsamples = 1\nvalue = [0, 1]"] ;
698 -> 716 ;
717 [label="gini = 0.0\nsamples = 2\nvalue = [0, 2]"] ;
697 -> 717 ;
718 [label="annee <= 2001.0\ngini = 0.469\nsamples = 16\nvalue = [6, 10]"] ;
696 -> 718 ;
719 [label="gini = 0.0\nsamples = 2\nvalue = [2, 0]"] ;
718 -> 719 ;
720 [label="annee <= 2007.5\ngini = 0.408\nsamples = 14\nvalue = [4, 10]"] ;
718 -> 720 ;
721 [label="gini = 0.0\nsamples = 5\nvalue = [0, 5]"] ;
720 -> 721 ;
722 [label="annee <= 2008.5\ngini = 0.494\nsamples = 9\nvalue = [4, 5]"] ;
720 -> 722 ;
723 [label="gini = 0.0\nsamples = 2\nvalue = [2, 0]"] ;
722 -> 723 ;
724 [label="Adventure <= 0.5\ngini = 0.408\nsamples = 7\nvalue = [2, 5]"] ;
722 -> 724 ;
725 [label="gini = 0.0\nsamples = 5\nvalue = [0, 5]"] ;
724 -> 725 ;
726 [label="gini = 0.0\nsamples = 2\nvalue = [2, 0]"] ;
724 -> 726 ;
727 [label="budget <= 95000000.0\ngini = 0.291\nsamples = 34\nvalue = [28, 6]"] ;
695 -> 727 ;
728 [label="Adventure <= 0.5\ngini = 0.159\nsamples = 23\nvalue = [21, 2]"] ;
727 -> 728 ;
729 [label="annee <= 2003.5\ngini = 0.245\nsamples = 14\nvalue = [12, 2]"] ;
728 -> 729 ;
730 [label="gini = 0.0\nsamples = 5\nvalue = [5, 0]"] ;
729 -> 730 ;
731 [label="annee <= 2010.0\ngini = 0.346\nsamples = 9\nvalue = [7, 2]"] ;
729 -> 731 ;
732 [label="annee <= 2007.0\ngini = 0.48\nsamples = 5\nvalue = [3, 2]"] ;
731 -> 732 ;
733 [label="Action <= 0.5\ngini = 0.375\nsamples = 4\nvalue = [3, 1]"] ;
732 -> 733 ;
734 [label="gini = 0.0\nsamples = 2\nvalue = [2, 0]"] ;
733 -> 734 ;
735 [label="annee <= 2004.5\ngini = 0.5\nsamples = 2\nvalue = [1, 1]"] ;
733 -> 735 ;
736 [label="gini = 0.0\nsamples = 1\nvalue = [0, 1]"] ;
735 -> 736 ;
737 [label="gini = 0.0\nsamples = 1\nvalue = [1, 0]"] ;
735 -> 737 ;
738 [label="gini = 0.0\nsamples = 1\nvalue = [0, 1]"] ;
732 -> 738 ;
739 [label="gini = 0.0\nsamples = 4\nvalue = [4, 0]"] ;
731 -> 739 ;
740 [label="gini = 0.0\nsamples = 9\nvalue = [9, 0]"] ;
728 -> 740 ;
741 [label="Adventure <= 0.5\ngini = 0.463\nsamples = 11\nvalue = [7, 4]"] ;
727 -> 741 ;
742 [label="gini = 0.0\nsamples = 3\nvalue = [3, 0]"] ;
741 -> 742 ;
743 [label="annee <= 2005.0\ngini = 0.5\nsamples = 8\nvalue = [4, 4]"] ;
741 -> 743 ;
744 [label="gini = 0.0\nsamples = 2\nvalue = [0, 2]"] ;
743 -> 744 ;
745 [label="Fantasy <= 0.5\ngini = 0.444\nsamples = 6\nvalue = [4, 2]"] ;
743 -> 745 ;
746 [label="gini = 0.0\nsamples = 2\nvalue = [0, 2]"] ;
745 -> 746 ;
747 [label="gini = 0.0\nsamples = 4\nvalue = [4, 0]"] ;
745 -> 747 ;
748 [label="budget <= 48500000.0\ngini = 0.444\nsamples = 3\nvalue = [1, 2]"] ;
632 -> 748 ;
749 [label="gini = 0.0\nsamples = 2\nvalue = [0, 2]"] ;
748 -> 749 ;
750 [label="gini = 0.0\nsamples = 1\nvalue = [1, 0]"] ;
748 -> 750 ;
751 [label="gini = 0.0\nsamples = 1\nvalue = [0, 1]"] ;
631 -> 751 ;
752 [label="budget <= 19500000.0\ngini = 0.468\nsamples = 59\nvalue = [37, 22]"] ;
630 -> 752 ;
753 [label="annee <= 2006.0\ngini = 0.444\nsamples = 15\nvalue = [5, 10]"] ;
752 -> 753 ;
754 [label="Fantasy <= 0.5\ngini = 0.198\nsamples = 9\nvalue = [1, 8]"] ;
753 -> 754 ;
755 [label="gini = 0.0\nsamples = 8\nvalue = [0, 8]"] ;
754 -> 755 ;
756 [label="gini = 0.0\nsamples = 1\nvalue = [1, 0]"] ;
754 -> 756 ;
757 [label="Duree <= 109.0\ngini = 0.444\nsamples = 6\nvalue = [4, 2]"] ;
753 -> 757 ;
758 [label="budget <= 11250000.0\ngini = 0.32\nsamples = 5\nvalue = [4, 1]"] ;
757 -> 758 ;
759 [label="Mystery <= 0.5\ngini = 0.5\nsamples = 2\nvalue = [1, 1]"] ;
758 -> 759 ;
760 [label="gini = 0.0\nsamples = 1\nvalue = [0, 1]"] ;
759 -> 760 ;
761 [label="gini = 0.0\nsamples = 1\nvalue = [1, 0]"] ;
759 -> 761 ;
762 [label="gini = 0.0\nsamples = 3\nvalue = [3, 0]"] ;
758 -> 762 ;
763 [label="gini = 0.0\nsamples = 1\nvalue = [0, 1]"] ;
757 -> 763 ;
764 [label="Thriller <= 0.5\ngini = 0.397\nsamples = 44\nvalue = [32, 12]"] ;
752 -> 764 ;
765 [label="budget <= 36000000.0\ngini = 0.497\nsamples = 13\nvalue = [6, 7]"] ;
764 -> 765 ;
766 [label="gini = 0.0\nsamples = 6\nvalue = [0, 6]"] ;
765 -> 766 ;
767 [label="Duree <= 108.0\ngini = 0.245\nsamples = 7\nvalue = [6, 1]"] ;
765 -> 767 ;
768 [label="gini = 0.0\nsamples = 5\nvalue = [5, 0]"] ;
767 -> 768 ;
769 [label="annee <= 2006.0\ngini = 0.5\nsamples = 2\nvalue = [1, 1]"] ;
767 -> 769 ;
770 [label="gini = 0.0\nsamples = 1\nvalue = [1, 0]"] ;
769 -> 770 ;
771 [label="gini = 0.0\nsamples = 1\nvalue = [0, 1]"] ;
769 -> 771 ;
772 [label="budget <= 30125000.0\ngini = 0.271\nsamples = 31\nvalue = [26, 5]"] ;
764 -> 772 ;
773 [label="gini = 0.0\nsamples = 15\nvalue = [15, 0]"] ;
772 -> 773 ;
774 [label="annee <= 2010.5\ngini = 0.43\nsamples = 16\nvalue = [11, 5]"] ;
772 -> 774 ;
775 [label="budget <= 32075000.0\ngini = 0.337\nsamples = 14\nvalue = [11, 3]"] ;
774 -> 775 ;
776 [label="gini = 0.0\nsamples = 1\nvalue = [0, 1]"] ;
775 -> 776 ;
777 [label="Fantasy <= 0.5\ngini = 0.26\nsamples = 13\nvalue = [11, 2]"] ;
775 -> 777 ;
778 [label="annee <= 2002.0\ngini = 0.165\nsamples = 11\nvalue = [10, 1]"] ;
777 -> 778 ;
779 [label="Duree <= 105.5\ngini = 0.444\nsamples = 3\nvalue = [2, 1]"] ;
778 -> 779 ;
780 [label="gini = 0.0\nsamples = 2\nvalue = [2, 0]"] ;
779 -> 780 ;
781 [label="gini = 0.0\nsamples = 1\nvalue = [0, 1]"] ;
779 -> 781 ;
782 [label="gini = 0.0\nsamples = 8\nvalue = [8, 0]"] ;
778 -> 782 ;
783 [label="Duree <= 106.5\ngini = 0.5\nsamples = 2\nvalue = [1, 1]"] ;
777 -> 783 ;
784 [label="gini = 0.0\nsamples = 1\nvalue = [1, 0]"] ;
783 -> 784 ;
785 [label="gini = 0.0\nsamples = 1\nvalue = [0, 1]"] ;
783 -> 785 ;
786 [label="gini = 0.0\nsamples = 2\nvalue = [0, 2]"] ;
774 -> 786 ;
787 [label="gini = 0.0\nsamples = 2\nvalue = [0, 2]"] ;
629 -> 787 ;
788 [label="budget <= 19000000.0\ngini = 0.465\nsamples = 152\nvalue = [56, 96]"] ;
128 -> 788 ;
789 [label="Action <= 0.5\ngini = 0.142\nsamples = 13\nvalue = [1, 12]"] ;
788 -> 789 ;
790 [label="gini = 0.0\nsamples = 10\nvalue = [0, 10]"] ;
789 -> 790 ;
791 [label="annee <= 2007.5\ngini = 0.444\nsamples = 3\nvalue = [1, 2]"] ;
789 -> 791 ;
792 [label="gini = 0.0\nsamples = 2\nvalue = [0, 2]"] ;
791 -> 792 ;
793 [label="gini = 0.0\nsamples = 1\nvalue = [1, 0]"] ;
791 -> 793 ;
794 [label="budget <= 82500000.0\ngini = 0.478\nsamples = 139\nvalue = [55, 84]"] ;
788 -> 794 ;
795 [label="Family <= 0.5\ngini = 0.5\nsamples = 74\nvalue = [37, 37]"] ;
794 -> 795 ;
796 [label="annee <= 2002.5\ngini = 0.32\nsamples = 10\nvalue = [2, 8]"] ;
795 -> 796 ;
797 [label="annee <= 2000.0\ngini = 0.444\nsamples = 3\nvalue = [2, 1]"] ;
796 -> 797 ;
798 [label="gini = 0.0\nsamples = 1\nvalue = [0, 1]"] ;
797 -> 798 ;
799 [label="gini = 0.0\nsamples = 2\nvalue = [2, 0]"] ;
797 -> 799 ;
800 [label="gini = 0.0\nsamples = 7\nvalue = [0, 7]"] ;
796 -> 800 ;
801 [label="annee <= 2000.5\ngini = 0.496\nsamples = 64\nvalue = [35, 29]"] ;
795 -> 801 ;
802 [label="Fantasy <= 0.5\ngini = 0.457\nsamples = 17\nvalue = [6, 11]"] ;
801 -> 802 ;
803 [label="gini = 0.0\nsamples = 4\nvalue = [0, 4]"] ;
802 -> 803 ;
804 [label="Duree <= 84.5\ngini = 0.497\nsamples = 13\nvalue = [6, 7]"] ;
802 -> 804 ;
805 [label="annee <= 1987.0\ngini = 0.32\nsamples = 5\nvalue = [1, 4]"] ;
804 -> 805 ;
806 [label="gini = 0.0\nsamples = 1\nvalue = [1, 0]"] ;
805 -> 806 ;
807 [label="gini = 0.0\nsamples = 4\nvalue = [0, 4]"] ;
805 -> 807 ;
808 [label="annee <= 1993.0\ngini = 0.469\nsamples = 8\nvalue = [5, 3]"] ;
804 -> 808 ;
809 [label="gini = 0.0\nsamples = 3\nvalue = [0, 3]"] ;
808 -> 809 ;
810 [label="gini = 0.0\nsamples = 5\nvalue = [5, 0]"] ;
808 -> 810 ;
811 [label="Duree <= 95.5\ngini = 0.473\nsamples = 47\nvalue = [29, 18]"] ;
801 -> 811 ;
812 [label="Mystery <= 0.5\ngini = 0.444\nsamples = 42\nvalue = [28, 14]"] ;
811 -> 812 ;
813 [label="Duree <= 88.5\ngini = 0.42\nsamples = 40\nvalue = [28, 12]"] ;
812 -> 813 ;
814 [label="Fantasy <= 0.5\ngini = 0.483\nsamples = 22\nvalue = [13, 9]"] ;
813 -> 814 ;
815 [label="Duree <= 85.5\ngini = 0.48\nsamples = 15\nvalue = [6, 9]"] ;
814 -> 815 ;
816 [label="annee <= 2005.5\ngini = 0.444\nsamples = 9\nvalue = [6, 3]"] ;
815 -> 816 ;
817 [label="gini = 0.0\nsamples = 3\nvalue = [3, 0]"] ;
816 -> 817 ;
818 [label="budget <= 36000000.0\ngini = 0.5\nsamples = 6\nvalue = [3, 3]"] ;
816 -> 818 ;
819 [label="gini = 0.0\nsamples = 2\nvalue = [0, 2]"] ;
818 -> 819 ;
820 [label="annee <= 2008.0\ngini = 0.375\nsamples = 4\nvalue = [3, 1]"] ;
818 -> 820 ;
821 [label="gini = 0.0\nsamples = 1\nvalue = [0, 1]"] ;
820 -> 821 ;
822 [label="gini = 0.0\nsamples = 3\nvalue = [3, 0]"] ;
820 -> 822 ;
823 [label="gini = 0.0\nsamples = 6\nvalue = [0, 6]"] ;
815 -> 823 ;
824 [label="gini = 0.0\nsamples = 7\nvalue = [7, 0]"] ;
814 -> 824 ;
825 [label="Fantasy <= 0.5\ngini = 0.278\nsamples = 18\nvalue = [15, 3]"] ;
813 -> 825 ;
826 [label="gini = 0.0\nsamples = 11\nvalue = [11, 0]"] ;
825 -> 826 ;
827 [label="budget <= 61500000.0\ngini = 0.49\nsamples = 7\nvalue = [4, 3]"] ;
825 -> 827 ;
828 [label="Music <= 0.5\ngini = 0.375\nsamples = 4\nvalue = [1, 3]"] ;
827 -> 828 ;
829 [label="gini = 0.0\nsamples = 3\nvalue = [0, 3]"] ;
828 -> 829 ;
830 [label="gini = 0.0\nsamples = 1\nvalue = [1, 0]"] ;
828 -> 830 ;
831 [label="gini = 0.0\nsamples = 3\nvalue = [3, 0]"] ;
827 -> 831 ;
832 [label="gini = 0.0\nsamples = 2\nvalue = [0, 2]"] ;
812 -> 832 ;
833 [label="Duree <= 103.5\ngini = 0.32\nsamples = 5\nvalue = [1, 4]"] ;
811 -> 833 ;
834 [label="gini = 0.0\nsamples = 4\nvalue = [0, 4]"] ;
833 -> 834 ;
835 [label="gini = 0.0\nsamples = 1\nvalue = [1, 0]"] ;
833 -> 835 ;
836 [label="Duree <= 84.5\ngini = 0.4\nsamples = 65\nvalue = [18, 47]"] ;
794 -> 836 ;
837 [label="annee <= 2001.0\ngini = 0.375\nsamples = 8\nvalue = [6, 2]"] ;
836 -> 837 ;
838 [label="Sci-Fi <= 0.5\ngini = 0.444\nsamples = 3\nvalue = [1, 2]"] ;
837 -> 838 ;
839 [label="gini = 0.0\nsamples = 2\nvalue = [0, 2]"] ;
838 -> 839 ;
840 [label="gini = 0.0\nsamples = 1\nvalue = [1, 0]"] ;
838 -> 840 ;
841 [label="gini = 0.0\nsamples = 5\nvalue = [5, 0]"] ;
837 -> 841 ;
842 [label="Duree <= 104.5\ngini = 0.332\nsamples = 57\nvalue = [12, 45]"] ;
836 -> 842 ;
843 [label="annee <= 2006.5\ngini = 0.269\nsamples = 50\nvalue = [8, 42]"] ;
842 -> 843 ;
844 [label="gini = 0.0\nsamples = 11\nvalue = [0, 11]"] ;
843 -> 844 ;
845 [label="annee <= 2007.5\ngini = 0.326\nsamples = 39\nvalue = [8, 31]"] ;
843 -> 845 ;
846 [label="budget <= 117500000.0\ngini = 0.444\nsamples = 3\nvalue = [2, 1]"] ;
845 -> 846 ;
847 [label="gini = 0.0\nsamples = 1\nvalue = [0, 1]"] ;
846 -> 847 ;
848 [label="gini = 0.0\nsamples = 2\nvalue = [2, 0]"] ;
846 -> 848 ;
849 [label="Sport <= 0.5\ngini = 0.278\nsamples = 36\nvalue = [6, 30]"] ;
845 -> 849 ;
850 [label="Duree <= 99.0\ngini = 0.245\nsamples = 35\nvalue = [5, 30]"] ;
849 -> 850 ;
851 [label="budget <= 147500000.0\ngini = 0.153\nsamples = 24\nvalue = [2, 22]"] ;
850 -> 851 ;
852 [label="gini = 0.0\nsamples = 15\nvalue = [0, 15]"] ;
851 -> 852 ;
853 [label="Duree <= 88.5\ngini = 0.346\nsamples = 9\nvalue = [2, 7]"] ;
851 -> 853 ;
854 [label="gini = 0.0\nsamples = 1\nvalue = [1, 0]"] ;
853 -> 854 ;
855 [label="Fantasy <= 0.5\ngini = 0.219\nsamples = 8\nvalue = [1, 7]"] ;
853 -> 855 ;
856 [label="gini = 0.0\nsamples = 5\nvalue = [0, 5]"] ;
855 -> 856 ;
857 [label="Comedy <= 0.5\ngini = 0.444\nsamples = 3\nvalue = [1, 2]"] ;
855 -> 857 ;
858 [label="gini = 0.0\nsamples = 1\nvalue = [0, 1]"] ;
857 -> 858 ;
859 [label="annee <= 2011.0\ngini = 0.5\nsamples = 2\nvalue = [1, 1]"] ;
857 -> 859 ;
860 [label="gini = 0.0\nsamples = 1\nvalue = [1, 0]"] ;
859 -> 860 ;
861 [label="gini = 0.0\nsamples = 1\nvalue = [0, 1]"] ;
859 -> 861 ;
862 [label="budget <= 137500000.0\ngini = 0.397\nsamples = 11\nvalue = [3, 8]"] ;
850 -> 862 ;
863 [label="Comedy <= 0.5\ngini = 0.375\nsamples = 4\nvalue = [3, 1]"] ;
862 -> 863 ;
864 [label="gini = 0.0\nsamples = 1\nvalue = [0, 1]"] ;
863 -> 864 ;
865 [label="gini = 0.0\nsamples = 3\nvalue = [3, 0]"] ;
863 -> 865 ;
866 [label="gini = 0.0\nsamples = 7\nvalue = [0, 7]"] ;
862 -> 866 ;
867 [label="gini = 0.0\nsamples = 1\nvalue = [1, 0]"] ;
849 -> 867 ;
868 [label="Duree <= 106.5\ngini = 0.49\nsamples = 7\nvalue = [4, 3]"] ;
842 -> 868 ;
869 [label="gini = 0.0\nsamples = 3\nvalue = [3, 0]"] ;
868 -> 869 ;
870 [label="Duree <= 107.5\ngini = 0.375\nsamples = 4\nvalue = [1, 3]"] ;
868 -> 870 ;
871 [label="gini = 0.0\nsamples = 3\nvalue = [0, 3]"] ;
870 -> 871 ;
872 [label="gini = 0.0\nsamples = 1\nvalue = [1, 0]"] ;
870 -> 872 ;
873 [label="Duree <= 134.5\ngini = 0.49\nsamples = 512\nvalue = [219, 293]"] ;
127 -> 873 ;
874 [label="annee <= 1992.5\ngini = 0.5\nsamples = 398\nvalue = [193, 205]"] ;
873 -> 874 ;
875 [label="Family <= 0.5\ngini = 0.355\nsamples = 39\nvalue = [9, 30]"] ;
874 -> 875 ;
876 [label="Duree <= 115.5\ngini = 0.307\nsamples = 37\nvalue = [7, 30]"] ;
875 -> 876 ;
877 [label="annee <= 1987.5\ngini = 0.5\nsamples = 8\nvalue = [4, 4]"] ;
876 -> 877 ;
878 [label="gini = 0.0\nsamples = 2\nvalue = [0, 2]"] ;
877 -> 878 ;
879 [label="budget <= 26500000.0\ngini = 0.444\nsamples = 6\nvalue = [4, 2]"] ;
877 -> 879 ;
880 [label="gini = 0.0\nsamples = 3\nvalue = [3, 0]"] ;
879 -> 880 ;
881 [label="budget <= 31000000.0\ngini = 0.444\nsamples = 3\nvalue = [1, 2]"] ;
879 -> 881 ;
882 [label="gini = 0.0\nsamples = 1\nvalue = [0, 1]"] ;
881 -> 882 ;
883 [label="Comedy <= 0.5\ngini = 0.5\nsamples = 2\nvalue = [1, 1]"] ;
881 -> 883 ;
884 [label="gini = 0.0\nsamples = 1\nvalue = [0, 1]"] ;
883 -> 884 ;
885 [label="gini = 0.0\nsamples = 1\nvalue = [1, 0]"] ;
883 -> 885 ;
886 [label="Horror <= 0.5\ngini = 0.185\nsamples = 29\nvalue = [3, 26]"] ;
876 -> 886 ;
887 [label="annee <= 1985.5\ngini = 0.071\nsamples = 27\nvalue = [1, 26]"] ;
886 -> 887 ;
888 [label="Sci-Fi <= 0.5\ngini = 0.5\nsamples = 2\nvalue = [1, 1]"] ;
887 -> 888 ;
889 [label="gini = 0.0\nsamples = 1\nvalue = [1, 0]"] ;
888 -> 889 ;
890 [label="gini = 0.0\nsamples = 1\nvalue = [0, 1]"] ;
888 -> 890 ;
891 [label="gini = 0.0\nsamples = 25\nvalue = [0, 25]"] ;
887 -> 891 ;
892 [label="gini = 0.0\nsamples = 2\nvalue = [2, 0]"] ;
886 -> 892 ;
893 [label="gini = 0.0\nsamples = 2\nvalue = [2, 0]"] ;
875 -> 893 ;
894 [label="budget <= 21170000.0\ngini = 0.5\nsamples = 359\nvalue = [184, 175]"] ;
874 -> 894 ;
895 [label="Horror <= 0.5\ngini = 0.448\nsamples = 56\nvalue = [19, 37]"] ;
894 -> 895 ;
896 [label="Action <= 0.5\ngini = 0.381\nsamples = 43\nvalue = [11, 32]"] ;
895 -> 896 ;
897 [label="budget <= 19105000.0\ngini = 0.313\nsamples = 36\nvalue = [7, 29]"] ;
896 -> 897 ;
898 [label="Comedy <= 0.5\ngini = 0.257\nsamples = 33\nvalue = [5, 28]"] ;
897 -> 898 ;
899 [label="Duree <= 126.0\ngini = 0.391\nsamples = 15\nvalue = [4, 11]"] ;
898 -> 899 ;
900 [label="Music <= 0.5\ngini = 0.337\nsamples = 14\nvalue = [3, 11]"] ;
899 -> 900 ;
901 [label="Mystery <= 0.5\ngini = 0.26\nsamples = 13\nvalue = [2, 11]"] ;
900 -> 901 ;
902 [label="gini = 0.0\nsamples = 8\nvalue = [0, 8]"] ;
901 -> 902 ;
903 [label="annee <= 2001.5\ngini = 0.48\nsamples = 5\nvalue = [2, 3]"] ;
901 -> 903 ;
904 [label="gini = 0.0\nsamples = 2\nvalue = [0, 2]"] ;
903 -> 904 ;
905 [label="Romance <= 0.5\ngini = 0.444\nsamples = 3\nvalue = [2, 1]"] ;
903 -> 905 ;
906 [label="gini = 0.0\nsamples = 2\nvalue = [2, 0]"] ;
905 -> 906 ;
907 [label="gini = 0.0\nsamples = 1\nvalue = [0, 1]"] ;
905 -> 907 ;
908 [label="gini = 0.0\nsamples = 1\nvalue = [1, 0]"] ;
900 -> 908 ;
909 [label="gini = 0.0\nsamples = 1\nvalue = [1, 0]"] ;
899 -> 909 ;
910 [label="Fantasy <= 0.5\ngini = 0.105\nsamples = 18\nvalue = [1, 17]"] ;
898 -> 910 ;
911 [label="gini = 0.0\nsamples = 14\nvalue = [0, 14]"] ;
910 -> 911 ;
912 [label="Romance <= 0.5\ngini = 0.375\nsamples = 4\nvalue = [1, 3]"] ;
910 -> 912 ;
913 [label="gini = 0.0\nsamples = 3\nvalue = [0, 3]"] ;
912 -> 913 ;
914 [label="gini = 0.0\nsamples = 1\nvalue = [1, 0]"] ;
912 -> 914 ;
915 [label="annee <= 2009.0\ngini = 0.444\nsamples = 3\nvalue = [2, 1]"] ;
897 -> 915 ;
916 [label="gini = 0.0\nsamples = 1\nvalue = [0, 1]"] ;
915 -> 916 ;
917 [label="gini = 0.0\nsamples = 2\nvalue = [2, 0]"] ;
915 -> 917 ;
918 [label="budget <= 11120000.0\ngini = 0.49\nsamples = 7\nvalue = [4, 3]"] ;
896 -> 918 ;
919 [label="gini = 0.0\nsamples = 3\nvalue = [3, 0]"] ;
918 -> 919 ;
920 [label="Duree <= 124.5\ngini = 0.375\nsamples = 4\nvalue = [1, 3]"] ;
918 -> 920 ;
921 [label="gini = 0.0\nsamples = 3\nvalue = [0, 3]"] ;
920 -> 921 ;
922 [label="gini = 0.0\nsamples = 1\nvalue = [1, 0]"] ;
920 -> 922 ;
923 [label="budget <= 16500000.0\ngini = 0.473\nsamples = 13\nvalue = [8, 5]"] ;
895 -> 923 ;
924 [label="Duree <= 116.5\ngini = 0.397\nsamples = 11\nvalue = [8, 3]"] ;
923 -> 924 ;
925 [label="budget <= 13250000.0\ngini = 0.5\nsamples = 6\nvalue = [3, 3]"] ;
924 -> 925 ;
926 [label="annee <= 2004.5\ngini = 0.375\nsamples = 4\nvalue = [3, 1]"] ;
925 -> 926 ;
927 [label="gini = 0.0\nsamples = 1\nvalue = [0, 1]"] ;
926 -> 927 ;
928 [label="gini = 0.0\nsamples = 3\nvalue = [3, 0]"] ;
926 -> 928 ;
929 [label="gini = 0.0\nsamples = 2\nvalue = [0, 2]"] ;
925 -> 929 ;
930 [label="gini = 0.0\nsamples = 5\nvalue = [5, 0]"] ;
924 -> 930 ;
931 [label="gini = 0.0\nsamples = 2\nvalue = [0, 2]"] ;
923 -> 931 ;
932 [label="annee <= 2005.5\ngini = 0.496\nsamples = 303\nvalue = [165, 138]"] ;
894 -> 932 ;
933 [label="Comedy <= 0.5\ngini = 0.465\nsamples = 147\nvalue = [93, 54]"] ;
932 -> 933 ;
934 [label="budget <= 49000000.0\ngini = 0.489\nsamples = 101\nvalue = [58, 43]"] ;
933 -> 934 ;
935 [label="annee <= 2000.5\ngini = 0.488\nsamples = 26\nvalue = [11, 15]"] ;
934 -> 935 ;
936 [label="annee <= 1999.5\ngini = 0.494\nsamples = 18\nvalue = [10, 8]"] ;
935 -> 936 ;
937 [label="Thriller <= 0.5\ngini = 0.498\nsamples = 15\nvalue = [7, 8]"] ;
936 -> 937 ;
938 [label="annee <= 1998.5\ngini = 0.32\nsamples = 5\nvalue = [4, 1]"] ;
937 -> 938 ;
939 [label="gini = 0.0\nsamples = 4\nvalue = [4, 0]"] ;
938 -> 939 ;
940 [label="gini = 0.0\nsamples = 1\nvalue = [0, 1]"] ;
938 -> 940 ;
941 [label="Duree <= 115.5\ngini = 0.42\nsamples = 10\nvalue = [3, 7]"] ;
937 -> 941 ;
942 [label="budget <= 40000000.0\ngini = 0.48\nsamples = 5\nvalue = [3, 2]"] ;
941 -> 942 ;
943 [label="gini = 0.0\nsamples = 2\nvalue = [2, 0]"] ;
942 -> 943 ;
944 [label="annee <= 1995.0\ngini = 0.444\nsamples = 3\nvalue = [1, 2]"] ;
942 -> 944 ;
945 [label="gini = 0.0\nsamples = 1\nvalue = [1, 0]"] ;
944 -> 945 ;
946 [label="gini = 0.0\nsamples = 2\nvalue = [0, 2]"] ;
944 -> 946 ;
947 [label="gini = 0.0\nsamples = 5\nvalue = [0, 5]"] ;
941 -> 947 ;
948 [label="gini = 0.0\nsamples = 3\nvalue = [3, 0]"] ;
936 -> 948 ;
949 [label="annee <= 2004.0\ngini = 0.219\nsamples = 8\nvalue = [1, 7]"] ;
935 -> 949 ;
950 [label="gini = 0.0\nsamples = 6\nvalue = [0, 6]"] ;
949 -> 950 ;
951 [label="Adventure <= 0.5\ngini = 0.5\nsamples = 2\nvalue = [1, 1]"] ;
949 -> 951 ;
952 [label="gini = 0.0\nsamples = 1\nvalue = [1, 0]"] ;
951 -> 952 ;
953 [label="gini = 0.0\nsamples = 1\nvalue = [0, 1]"] ;
951 -> 953 ;
954 [label="War <= 0.5\ngini = 0.468\nsamples = 75\nvalue = [47, 28]"] ;
934 -> 954 ;
955 [label="annee <= 2004.5\ngini = 0.459\nsamples = 73\nvalue = [47, 26]"] ;
954 -> 955 ;
956 [label="Horror <= 0.5\ngini = 0.472\nsamples = 68\nvalue = [42, 26]"] ;
955 -> 956 ;
957 [label="annee <= 2000.5\ngini = 0.485\nsamples = 63\nvalue = [37, 26]"] ;
956 -> 957 ;
958 [label="annee <= 1994.5\ngini = 0.431\nsamples = 35\nvalue = [24, 11]"] ;
957 -> 958 ;
959 [label="Sci-Fi <= 0.5\ngini = 0.375\nsamples = 4\nvalue = [1, 3]"] ;
958 -> 959 ;
960 [label="gini = 0.0\nsamples = 1\nvalue = [1, 0]"] ;
959 -> 960 ;
961 [label="gini = 0.0\nsamples = 3\nvalue = [0, 3]"] ;
959 -> 961 ;
962 [label="Duree <= 120.0\ngini = 0.383\nsamples = 31\nvalue = [23, 8]"] ;
958 -> 962 ;
963 [label="gini = 0.0\nsamples = 7\nvalue = [7, 0]"] ;
962 -> 963 ;
964 [label="annee <= 1999.5\ngini = 0.444\nsamples = 24\nvalue = [16, 8]"] ;
962 -> 964 ;
965 [label="Duree <= 131.5\ngini = 0.48\nsamples = 20\nvalue = [12, 8]"] ;
964 -> 965 ;
966 [label="budget <= 96500000.0\ngini = 0.498\nsamples = 17\nvalue = [9, 8]"] ;
965 -> 966 ;
967 [label="Duree <= 123.5\ngini = 0.486\nsamples = 12\nvalue = [5, 7]"] ;
966 -> 967 ;
968 [label="gini = 0.0\nsamples = 3\nvalue = [0, 3]"] ;
967 -> 968 ;
969 [label="budget <= 85000000.0\ngini = 0.494\nsamples = 9\nvalue = [5, 4]"] ;
967 -> 969 ;
970 [label="annee <= 1996.0\ngini = 0.408\nsamples = 7\nvalue = [5, 2]"] ;
969 -> 970 ;
971 [label="gini = 0.0\nsamples = 1\nvalue = [0, 1]"] ;
970 -> 971 ;
972 [label="annee <= 1998.5\ngini = 0.278\nsamples = 6\nvalue = [5, 1]"] ;
970 -> 972 ;
973 [label="gini = 0.0\nsamples = 5\nvalue = [5, 0]"] ;
972 -> 973 ;
974 [label="gini = 0.0\nsamples = 1\nvalue = [0, 1]"] ;
972 -> 974 ;
975 [label="gini = 0.0\nsamples = 2\nvalue = [0, 2]"] ;
969 -> 975 ;
976 [label="Duree <= 126.0\ngini = 0.32\nsamples = 5\nvalue = [4, 1]"] ;
966 -> 976 ;
977 [label="gini = 0.0\nsamples = 3\nvalue = [3, 0]"] ;
976 -> 977 ;
978 [label="Duree <= 127.5\ngini = 0.5\nsamples = 2\nvalue = [1, 1]"] ;
976 -> 978 ;
979 [label="gini = 0.0\nsamples = 1\nvalue = [0, 1]"] ;
978 -> 979 ;
980 [label="gini = 0.0\nsamples = 1\nvalue = [1, 0]"] ;
978 -> 980 ;
981 [label="gini = 0.0\nsamples = 3\nvalue = [3, 0]"] ;
965 -> 981 ;
982 [label="gini = 0.0\nsamples = 4\nvalue = [4, 0]"] ;
964 -> 982 ;
983 [label="Duree <= 115.5\ngini = 0.497\nsamples = 28\nvalue = [13, 15]"] ;
957 -> 983 ;
984 [label="gini = 0.0\nsamples = 4\nvalue = [0, 4]"] ;
983 -> 984 ;
985 [label="Duree <= 133.5\ngini = 0.497\nsamples = 24\nvalue = [13, 11]"] ;
983 -> 985 ;
986 [label="Adventure <= 0.5\ngini = 0.483\nsamples = 22\nvalue = [13, 9]"] ;
985 -> 986 ;
987 [label="annee <= 2002.5\ngini = 0.48\nsamples = 10\nvalue = [4, 6]"] ;
986 -> 987 ;
988 [label="gini = 0.0\nsamples = 4\nvalue = [0, 4]"] ;
987 -> 988 ;
989 [label="Thriller <= 0.5\ngini = 0.444\nsamples = 6\nvalue = [4, 2]"] ;
987 -> 989 ;
990 [label="gini = 0.0\nsamples = 2\nvalue = [0, 2]"] ;
989 -> 990 ;
991 [label="gini = 0.0\nsamples = 4\nvalue = [4, 0]"] ;
989 -> 991 ;
992 [label="budget <= 99000000.0\ngini = 0.375\nsamples = 12\nvalue = [9, 3]"] ;
986 -> 992 ;
993 [label="gini = 0.0\nsamples = 5\nvalue = [5, 0]"] ;
992 -> 993 ;
994 [label="budget <= 140500000.0\ngini = 0.49\nsamples = 7\nvalue = [4, 3]"] ;
992 -> 994 ;
995 [label="Sci-Fi <= 0.5\ngini = 0.48\nsamples = 5\nvalue = [2, 3]"] ;
994 -> 995 ;
996 [label="gini = 0.0\nsamples = 2\nvalue = [0, 2]"] ;
995 -> 996 ;
997 [label="Fantasy <= 0.5\ngini = 0.444\nsamples = 3\nvalue = [2, 1]"] ;
995 -> 997 ;
998 [label="gini = 0.0\nsamples = 2\nvalue = [2, 0]"] ;
997 -> 998 ;
999 [label="gini = 0.0\nsamples = 1\nvalue = [0, 1]"] ;
997 -> 999 ;
1000 [label="gini = 0.0\nsamples = 2\nvalue = [2, 0]"] ;
994 -> 1000 ;
1001 [label="gini = 0.0\nsamples = 2\nvalue = [0, 2]"] ;
985 -> 1001 ;
1002 [label="gini = 0.0\nsamples = 5\nvalue = [5, 0]"] ;
956 -> 1002 ;
1003 [label="gini = 0.0\nsamples = 5\nvalue = [5, 0]"] ;
955 -> 1003 ;
1004 [label="gini = 0.0\nsamples = 2\nvalue = [0, 2]"] ;
954 -> 1004 ;
1005 [label="annee <= 1998.5\ngini = 0.364\nsamples = 46\nvalue = [35, 11]"] ;
933 -> 1005 ;
1006 [label="annee <= 1993.5\ngini = 0.5\nsamples = 12\nvalue = [6, 6]"] ;
1005 -> 1006 ;
1007 [label="gini = 0.0\nsamples = 2\nvalue = [2, 0]"] ;
1006 -> 1007 ;
1008 [label="budget <= 35500000.0\ngini = 0.48\nsamples = 10\nvalue = [4, 6]"] ;
1006 -> 1008 ;
1009 [label="Crime <= 0.5\ngini = 0.32\nsamples = 5\nvalue = [1, 4]"] ;
1008 -> 1009 ;
1010 [label="gini = 0.0\nsamples = 4\nvalue = [0, 4]"] ;
1009 -> 1010 ;
1011 [label="gini = 0.0\nsamples = 1\nvalue = [1, 0]"] ;
1009 -> 1011 ;
1012 [label="Duree <= 120.0\ngini = 0.48\nsamples = 5\nvalue = [3, 2]"] ;
1008 -> 1012 ;
1013 [label="gini = 0.0\nsamples = 2\nvalue = [2, 0]"] ;
1012 -> 1013 ;
1014 [label="budget <= 86500000.0\ngini = 0.444\nsamples = 3\nvalue = [1, 2]"] ;
1012 -> 1014 ;
1015 [label="gini = 0.0\nsamples = 2\nvalue = [0, 2]"] ;
1014 -> 1015 ;
1016 [label="gini = 0.0\nsamples = 1\nvalue = [1, 0]"] ;
1014 -> 1016 ;
1017 [label="Duree <= 127.5\ngini = 0.251\nsamples = 34\nvalue = [29, 5]"] ;
1005 -> 1017 ;
1018 [label="budget <= 140000000.0\ngini = 0.175\nsamples = 31\nvalue = [28, 3]"] ;
1017 -> 1018 ;
1019 [label="Musical <= 0.5\ngini = 0.124\nsamples = 30\nvalue = [28, 2]"] ;
1018 -> 1019 ;
1020 [label="annee <= 2004.5\ngini = 0.067\nsamples = 29\nvalue = [28, 1]"] ;
1019 -> 1020 ;
1021 [label="gini = 0.0\nsamples = 21\nvalue = [21, 0]"] ;
1020 -> 1021 ;
1022 [label="Romance <= 0.5\ngini = 0.219\nsamples = 8\nvalue = [7, 1]"] ;
1020 -> 1022 ;
1023 [label="gini = 0.0\nsamples = 6\nvalue = [6, 0]"] ;
1022 -> 1023 ;
1024 [label="budget <= 95000000.0\ngini = 0.5\nsamples = 2\nvalue = [1, 1]"] ;
1022 -> 1024 ;
1025 [label="gini = 0.0\nsamples = 1\nvalue = [0, 1]"] ;
1024 -> 1025 ;
1026 [label="gini = 0.0\nsamples = 1\nvalue = [1, 0]"] ;
1024 -> 1026 ;
1027 [label="gini = 0.0\nsamples = 1\nvalue = [0, 1]"] ;
1019 -> 1027 ;
1028 [label="gini = 0.0\nsamples = 1\nvalue = [0, 1]"] ;
1018 -> 1028 ;
1029 [label="Romance <= 0.5\ngini = 0.444\nsamples = 3\nvalue = [1, 2]"] ;
1017 -> 1029 ;
1030 [label="gini = 0.0\nsamples = 1\nvalue = [1, 0]"] ;
1029 -> 1030 ;
1031 [label="gini = 0.0\nsamples = 2\nvalue = [0, 2]"] ;
1029 -> 1031 ;
1032 [label="Action <= 0.5\ngini = 0.497\nsamples = 156\nvalue = [72, 84]"] ;
932 -> 1032 ;
1033 [label="annee <= 2007.5\ngini = 0.465\nsamples = 57\nvalue = [36, 21]"] ;
1032 -> 1033 ;
1034 [label="Duree <= 116.5\ngini = 0.444\nsamples = 12\nvalue = [4, 8]"] ;
1033 -> 1034 ;
1035 [label="Romance <= 0.5\ngini = 0.5\nsamples = 8\nvalue = [4, 4]"] ;
1034 -> 1035 ;
1036 [label="Adventure <= 0.5\ngini = 0.444\nsamples = 6\nvalue = [2, 4]"] ;
1035 -> 1036 ;
1037 [label="gini = 0.0\nsamples = 4\nvalue = [0, 4]"] ;
1036 -> 1037 ;
1038 [label="gini = 0.0\nsamples = 2\nvalue = [2, 0]"] ;
1036 -> 1038 ;
1039 [label="gini = 0.0\nsamples = 2\nvalue = [2, 0]"] ;
1035 -> 1039 ;
1040 [label="gini = 0.0\nsamples = 4\nvalue = [0, 4]"] ;
1034 -> 1040 ;
1041 [label="Duree <= 119.5\ngini = 0.411\nsamples = 45\nvalue = [32, 13]"] ;
1033 -> 1041 ;
1042 [label="Music <= 0.5\ngini = 0.285\nsamples = 29\nvalue = [24, 5]"] ;
1041 -> 1042 ;
1043 [label="Sci-Fi <= 0.5\ngini = 0.198\nsamples = 27\nvalue = [24, 3]"] ;
1042 -> 1043 ;
1044 [label="annee <= 2011.5\ngini = 0.147\nsamples = 25\nvalue = [23, 2]"] ;
1043 -> 1044 ;
1045 [label="gini = 0.0\nsamples = 13\nvalue = [13, 0]"] ;
1044 -> 1045 ;
1046 [label="annee <= 2012.5\ngini = 0.278\nsamples = 12\nvalue = [10, 2]"] ;
1044 -> 1046 ;
1047 [label="budget <= 60000000.0\ngini = 0.5\nsamples = 4\nvalue = [2, 2]"] ;
1046 -> 1047 ;
1048 [label="gini = 0.0\nsamples = 2\nvalue = [0, 2]"] ;
1047 -> 1048 ;
1049 [label="gini = 0.0\nsamples = 2\nvalue = [2, 0]"] ;
1047 -> 1049 ;
1050 [label="gini = 0.0\nsamples = 8\nvalue = [8, 0]"] ;
1046 -> 1050 ;
1051 [label="budget <= 80000000.0\ngini = 0.5\nsamples = 2\nvalue = [1, 1]"] ;
1043 -> 1051 ;
1052 [label="gini = 0.0\nsamples = 1\nvalue = [0, 1]"] ;
1051 -> 1052 ;
1053 [label="gini = 0.0\nsamples = 1\nvalue = [1, 0]"] ;
1051 -> 1053 ;
1054 [label="gini = 0.0\nsamples = 2\nvalue = [0, 2]"] ;
1042 -> 1054 ;
1055 [label="Duree <= 124.5\ngini = 0.5\nsamples = 16\nvalue = [8, 8]"] ;
1041 -> 1055 ;
1056 [label="Crime <= 0.5\ngini = 0.278\nsamples = 6\nvalue = [1, 5]"] ;
1055 -> 1056 ;
1057 [label="gini = 0.0\nsamples = 5\nvalue = [0, 5]"] ;
1056 -> 1057 ;
1058 [label="gini = 0.0\nsamples = 1\nvalue = [1, 0]"] ;
1056 -> 1058 ;
1059 [label="annee <= 2014.5\ngini = 0.42\nsamples = 10\nvalue = [7, 3]"] ;
1055 -> 1059 ;
1060 [label="Mystery <= 0.5\ngini = 0.346\nsamples = 9\nvalue = [7, 2]"] ;
1059 -> 1060 ;
1061 [label="annee <= 2011.5\ngini = 0.219\nsamples = 8\nvalue = [7, 1]"] ;
1060 -> 1061 ;
1062 [label="annee <= 2010.5\ngini = 0.5\nsamples = 2\nvalue = [1, 1]"] ;
1061 -> 1062 ;
1063 [label="gini = 0.0\nsamples = 1\nvalue = [1, 0]"] ;
1062 -> 1063 ;
1064 [label="gini = 0.0\nsamples = 1\nvalue = [0, 1]"] ;
1062 -> 1064 ;
1065 [label="gini = 0.0\nsamples = 6\nvalue = [6, 0]"] ;
1061 -> 1065 ;
1066 [label="gini = 0.0\nsamples = 1\nvalue = [0, 1]"] ;
1060 -> 1066 ;
1067 [label="gini = 0.0\nsamples = 1\nvalue = [0, 1]"] ;
1059 -> 1067 ;
1068 [label="Romance <= 0.5\ngini = 0.463\nsamples = 99\nvalue = [36, 63]"] ;
1032 -> 1068 ;
1069 [label="Thriller <= 0.5\ngini = 0.447\nsamples = 92\nvalue = [31, 61]"] ;
1068 -> 1069 ;
1070 [label="annee <= 2008.5\ngini = 0.363\nsamples = 42\nvalue = [10, 32]"] ;
1069 -> 1070 ;
1071 [label="budget <= 145000000.0\ngini = 0.496\nsamples = 11\nvalue = [5, 6]"] ;
1070 -> 1071 ;
1072 [label="Sport <= 0.5\ngini = 0.444\nsamples = 9\nvalue = [3, 6]"] ;
1071 -> 1072 ;
1073 [label="Duree <= 116.0\ngini = 0.375\nsamples = 8\nvalue = [2, 6]"] ;
1072 -> 1073 ;
1074 [label="annee <= 2007.0\ngini = 0.444\nsamples = 3\nvalue = [2, 1]"] ;
1073 -> 1074 ;
1075 [label="gini = 0.0\nsamples = 1\nvalue = [0, 1]"] ;
1074 -> 1075 ;
1076 [label="gini = 0.0\nsamples = 2\nvalue = [2, 0]"] ;
1074 -> 1076 ;
1077 [label="gini = 0.0\nsamples = 5\nvalue = [0, 5]"] ;
1073 -> 1077 ;
1078 [label="gini = 0.0\nsamples = 1\nvalue = [1, 0]"] ;
1072 -> 1078 ;
1079 [label="gini = 0.0\nsamples = 2\nvalue = [2, 0]"] ;
1071 -> 1079 ;
1080 [label="annee <= 2014.5\ngini = 0.271\nsamples = 31\nvalue = [5, 26]"] ;
1070 -> 1080 ;
1081 [label="budget <= 80000000.0\ngini = 0.204\nsamples = 26\nvalue = [3, 23]"] ;
1080 -> 1081 ;
1082 [label="budget <= 60000000.0\ngini = 0.444\nsamples = 9\nvalue = [3, 6]"] ;
1081 -> 1082 ;
1083 [label="annee <= 2012.0\ngini = 0.245\nsamples = 7\nvalue = [1, 6]"] ;
1082 -> 1083 ;
1084 [label="Crime <= 0.5\ngini = 0.444\nsamples = 3\nvalue = [1, 2]"] ;
1083 -> 1084 ;
1085 [label="gini = 0.0\nsamples = 2\nvalue = [0, 2]"] ;
1084 -> 1085 ;
1086 [label="gini = 0.0\nsamples = 1\nvalue = [1, 0]"] ;
1084 -> 1086 ;
1087 [label="gini = 0.0\nsamples = 4\nvalue = [0, 4]"] ;
1083 -> 1087 ;
1088 [label="gini = 0.0\nsamples = 2\nvalue = [2, 0]"] ;
1082 -> 1088 ;
1089 [label="gini = 0.0\nsamples = 17\nvalue = [0, 17]"] ;
1081 -> 1089 ;
1090 [label="budget <= 153000000.0\ngini = 0.48\nsamples = 5\nvalue = [2, 3]"] ;
1080 -> 1090 ;
1091 [label="gini = 0.0\nsamples = 3\nvalue = [0, 3]"] ;
1090 -> 1091 ;
1092 [label="gini = 0.0\nsamples = 2\nvalue = [2, 0]"] ;
1090 -> 1092 ;
1093 [label="annee <= 2014.5\ngini = 0.487\nsamples = 50\nvalue = [21, 29]"] ;
1069 -> 1093 ;
1094 [label="Sci-Fi <= 0.5\ngini = 0.499\nsamples = 44\nvalue = [21, 23]"] ;
1093 -> 1094 ;
1095 [label="Fantasy <= 0.5\ngini = 0.452\nsamples = 29\nvalue = [10, 19]"] ;
1094 -> 1095 ;
1096 [label="budget <= 49000000.0\ngini = 0.417\nsamples = 27\nvalue = [8, 19]"] ;
1095 -> 1096 ;
1097 [label="Duree <= 114.0\ngini = 0.48\nsamples = 5\nvalue = [3, 2]"] ;
1096 -> 1097 ;
1098 [label="gini = 0.0\nsamples = 2\nvalue = [0, 2]"] ;
1097 -> 1098 ;
1099 [label="gini = 0.0\nsamples = 3\nvalue = [3, 0]"] ;
1097 -> 1099 ;
1100 [label="Duree <= 133.5\ngini = 0.351\nsamples = 22\nvalue = [5, 17]"] ;
1096 -> 1100 ;
1101 [label="Crime <= 0.5\ngini = 0.308\nsamples = 21\nvalue = [4, 17]"] ;
1100 -> 1101 ;
1102 [label="budget <= 100000000.0\ngini = 0.48\nsamples = 10\nvalue = [4, 6]"] ;
1101 -> 1102 ;
1103 [label="Mystery <= 0.5\ngini = 0.48\nsamples = 5\nvalue = [3, 2]"] ;
1102 -> 1103 ;
1104 [label="gini = 0.0\nsamples = 3\nvalue = [3, 0]"] ;
1103 -> 1104 ;
1105 [label="gini = 0.0\nsamples = 2\nvalue = [0, 2]"] ;
1103 -> 1105 ;
1106 [label="Mystery <= 0.5\ngini = 0.32\nsamples = 5\nvalue = [1, 4]"] ;
1102 -> 1106 ;
1107 [label="gini = 0.0\nsamples = 4\nvalue = [0, 4]"] ;
1106 -> 1107 ;
1108 [label="gini = 0.0\nsamples = 1\nvalue = [1, 0]"] ;
1106 -> 1108 ;
1109 [label="gini = 0.0\nsamples = 11\nvalue = [0, 11]"] ;
1101 -> 1109 ;
1110 [label="gini = 0.0\nsamples = 1\nvalue = [1, 0]"] ;
1100 -> 1110 ;
1111 [label="gini = 0.0\nsamples = 2\nvalue = [2, 0]"] ;
1095 -> 1111 ;
1112 [label="budget <= 36000000.0\ngini = 0.391\nsamples = 15\nvalue = [11, 4]"] ;
1094 -> 1112 ;
1113 [label="annee <= 2011.0\ngini = 0.444\nsamples = 3\nvalue = [1, 2]"] ;
1112 -> 1113 ;
1114 [label="gini = 0.0\nsamples = 1\nvalue = [1, 0]"] ;
1113 -> 1114 ;
1115 [label="gini = 0.0\nsamples = 2\nvalue = [0, 2]"] ;
1113 -> 1115 ;
1116 [label="annee <= 2007.5\ngini = 0.278\nsamples = 12\nvalue = [10, 2]"] ;
1112 -> 1116 ;
1117 [label="gini = 0.0\nsamples = 1\nvalue = [0, 1]"] ;
1116 -> 1117 ;
1118 [label="Horror <= 0.5\ngini = 0.165\nsamples = 11\nvalue = [10, 1]"] ;
1116 -> 1118 ;
1119 [label="gini = 0.0\nsamples = 10\nvalue = [10, 0]"] ;
1118 -> 1119 ;
1120 [label="gini = 0.0\nsamples = 1\nvalue = [0, 1]"] ;
1118 -> 1120 ;
1121 [label="gini = 0.0\nsamples = 6\nvalue = [0, 6]"] ;
1093 -> 1121 ;
1122 [label="Fantasy <= 0.5\ngini = 0.408\nsamples = 7\nvalue = [5, 2]"] ;
1068 -> 1122 ;
1123 [label="gini = 0.0\nsamples = 4\nvalue = [4, 0]"] ;
1122 -> 1123 ;
1124 [label="annee <= 2011.5\ngini = 0.444\nsamples = 3\nvalue = [1, 2]"] ;
1122 -> 1124 ;
1125 [label="gini = 0.0\nsamples = 2\nvalue = [0, 2]"] ;
1124 -> 1125 ;
1126 [label="gini = 0.0\nsamples = 1\nvalue = [1, 0]"] ;
1124 -> 1126 ;
1127 [label="Sci-Fi <= 0.5\ngini = 0.352\nsamples = 114\nvalue = [26, 88]"] ;
873 -> 1127 ;
1128 [label="Sport <= 0.5\ngini = 0.248\nsamples = 69\nvalue = [10, 59]"] ;
1127 -> 1128 ;
1129 [label="Duree <= 156.5\ngini = 0.23\nsamples = 68\nvalue = [9, 59]"] ;
1128 -> 1129 ;
1130 [label="Duree <= 145.0\ngini = 0.305\nsamples = 48\nvalue = [9, 39]"] ;
1129 -> 1130 ;
1131 [label="annee <= 2012.5\ngini = 0.128\nsamples = 29\nvalue = [2, 27]"] ;
1130 -> 1131 ;
1132 [label="gini = 0.0\nsamples = 26\nvalue = [0, 26]"] ;
1131 -> 1132 ;
1133 [label="Thriller <= 0.5\ngini = 0.444\nsamples = 3\nvalue = [2, 1]"] ;
1131 -> 1133 ;
1134 [label="gini = 0.0\nsamples = 2\nvalue = [2, 0]"] ;
1133 -> 1134 ;
1135 [label="gini = 0.0\nsamples = 1\nvalue = [0, 1]"] ;
1133 -> 1135 ;
1136 [label="Western <= 0.5\ngini = 0.465\nsamples = 19\nvalue = [7, 12]"] ;
1130 -> 1136 ;
1137 [label="annee <= 2007.5\ngini = 0.415\nsamples = 17\nvalue = [5, 12]"] ;
1136 -> 1137 ;
1138 [label="annee <= 2002.5\ngini = 0.5\nsamples = 10\nvalue = [5, 5]"] ;
1137 -> 1138 ;
1139 [label="gini = 0.0\nsamples = 3\nvalue = [0, 3]"] ;
1138 -> 1139 ;
1140 [label="Duree <= 151.5\ngini = 0.408\nsamples = 7\nvalue = [5, 2]"] ;
1138 -> 1140 ;
1141 [label="Duree <= 150.0\ngini = 0.48\nsamples = 5\nvalue = [3, 2]"] ;
1140 -> 1141 ;
1142 [label="Action <= 0.5\ngini = 0.375\nsamples = 4\nvalue = [3, 1]"] ;
1141 -> 1142 ;
1143 [label="Duree <= 148.0\ngini = 0.5\nsamples = 2\nvalue = [1, 1]"] ;
1142 -> 1143 ;
1144 [label="gini = 0.0\nsamples = 1\nvalue = [0, 1]"] ;
1143 -> 1144 ;
1145 [label="gini = 0.0\nsamples = 1\nvalue = [1, 0]"] ;
1143 -> 1145 ;
1146 [label="gini = 0.0\nsamples = 2\nvalue = [2, 0]"] ;
1142 -> 1146 ;
1147 [label="gini = 0.0\nsamples = 1\nvalue = [0, 1]"] ;
1141 -> 1147 ;
1148 [label="gini = 0.0\nsamples = 2\nvalue = [2, 0]"] ;
1140 -> 1148 ;
1149 [label="gini = 0.0\nsamples = 7\nvalue = [0, 7]"] ;
1137 -> 1149 ;
1150 [label="gini = 0.0\nsamples = 2\nvalue = [2, 0]"] ;
1136 -> 1150 ;
1151 [label="gini = 0.0\nsamples = 20\nvalue = [0, 20]"] ;
1129 -> 1151 ;
1152 [label="gini = 0.0\nsamples = 1\nvalue = [1, 0]"] ;
1128 -> 1152 ;
1153 [label="budget <= 65500000.0\ngini = 0.458\nsamples = 45\nvalue = [16, 29]"] ;
1127 -> 1153 ;
1154 [label="annee <= 1986.5\ngini = 0.486\nsamples = 12\nvalue = [7, 5]"] ;
1153 -> 1154 ;
1155 [label="gini = 0.0\nsamples = 2\nvalue = [0, 2]"] ;
1154 -> 1155 ;
1156 [label="budget <= 9250000.0\ngini = 0.42\nsamples = 10\nvalue = [7, 3]"] ;
1154 -> 1156 ;
1157 [label="gini = 0.0\nsamples = 1\nvalue = [0, 1]"] ;
1156 -> 1157 ;
1158 [label="Duree <= 171.0\ngini = 0.346\nsamples = 9\nvalue = [7, 2]"] ;
1156 -> 1158 ;
1159 [label="budget <= 61500000.0\ngini = 0.219\nsamples = 8\nvalue = [7, 1]"] ;
1158 -> 1159 ;
1160 [label="gini = 0.0\nsamples = 6\nvalue = [6, 0]"] ;
1159 -> 1160 ;
1161 [label="Horror <= 0.5\ngini = 0.5\nsamples = 2\nvalue = [1, 1]"] ;
1159 -> 1161 ;
1162 [label="gini = 0.0\nsamples = 1\nvalue = [0, 1]"] ;
1161 -> 1162 ;
1163 [label="gini = 0.0\nsamples = 1\nvalue = [1, 0]"] ;
1161 -> 1163 ;
1164 [label="gini = 0.0\nsamples = 1\nvalue = [0, 1]"] ;
1158 -> 1164 ;
1165 [label="budget <= 172500000.0\ngini = 0.397\nsamples = 33\nvalue = [9, 24]"] ;
1153 -> 1165 ;
1166 [label="Duree <= 139.5\ngini = 0.255\nsamples = 20\nvalue = [3, 17]"] ;
1165 -> 1166 ;
1167 [label="annee <= 2004.0\ngini = 0.42\nsamples = 10\nvalue = [3, 7]"] ;
1166 -> 1167 ;
1168 [label="annee <= 1997.5\ngini = 0.48\nsamples = 5\nvalue = [3, 2]"] ;
1167 -> 1168 ;
1169 [label="gini = 0.0\nsamples = 1\nvalue = [0, 1]"] ;
1168 -> 1169 ;
1170 [label="budget <= 143500000.0\ngini = 0.375\nsamples = 4\nvalue = [3, 1]"] ;
1168 -> 1170 ;
1171 [label="gini = 0.0\nsamples = 3\nvalue = [3, 0]"] ;
1170 -> 1171 ;
1172 [label="gini = 0.0\nsamples = 1\nvalue = [0, 1]"] ;
1170 -> 1172 ;
1173 [label="gini = 0.0\nsamples = 5\nvalue = [0, 5]"] ;
1167 -> 1173 ;
1174 [label="gini = 0.0\nsamples = 10\nvalue = [0, 10]"] ;
1166 -> 1174 ;
1175 [label="annee <= 2011.5\ngini = 0.497\nsamples = 13\nvalue = [6, 7]"] ;
1165 -> 1175 ;
1176 [label="Duree <= 177.0\ngini = 0.278\nsamples = 6\nvalue = [5, 1]"] ;
1175 -> 1176 ;
1177 [label="gini = 0.0\nsamples = 5\nvalue = [5, 0]"] ;
1176 -> 1177 ;
1178 [label="gini = 0.0\nsamples = 1\nvalue = [0, 1]"] ;
1176 -> 1178 ;
1179 [label="budget <= 205000000.0\ngini = 0.245\nsamples = 7\nvalue = [1, 6]"] ;
1175 -> 1179 ;
1180 [label="gini = 0.0\nsamples = 3\nvalue = [0, 3]"] ;
1179 -> 1180 ;
1181 [label="budget <= 215000000.0\ngini = 0.375\nsamples = 4\nvalue = [1, 3]"] ;
1179 -> 1181 ;
1182 [label="gini = 0.0\nsamples = 1\nvalue = [1, 0]"] ;
1181 -> 1182 ;
1183 [label="gini = 0.0\nsamples = 3\nvalue = [0, 3]"] ;
1181 -> 1183 ;
1184 [label="budget <= 15660000.0\ngini = 0.411\nsamples = 2269\nvalue = [655, 1614]"] ;
0 -> 1184 [labeldistance=2.5, labelangle=-45, headlabel="False"] ;
1185 [label="Duree <= 104.5\ngini = 0.283\nsamples = 1113\nvalue = [190, 923]"] ;
1184 -> 1185 ;
1186 [label="budget <= 2750000.0\ngini = 0.387\nsamples = 480\nvalue = [126, 354]"] ;
1185 -> 1186 ;
1187 [label="annee <= 2004.5\ngini = 0.209\nsamples = 177\nvalue = [21, 156]"] ;
1186 -> 1187 ;
1188 [label="Music <= 0.5\ngini = 0.069\nsamples = 112\nvalue = [4, 108]"] ;
1187 -> 1188 ;
1189 [label="Biography <= 0.5\ngini = 0.053\nsamples = 110\nvalue = [3, 107]"] ;
1188 -> 1189 ;
1190 [label="budget <= 1140000.0\ngini = 0.037\nsamples = 106\nvalue = [2, 104]"] ;
1189 -> 1190 ;
1191 [label="gini = 0.0\nsamples = 72\nvalue = [0, 72]"] ;
1190 -> 1191 ;
1192 [label="budget <= 1225000.0\ngini = 0.111\nsamples = 34\nvalue = [2, 32]"] ;
1190 -> 1192 ;
1193 [label="annee <= 1995.5\ngini = 0.444\nsamples = 3\nvalue = [1, 2]"] ;
1192 -> 1193 ;
1194 [label="gini = 0.0\nsamples = 2\nvalue = [0, 2]"] ;
1193 -> 1194 ;
1195 [label="gini = 0.0\nsamples = 1\nvalue = [1, 0]"] ;
1193 -> 1195 ;
1196 [label="Thriller <= 0.5\ngini = 0.062\nsamples = 31\nvalue = [1, 30]"] ;
1192 -> 1196 ;
1197 [label="gini = 0.0\nsamples = 25\nvalue = [0, 25]"] ;
1196 -> 1197 ;
1198 [label="annee <= 1982.0\ngini = 0.278\nsamples = 6\nvalue = [1, 5]"] ;
1196 -> 1198 ;
1199 [label="gini = 0.0\nsamples = 5\nvalue = [0, 5]"] ;
1198 -> 1199 ;
1200 [label="gini = 0.0\nsamples = 1\nvalue = [1, 0]"] ;
1198 -> 1200 ;
1201 [label="Duree <= 85.5\ngini = 0.375\nsamples = 4\nvalue = [1, 3]"] ;
1189 -> 1201 ;
1202 [label="gini = 0.0\nsamples = 1\nvalue = [1, 0]"] ;
1201 -> 1202 ;
1203 [label="gini = 0.0\nsamples = 3\nvalue = [0, 3]"] ;
1201 -> 1203 ;
1204 [label="Comedy <= 0.5\ngini = 0.5\nsamples = 2\nvalue = [1, 1]"] ;
1188 -> 1204 ;
1205 [label="gini = 0.0\nsamples = 1\nvalue = [1, 0]"] ;
1204 -> 1205 ;
1206 [label="gini = 0.0\nsamples = 1\nvalue = [0, 1]"] ;
1204 -> 1206 ;
1207 [label="Horror <= 0.5\ngini = 0.386\nsamples = 65\nvalue = [17, 48]"] ;
1187 -> 1207 ;
1208 [label="Duree <= 78.5\ngini = 0.306\nsamples = 53\nvalue = [10, 43]"] ;
1207 -> 1208 ;
1209 [label="gini = 0.0\nsamples = 1\nvalue = [1, 0]"] ;
1208 -> 1209 ;
1210 [label="budget <= 11085.0\ngini = 0.286\nsamples = 52\nvalue = [9, 43]"] ;
1208 -> 1210 ;
1211 [label="gini = 0.0\nsamples = 1\nvalue = [1, 0]"] ;
1210 -> 1211 ;
1212 [label="Thriller <= 0.5\ngini = 0.265\nsamples = 51\nvalue = [8, 43]"] ;
1210 -> 1212 ;
1213 [label="Duree <= 89.5\ngini = 0.206\nsamples = 43\nvalue = [5, 38]"] ;
1212 -> 1213 ;
1214 [label="gini = 0.0\nsamples = 11\nvalue = [0, 11]"] ;
1213 -> 1214 ;
1215 [label="budget <= 2317500.0\ngini = 0.264\nsamples = 32\nvalue = [5, 27]"] ;
1213 -> 1215 ;
1216 [label="Duree <= 94.5\ngini = 0.231\nsamples = 30\nvalue = [4, 26]"] ;
1215 -> 1216 ;
1217 [label="budget <= 487500.0\ngini = 0.397\nsamples = 11\nvalue = [3, 8]"] ;
1216 -> 1217 ;
1218 [label="gini = 0.0\nsamples = 4\nvalue = [0, 4]"] ;
1217 -> 1218 ;
1219 [label="budget <= 1780000.0\ngini = 0.49\nsamples = 7\nvalue = [3, 4]"] ;
1217 -> 1219 ;
1220 [label="Animation <= 0.5\ngini = 0.48\nsamples = 5\nvalue = [3, 2]"] ;
1219 -> 1220 ;
1221 [label="Duree <= 93.5\ngini = 0.375\nsamples = 4\nvalue = [3, 1]"] ;
1220 -> 1221 ;
1222 [label="gini = 0.0\nsamples = 2\nvalue = [2, 0]"] ;
1221 -> 1222 ;
1223 [label="Romance <= 0.5\ngini = 0.5\nsamples = 2\nvalue = [1, 1]"] ;
1221 -> 1223 ;
1224 [label="gini = 0.0\nsamples = 1\nvalue = [1, 0]"] ;
1223 -> 1224 ;
1225 [label="gini = 0.0\nsamples = 1\nvalue = [0, 1]"] ;
1223 -> 1225 ;
1226 [label="gini = 0.0\nsamples = 1\nvalue = [0, 1]"] ;
1220 -> 1226 ;
1227 [label="gini = 0.0\nsamples = 2\nvalue = [0, 2]"] ;
1219 -> 1227 ;
1228 [label="budget <= 124300.0\ngini = 0.1\nsamples = 19\nvalue = [1, 18]"] ;
1216 -> 1228 ;
1229 [label="budget <= 57500.0\ngini = 0.5\nsamples = 2\nvalue = [1, 1]"] ;
1228 -> 1229 ;
1230 [label="gini = 0.0\nsamples = 1\nvalue = [0, 1]"] ;
1229 -> 1230 ;
1231 [label="gini = 0.0\nsamples = 1\nvalue = [1, 0]"] ;
1229 -> 1231 ;
1232 [label="gini = 0.0\nsamples = 17\nvalue = [0, 17]"] ;
1228 -> 1232 ;
1233 [label="Comedy <= 0.5\ngini = 0.5\nsamples = 2\nvalue = [1, 1]"] ;
1215 -> 1233 ;
1234 [label="gini = 0.0\nsamples = 1\nvalue = [1, 0]"] ;
1233 -> 1234 ;
1235 [label="gini = 0.0\nsamples = 1\nvalue = [0, 1]"] ;
1233 -> 1235 ;
1236 [label="budget <= 925000.0\ngini = 0.469\nsamples = 8\nvalue = [3, 5]"] ;
1212 -> 1236 ;
1237 [label="gini = 0.0\nsamples = 3\nvalue = [3, 0]"] ;
1236 -> 1237 ;
1238 [label="gini = 0.0\nsamples = 5\nvalue = [0, 5]"] ;
1236 -> 1238 ;
1239 [label="Duree <= 100.5\ngini = 0.486\nsamples = 12\nvalue = [7, 5]"] ;
1207 -> 1239 ;
1240 [label="budget <= 1825000.0\ngini = 0.42\nsamples = 10\nvalue = [7, 3]"] ;
1239 -> 1240 ;
1241 [label="Crime <= 0.5\ngini = 0.245\nsamples = 7\nvalue = [6, 1]"] ;
1240 -> 1241 ;
1242 [label="gini = 0.0\nsamples = 6\nvalue = [6, 0]"] ;
1241 -> 1242 ;
1243 [label="gini = 0.0\nsamples = 1\nvalue = [0, 1]"] ;
1241 -> 1243 ;
1244 [label="Romance <= 0.5\ngini = 0.444\nsamples = 3\nvalue = [1, 2]"] ;
1240 -> 1244 ;
1245 [label="gini = 0.0\nsamples = 2\nvalue = [0, 2]"] ;
1244 -> 1245 ;
1246 [label="gini = 0.0\nsamples = 1\nvalue = [1, 0]"] ;
1244 -> 1246 ;
1247 [label="gini = 0.0\nsamples = 2\nvalue = [0, 2]"] ;
1239 -> 1247 ;
1248 [label="Thriller <= 0.5\ngini = 0.453\nsamples = 303\nvalue = [105, 198]"] ;
1186 -> 1248 ;
1249 [label="Animation <= 0.5\ngini = 0.411\nsamples = 218\nvalue = [63, 155]"] ;
1248 -> 1249 ;
1250 [label="Adventure <= 0.5\ngini = 0.42\nsamples = 210\nvalue = [63, 147]"] ;
1249 -> 1250 ;
1251 [label="annee <= 2009.5\ngini = 0.408\nsamples = 196\nvalue = [56, 140]"] ;
1250 -> 1251 ;
